%YAML:1.0
---
opencv_ml_rtrees:
   format: 3
   is_classifier: 1
   var_all: 149
   var_count: 148
   ord_var_count: 148
   cat_var_count: 1
   training_params:
      use_surrogates: 0
      max_categories: 15
      regression_accuracy: 1.0000000474974513e-03
      max_depth: 10
      min_sample_count: 5
      cross_validation_folds: 0
      priors: !!opencv-matrix
         rows: 1
         cols: 3
         dt: f
         data: [ 4.59149455e-41, 1.41447668e-30, 4.59149455e-41 ]
      nactive_vars: 15
   global_var_idx: 1
   var_idx: [ 0, 1, 2, 3, 4, 5, 6, 7, 8, 9, 10, 11, 12, 13, 14, 15, 16,
       17, 18, 19, 20, 21, 22, 23, 24, 25, 26, 27, 28, 29, 30, 31, 32,
       33, 34, 35, 36, 37, 38, 39, 40, 41, 42, 43, 44, 45, 46, 47, 48,
       49, 50, 51, 52, 53, 54, 55, 56, 57, 58, 59, 60, 61, 62, 63, 64,
       65, 66, 67, 68, 69, 70, 71, 72, 73, 74, 75, 76, 77, 78, 79, 80,
       81, 82, 83, 84, 85, 86, 87, 88, 89, 90, 91, 92, 93, 94, 95, 96,
       97, 98, 99, 100, 101, 102, 103, 104, 105, 106, 107, 108, 109, 110,
       111, 112, 113, 114, 115, 116, 117, 118, 119, 120, 121, 122, 123,
       124, 125, 126, 127, 128, 129, 130, 131, 132, 133, 134, 135, 136,
       137, 138, 139, 140, 141, 142, 143, 144, 145, 146, 147 ]
   var_type: [ 0, 0, 0, 0, 0, 0, 0, 0, 0, 0, 0, 0, 0, 0, 0, 0, 0, 0, 0,
       0, 0, 0, 0, 0, 0, 0, 0, 0, 0, 0, 0, 0, 0, 0, 0, 0, 0, 0, 0, 0, 0,
       0, 0, 0, 0, 0, 0, 0, 0, 0, 0, 0, 0, 0, 0, 0, 0, 0, 0, 0, 0, 0, 0,
       0, 0, 0, 0, 0, 0, 0, 0, 0, 0, 0, 0, 0, 0, 0, 0, 0, 0, 0, 0, 0, 0,
       0, 0, 0, 0, 0, 0, 0, 0, 0, 0, 0, 0, 0, 0, 0, 0, 0, 0, 0, 0, 0, 0,
       0, 0, 0, 0, 0, 0, 0, 0, 0, 0, 0, 0, 0, 0, 0, 0, 0, 0, 0, 0, 0, 0,
       0, 0, 0, 0, 0, 0, 0, 0, 0, 0, 0, 0, 0, 0, 0, 0, 0, 0, 0, 1 ]
   cat_ofs: [ 0, 0, 0, 0, 0, 0, 0, 0, 0, 0, 0, 0, 0, 0, 0, 0, 0, 0, 0, 0,
       0, 0, 0, 0, 0, 0, 0, 0, 0, 0, 0, 0, 0, 0, 0, 0, 0, 0, 0, 0, 0, 0,
       0, 0, 0, 0, 0, 0, 0, 0, 0, 0, 0, 0, 0, 0, 0, 0, 0, 0, 0, 0, 0, 0,
       0, 0, 0, 0, 0, 0, 0, 0, 0, 0, 0, 0, 0, 0, 0, 0, 0, 0, 0, 0, 0, 0,
       0, 0, 0, 0, 0, 0, 0, 0, 0, 0, 0, 0, 0, 0, 0, 0, 0, 0, 0, 0, 0, 0,
       0, 0, 0, 0, 0, 0, 0, 0, 0, 0, 0, 0, 0, 0, 0, 0, 0, 0, 0, 0, 0, 0,
       0, 0, 0, 0, 0, 0, 0, 0, 0, 0, 0, 0, 0, 0, 0, 0, 0, 0, 0, 0, 0, 0,
       0, 0, 0, 0, 0, 0, 0, 0, 0, 0, 0, 0, 0, 0, 0, 0, 0, 0, 0, 0, 0, 0,
       0, 0, 0, 0, 0, 0, 0, 0, 0, 0, 0, 0, 0, 0, 0, 0, 0, 0, 0, 0, 0, 0,
       0, 0, 0, 0, 0, 0, 0, 0, 0, 0, 0, 0, 0, 0, 0, 0, 0, 0, 0, 0, 0, 0,
       0, 0, 0, 0, 0, 0, 0, 0, 0, 0, 0, 0, 0, 0, 0, 0, 0, 0, 0, 0, 0, 0,
       0, 0, 0, 0, 0, 0, 0, 0, 0, 0, 0, 0, 0, 0, 0, 0, 0, 0, 0, 0, 0, 0,
       0, 0, 0, 0, 0, 0, 0, 0, 0, 0, 0, 0, 0, 0, 0, 0, 0, 0, 0, 0, 0, 0,
       0, 0, 0, 0, 0, 0, 0, 0, 0, 0, 0, 0 ]
   class_labels: [ 0, 1, 2 ]
   missing_subst: [ 0., 0., 0., 0., 0., 0., 0., 0., 0., 0., 0., 0., 0.,
       0., 0., 0., 0., 0., 0., 0., 0., 0., 0., 0., 0., 0., 0., 0., 0.,
       0., 0., 0., 0., 0., 0., 0., 0., 0., 0., 0., 0., 0., 0., 0., 0.,
       0., 0., 0., 0., 0., 0., 0., 0., 0., 0., 0., 0., 0., 0., 0., 0.,
       0., 0., 0., 0., 0., 0., 0., 0., 0., 0., 0., 0., 0., 0., 0., 0.,
       0., 0., 0., 0., 0., 0., 0., 0., 0., 0., 0., 0., 0., 0., 0., 0.,
       0., 0., 0., 0., 0., 0., 0., 0., 0., 0., 0., 0., 0., 0., 0., 0.,
       0., 0., 0., 0., 0., 0., 0., 0., 0., 0., 0., 0., 0., 0., 0., 0.,
       0., 0., 0., 0., 0., 0., 0., 0., 0., 0., 0., 0., 0., 0., 0., 0.,
       0., 0., 0., 0., 0., 0., 0., 0. ]
   oob_error: 1.3796189270976963e-02
   var_importance: [ 6.33896235e-03, 7.82229565e-03, 8.02537054e-03,
       1.31334160e-02, 9.29679908e-03, 5.59366029e-03, 4.94496198e-03,
       8.64238665e-03, 5.36929071e-03, 5.38279442e-03, 4.75954544e-03,
       6.38778368e-03, 1.07536437e-02, 7.48677924e-03, 1.38475560e-02,
       4.87484643e-03, 9.80007183e-03, 5.00780623e-03, 6.05434552e-03,
       7.35745532e-03, 7.16996100e-03, 6.47036405e-03, 4.82342858e-03,
       6.17380161e-03, 5.04675927e-03, 5.49238222e-03, 9.48792789e-03,
       4.52582678e-03, 5.93800563e-03, 4.94132657e-03, 5.19685866e-03,
       5.56405587e-03, 5.57028875e-03, 5.52510284e-03, 4.60736873e-03,
       5.31060155e-03, 4.73825121e-03, 7.02193938e-03, 5.00261271e-03,
       5.55055216e-03, 4.71228221e-03, 5.33657009e-03, 5.25398972e-03,
       4.93509369e-03, 5.31112077e-03, 4.96002380e-03, 5.63521031e-03,
       5.09973569e-03, 7.02090096e-03, 7.40419887e-03, 4.86082351e-03,
       5.11323940e-03, 6.42829482e-03, 6.25638198e-03, 5.06649539e-03,
       5.11220051e-03, 1.00878058e-02, 5.67364413e-03, 5.00105461e-03,
       7.58494111e-03, 2.18199492e-02, 6.91235159e-03, 6.27144380e-03,
       7.87942670e-03, 9.27031040e-03, 4.99845762e-03, 5.58846677e-03,
       1.07204029e-02, 5.09194471e-03, 4.78966907e-03, 4.80992487e-03,
       5.81335556e-03, 7.63324322e-03, 5.78219304e-03, 8.30011908e-03,
       5.85075049e-03, 6.95701782e-03, 4.83225798e-03, 4.54452448e-03,
       5.85802179e-03, 6.47399994e-03, 6.32909453e-03, 7.10971374e-03,
       6.51295297e-03, 5.18439338e-03, 6.12549949e-03, 1.05505679e-02,
       6.39193878e-03, 5.16206026e-03, 7.56053068e-03, 6.20496366e-03,
       6.38934178e-03, 9.61517543e-03, 6.36545056e-03, 5.24619920e-03,
       5.19997487e-03, 5.89282019e-03, 4.87328833e-03, 4.85770730e-03,
       4.74811904e-03, 5.17504476e-03, 7.00480025e-03, 6.57112291e-03,
       7.60415802e-03, 6.43660501e-03, 5.75258909e-03, 5.76713122e-03,
       7.83476047e-03, 7.54702697e-03, 5.93229244e-03, 5.89957181e-03,
       7.03855930e-03, 6.53944071e-03, 4.72370861e-03, 5.96605195e-03,
       9.76215769e-03, 4.55127656e-03, 5.29553974e-03, 7.27279717e-03,
       1.01485727e-02, 7.27799116e-03, 1.14911543e-02, 1.86694264e-02,
       5.65494644e-03, 5.46381669e-03, 1.01153320e-02, 6.11874787e-03,
       9.44326259e-03, 4.81200218e-03, 6.51139487e-03, 8.89428332e-03,
       7.61766173e-03, 1.10450126e-02, 5.15219243e-03, 9.79851373e-03,
       5.53912623e-03, 5.66377584e-03, 7.59896450e-03, 6.01487281e-03,
       6.12498028e-03, 7.10140401e-03, 8.36140569e-03, 6.46620896e-03,
       5.87931601e-03, 8.42373073e-03, 5.29969437e-03, 5.28047793e-03,
       8.94829817e-03 ]
   ntrees: 100
   trees:
      -
         nodes:
            -
               depth: 0
               value: 1.
               norm_class_idx: 1
               splits:
                  - { var:3, quality:8.8257001953125000e+03,
                      le:4.0152391791343689e-01 }
            -
               depth: 1
               value: 1.
               norm_class_idx: 1
               splits:
                  - { var:21, quality:5.7899536132812500e+03,
                      le:1.5531175136566162e+00 }
            -
               depth: 2
               value: 1.
               norm_class_idx: 1
               splits:
                  - { var:140, quality:4.6100522460937500e+03,
                      le:3.8761854171752930e+00 }
            -
               depth: 3
               value: 0.
               norm_class_idx: 0
               splits:
                  - { var:91, quality:4.0158096313476562e+02,
                      le:2.0569693297147751e-02 }
            -
               depth: 4
               value: 0.
               norm_class_idx: 0
               splits:
                  - { var:86, quality:2.2382122802734375e+02,
                      le:8.5000002384185791e-01 }
            -
               depth: 5
               value: 1.
               norm_class_idx: 1
               splits:
                  - { var:81, quality:1.6069885253906250e+02,
                      le:7.6003665924072266e+00 }
            -
               depth: 6
               value: 1.
               norm_class_idx: 1
               splits:
                  - { var:89, quality:1.1568156433105469e+02,
                      le:5.5253295898437500e+00 }
            -
               depth: 7
               value: 1.
               norm_class_idx: 1
            -
               depth: 7
               value: 0.
               norm_class_idx: 0
            -
               depth: 6
               value: 0.
               norm_class_idx: 0
            -
               depth: 5
               value: 0.
               norm_class_idx: 0
               splits:
                  - { var:35, quality:1.3623396301269531e+02,
                      le:3.2724820077419281e-02 }
            -
               depth: 6
               value: 0.
               norm_class_idx: 0
               splits:
                  - { var:35, quality:1.3360792541503906e+02,
                      le:1.0525981895625591e-02 }
            -
               depth: 7
               value: 1.
               norm_class_idx: 1
            -
               depth: 7
               value: 0.
               norm_class_idx: 0
               splits:
                  - { var:78, quality:1.3336470031738281e+02,
                      le:1.7956489562988281e+01 }
            -
               depth: 8
               value: 0.
               norm_class_idx: 0
               splits:
                  - { var:134, quality:1.3698390007019043e+01,
                      le:2.9471534490585327e-01 }
            -
               depth: 9
               value: 1.
               norm_class_idx: 1
            -
               depth: 9
               value: 0.
               norm_class_idx: 0
            -
               depth: 8
               value: 0.
               norm_class_idx: 0
            -
               depth: 6
               value: 1.
               norm_class_idx: 1
            -
               depth: 4
               value: 0.
               norm_class_idx: 0
               splits:
                  - { var:4, quality:2.4736390686035156e+02,
                      le:4.4244479387998581e-02 }
            -
               depth: 5
               value: 1.
               norm_class_idx: 1
            -
               depth: 5
               value: 0.
               norm_class_idx: 0
               splits:
                  - { var:133, quality:2.4481370544433594e+02,
                      le:2.9999880790710449e+00 }
            -
               depth: 6
               value: 0.
               norm_class_idx: 0
               splits:
                  - { var:109, quality:2.2349195480346680e+01,
                      le:1.3774895668029785e-01 }
            -
               depth: 7
               value: 1.
               norm_class_idx: 1
            -
               depth: 7
               value: 0.
               norm_class_idx: 0
            -
               depth: 6
               value: 0.
               norm_class_idx: 0
            -
               depth: 3
               value: 1.
               norm_class_idx: 1
               splits:
                  - { var:28, quality:4.3876206054687500e+03,
                      le:4.3999987840652466e-01 }
            -
               depth: 4
               value: 1.
               norm_class_idx: 1
               splits:
                  - { var:127, quality:4.3822973632812500e+03,
                      le:2.2878651618957520e+00 }
            -
               depth: 5
               value: 1.
               norm_class_idx: 1
               splits:
                  - { var:13, quality:4.5290043945312500e+03,
                      le:1.1784698069095612e-01 }
            -
               depth: 6
               value: 1.
               norm_class_idx: 1
               splits:
                  - { var:107, quality:4.4201259765625000e+03,
                      le:8.4028637409210205e-01 }
            -
               depth: 7
               value: 1.
               norm_class_idx: 1
               splits:
                  - { var:9, quality:1.4511756896972656e+02,
                      le:6.6285505890846252e-02 }
            -
               depth: 8
               value: 1.
               norm_class_idx: 1
               splits:
                  - { var:19, quality:1.0181784057617188e+02,
                      le:2.7212491035461426e+00 }
            -
               depth: 9
               value: 1.
               norm_class_idx: 1
            -
               depth: 9
               value: 1.
               norm_class_idx: 1
               splits:
                  - { var:44, quality:3.1074605941772461e+01,
                      le:7.1350246667861938e-02 }
            -
               depth: 10
               value: 2.
               norm_class_idx: 2
            -
               depth: 10
               value: 1.
               norm_class_idx: 1
            -
               depth: 8
               value: 2.
               norm_class_idx: 2
               splits:
                  - { var:123, quality:6.4576736450195312e+01,
                      le:3.3917253017425537e+00 }
            -
               depth: 9
               value: 2.
               norm_class_idx: 2
               splits:
                  - { var:123, quality:5.6414596557617188e+01,
                      le:1.1606109142303467e+00 }
            -
               depth: 10
               value: 1.
               norm_class_idx: 1
            -
               depth: 10
               value: 2.
               norm_class_idx: 2
            -
               depth: 9
               value: 1.
               norm_class_idx: 1
            -
               depth: 7
               value: 1.
               norm_class_idx: 1
               splits:
                  - { var:11, quality:4.3401850585937500e+03,
                      le:3.8122937083244324e-02 }
            -
               depth: 8
               value: 1.
               norm_class_idx: 1
               splits:
                  - { var:132, quality:4.3624804687500000e+03,
                      le:3.4734368324279785e-01 }
            -
               depth: 9
               value: 1.
               norm_class_idx: 1
               splits:
                  - { var:141, quality:5.5237487792968750e+02,
                      le:8.2549066543579102e+00 }
            -
               depth: 10
               value: 1.
               norm_class_idx: 1
            -
               depth: 10
               value: 0.
               norm_class_idx: 0
            -
               depth: 9
               value: 1.
               norm_class_idx: 1
               splits:
                  - { var:138, quality:3.9366337890625000e+03,
                      le:2.0330533981323242e+01 }
            -
               depth: 10
               value: 1.
               norm_class_idx: 1
            -
               depth: 10
               value: 1.
               norm_class_idx: 1
            -
               depth: 8
               value: 2.
               norm_class_idx: 2
               splits:
                  - { var:120, quality:1.8121467590332031e+01,
                      le:2.0608448982238770e+00 }
            -
               depth: 9
               value: 2.
               norm_class_idx: 2
            -
               depth: 9
               value: 1.
               norm_class_idx: 1
            -
               depth: 6
               value: 0.
               norm_class_idx: 0
               splits:
                  - { var:122, quality:2.1436685180664062e+02,
                      le:1.8591183423995972e-01 }
            -
               depth: 7
               value: 1.
               norm_class_idx: 1
            -
               depth: 7
               value: 0.
               norm_class_idx: 0
               splits:
                  - { var:14, quality:1.9738069152832031e+02,
                      le:1.6083183884620667e-01 }
            -
               depth: 8
               value: 0.
               norm_class_idx: 0
               splits:
                  - { var:28, quality:1.5207196044921875e+02,
                      le:6.5000057220458984e-02 }
            -
               depth: 9
               value: 1.
               norm_class_idx: 1
            -
               depth: 9
               value: 0.
               norm_class_idx: 0
               splits:
                  - { var:128, quality:1.4934919738769531e+02,
                      le:-3.3341307640075684e+00 }
            -
               depth: 10
               value: 0.
               norm_class_idx: 0
            -
               depth: 10
               value: 1.
               norm_class_idx: 1
            -
               depth: 8
               value: 2.
               norm_class_idx: 2
               splits:
                  - { var:82, quality:8.7916946411132812e+01,
                      le:4.9520382881164551e+00 }
            -
               depth: 9
               value: 2.
               norm_class_idx: 2
               splits:
                  - { var:142, quality:8.9662895202636719e+01,
                      le:1.0520464181900024e-01 }
            -
               depth: 10
               value: 1.
               norm_class_idx: 1
            -
               depth: 10
               value: 2.
               norm_class_idx: 2
            -
               depth: 9
               value: 0.
               norm_class_idx: 0
            -
               depth: 5
               value: 2.
               norm_class_idx: 2
               splits:
                  - { var:6, quality:5.4108646392822266e+01,
                      le:3.9757102727890015e-02 }
            -
               depth: 6
               value: 1.
               norm_class_idx: 1
            -
               depth: 6
               value: 2.
               norm_class_idx: 2
            -
               depth: 4
               value: 0.
               norm_class_idx: 0
               splits:
                  - { var:10, quality:1.1774752044677734e+02,
                      le:-1.3616573810577393e+00 }
            -
               depth: 5
               value: 0.
               norm_class_idx: 0
               splits:
                  - { var:23, quality:1.0907277679443359e+02,
                      le:1.8182171583175659e+00 }
            -
               depth: 6
               value: 0.
               norm_class_idx: 0
            -
               depth: 6
               value: 1.
               norm_class_idx: 1
            -
               depth: 5
               value: 1.
               norm_class_idx: 1
               splits:
                  - { var:47, quality:2.3373086929321289e+01,
                      le:2.7495298534631729e-02 }
            -
               depth: 6
               value: 2.
               norm_class_idx: 2
            -
               depth: 6
               value: 1.
               norm_class_idx: 1
               splits:
                  - { var:54, quality:1.7904014587402344e+01,
                      le:2.7783449739217758e-02 }
            -
               depth: 7
               value: 1.
               norm_class_idx: 1
            -
               depth: 7
               value: 2.
               norm_class_idx: 2
            -
               depth: 2
               value: 0.
               norm_class_idx: 0
               splits:
                  - { var:108, quality:1.7713114013671875e+03,
                      le:4.0055233240127563e-01 }
            -
               depth: 3
               value: 0.
               norm_class_idx: 0
               splits:
                  - { var:81, quality:1.6918092041015625e+03,
                      le:9.5425548553466797e+00 }
            -
               depth: 4
               value: 0.
               norm_class_idx: 0
               splits:
                  - { var:82, quality:7.2075634765625000e+02,
                      le:2.9818282127380371e+00 }
            -
               depth: 5
               value: 0.
               norm_class_idx: 0
               splits:
                  - { var:45, quality:5.7914501953125000e+02,
                      le:1.1069618165493011e-01 }
            -
               depth: 6
               value: 1.
               norm_class_idx: 1
            -
               depth: 6
               value: 0.
               norm_class_idx: 0
               splits:
                  - { var:79, quality:5.7426953125000000e+02,
                      le:3.5003795623779297e+00 }
            -
               depth: 7
               value: 0.
               norm_class_idx: 0
            -
               depth: 7
               value: 0.
               norm_class_idx: 0
               splits:
                  - { var:21, quality:1.3268293762207031e+02,
                      le:1.6102468967437744e+00 }
            -
               depth: 8
               value: 0.
               norm_class_idx: 0
               splits:
                  - { var:52, quality:1.2316724395751953e+02,
                      le:3.7377300858497620e-01 }
            -
               depth: 9
               value: 0.
               norm_class_idx: 0
               splits:
                  - { var:53, quality:1.2169838714599609e+02,
                      le:4.5896080136299133e-01 }
            -
               depth: 10
               value: 1.
               norm_class_idx: 1
            -
               depth: 10
               value: 0.
               norm_class_idx: 0
            -
               depth: 9
               value: 1.
               norm_class_idx: 1
            -
               depth: 8
               value: 1.
               norm_class_idx: 1
               splits:
                  - { var:138, quality:2.9726617813110352e+01,
                      le:2.9142160415649414e+01 }
            -
               depth: 9
               value: 1.
               norm_class_idx: 1
               splits:
                  - { var:17, quality:2.8983898162841797e+01,
                      le:1.0527672246098518e-02 }
            -
               depth: 10
               value: 0.
               norm_class_idx: 0
            -
               depth: 10
               value: 1.
               norm_class_idx: 1
            -
               depth: 9
               value: 2.
               norm_class_idx: 2
            -
               depth: 5
               value: 1.
               norm_class_idx: 1
               splits:
                  - { var:114, quality:2.5901989746093750e+02,
                      le:6.2500000000000000e-02 }
            -
               depth: 6
               value: 1.
               norm_class_idx: 1
               splits:
                  - { var:137, quality:1.7845965576171875e+02,
                      le:2.3863910675048828e+01 }
            -
               depth: 7
               value: 1.
               norm_class_idx: 1
               splits:
                  - { var:64, quality:1.8165943908691406e+02,
                      le:2.6359483599662781e-01 }
            -
               depth: 8
               value: 1.
               norm_class_idx: 1
               splits:
                  - { var:109, quality:1.7746203613281250e+02,
                      le:4.5150336623191833e-01 }
            -
               depth: 9
               value: 1.
               norm_class_idx: 1
               splits:
                  - { var:115, quality:1.7353605651855469e+02,
                      le:7.1428574621677399e-02 }
            -
               depth: 10
               value: 1.
               norm_class_idx: 1
            -
               depth: 10
               value: 1.
               norm_class_idx: 1
            -
               depth: 9
               value: 1.
               norm_class_idx: 1
               splits:
                  - { var:86, quality:8.3967800140380859e+00,
                      le:3.8847646713256836e+00 }
            -
               depth: 10
               value: 1.
               norm_class_idx: 1
            -
               depth: 10
               value: 0.
               norm_class_idx: 0
            -
               depth: 8
               value: 0.
               norm_class_idx: 0
            -
               depth: 7
               value: 2.
               norm_class_idx: 2
               splits:
                  - { var:40, quality:9.9175710678100586e+00,
                      le:-3.4303849935531616e-01 }
            -
               depth: 8
               value: 1.
               norm_class_idx: 1
            -
               depth: 8
               value: 2.
               norm_class_idx: 2
            -
               depth: 6
               value: 0.
               norm_class_idx: 0
               splits:
                  - { var:86, quality:1.3698390197753906e+02,
                      le:1.8350000381469727e+00 }
            -
               depth: 7
               value: 1.
               norm_class_idx: 1
            -
               depth: 7
               value: 0.
               norm_class_idx: 0
            -
               depth: 4
               value: 0.
               norm_class_idx: 0
               splits:
                  - { var:46, quality:1.1090827636718750e+03,
                      le:1.0072997212409973e-01 }
            -
               depth: 5
               value: 0.
               norm_class_idx: 0
               splits:
                  - { var:62, quality:1.1083310546875000e+03,
                      le:1.9618880748748779e-01 }
            -
               depth: 6
               value: 1.
               norm_class_idx: 1
            -
               depth: 6
               value: 0.
               norm_class_idx: 0
               splits:
                  - { var:82, quality:1.1096639404296875e+03,
                      le:4.0358910560607910e+00 }
            -
               depth: 7
               value: 1.
               norm_class_idx: 1
            -
               depth: 7
               value: 0.
               norm_class_idx: 0
               splits:
                  - { var:53, quality:1.1110032958984375e+03,
                      le:3.9085754752159119e-01 }
            -
               depth: 8
               value: 0.
               norm_class_idx: 0
               splits:
                  - { var:47, quality:1.1097189941406250e+03,
                      le:1.5953522175550461e-02 }
            -
               depth: 9
               value: 0.
               norm_class_idx: 0
            -
               depth: 9
               value: 0.
               norm_class_idx: 0
               splits:
                  - { var:117, quality:5.3349193572998047e+01,
                      le:5.6666694581508636e-02 }
            -
               depth: 10
               value: 1.
               norm_class_idx: 1
            -
               depth: 10
               value: 0.
               norm_class_idx: 0
            -
               depth: 8
               value: 1.
               norm_class_idx: 1
            -
               depth: 5
               value: 2.
               norm_class_idx: 2
            -
               depth: 3
               value: 1.
               norm_class_idx: 1
               splits:
                  - { var:56, quality:2.1384967041015625e+02,
                      le:5.4555896669626236e-02 }
            -
               depth: 4
               value: 1.
               norm_class_idx: 1
               splits:
                  - { var:123, quality:1.8974453735351562e+02,
                      le:2.6675847172737122e-01 }
            -
               depth: 5
               value: 1.
               norm_class_idx: 1
            -
               depth: 5
               value: 0.
               norm_class_idx: 0
            -
               depth: 4
               value: 0.
               norm_class_idx: 0
               splits:
                  - { var:10, quality:5.3027736663818359e+01,
                      le:-7.7737212181091309e-01 }
            -
               depth: 5
               value: 0.
               norm_class_idx: 0
               splits:
                  - { var:28, quality:5.5161605834960938e+01,
                      le:1.0000109672546387e-02 }
            -
               depth: 6
               value: 1.
               norm_class_idx: 1
            -
               depth: 6
               value: 0.
               norm_class_idx: 0
               splits:
                  - { var:46, quality:5.1849216461181641e+01,
                      le:2.8406616300344467e-02 }
            -
               depth: 7
               value: 0.
               norm_class_idx: 0
               splits:
                  - { var:69, quality:1.8349195480346680e+01,
                      le:3.0584327876567841e-02 }
            -
               depth: 8
               value: 1.
               norm_class_idx: 1
            -
               depth: 8
               value: 0.
               norm_class_idx: 0
            -
               depth: 7
               value: 0.
               norm_class_idx: 0
            -
               depth: 5
               value: 1.
               norm_class_idx: 1
            -
               depth: 1
               value: 2.
               norm_class_idx: 2
               splits:
                  - { var:56, quality:6.0484145507812500e+03,
                      le:4.8804759979248047e-02 }
            -
               depth: 2
               value: 2.
               norm_class_idx: 2
               splits:
                  - { var:119, quality:5.0662133789062500e+03,
                      le:1.5279228210449219e+01 }
            -
               depth: 3
               value: 2.
               norm_class_idx: 2
               splits:
                  - { var:143, quality:5.1680566406250000e+03,
                      le:2.5000000000000000e+00 }
            -
               depth: 4
               value: 2.
               norm_class_idx: 2
               splits:
                  - { var:102, quality:5.1152836914062500e+03,
                      le:3.4297712147235870e-02 }
            -
               depth: 5
               value: 2.
               norm_class_idx: 2
               splits:
                  - { var:60, quality:5.1761181640625000e+03,
                      le:3.8254032135009766e+01 }
            -
               depth: 6
               value: 1.
               norm_class_idx: 1
               splits:
                  - { var:100, quality:1.5505874633789062e+02,
                      le:8.4627285832539201e-04 }
            -
               depth: 7
               value: 2.
               norm_class_idx: 2
               splits:
                  - { var:23, quality:4.1724788665771484e+01,
                      le:1.8743499517440796e+00 }
            -
               depth: 8
               value: 1.
               norm_class_idx: 1
               splits:
                  - { var:95, quality:8.0475845336914062e+00,
                      le:4.0933925658464432e-02 }
            -
               depth: 9
               value: 1.
               norm_class_idx: 1
            -
               depth: 9
               value: 0.
               norm_class_idx: 0
            -
               depth: 8
               value: 2.
               norm_class_idx: 2
            -
               depth: 7
               value: 1.
               norm_class_idx: 1
               splits:
                  - { var:95, quality:1.5128604125976562e+02,
                      le:3.9603389799594879e-02 }
            -
               depth: 8
               value: 1.
               norm_class_idx: 1
               splits:
                  - { var:20, quality:1.5069642639160156e+02,
                      le:2.5042114257812500e+00 }
            -
               depth: 9
               value: 1.
               norm_class_idx: 1
               splits:
                  - { var:142, quality:1.5211013793945312e+02,
                      le:6.2606894969940186e-01 }
            -
               depth: 10
               value: 1.
               norm_class_idx: 1
            -
               depth: 10
               value: 2.
               norm_class_idx: 2
            -
               depth: 9
               value: 2.
               norm_class_idx: 2
               splits:
                  - { var:72, quality:1.5058596611022949e+01,
                      le:1.5072917938232422e-01 }
            -
               depth: 10
               value: 1.
               norm_class_idx: 1
            -
               depth: 10
               value: 2.
               norm_class_idx: 2
            -
               depth: 8
               value: 0.
               norm_class_idx: 0
            -
               depth: 6
               value: 2.
               norm_class_idx: 2
               splits:
                  - { var:16, quality:5.0944555664062500e+03,
                      le:7.4160850048065186e-01 }
            -
               depth: 7
               value: 2.
               norm_class_idx: 2
               splits:
                  - { var:96, quality:5.9324829101562500e+02,
                      le:3.0899960547685623e-03 }
            -
               depth: 8
               value: 2.
               norm_class_idx: 2
               splits:
                  - { var:141, quality:4.9249114990234375e+02,
                      le:1.6639617919921875e+01 }
            -
               depth: 9
               value: 1.
               norm_class_idx: 1
               splits:
                  - { var:28, quality:3.0072576522827148e+01,
                      le:1.9500005245208740e-01 }
            -
               depth: 10
               value: 1.
               norm_class_idx: 1
            -
               depth: 10
               value: 2.
               norm_class_idx: 2
            -
               depth: 9
               value: 2.
               norm_class_idx: 2
               splits:
                  - { var:97, quality:4.7948745727539062e+02,
                      le:-7.5373807922005653e-03 }
            -
               depth: 10
               value: 0.
               norm_class_idx: 0
            -
               depth: 10
               value: 2.
               norm_class_idx: 2
            -
               depth: 8
               value: 0.
               norm_class_idx: 0
               splits:
                  - { var:78, quality:1.9825785827636719e+02,
                      le:3.5157814025878906e+01 }
            -
               depth: 9
               value: 2.
               norm_class_idx: 2
               splits:
                  - { var:3, quality:8.8320137023925781e+01,
                      le:5.3170299530029297e-01 }
            -
               depth: 10
               value: 2.
               norm_class_idx: 2
            -
               depth: 10
               value: 2.
               norm_class_idx: 2
            -
               depth: 9
               value: 0.
               norm_class_idx: 0
               splits:
                  - { var:12, quality:1.4285043334960938e+02,
                      le:2.4673011898994446e-01 }
            -
               depth: 10
               value: 2.
               norm_class_idx: 2
            -
               depth: 10
               value: 0.
               norm_class_idx: 0
            -
               depth: 7
               value: 2.
               norm_class_idx: 2
               splits:
                  - { var:59, quality:4.6239130859375000e+03,
                      le:1.5030975639820099e-01 }
            -
               depth: 8
               value: 0.
               norm_class_idx: 0
            -
               depth: 8
               value: 2.
               norm_class_idx: 2
               splits:
                  - { var:108, quality:4.6053012695312500e+03,
                      le:2.1974658966064453e-01 }
            -
               depth: 9
               value: 2.
               norm_class_idx: 2
               splits:
                  - { var:121, quality:4.5106503906250000e+03,
                      le:8.8141880035400391e+00 }
            -
               depth: 10
               value: 2.
               norm_class_idx: 2
            -
               depth: 10
               value: 2.
               norm_class_idx: 2
            -
               depth: 9
               value: 2.
               norm_class_idx: 2
               splits:
                  - { var:31, quality:1.0246067047119141e+02,
                      le:5.6874208152294159e-02 }
            -
               depth: 10
               value: 2.
               norm_class_idx: 2
            -
               depth: 10
               value: 1.
               norm_class_idx: 1
            -
               depth: 5
               value: 0.
               norm_class_idx: 0
               splits:
                  - { var:58, quality:1.5071366882324219e+02,
                      le:2.2774907946586609e-01 }
            -
               depth: 6
               value: 0.
               norm_class_idx: 0
            -
               depth: 6
               value: 2.
               norm_class_idx: 2
            -
               depth: 4
               value: 0.
               norm_class_idx: 0
               splits:
                  - { var:64, quality:3.8065914916992188e+02,
                      le:1.0303714126348495e-01 }
            -
               depth: 5
               value: 2.
               norm_class_idx: 2
               splits:
                  - { var:126, quality:4.5606536865234375e+01,
                      le:-1.3478858470916748e+00 }
            -
               depth: 6
               value: 2.
               norm_class_idx: 2
            -
               depth: 6
               value: 1.
               norm_class_idx: 1
               splits:
                  - { var:71, quality:7.3967795372009277e+00,
                      le:1.2834955751895905e-01 }
            -
               depth: 7
               value: 1.
               norm_class_idx: 1
            -
               depth: 7
               value: 0.
               norm_class_idx: 0
            -
               depth: 5
               value: 0.
               norm_class_idx: 0
               splits:
                  - { var:5, quality:3.5511785888671875e+02,
                      le:2.1583114564418793e-01 }
            -
               depth: 6
               value: 0.
               norm_class_idx: 0
               splits:
                  - { var:60, quality:3.5265206909179688e+02,
                      le:2.7395793914794922e+01 }
            -
               depth: 7
               value: 1.
               norm_class_idx: 1
            -
               depth: 7
               value: 0.
               norm_class_idx: 0
               splits:
                  - { var:97, quality:3.5471368408203125e+02,
                      le:-1.0974176228046417e-02 }
            -
               depth: 8
               value: 2.
               norm_class_idx: 2
            -
               depth: 8
               value: 0.
               norm_class_idx: 0
            -
               depth: 6
               value: 2.
               norm_class_idx: 2
            -
               depth: 3
               value: 0.
               norm_class_idx: 0
            -
               depth: 2
               value: 0.
               norm_class_idx: 0
               splits:
                  - { var:5, quality:1.5512326660156250e+03,
                      le:3.8759183138608932e-02 }
            -
               depth: 3
               value: 2.
               norm_class_idx: 2
            -
               depth: 3
               value: 0.
               norm_class_idx: 0
               splits:
                  - { var:18, quality:1.5528336181640625e+03,
                      le:2.5541955947875977e+01 }
            -
               depth: 4
               value: 0.
               norm_class_idx: 0
               splits:
                  - { var:103, quality:1.5527434082031250e+03,
                      le:2.4889174848794937e-02 }
            -
               depth: 5
               value: 0.
               norm_class_idx: 0
               splits:
                  - { var:141, quality:5.1439782714843750e+02,
                      le:3.0181543350219727e+01 }
            -
               depth: 6
               value: 2.
               norm_class_idx: 2
               splits:
                  - { var:131, quality:1.4709402084350586e+01,
                      le:7.2309041023254395e-01 }
            -
               depth: 7
               value: 0.
               norm_class_idx: 0
            -
               depth: 7
               value: 2.
               norm_class_idx: 2
            -
               depth: 6
               value: 0.
               norm_class_idx: 0
               splits:
                  - { var:21, quality:5.0561560058593750e+02,
                      le:6.8316477537155151e-01 }
            -
               depth: 7
               value: 2.
               norm_class_idx: 2
            -
               depth: 7
               value: 0.
               norm_class_idx: 0
               splits:
                  - { var:118, quality:5.0376559448242188e+02,
                      le:3.7700451910495758e-02 }
            -
               depth: 8
               value: 0.
               norm_class_idx: 0
               splits:
                  - { var:24, quality:4.7199652099609375e+02,
                      le:4.6095222234725952e-02 }
            -
               depth: 9
               value: 0.
               norm_class_idx: 0
            -
               depth: 9
               value: 0.
               norm_class_idx: 0
               splits:
                  - { var:94, quality:5.5427349090576172e+01,
                      le:7.1588661521673203e-03 }
            -
               depth: 10
               value: 0.
               norm_class_idx: 0
            -
               depth: 10
               value: 2.
               norm_class_idx: 2
            -
               depth: 8
               value: 0.
               norm_class_idx: 0
               splits:
                  - { var:32, quality:4.1141025543212891e+01,
                      le:6.0779526829719543e-02 }
            -
               depth: 9
               value: 0.
               norm_class_idx: 0
            -
               depth: 9
               value: 2.
               norm_class_idx: 2
            -
               depth: 5
               value: 0.
               norm_class_idx: 0
            -
               depth: 4
               value: 2.
               norm_class_idx: 2
      -
         nodes:
            -
               depth: 0
               value: 1.
               norm_class_idx: 1
               splits:
                  - { var:130, quality:8.5732158203125000e+03,
                      le:2.1884379386901855e+00 }
            -
               depth: 1
               value: 1.
               norm_class_idx: 1
               splits:
                  - { var:64, quality:5.7916801757812500e+03,
                      le:2.5098127126693726e-01 }
            -
               depth: 2
               value: 1.
               norm_class_idx: 1
               splits:
                  - { var:19, quality:4.8185244140625000e+03,
                      le:1.5651023387908936e+00 }
            -
               depth: 3
               value: 0.
               norm_class_idx: 0
               splits:
                  - { var:47, quality:4.5179412841796875e+02,
                      le:5.5958894081413746e-03 }
            -
               depth: 4
               value: 1.
               norm_class_idx: 1
               splits:
                  - { var:40, quality:5.2872627258300781e+01,
                      le:-4.7725909948348999e-01 }
            -
               depth: 5
               value: 0.
               norm_class_idx: 0
            -
               depth: 5
               value: 1.
               norm_class_idx: 1
            -
               depth: 4
               value: 0.
               norm_class_idx: 0
               splits:
                  - { var:60, quality:4.3374072265625000e+02,
                      le:1.3482871055603027e+01 }
            -
               depth: 5
               value: 0.
               norm_class_idx: 0
               splits:
                  - { var:79, quality:4.3298767089843750e+02,
                      le:3.7789564132690430e+00 }
            -
               depth: 6
               value: 0.
               norm_class_idx: 0
               splits:
                  - { var:134, quality:4.2422534179687500e+02,
                      le:3.3074119687080383e-01 }
            -
               depth: 7
               value: 0.
               norm_class_idx: 0
               splits:
                  - { var:106, quality:1.1592126464843750e+02,
                      le:1.1640980839729309e-02 }
            -
               depth: 8
               value: 0.
               norm_class_idx: 0
               splits:
                  - { var:66, quality:1.1634919738769531e+02,
                      le:2.2410907745361328e+00 }
            -
               depth: 9
               value: 0.
               norm_class_idx: 0
            -
               depth: 9
               value: 1.
               norm_class_idx: 1
            -
               depth: 8
               value: 1.
               norm_class_idx: 1
            -
               depth: 7
               value: 0.
               norm_class_idx: 0
            -
               depth: 6
               value: 1.
               norm_class_idx: 1
               splits:
                  - { var:128, quality:1.5793559074401855e+01,
                      le:-1.6255401372909546e+00 }
            -
               depth: 7
               value: 1.
               norm_class_idx: 1
            -
               depth: 7
               value: 0.
               norm_class_idx: 0
            -
               depth: 5
               value: 1.
               norm_class_idx: 1
               splits:
                  - { var:114, quality:2.1336524963378906e+01,
                      le:1.2500000000000000e-01 }
            -
               depth: 6
               value: 1.
               norm_class_idx: 1
            -
               depth: 6
               value: 0.
               norm_class_idx: 0
               splits:
                  - { var:77, quality:7.3491950035095215e+00,
                      le:1.2531703710556030e-01 }
            -
               depth: 7
               value: 1.
               norm_class_idx: 1
            -
               depth: 7
               value: 0.
               norm_class_idx: 0
            -
               depth: 3
               value: 1.
               norm_class_idx: 1
               splits:
                  - { var:76, quality:4.5872368164062500e+03,
                      le:2.1486942768096924e+00 }
            -
               depth: 4
               value: 1.
               norm_class_idx: 1
               splits:
                  - { var:144, quality:4.7079501953125000e+03,
                      le:1.5000000000000000e+00 }
            -
               depth: 5
               value: 1.
               norm_class_idx: 1
               splits:
                  - { var:83, quality:4.5834033203125000e+03,
                      le:7.7467260360717773e+00 }
            -
               depth: 6
               value: 1.
               norm_class_idx: 1
               splits:
                  - { var:147, quality:4.5384760742187500e+03,
                      le:1.0440595626831055e+01 }
            -
               depth: 7
               value: 1.
               norm_class_idx: 1
               splits:
                  - { var:111, quality:3.9662885742187500e+03,
                      le:1.9586670398712158e-01 }
            -
               depth: 8
               value: 1.
               norm_class_idx: 1
               splits:
                  - { var:130, quality:2.7940600585937500e+03,
                      le:2.0409512519836426e+00 }
            -
               depth: 9
               value: 1.
               norm_class_idx: 1
               splits:
                  - { var:127, quality:2.7912880859375000e+03,
                      le:8.4483742713928223e-01 }
            -
               depth: 10
               value: 1.
               norm_class_idx: 1
            -
               depth: 10
               value: 1.
               norm_class_idx: 1
            -
               depth: 9
               value: 2.
               norm_class_idx: 2
            -
               depth: 8
               value: 1.
               norm_class_idx: 1
               splits:
                  - { var:93, quality:1.2552890625000000e+03,
                      le:5.4566543549299240e-03 }
            -
               depth: 9
               value: 1.
               norm_class_idx: 1
               splits:
                  - { var:33, quality:2.0216056823730469e+02,
                      le:3.7911947816610336e-02 }
            -
               depth: 10
               value: 1.
               norm_class_idx: 1
            -
               depth: 10
               value: 0.
               norm_class_idx: 0
            -
               depth: 9
               value: 1.
               norm_class_idx: 1
               splits:
                  - { var:18, quality:1.1157860107421875e+03,
                      le:1.6230525970458984e+01 }
            -
               depth: 10
               value: 1.
               norm_class_idx: 1
            -
               depth: 10
               value: 0.
               norm_class_idx: 0
            -
               depth: 7
               value: 1.
               norm_class_idx: 1
               splits:
                  - { var:102, quality:7.5003887939453125e+02,
                      le:6.5240040421485901e-03 }
            -
               depth: 8
               value: 1.
               norm_class_idx: 1
               splits:
                  - { var:8, quality:6.2369567871093750e+02,
                      le:-7.5139395892620087e-02 }
            -
               depth: 9
               value: 1.
               norm_class_idx: 1
               splits:
                  - { var:96, quality:4.3725318908691406e+01,
                      le:1.2385440059006214e-03 }
            -
               depth: 10
               value: 0.
               norm_class_idx: 0
            -
               depth: 10
               value: 1.
               norm_class_idx: 1
            -
               depth: 9
               value: 1.
               norm_class_idx: 1
               splits:
                  - { var:32, quality:6.3012408447265625e+02,
                      le:2.5877136737108231e-02 }
            -
               depth: 10
               value: 0.
               norm_class_idx: 0
            -
               depth: 10
               value: 1.
               norm_class_idx: 1
            -
               depth: 8
               value: 0.
               norm_class_idx: 0
               splits:
                  - { var:2, quality:2.2794235229492188e+02,
                      le:8.0961339175701141e-02 }
            -
               depth: 9
               value: 0.
               norm_class_idx: 0
               splits:
                  - { var:93, quality:1.8234919738769531e+02,
                      le:1.4022013638168573e-03 }
            -
               depth: 10
               value: 1.
               norm_class_idx: 1
            -
               depth: 10
               value: 0.
               norm_class_idx: 0
            -
               depth: 9
               value: 1.
               norm_class_idx: 1
               splits:
                  - { var:93, quality:5.4696754455566406e+01,
                      le:2.8123306110501289e-03 }
            -
               depth: 10
               value: 1.
               norm_class_idx: 1
            -
               depth: 10
               value: 2.
               norm_class_idx: 2
            -
               depth: 6
               value: 0.
               norm_class_idx: 0
               splits:
                  - { var:118, quality:2.2796490478515625e+02,
                      le:1.0736791044473648e-01 }
            -
               depth: 7
               value: 0.
               norm_class_idx: 0
               splits:
                  - { var:53, quality:1.3879356384277344e+02,
                      le:1.3831260204315186e+00 }
            -
               depth: 8
               value: 0.
               norm_class_idx: 0
            -
               depth: 8
               value: 1.
               norm_class_idx: 1
            -
               depth: 7
               value: 1.
               norm_class_idx: 1
               splits:
                  - { var:120, quality:1.1670263671875000e+02,
                      le:7.0603609085083008e-01 }
            -
               depth: 8
               value: 1.
               norm_class_idx: 1
               splits:
                  - { var:12, quality:1.1433236694335938e+02,
                      le:2.2719860076904297e-01 }
            -
               depth: 9
               value: 1.
               norm_class_idx: 1
            -
               depth: 9
               value: 0.
               norm_class_idx: 0
            -
               depth: 8
               value: 2.
               norm_class_idx: 2
            -
               depth: 5
               value: 0.
               norm_class_idx: 0
               splits:
                  - { var:55, quality:2.7352377319335938e+02,
                      le:1.1086579412221909e-01 }
            -
               depth: 6
               value: 1.
               norm_class_idx: 1
               splits:
                  - { var:140, quality:1.9484452819824219e+02,
                      le:3.8889398574829102e+00 }
            -
               depth: 7
               value: 0.
               norm_class_idx: 0
               splits:
                  - { var:36, quality:1.0378298950195312e+02,
                      le:1.0241609066724777e-01 }
            -
               depth: 8
               value: 1.
               norm_class_idx: 1
            -
               depth: 8
               value: 0.
               norm_class_idx: 0
               splits:
                  - { var:58, quality:9.8349197387695312e+01,
                      le:7.4122454971075058e-03 }
            -
               depth: 9
               value: 1.
               norm_class_idx: 1
            -
               depth: 9
               value: 0.
               norm_class_idx: 0
            -
               depth: 7
               value: 1.
               norm_class_idx: 1
               splits:
                  - { var:119, quality:1.2123501586914062e+02,
                      le:9.1190564632415771e-01 }
            -
               depth: 8
               value: 1.
               norm_class_idx: 1
               splits:
                  - { var:105, quality:1.1472017669677734e+02,
                      le:5.4451085627079010e-02 }
            -
               depth: 9
               value: 1.
               norm_class_idx: 1
               splits:
                  - { var:120, quality:1.0660498809814453e+02,
                      le:5.6140816211700439e-01 }
            -
               depth: 10
               value: 1.
               norm_class_idx: 1
            -
               depth: 10
               value: 0.
               norm_class_idx: 0
            -
               depth: 9
               value: 1.
               norm_class_idx: 1
               splits:
                  - { var:48, quality:1.7283779144287109e+01,
                      le:1.6642208099365234e+00 }
            -
               depth: 10
               value: 2.
               norm_class_idx: 2
            -
               depth: 10
               value: 1.
               norm_class_idx: 1
            -
               depth: 8
               value: 0.
               norm_class_idx: 0
            -
               depth: 6
               value: 0.
               norm_class_idx: 0
            -
               depth: 4
               value: 2.
               norm_class_idx: 2
               splits:
                  - { var:6, quality:1.6260374450683594e+02,
                      le:1.5817385911941528e-01 }
            -
               depth: 5
               value: 1.
               norm_class_idx: 1
               splits:
                  - { var:132, quality:4.3903198242187500e+01,
                      le:3.0580756664276123e+00 }
            -
               depth: 6
               value: 1.
               norm_class_idx: 1
            -
               depth: 6
               value: 2.
               norm_class_idx: 2
            -
               depth: 5
               value: 2.
               norm_class_idx: 2
               splits:
                  - { var:60, quality:1.6913302612304688e+02,
                      le:4.3103446960449219e+01 }
            -
               depth: 6
               value: 1.
               norm_class_idx: 1
               splits:
                  - { var:30, quality:4.3347702026367188e+01,
                      le:2.4530918598175049e+00 }
            -
               depth: 7
               value: 1.
               norm_class_idx: 1
               splits:
                  - { var:50, quality:4.0622688293457031e+01,
                      le:5.5719172954559326e-01 }
            -
               depth: 8
               value: 1.
               norm_class_idx: 1
               splits:
                  - { var:73, quality:4.4475845336914062e+01,
                      le:6.4419108629226685e-01 }
            -
               depth: 9
               value: 1.
               norm_class_idx: 1
            -
               depth: 9
               value: 0.
               norm_class_idx: 0
            -
               depth: 8
               value: 2.
               norm_class_idx: 2
            -
               depth: 7
               value: 2.
               norm_class_idx: 2
            -
               depth: 6
               value: 2.
               norm_class_idx: 2
               splits:
                  - { var:97, quality:1.4119784545898438e+02,
                      le:-2.6753824204206467e-03 }
            -
               depth: 7
               value: 2.
               norm_class_idx: 2
               splits:
                  - { var:103, quality:1.4187055969238281e+02,
                      le:2.6099555194377899e-02 }
            -
               depth: 8
               value: 2.
               norm_class_idx: 2
            -
               depth: 8
               value: 1.
               norm_class_idx: 1
            -
               depth: 7
               value: 0.
               norm_class_idx: 0
            -
               depth: 2
               value: 0.
               norm_class_idx: 0
               splits:
                  - { var:95, quality:1.4828709716796875e+03,
                      le:4.8428177833557129e-02 }
            -
               depth: 3
               value: 2.
               norm_class_idx: 2
               splits:
                  - { var:117, quality:2.4676795959472656e+01,
                      le:3.8166671991348267e-02 }
            -
               depth: 4
               value: 2.
               norm_class_idx: 2
               splits:
                  - { var:97, quality:1.9951181411743164e+01,
                      le:-3.8800355978310108e-03 }
            -
               depth: 5
               value: 2.
               norm_class_idx: 2
               splits:
                  - { var:14, quality:1.9850427627563477e+01,
                      le:2.6728606224060059e-01 }
            -
               depth: 6
               value: 2.
               norm_class_idx: 2
            -
               depth: 6
               value: 0.
               norm_class_idx: 0
            -
               depth: 5
               value: 0.
               norm_class_idx: 0
            -
               depth: 4
               value: 0.
               norm_class_idx: 0
               splits:
                  - { var:27, quality:1.0349194526672363e+01,
                      le:1.5000000000000000e+00 }
            -
               depth: 5
               value: 0.
               norm_class_idx: 0
            -
               depth: 5
               value: 1.
               norm_class_idx: 1
            -
               depth: 3
               value: 0.
               norm_class_idx: 0
               splits:
                  - { var:14, quality:1.4833431396484375e+03,
                      le:6.0842074453830719e-02 }
            -
               depth: 4
               value: 1.
               norm_class_idx: 1
            -
               depth: 4
               value: 0.
               norm_class_idx: 0
               splits:
                  - { var:78, quality:1.4786602783203125e+03,
                      le:5.1206596374511719e+01 }
            -
               depth: 5
               value: 0.
               norm_class_idx: 0
               splits:
                  - { var:18, quality:1.4774410400390625e+03,
                      le:7.5343527793884277e+00 }
            -
               depth: 6
               value: 0.
               norm_class_idx: 0
               splits:
                  - { var:102, quality:1.4686939697265625e+03,
                      le:1.5372551977634430e-02 }
            -
               depth: 7
               value: 0.
               norm_class_idx: 0
               splits:
                  - { var:147, quality:8.4349197387695312e+01,
                      le:3.8513348102569580e+00 }
            -
               depth: 8
               value: 1.
               norm_class_idx: 1
            -
               depth: 8
               value: 0.
               norm_class_idx: 0
            -
               depth: 7
               value: 0.
               norm_class_idx: 0
            -
               depth: 6
               value: 0.
               norm_class_idx: 0
               splits:
                  - { var:19, quality:1.1713675498962402e+01,
                      le:2.2339694499969482e+00 }
            -
               depth: 7
               value: 0.
               norm_class_idx: 0
            -
               depth: 7
               value: 2.
               norm_class_idx: 2
            -
               depth: 5
               value: 2.
               norm_class_idx: 2
            -
               depth: 1
               value: 2.
               norm_class_idx: 2
               splits:
                  - { var:12, quality:5.8396098632812500e+03,
                      le:4.0843567252159119e-01 }
            -
               depth: 2
               value: 2.
               norm_class_idx: 2
               splits:
                  - { var:86, quality:5.2967309570312500e+03,
                      le:1.9450041651725769e-01 }
            -
               depth: 3
               value: 2.
               norm_class_idx: 2
               splits:
                  - { var:124, quality:4.8919907226562500e+03,
                      le:1.6695294380187988e+00 }
            -
               depth: 4
               value: 1.
               norm_class_idx: 1
               splits:
                  - { var:134, quality:4.6096325683593750e+02,
                      le:1.8328165054321289e+01 }
            -
               depth: 5
               value: 1.
               norm_class_idx: 1
               splits:
                  - { var:110, quality:3.7053991699218750e+02,
                      le:9.6937634050846100e-02 }
            -
               depth: 6
               value: 1.
               norm_class_idx: 1
               splits:
                  - { var:113, quality:2.9089672851562500e+02,
                      le:2.3198488634079695e-03 }
            -
               depth: 7
               value: 1.
               norm_class_idx: 1
               splits:
                  - { var:122, quality:2.7719635009765625e+02,
                      le:3.3265641331672668e-01 }
            -
               depth: 8
               value: 1.
               norm_class_idx: 1
               splits:
                  - { var:100, quality:2.8022741699218750e+02,
                      le:4.2954972013831139e-03 }
            -
               depth: 9
               value: 1.
               norm_class_idx: 1
               splits:
                  - { var:88, quality:2.7981497192382812e+02,
                      le:8.0263471603393555e-01 }
            -
               depth: 10
               value: 1.
               norm_class_idx: 1
            -
               depth: 10
               value: 1.
               norm_class_idx: 1
            -
               depth: 9
               value: 2.
               norm_class_idx: 2
            -
               depth: 8
               value: 2.
               norm_class_idx: 2
            -
               depth: 7
               value: 2.
               norm_class_idx: 2
               splits:
                  - { var:76, quality:3.0788389205932617e+01,
                      le:2.1034078598022461e+00 }
            -
               depth: 8
               value: 2.
               norm_class_idx: 2
            -
               depth: 8
               value: 1.
               norm_class_idx: 1
               splits:
                  - { var:83, quality:1.5570104598999023e+01,
                      le:5.6231451034545898e+00 }
            -
               depth: 9
               value: 1.
               norm_class_idx: 1
            -
               depth: 9
               value: 2.
               norm_class_idx: 2
            -
               depth: 6
               value: 0.
               norm_class_idx: 0
               splits:
                  - { var:43, quality:1.2977543640136719e+02,
                      le:5.7066865265369415e-02 }
            -
               depth: 7
               value: 1.
               norm_class_idx: 1
               splits:
                  - { var:10, quality:1.6631240844726562e+01,
                      le:-1.2838131189346313e+00 }
            -
               depth: 8
               value: 2.
               norm_class_idx: 2
            -
               depth: 8
               value: 1.
               norm_class_idx: 1
               splits:
                  - { var:133, quality:1.5205624580383301e+01,
                      le:2.4611968994140625e+00 }
            -
               depth: 9
               value: 2.
               norm_class_idx: 2
            -
               depth: 9
               value: 1.
               norm_class_idx: 1
            -
               depth: 7
               value: 0.
               norm_class_idx: 0
            -
               depth: 5
               value: 2.
               norm_class_idx: 2
               splits:
                  - { var:7, quality:2.3889489746093750e+02,
                      le:4.3843973428010941e-02 }
            -
               depth: 6
               value: 1.
               norm_class_idx: 1
               splits:
                  - { var:5, quality:1.1158039093017578e+01,
                      le:2.3797908425331116e-01 }
            -
               depth: 7
               value: 1.
               norm_class_idx: 1
            -
               depth: 7
               value: 2.
               norm_class_idx: 2
            -
               depth: 6
               value: 2.
               norm_class_idx: 2
               splits:
                  - { var:147, quality:2.4346746826171875e+02,
                      le:1.3121320724487305e+01 }
            -
               depth: 7
               value: 1.
               norm_class_idx: 1
               splits:
                  - { var:53, quality:9.8088445663452148e+00,
                      le:5.9311890602111816e-01 }
            -
               depth: 8
               value: 2.
               norm_class_idx: 2
            -
               depth: 8
               value: 1.
               norm_class_idx: 1
            -
               depth: 7
               value: 2.
               norm_class_idx: 2
            -
               depth: 4
               value: 2.
               norm_class_idx: 2
               splits:
                  - { var:114, quality:4.8286201171875000e+03,
                      le:6.0661762952804565e-02 }
            -
               depth: 5
               value: 2.
               norm_class_idx: 2
               splits:
                  - { var:71, quality:4.7786577148437500e+03,
                      le:4.2942278087139130e-02 }
            -
               depth: 6
               value: 2.
               norm_class_idx: 2
               splits:
                  - { var:131, quality:6.0260015869140625e+02,
                      le:1.9773404598236084e+00 }
            -
               depth: 7
               value: 1.
               norm_class_idx: 1
               splits:
                  - { var:105, quality:9.1489501953125000e+01,
                      le:3.8013599812984467e-02 }
            -
               depth: 8
               value: 1.
               norm_class_idx: 1
            -
               depth: 8
               value: 2.
               norm_class_idx: 2
            -
               depth: 7
               value: 2.
               norm_class_idx: 2
               splits:
                  - { var:92, quality:6.3654766845703125e+02,
                      le:3.3195480704307556e-02 }
            -
               depth: 8
               value: 2.
               norm_class_idx: 2
               splits:
                  - { var:73, quality:5.3710852050781250e+02,
                      le:1.3175375759601593e-01 }
            -
               depth: 9
               value: 1.
               norm_class_idx: 1
            -
               depth: 9
               value: 2.
               norm_class_idx: 2
               splits:
                  - { var:125, quality:5.4497357177734375e+02,
                      le:6.6539280116558075e-02 }
            -
               depth: 10
               value: 1.
               norm_class_idx: 1
            -
               depth: 10
               value: 2.
               norm_class_idx: 2
            -
               depth: 8
               value: 0.
               norm_class_idx: 0
               splits:
                  - { var:50, quality:1.9367544555664062e+02,
                      le:6.1336976289749146e-01 }
            -
               depth: 9
               value: 2.
               norm_class_idx: 2
            -
               depth: 9
               value: 0.
               norm_class_idx: 0
               splits:
                  - { var:23, quality:1.2869839477539062e+02,
                      le:1.6508560180664062e+00 }
            -
               depth: 10
               value: 1.
               norm_class_idx: 1
            -
               depth: 10
               value: 0.
               norm_class_idx: 0
            -
               depth: 6
               value: 2.
               norm_class_idx: 2
               splits:
                  - { var:63, quality:4.3463769531250000e+03,
                      le:4.3203525543212891e+00 }
            -
               depth: 7
               value: 2.
               norm_class_idx: 2
               splits:
                  - { var:110, quality:4.3303017578125000e+03,
                      le:6.9945449940860271e-03 }
            -
               depth: 8
               value: 0.
               norm_class_idx: 0
            -
               depth: 8
               value: 2.
               norm_class_idx: 2
               splits:
                  - { var:107, quality:4.3384946289062500e+03,
                      le:1.0570569038391113e+00 }
            -
               depth: 9
               value: 2.
               norm_class_idx: 2
               splits:
                  - { var:96, quality:4.3328735351562500e+03,
                      le:1.4076361549086869e-04 }
            -
               depth: 10
               value: 0.
               norm_class_idx: 0
            -
               depth: 10
               value: 2.
               norm_class_idx: 2
            -
               depth: 9
               value: 2.
               norm_class_idx: 2
               splits:
                  - { var:78, quality:2.0951419830322266e+01,
                      le:3.7862003326416016e+01 }
            -
               depth: 10
               value: 1.
               norm_class_idx: 1
            -
               depth: 10
               value: 2.
               norm_class_idx: 2
            -
               depth: 7
               value: 0.
               norm_class_idx: 0
            -
               depth: 5
               value: 0.
               norm_class_idx: 0
               splits:
                  - { var:7, quality:1.3285470581054688e+02,
                      le:6.7351892590522766e-02 }
            -
               depth: 6
               value: 0.
               norm_class_idx: 0
            -
               depth: 6
               value: 2.
               norm_class_idx: 2
            -
               depth: 3
               value: 0.
               norm_class_idx: 0
               splits:
                  - { var:105, quality:7.2592083740234375e+02,
                      le:3.6384202539920807e-02 }
            -
               depth: 4
               value: 0.
               norm_class_idx: 0
               splits:
                  - { var:31, quality:3.3030639648437500e+01,
                      le:1.1219389736652374e-01 }
            -
               depth: 5
               value: 2.
               norm_class_idx: 2
               splits:
                  - { var:127, quality:2.0136753082275391e+01,
                      le:3.4388339519500732e-01 }
            -
               depth: 6
               value: 0.
               norm_class_idx: 0
            -
               depth: 6
               value: 2.
               norm_class_idx: 2
            -
               depth: 5
               value: 0.
               norm_class_idx: 0
            -
               depth: 4
               value: 0.
               norm_class_idx: 0
               splits:
                  - { var:109, quality:7.1986102294921875e+02,
                      le:1.0273732244968414e-01 }
            -
               depth: 5
               value: 2.
               norm_class_idx: 2
            -
               depth: 5
               value: 0.
               norm_class_idx: 0
               splits:
                  - { var:10, quality:7.1342321777343750e+02,
                      le:-1.1333072185516357e+00 }
            -
               depth: 6
               value: 0.
               norm_class_idx: 0
               splits:
                  - { var:112, quality:2.0154028320312500e+02,
                      le:5.6697692722082138e-02 }
            -
               depth: 7
               value: 2.
               norm_class_idx: 2
            -
               depth: 7
               value: 0.
               norm_class_idx: 0
               splits:
                  - { var:22, quality:2.0140013122558594e+02,
                      le:8.9274585247039795e-01 }
            -
               depth: 8
               value: 2.
               norm_class_idx: 2
            -
               depth: 8
               value: 0.
               norm_class_idx: 0
               splits:
                  - { var:98, quality:2.0012638854980469e+02,
                      le:6.5010841935873032e-03 }
            -
               depth: 9
               value: 0.
               norm_class_idx: 0
               splits:
                  - { var:125, quality:4.2427349090576172e+01,
                      le:9.0037572383880615e-01 }
            -
               depth: 10
               value: 0.
               norm_class_idx: 0
            -
               depth: 10
               value: 2.
               norm_class_idx: 2
            -
               depth: 9
               value: 0.
               norm_class_idx: 0
            -
               depth: 6
               value: 0.
               norm_class_idx: 0
               splits:
                  - { var:14, quality:5.1883453369140625e+02,
                      le:3.0069586634635925e-01 }
            -
               depth: 7
               value: 0.
               norm_class_idx: 0
               splits:
                  - { var:39, quality:1.0713675498962402e+01,
                      le:3.5215046256780624e-02 }
            -
               depth: 8
               value: 2.
               norm_class_idx: 2
            -
               depth: 8
               value: 0.
               norm_class_idx: 0
            -
               depth: 7
               value: 0.
               norm_class_idx: 0
            -
               depth: 2
               value: 0.
               norm_class_idx: 0
               splits:
                  - { var:74, quality:1.5945266113281250e+03,
                      le:2.1472330093383789e+00 }
            -
               depth: 3
               value: 0.
               norm_class_idx: 0
               splits:
                  - { var:33, quality:3.9230114746093750e+02,
                      le:5.1690673828125000e-01 }
            -
               depth: 4
               value: 2.
               norm_class_idx: 2
               splits:
                  - { var:127, quality:1.9053475952148438e+02,
                      le:5.1280087232589722e-01 }
            -
               depth: 5
               value: 0.
               norm_class_idx: 0
               splits:
                  - { var:11, quality:8.3427352905273438e+01,
                      le:9.6048339037224650e-04 }
            -
               depth: 6
               value: 2.
               norm_class_idx: 2
            -
               depth: 6
               value: 0.
               norm_class_idx: 0
            -
               depth: 5
               value: 2.
               norm_class_idx: 2
               splits:
                  - { var:68, quality:1.1559741210937500e+02,
                      le:-7.2625741362571716e-02 }
            -
               depth: 6
               value: 2.
               norm_class_idx: 2
               splits:
                  - { var:23, quality:1.1668412017822266e+02,
                      le:1.7381178140640259e+00 }
            -
               depth: 7
               value: 0.
               norm_class_idx: 0
            -
               depth: 7
               value: 2.
               norm_class_idx: 2
            -
               depth: 6
               value: 0.
               norm_class_idx: 0
            -
               depth: 4
               value: 0.
               norm_class_idx: 0
               splits:
                  - { var:62, quality:2.9074935913085938e+02,
                      le:1.8262720108032227e-01 }
            -
               depth: 5
               value: 2.
               norm_class_idx: 2
            -
               depth: 5
               value: 0.
               norm_class_idx: 0
               splits:
                  - { var:3, quality:2.9236532592773438e+02,
                      le:7.9440665245056152e-01 }
            -
               depth: 6
               value: 2.
               norm_class_idx: 2
            -
               depth: 6
               value: 0.
               norm_class_idx: 0
               splits:
                  - { var:70, quality:2.9742733764648438e+02,
                      le:-3.7215175628662109e+00 }
            -
               depth: 7
               value: 2.
               norm_class_idx: 2
            -
               depth: 7
               value: 0.
               norm_class_idx: 0
            -
               depth: 3
               value: 0.
               norm_class_idx: 0
               splits:
                  - { var:58, quality:1.2841267089843750e+03,
                      le:1.4278266578912735e-02 }
            -
               depth: 4
               value: 0.
               norm_class_idx: 0
               splits:
                  - { var:57, quality:7.2133682250976562e+01,
                      le:1.9938158988952637e-01 }
            -
               depth: 5
               value: 0.
               norm_class_idx: 0
               splits:
                  - { var:146, quality:7.1081665039062500e+01,
                      le:2.1500039100646973e-01 }
            -
               depth: 6
               value: 0.
               norm_class_idx: 0
               splits:
                  - { var:35, quality:6.9767944335937500e+01,
                      le:8.9349178597331047e-03 }
            -
               depth: 7
               value: 0.
               norm_class_idx: 0
            -
               depth: 7
               value: 0.
               norm_class_idx: 0
               splits:
                  - { var:44, quality:1.8047584533691406e+01,
                      le:9.3816268444061279e-01 }
            -
               depth: 8
               value: 0.
               norm_class_idx: 0
            -
               depth: 8
               value: 1.
               norm_class_idx: 1
            -
               depth: 6
               value: 1.
               norm_class_idx: 1
            -
               depth: 5
               value: 1.
               norm_class_idx: 1
               splits:
                  - { var:44, quality:1.0745974540710449e+01,
                      le:9.2484843730926514e-01 }
            -
               depth: 6
               value: 0.
               norm_class_idx: 0
            -
               depth: 6
               value: 1.
               norm_class_idx: 1
            -
               depth: 4
               value: 0.
               norm_class_idx: 0
               splits:
                  - { var:62, quality:1.2178289794921875e+03,
                      le:1.0871870517730713e+00 }
            -
               depth: 5
               value: 0.
               norm_class_idx: 0
               splits:
                  - { var:97, quality:3.6037518310546875e+02,
                      le:-3.2478529028594494e-03 }
            -
               depth: 6
               value: 2.
               norm_class_idx: 2
               splits:
                  - { var:122, quality:1.1854701042175293e+01,
                      le:5.9516131877899170e-01 }
            -
               depth: 7
               value: 0.
               norm_class_idx: 0
            -
               depth: 7
               value: 2.
               norm_class_idx: 2
            -
               depth: 6
               value: 0.
               norm_class_idx: 0
               splits:
                  - { var:15, quality:3.5436492919921875e+02,
                      le:9.1663539409637451e-01 }
            -
               depth: 7
               value: 0.
               norm_class_idx: 0
               splits:
                  - { var:15, quality:7.4713676452636719e+01,
                      le:9.1632544994354248e-01 }
            -
               depth: 8
               value: 0.
               norm_class_idx: 0
            -
               depth: 8
               value: 2.
               norm_class_idx: 2
            -
               depth: 7
               value: 0.
               norm_class_idx: 0
            -
               depth: 5
               value: 0.
               norm_class_idx: 0
      -
         nodes:
            -
               depth: 0
               value: 2.
               norm_class_idx: 2
               splits:
                  - { var:125, quality:8.7557685546875000e+03,
                      le:3.4735918045043945e-01 }
            -
               depth: 1
               value: 1.
               norm_class_idx: 1
               splits:
                  - { var:92, quality:6.0133056640625000e+03,
                      le:3.5110317170619965e-02 }
            -
               depth: 2
               value: 1.
               norm_class_idx: 1
               splits:
                  - { var:56, quality:4.4449257812500000e+03,
                      le:2.3434439301490784e-01 }
            -
               depth: 3
               value: 1.
               norm_class_idx: 1
               splits:
                  - { var:122, quality:4.2140063476562500e+03,
                      le:3.2109293341636658e-01 }
            -
               depth: 4
               value: 1.
               norm_class_idx: 1
               splits:
                  - { var:21, quality:4.2975874023437500e+03,
                      le:2.2778592109680176e+00 }
            -
               depth: 5
               value: 1.
               norm_class_idx: 1
               splits:
                  - { var:119, quality:4.2997641601562500e+03,
                      le:6.6078269481658936e-01 }
            -
               depth: 6
               value: 1.
               norm_class_idx: 1
               splits:
                  - { var:94, quality:3.5537910156250000e+03,
                      le:1.3047498650848866e-02 }
            -
               depth: 7
               value: 1.
               norm_class_idx: 1
               splits:
                  - { var:10, quality:2.8660422363281250e+03,
                      le:-1.4274891614913940e+00 }
            -
               depth: 8
               value: 1.
               norm_class_idx: 1
               splits:
                  - { var:98, quality:6.6018902587890625e+02,
                      le:4.1375262662768364e-03 }
            -
               depth: 9
               value: 1.
               norm_class_idx: 1
            -
               depth: 9
               value: 1.
               norm_class_idx: 1
               splits:
                  - { var:96, quality:2.3936313629150391e+01,
                      le:4.8039207467809319e-04 }
            -
               depth: 10
               value: 0.
               norm_class_idx: 0
            -
               depth: 10
               value: 1.
               norm_class_idx: 1
            -
               depth: 8
               value: 1.
               norm_class_idx: 1
            -
               depth: 7
               value: 1.
               norm_class_idx: 1
               splits:
                  - { var:2, quality:7.4825762939453125e+02,
                      le:4.4289924204349518e-02 }
            -
               depth: 8
               value: 1.
               norm_class_idx: 1
               splits:
                  - { var:89, quality:2.3663729858398438e+02,
                      le:2.8426449298858643e+00 }
            -
               depth: 9
               value: 0.
               norm_class_idx: 0
               splits:
                  - { var:52, quality:1.6425257873535156e+02,
                      le:3.4229663014411926e-01 }
            -
               depth: 10
               value: 0.
               norm_class_idx: 0
            -
               depth: 10
               value: 1.
               norm_class_idx: 1
            -
               depth: 9
               value: 1.
               norm_class_idx: 1
               splits:
                  - { var:85, quality:1.4489018249511719e+02,
                      le:4.2049999237060547e+00 }
            -
               depth: 10
               value: 1.
               norm_class_idx: 1
            -
               depth: 10
               value: 0.
               norm_class_idx: 0
            -
               depth: 8
               value: 1.
               norm_class_idx: 1
               splits:
                  - { var:14, quality:5.8194073486328125e+02,
                      le:6.4577698707580566e-02 }
            -
               depth: 9
               value: 1.
               norm_class_idx: 1
               splits:
                  - { var:69, quality:2.2587118148803711e+01,
                      le:7.5024962425231934e-02 }
            -
               depth: 10
               value: 0.
               norm_class_idx: 0
            -
               depth: 10
               value: 1.
               norm_class_idx: 1
            -
               depth: 9
               value: 1.
               norm_class_idx: 1
            -
               depth: 6
               value: 1.
               norm_class_idx: 1
               splits:
                  - { var:75, quality:9.7201959228515625e+02,
                      le:1.3231232166290283e+00 }
            -
               depth: 7
               value: 1.
               norm_class_idx: 1
               splits:
                  - { var:120, quality:7.4475396728515625e+02,
                      le:5.7403767108917236e-01 }
            -
               depth: 8
               value: 0.
               norm_class_idx: 0
               splits:
                  - { var:122, quality:6.8380676269531250e+01,
                      le:1.8202453851699829e-01 }
            -
               depth: 9
               value: 1.
               norm_class_idx: 1
            -
               depth: 9
               value: 0.
               norm_class_idx: 0
            -
               depth: 8
               value: 1.
               norm_class_idx: 1
               splits:
                  - { var:85, quality:7.2670257568359375e+02,
                      le:2.4642152786254883e+00 }
            -
               depth: 9
               value: 1.
               norm_class_idx: 1
               splits:
                  - { var:41, quality:7.2511285400390625e+02,
                      le:2.4860253557562828e-02 }
            -
               depth: 10
               value: 1.
               norm_class_idx: 1
            -
               depth: 10
               value: 2.
               norm_class_idx: 2
            -
               depth: 9
               value: 0.
               norm_class_idx: 0
            -
               depth: 7
               value: 0.
               norm_class_idx: 0
               splits:
                  - { var:132, quality:3.4868280029296875e+02,
                      le:1.2651642560958862e+00 }
            -
               depth: 8
               value: 1.
               norm_class_idx: 1
               splits:
                  - { var:140, quality:9.0247413635253906e+01,
                      le:1.0434001922607422e+01 }
            -
               depth: 9
               value: 1.
               norm_class_idx: 1
            -
               depth: 9
               value: 1.
               norm_class_idx: 1
            -
               depth: 8
               value: 0.
               norm_class_idx: 0
               splits:
                  - { var:23, quality:3.6401586914062500e+02,
                      le:1.7818983793258667e+00 }
            -
               depth: 9
               value: 1.
               norm_class_idx: 1
               splits:
                  - { var:102, quality:6.7791168212890625e+01,
                      le:6.6291661933064461e-03 }
            -
               depth: 10
               value: 2.
               norm_class_idx: 2
            -
               depth: 10
               value: 1.
               norm_class_idx: 1
            -
               depth: 9
               value: 0.
               norm_class_idx: 0
               splits:
                  - { var:130, quality:3.1982485961914062e+02,
                      le:2.0000166893005371e+00 }
            -
               depth: 10
               value: 0.
               norm_class_idx: 0
            -
               depth: 10
               value: 2.
               norm_class_idx: 2
            -
               depth: 5
               value: 0.
               norm_class_idx: 0
            -
               depth: 4
               value: 2.
               norm_class_idx: 2
               splits:
                  - { var:106, quality:1.4209796142578125e+02,
                      le:2.7731337468139827e-04 }
            -
               depth: 5
               value: 0.
               norm_class_idx: 0
               splits:
                  - { var:143, quality:1.6141025543212891e+01,
                      le:1.1500000000000000e+01 }
            -
               depth: 6
               value: 2.
               norm_class_idx: 2
            -
               depth: 6
               value: 0.
               norm_class_idx: 0
            -
               depth: 5
               value: 2.
               norm_class_idx: 2
               splits:
                  - { var:42, quality:1.4051210021972656e+02,
                      le:3.8959607481956482e-02 }
            -
               depth: 6
               value: 2.
               norm_class_idx: 2
               splits:
                  - { var:64, quality:1.9726415634155273e+01,
                      le:1.2555071711540222e-01 }
            -
               depth: 7
               value: 1.
               norm_class_idx: 1
            -
               depth: 7
               value: 2.
               norm_class_idx: 2
            -
               depth: 6
               value: 2.
               norm_class_idx: 2
               splits:
                  - { var:110, quality:1.3330218505859375e+02,
                      le:9.6923306584358215e-02 }
            -
               depth: 7
               value: 2.
               norm_class_idx: 2
            -
               depth: 7
               value: 1.
               norm_class_idx: 1
            -
               depth: 3
               value: 0.
               norm_class_idx: 0
               splits:
                  - { var:56, quality:5.0795755004882812e+02,
                      le:5.4277795553207397e-01 }
            -
               depth: 4
               value: 0.
               norm_class_idx: 0
               splits:
                  - { var:101, quality:2.1047779846191406e+02,
                      le:1.4469739049673080e-02 }
            -
               depth: 5
               value: 1.
               norm_class_idx: 1
               splits:
                  - { var:129, quality:6.0826347351074219e+01,
                      le:2.0072080194950104e-02 }
            -
               depth: 6
               value: 1.
               norm_class_idx: 1
               splits:
                  - { var:39, quality:6.1364574432373047e+01,
                      le:6.9650530349463224e-04 }
            -
               depth: 7
               value: 0.
               norm_class_idx: 0
            -
               depth: 7
               value: 1.
               norm_class_idx: 1
            -
               depth: 6
               value: 0.
               norm_class_idx: 0
            -
               depth: 5
               value: 0.
               norm_class_idx: 0
               splits:
                  - { var:68, quality:1.8932870483398438e+02,
                      le:-4.5850027352571487e-02 }
            -
               depth: 6
               value: 0.
               norm_class_idx: 0
               splits:
                  - { var:59, quality:1.7707807922363281e+02,
                      le:2.7196079492568970e-01 }
            -
               depth: 7
               value: 0.
               norm_class_idx: 0
               splits:
                  - { var:141, quality:1.7539677429199219e+02,
                      le:6.3588485717773438e+00 }
            -
               depth: 8
               value: 1.
               norm_class_idx: 1
            -
               depth: 8
               value: 0.
               norm_class_idx: 0
            -
               depth: 7
               value: 1.
               norm_class_idx: 1
            -
               depth: 6
               value: 1.
               norm_class_idx: 1
               splits:
                  - { var:88, quality:4.2817161560058594e+01,
                      le:1.4810028672218323e-01 }
            -
               depth: 7
               value: 1.
               norm_class_idx: 1
               splits:
                  - { var:20, quality:3.3787460327148438e+01,
                      le:2.2834408283233643e+00 }
            -
               depth: 8
               value: 1.
               norm_class_idx: 1
               splits:
                  - { var:114, quality:3.4729873657226562e+01,
                      le:1.6666667163372040e-01 }
            -
               depth: 9
               value: 1.
               norm_class_idx: 1
            -
               depth: 9
               value: 0.
               norm_class_idx: 0
            -
               depth: 8
               value: 0.
               norm_class_idx: 0
            -
               depth: 7
               value: 0.
               norm_class_idx: 0
               splits:
                  - { var:4, quality:1.8004173278808594e+01,
                      le:3.1810894608497620e-02 }
            -
               depth: 8
               value: 1.
               norm_class_idx: 1
               splits:
                  - { var:94, quality:7.7459745407104492e+00,
                      le:7.4708750471472740e-03 }
            -
               depth: 9
               value: 0.
               norm_class_idx: 0
            -
               depth: 9
               value: 1.
               norm_class_idx: 1
            -
               depth: 8
               value: 0.
               norm_class_idx: 0
            -
               depth: 4
               value: 0.
               norm_class_idx: 0
               splits:
                  - { var:59, quality:3.4734918212890625e+02,
                      le:7.2478097677230835e-01 }
            -
               depth: 5
               value: 0.
               norm_class_idx: 0
            -
               depth: 5
               value: 1.
               norm_class_idx: 1
            -
               depth: 2
               value: 0.
               norm_class_idx: 0
               splits:
                  - { var:101, quality:2.5590861816406250e+03,
                      le:2.1351370960474014e-02 }
            -
               depth: 3
               value: 1.
               norm_class_idx: 1
               splits:
                  - { var:147, quality:3.8177011108398438e+02,
                      le:9.9435043334960938e+00 }
            -
               depth: 4
               value: 1.
               norm_class_idx: 1
               splits:
                  - { var:82, quality:3.8112036132812500e+02,
                      le:4.7989873886108398e+00 }
            -
               depth: 5
               value: 1.
               norm_class_idx: 1
               splits:
                  - { var:79, quality:3.5192620849609375e+02,
                      le:1.2276435852050781e+01 }
            -
               depth: 6
               value: 1.
               norm_class_idx: 1
               splits:
                  - { var:106, quality:3.5216931152343750e+02,
                      le:3.3842339180409908e-03 }
            -
               depth: 7
               value: 2.
               norm_class_idx: 2
               splits:
                  - { var:113, quality:1.5942732810974121e+01,
                      le:7.2606204776093364e-04 }
            -
               depth: 8
               value: 1.
               norm_class_idx: 1
               splits:
                  - { var:72, quality:8.7459745407104492e+00,
                      le:6.6549670696258545e-01 }
            -
               depth: 9
               value: 1.
               norm_class_idx: 1
            -
               depth: 9
               value: 0.
               norm_class_idx: 0
            -
               depth: 8
               value: 2.
               norm_class_idx: 2
            -
               depth: 7
               value: 1.
               norm_class_idx: 1
               splits:
                  - { var:28, quality:3.5316522216796875e+02,
                      le:4.8500001430511475e-01 }
            -
               depth: 8
               value: 1.
               norm_class_idx: 1
               splits:
