%YAML:1.0
---
opencv_ml_rtrees:
   format: 3
   is_classifier: 1
   var_all: 32
   var_count: 31
   ord_var_count: 31
   cat_var_count: 1
   training_params:
      use_surrogates: 0
      max_categories: 15
      regression_accuracy: 1.0000000474974513e-03
      max_depth: 10
      min_sample_count: 5
      cross_validation_folds: 0
      priors: !!opencv-matrix
         rows: 1
         cols: 3
         dt: f
         data: [ 4.59121429e-41, -2.43585235e-17, 4.59121429e-41 ]
      nactive_vars: 15
   global_var_idx: 1
   var_idx: [ 0, 1, 2, 3, 4, 5, 6, 7, 8, 9, 10, 11, 12, 13, 14, 15, 16,
       17, 18, 19, 20, 21, 22, 23, 24, 25, 26, 27, 28, 29, 30 ]
   var_type: [ 0, 0, 0, 0, 0, 0, 0, 0, 0, 0, 0, 0, 0, 0, 0, 0, 0, 0, 0,
       0, 0, 0, 0, 0, 0, 0, 0, 0, 0, 0, 0, 1 ]
   cat_ofs: [ 0, 0, 0, 0, 0, 0, 0, 0, 0, 0, 0, 0, 0, 0, 0, 0, 0, 0, 0, 0,
       0, 0, 0, 0, 0, 0, 0, 0, 0, 0, 0, 0, 0, 0, 0, 0, 0, 0, 0, 0, 0, 0,
       0, 0, 0, 0, 0, 0, 0, 0, 0, 0, 0, 0, 0, 0, 0, 0, 0, 0, 0, 0 ]
   class_labels: [ 0, 1, 2 ]
   missing_subst: [ 0., 0., 0., 0., 0., 0., 0., 0., 0., 0., 0., 0., 0.,
       0., 0., 0., 0., 0., 0., 0., 0., 0., 0., 0., 0., 0., 0., 0., 0.,
       0., 0., 0. ]
   oob_error: 8.1039090322542803e-03
   var_importance: [ 8.22781119e-03, 1.22065932e-01, 4.74891625e-02,
       1.52367443e-01, 2.39990372e-02, 1.08701373e-02, 1.55380797e-02,
       3.48215438e-02, 3.28686275e-02, 2.58867703e-02, 9.94507316e-03,
       1.31940804e-02, 3.77521664e-02, 1.46882227e-02, 1.02978006e-01,
       8.86206981e-03, 7.32230097e-02, 9.10524465e-03, 1.03787752e-02,
       1.15620559e-02, 1.64230336e-02, 9.66930855e-03, 2.94541623e-02,
       2.06021201e-02, 3.78750078e-02, 2.04943214e-02, 8.34814552e-03,
       8.99995212e-03, 2.60246526e-02, 1.64029766e-02, 3.98830771e-02 ]
   ntrees: 100
   trees:
      -
         nodes:
            -
               depth: 0
               value: 0.
               norm_class_idx: 0
               splits:
                  - { var:1, quality:5.1738261718750000e+03,
                      le:2.6495498418807983e-01 }
            -
               depth: 1
               value: 1.
               norm_class_idx: 1
               splits:
                  - { var:3, quality:4.8682343750000000e+03,
                      le:3.2700371742248535e-01 }
            -
               depth: 2
               value: 1.
               norm_class_idx: 1
               splits:
                  - { var:30, quality:2.6539511718750000e+03,
                      le:6.8549671173095703e+00 }
            -
               depth: 3
               value: 1.
               norm_class_idx: 1
               splits:
                  - { var:24, quality:2.5242614746093750e+03,
                      le:1.6229569911956787e-02 }
            -
               depth: 4
               value: 1.
               norm_class_idx: 1
               splits:
                  - { var:3, quality:2.5152712402343750e+03,
                      le:2.8600233793258667e-01 }
            -
               depth: 5
               value: 1.
               norm_class_idx: 1
               splits:
                  - { var:25, quality:2.4318559570312500e+03,
                      le:5.0000000000000000e-01 }
            -
               depth: 6
               value: 1.
               norm_class_idx: 1
               splits:
                  - { var:3, quality:2.3723034667968750e+03,
                      le:2.4384674429893494e-01 }
            -
               depth: 7
               value: 1.
               norm_class_idx: 1
            -
               depth: 7
               value: 1.
               norm_class_idx: 1
               splits:
                  - { var:6, quality:1.1080834960937500e+02,
                      le:5.9113717079162598e-01 }
            -
               depth: 8
               value: 1.
               norm_class_idx: 1
               splits:
                  - { var:9, quality:1.0912799835205078e+02,
                      le:6.7389890551567078e-02 }
            -
               depth: 9
               value: 1.
               norm_class_idx: 1
               splits:
                  - { var:1, quality:1.0877129364013672e+02,
                      le:9.3141481280326843e-02 }
            -
               depth: 10
               value: 1.
               norm_class_idx: 1
            -
               depth: 10
               value: 1.
               norm_class_idx: 1
            -
               depth: 9
               value: 2.
               norm_class_idx: 2
            -
               depth: 8
               value: 2.
               norm_class_idx: 2
               splits:
                  - { var:20, quality:1.1237744331359863e+01,
                      le:2.0204906463623047e+00 }
            -
               depth: 9
               value: 2.
               norm_class_idx: 2
            -
               depth: 9
               value: 1.
               norm_class_idx: 1
            -
               depth: 6
               value: 1.
               norm_class_idx: 1
               splits:
                  - { var:13, quality:7.0395050048828125e+01,
                      le:1.9066782295703888e-01 }
            -
               depth: 7
               value: 1.
               norm_class_idx: 1
               splits:
                  - { var:26, quality:6.7541763305664062e+01,
                      le:5.0000000000000000e-01 }
            -
               depth: 8
               value: 1.
               norm_class_idx: 1
               splits:
                  - { var:2, quality:6.8173988342285156e+01,
                      le:6.8485438823699951e-02 }
            -
               depth: 9
               value: 1.
               norm_class_idx: 1
            -
               depth: 9
               value: 2.
               norm_class_idx: 2
            -
               depth: 8
               value: 0.
               norm_class_idx: 0
            -
               depth: 7
               value: 0.
               norm_class_idx: 0
               splits:
                  - { var:6, quality:1.1978061676025391e+01,
                      le:8.5871857404708862e-01 }
            -
               depth: 8
               value: 0.
               norm_class_idx: 0
            -
               depth: 8
               value: 1.
               norm_class_idx: 1
            -
               depth: 5
               value: 1.
               norm_class_idx: 1
               splits:
                  - { var:6, quality:1.1593659210205078e+02,
                      le:3.4695988893508911e-01 }
            -
               depth: 6
               value: 1.
               norm_class_idx: 1
               splits:
                  - { var:20, quality:8.7491973876953125e+01,
                      le:1.6966619491577148e+00 }
            -
               depth: 7
               value: 1.
               norm_class_idx: 1
               splits:
                  - { var:22, quality:6.9118356704711914e+00,
                      le:9.1499310731887817e-01 }
            -
               depth: 8
               value: 2.
               norm_class_idx: 2
            -
               depth: 8
               value: 1.
               norm_class_idx: 1
            -
               depth: 7
               value: 1.
               norm_class_idx: 1
            -
               depth: 6
               value: 2.
               norm_class_idx: 2
               splits:
                  - { var:23, quality:3.8166572570800781e+01,
                      le:1.5762760639190674e+00 }
            -
               depth: 7
               value: 1.
               norm_class_idx: 1
               splits:
                  - { var:7, quality:2.2376317977905273e+01,
                      le:5.6544942781329155e-03 }
            -
               depth: 8
               value: 1.
               norm_class_idx: 1
            -
               depth: 8
               value: 2.
               norm_class_idx: 2
            -
               depth: 7
               value: 2.
               norm_class_idx: 2
               splits:
                  - { var:19, quality:2.6317850112915039e+01,
                      le:2.3584942817687988e+00 }
            -
               depth: 8
               value: 2.
               norm_class_idx: 2
            -
               depth: 8
               value: 2.
               norm_class_idx: 2
            -
               depth: 4
               value: 2.
               norm_class_idx: 2
               splits:
                  - { var:3, quality:3.4173469543457031e+01,
                      le:2.6367494463920593e-01 }
            -
               depth: 5
               value: 1.
               norm_class_idx: 1
            -
               depth: 5
               value: 2.
               norm_class_idx: 2
               splits:
                  - { var:23, quality:3.1830204010009766e+01,
                      le:1.9033064842224121e+00 }
            -
               depth: 6
               value: 2.
               norm_class_idx: 2
               splits:
                  - { var:13, quality:3.0918600082397461e+01,
                      le:2.8087662532925606e-02 }
            -
               depth: 7
               value: 1.
               norm_class_idx: 1
            -
               depth: 7
               value: 2.
               norm_class_idx: 2
               splits:
                  - { var:6, quality:3.1674243927001953e+01,
                      le:9.0263500809669495e-02 }
            -
               depth: 8
               value: 1.
               norm_class_idx: 1
            -
               depth: 8
               value: 2.
               norm_class_idx: 2
            -
               depth: 6
               value: 1.
               norm_class_idx: 1
            -
               depth: 3
               value: 0.
               norm_class_idx: 0
               splits:
                  - { var:30, quality:2.5164462280273438e+02,
                      le:6.8850002288818359e+00 }
            -
               depth: 4
               value: 0.
               norm_class_idx: 0
               splits:
                  - { var:5, quality:1.4817379760742188e+02,
                      le:7.8131891787052155e-02 }
            -
               depth: 5
               value: 0.
               norm_class_idx: 0
               splits:
                  - { var:22, quality:1.5013223266601562e+02,
                      le:9.9208188056945801e-01 }
            -
               depth: 6
               value: 0.
               norm_class_idx: 0
               splits:
                  - { var:6, quality:1.5003340148925781e+02,
                      le:9.9998486042022705e-01 }
            -
               depth: 7
               value: 0.
               norm_class_idx: 0
               splits:
                  - { var:4, quality:1.4856907653808594e+02,
                      le:6.3324503600597382e-02 }
            -
               depth: 8
               value: 0.
               norm_class_idx: 0
            -
               depth: 8
               value: 0.
               norm_class_idx: 0
               splits:
                  - { var:15, quality:3.1591224670410156e+01,
                      le:9.9999880790710449e-01 }
            -
               depth: 9
               value: 0.
               norm_class_idx: 0
            -
               depth: 9
               value: 1.
               norm_class_idx: 1
            -
               depth: 7
               value: 1.
               norm_class_idx: 1
            -
               depth: 6
               value: 1.
               norm_class_idx: 1
            -
               depth: 5
               value: 1.
               norm_class_idx: 1
               splits:
                  - { var:15, quality:6.1162233352661133e+00,
                      le:9.8388636112213135e-01 }
            -
               depth: 6
               value: 2.
               norm_class_idx: 2
            -
               depth: 6
               value: 1.
               norm_class_idx: 1
            -
               depth: 4
               value: 1.
               norm_class_idx: 1
               splits:
                  - { var:30, quality:1.6686370849609375e+02,
                      le:9.4709415435791016e+00 }
            -
               depth: 5
               value: 1.
               norm_class_idx: 1
               splits:
                  - { var:24, quality:1.7095649719238281e+02,
                      le:8.5029602050781250e-03 }
            -
               depth: 6
               value: 1.
               norm_class_idx: 1
               splits:
                  - { var:3, quality:1.5566548156738281e+02,
                      le:1.2068884074687958e-01 }
            -
               depth: 7
               value: 0.
               norm_class_idx: 0
            -
               depth: 7
               value: 1.
               norm_class_idx: 1
               splits:
                  - { var:8, quality:1.4787010192871094e+02,
                      le:-1.4016204513609409e-03 }
            -
               depth: 8
               value: 1.
               norm_class_idx: 1
            -
               depth: 8
               value: 1.
               norm_class_idx: 1
            -
               depth: 6
               value: 2.
               norm_class_idx: 2
               splits:
                  - { var:6, quality:3.2873752593994141e+01,
                      le:5.1332324743270874e-01 }
            -
               depth: 7
               value: 2.
               norm_class_idx: 2
            -
               depth: 7
               value: 2.
               norm_class_idx: 2
            -
               depth: 5
               value: 0.
               norm_class_idx: 0
               splits:
                  - { var:22, quality:4.7591224670410156e+01,
                      le:9.1610211133956909e-01 }
            -
               depth: 6
               value: 1.
               norm_class_idx: 1
            -
               depth: 6
               value: 0.
               norm_class_idx: 0
            -
               depth: 2
               value: 2.
               norm_class_idx: 2
               splits:
                  - { var:4, quality:2.6538442382812500e+03,
                      le:8.3756506443023682e-02 }
            -
               depth: 3
               value: 2.
               norm_class_idx: 2
               splits:
                  - { var:23, quality:2.5772724609375000e+03,
                      le:1.3265289068222046e+00 }
            -
               depth: 4
               value: 2.
               norm_class_idx: 2
               splits:
                  - { var:16, quality:1.6974772644042969e+02,
                      le:5.8501124382019043e-01 }
            -
               depth: 5
               value: 1.
               norm_class_idx: 1
               splits:
                  - { var:6, quality:8.2970298767089844e+01,
                      le:3.4679895639419556e-01 }
            -
               depth: 6
               value: 1.
               norm_class_idx: 1
               splits:
                  - { var:5, quality:7.8810623168945312e+01,
                      le:2.2367233037948608e-01 }
            -
               depth: 7
               value: 1.
               norm_class_idx: 1
               splits:
                  - { var:7, quality:7.7731559753417969e+01,
                      le:1.0255951434373856e-02 }
            -
               depth: 8
               value: 1.
               norm_class_idx: 1
            -
               depth: 8
               value: 1.
               norm_class_idx: 1
               splits:
                  - { var:4, quality:1.1685509681701660e+01,
                      le:2.6629382744431496e-02 }
            -
               depth: 9
               value: 1.
               norm_class_idx: 1
            -
               depth: 9
               value: 2.
               norm_class_idx: 2
            -
               depth: 7
               value: 2.
               norm_class_idx: 2
            -
               depth: 6
               value: 2.
               norm_class_idx: 2
            -
               depth: 5
               value: 2.
               norm_class_idx: 2
               splits:
                  - { var:21, quality:1.0581137084960938e+02,
                      le:9.2383885383605957e-01 }
            -
               depth: 6
               value: 1.
               norm_class_idx: 1
            -
               depth: 6
               value: 2.
               norm_class_idx: 2
               splits:
                  - { var:12, quality:1.0496751403808594e+02,
                      le:2.5463145971298218e-01 }
            -
               depth: 7
               value: 2.
               norm_class_idx: 2
            -
               depth: 7
               value: 1.
               norm_class_idx: 1
            -
               depth: 4
               value: 2.
               norm_class_idx: 2
               splits:
                  - { var:25, quality:2.5104252929687500e+03,
                      le:5.0000000000000000e-01 }
            -
               depth: 5
               value: 2.
               norm_class_idx: 2
               splits:
                  - { var:3, quality:2.4967954101562500e+03,
                      le:3.6519515514373779e-01 }
            -
               depth: 6
               value: 2.
               norm_class_idx: 2
               splits:
                  - { var:8, quality:1.2106179809570312e+02,
                      le:-2.9276626184582710e-02 }
            -
               depth: 7
               value: 2.
               norm_class_idx: 2
               splits:
                  - { var:4, quality:1.1197505950927734e+02,
                      le:2.9023028910160065e-02 }
            -
               depth: 8
               value: 1.
               norm_class_idx: 1
               splits:
                  - { var:0, quality:1.9482694625854492e+01, le:15. }
            -
               depth: 9
               value: 1.
               norm_class_idx: 1
               splits:
                  - { var:5, quality:1.1024774551391602e+01,
                      le:1.0803122073411942e-01 }
            -
               depth: 10
               value: 1.
               norm_class_idx: 1
            -
               depth: 10
               value: 1.
               norm_class_idx: 1
            -
               depth: 9
               value: 2.
               norm_class_idx: 2
            -
               depth: 8
               value: 2.
               norm_class_idx: 2
               splits:
                  - { var:7, quality:1.0556208801269531e+02,
                      le:2.5412430986762047e-03 }
            -
               depth: 9
               value: 1.
               norm_class_idx: 1
            -
               depth: 9
               value: 2.
               norm_class_idx: 2
               splits:
                  - { var:14, quality:1.0350364685058594e+02,
                      le:1.7651781439781189e-01 }
            -
               depth: 10
               value: 2.
               norm_class_idx: 2
            -
               depth: 10
               value: 2.
               norm_class_idx: 2
            -
               depth: 7
               value: 1.
               norm_class_idx: 1
               splits:
                  - { var:5, quality:2.3917955398559570e+01,
                      le:8.3089560270309448e-02 }
            -
               depth: 8
               value: 2.
               norm_class_idx: 2
            -
               depth: 8
               value: 1.
               norm_class_idx: 1
            -
               depth: 6
               value: 2.
               norm_class_idx: 2
               splits:
                  - { var:18, quality:2.3980178222656250e+03,
                      le:6.3142143249511719e+01 }
            -
               depth: 7
               value: 2.
               norm_class_idx: 2
               splits:
                  - { var:3, quality:2.3990522460937500e+03,
                      le:3.8020390272140503e-01 }
            -
               depth: 8
               value: 2.
               norm_class_idx: 2
               splits:
                  - { var:7, quality:9.2393081665039062e+01,
                      le:3.9489190094172955e-03 }
            -
               depth: 9
               value: 1.
               norm_class_idx: 1
               splits:
                  - { var:7, quality:1.2371447563171387e+01,
                      le:2.2142759989947081e-03 }
            -
               depth: 10
               value: 2.
               norm_class_idx: 2
            -
               depth: 10
               value: 1.
               norm_class_idx: 1
            -
               depth: 9
               value: 2.
               norm_class_idx: 2
               splits:
                  - { var:18, quality:8.7125335693359375e+01,
                      le:1.1629888534545898e+01 }
            -
               depth: 10
               value: 2.
               norm_class_idx: 2
            -
               depth: 10
               value: 2.
               norm_class_idx: 2
            -
               depth: 8
               value: 2.
               norm_class_idx: 2
               splits:
                  - { var:2, quality:2.3136176757812500e+03,
                      le:1.3565313816070557e-01 }
            -
               depth: 9
               value: 2.
               norm_class_idx: 2
               splits:
                  - { var:1, quality:4.0552716064453125e+02,
                      le:1.6811278462409973e-01 }
            -
               depth: 10
               value: 2.
               norm_class_idx: 2
            -
               depth: 10
               value: 1.
               norm_class_idx: 1
            -
               depth: 9
               value: 2.
               norm_class_idx: 2
            -
               depth: 7
               value: 1.
               norm_class_idx: 1
            -
               depth: 5
               value: 0.
               norm_class_idx: 0
               splits:
                  - { var:15, quality:5.0145614624023438e+01,
                      le:8.1687819957733154e-01 }
            -
               depth: 6
               value: 2.
               norm_class_idx: 2
               splits:
                  - { var:2, quality:2.4823335647583008e+01,
                      le:1.0829386115074158e-01 }
            -
               depth: 7
               value: 0.
               norm_class_idx: 0
            -
               depth: 7
               value: 2.
               norm_class_idx: 2
            -
               depth: 6
               value: 0.
               norm_class_idx: 0
            -
               depth: 3
               value: 0.
               norm_class_idx: 0
               splits:
                  - { var:18, quality:1.5073754882812500e+02,
                      le:3.5557579994201660e+00 }
            -
               depth: 4
               value: 0.
               norm_class_idx: 0
               splits:
                  - { var:12, quality:1.4419631958007812e+02,
                      le:1.6215932369232178e-01 }
            -
               depth: 5
               value: 2.
               norm_class_idx: 2
            -
               depth: 5
               value: 0.
               norm_class_idx: 0
            -
               depth: 4
               value: 2.
               norm_class_idx: 2
            -
               depth: 1
               value: 0.
               norm_class_idx: 0
               splits:
                  - { var:7, quality:2.5244255371093750e+03,
                      le:4.1199363768100739e-02 }
            -
               depth: 2
               value: 0.
               norm_class_idx: 0
            -
               depth: 2
               value: 2.
               norm_class_idx: 2
      -
         nodes:
            -
               depth: 0
               value: 2.
               norm_class_idx: 2
               splits:
                  - { var:14, quality:5.1603291015625000e+03,
                      le:5.8301365375518799e-01 }
            -
               depth: 1
               value: 2.
               norm_class_idx: 2
               splits:
                  - { var:16, quality:4.9372534179687500e+03,
                      le:3.8132485747337341e-01 }
            -
               depth: 2
               value: 1.
               norm_class_idx: 1
               splits:
                  - { var:1, quality:2.4980053710937500e+03,
                      le:6.0278445482254028e-02 }
            -
               depth: 3
               value: 1.
               norm_class_idx: 1
               splits:
                  - { var:14, quality:1.9930288085937500e+03,
                      le:3.9864346385002136e-02 }
            -
               depth: 4
               value: 1.
               norm_class_idx: 1
               splits:
                  - { var:29, quality:1.2547348022460938e+01,
                      le:9.9274045228958130e-01 }
            -
               depth: 5
               value: 1.
               norm_class_idx: 1
            -
               depth: 5
               value: 0.
               norm_class_idx: 0
            -
               depth: 4
               value: 1.
               norm_class_idx: 1
               splits:
                  - { var:13, quality:1.9855095214843750e+03,
                      le:1.9167324900627136e-01 }
            -
               depth: 5
               value: 1.
               norm_class_idx: 1
            -
               depth: 5
               value: 1.
               norm_class_idx: 1
               splits:
                  - { var:29, quality:6.6853378295898438e+01,
                      le:9.8132574558258057e-01 }
            -
               depth: 6
               value: 0.
               norm_class_idx: 0
            -
               depth: 6
               value: 1.
               norm_class_idx: 1
            -
               depth: 3
               value: 1.
               norm_class_idx: 1
               splits:
                  - { var:30, quality:6.0730981445312500e+02,
                      le:6.8548369407653809e+00 }
            -
               depth: 4
               value: 1.
               norm_class_idx: 1
               splits:
                  - { var:12, quality:4.9027874755859375e+02,
                      le:1.9132104516029358e-01 }
            -
               depth: 5
               value: 1.
               norm_class_idx: 1
               splits:
                  - { var:7, quality:4.6466320800781250e+02,
                      le:1.0698389087338001e-04 }
            -
               depth: 6
               value: 0.
               norm_class_idx: 0
               splits:
                  - { var:5, quality:7.5912246704101562e+00,
                      le:4.3722361326217651e-02 }
            -
               depth: 7
               value: 0.
               norm_class_idx: 0
            -
               depth: 7
               value: 1.
               norm_class_idx: 1
            -
               depth: 6
               value: 1.
               norm_class_idx: 1
               splits:
                  - { var:16, quality:4.6148764038085938e+02,
                      le:3.4722489118576050e-01 }
            -
               depth: 7
               value: 1.
               norm_class_idx: 1
            -
               depth: 7
               value: 1.
               norm_class_idx: 1
               splits:
                  - { var:20, quality:6.5847610473632812e+01,
                      le:1.7579815387725830e+00 }
            -
               depth: 8
               value: 1.
               norm_class_idx: 1
               splits:
                  - { var:6, quality:1.7745679855346680e+01,
                      le:2.6820784807205200e-01 }
            -
               depth: 9
               value: 1.
               norm_class_idx: 1
            -
               depth: 9
               value: 2.
               norm_class_idx: 2
               splits:
                  - { var:11, quality:7.8517794609069824e+00,
                      le:6.8660685792565346e-03 }
            -
               depth: 10
               value: 2.
               norm_class_idx: 2
            -
               depth: 10
               value: 2.
               norm_class_idx: 2
            -
               depth: 8
               value: 1.
               norm_class_idx: 1
               splits:
                  - { var:16, quality:5.8626636505126953e+01,
                      le:3.4758794307708740e-01 }
            -
               depth: 9
               value: 2.
               norm_class_idx: 2
            -
               depth: 9
               value: 1.
               norm_class_idx: 1
            -
               depth: 5
               value: 2.
               norm_class_idx: 2
               splits:
                  - { var:21, quality:5.4462860107421875e+01,
                      le:1.4205343723297119e+00 }
            -
               depth: 6
               value: 2.
               norm_class_idx: 2
               splits:
                  - { var:30, quality:4.4066699981689453e+01,
                      le:3.6397063732147217e+00 }
            -
               depth: 7
               value: 1.
               norm_class_idx: 1
               splits:
                  - { var:21, quality:1.0956123352050781e+01,
                      le:1.1958742141723633e+00 }
            -
               depth: 8
               value: 0.
               norm_class_idx: 0
            -
               depth: 8
               value: 1.
               norm_class_idx: 1
            -
               depth: 7
               value: 2.
               norm_class_idx: 2
               splits:
                  - { var:23, quality:4.0525150299072266e+01,
                      le:1.5412833690643311e+00 }
            -
               depth: 8
               value: 1.
               norm_class_idx: 1
            -
               depth: 8
               value: 2.
               norm_class_idx: 2
            -
               depth: 6
               value: 1.
               norm_class_idx: 1
            -
               depth: 4
               value: 0.
               norm_class_idx: 0
               splits:
                  - { var:3, quality:2.0671759033203125e+02,
                      le:1.2085273861885071e-01 }
            -
               depth: 5
               value: 0.
               norm_class_idx: 0
               splits:
                  - { var:4, quality:9.4696647644042969e+01,
                      le:6.3324406743049622e-02 }
            -
               depth: 6
               value: 0.
               norm_class_idx: 0
            -
               depth: 6
               value: 0.
               norm_class_idx: 0
               splits:
                  - { var:23, quality:1.7591224670410156e+01,
                      le:1.4332356452941895e+00 }
            -
               depth: 7
               value: 0.
               norm_class_idx: 0
            -
               depth: 7
               value: 1.
               norm_class_idx: 1
            -
               depth: 5
               value: 1.
               norm_class_idx: 1
               splits:
                  - { var:30, quality:1.6961184692382812e+02,
                      le:9.4733953475952148e+00 }
            -
               depth: 6
               value: 1.
               norm_class_idx: 1
               splits:
                  - { var:24, quality:1.5754570007324219e+02,
                      le:7.5101852416992188e-03 }
            -
               depth: 7
               value: 1.
               norm_class_idx: 1
               splits:
                  - { var:3, quality:1.4106076049804688e+02,
                      le:1.2216265499591827e-01 }
            -
               depth: 8
               value: 0.
               norm_class_idx: 0
               splits:
                  - { var:3, quality:2.9934185028076172e+01,
                      le:1.2190353125333786e-01 }
            -
               depth: 9
               value: 1.
               norm_class_idx: 1
            -
               depth: 9
               value: 0.
               norm_class_idx: 0
            -
               depth: 8
               value: 1.
               norm_class_idx: 1
               splits:
                  - { var:30, quality:1.3017602539062500e+02,
                      le:6.8757972717285156e+00 }
            -
               depth: 9
               value: 0.
               norm_class_idx: 0
               splits:
                  - { var:28, quality:6.3868370056152344e+00,
                      le:4.4999837875366211e-02 }
            -
               depth: 10
               value: 0.
               norm_class_idx: 0
            -
               depth: 10
               value: 1.
               norm_class_idx: 1
            -
               depth: 9
               value: 1.
               norm_class_idx: 1
               splits:
                  - { var:7, quality:1.2943614196777344e+02,
                      le:5.4135518148541451e-03 }
            -
               depth: 10
               value: 1.
               norm_class_idx: 1
            -
               depth: 10
               value: 2.
               norm_class_idx: 2
            -
               depth: 7
               value: 2.
               norm_class_idx: 2
               splits:
                  - { var:5, quality:3.8088729858398438e+01,
                      le:1.4765131473541260e-01 }
            -
               depth: 8
               value: 2.
               norm_class_idx: 2
            -
               depth: 8
               value: 1.
               norm_class_idx: 1
            -
               depth: 6
               value: 0.
               norm_class_idx: 0
               splits:
                  - { var:2, quality:6.1386837005615234e+01,
                      le:1.1661471426486969e-01 }
            -
               depth: 7
               value: 0.
               norm_class_idx: 0
            -
               depth: 7
               value: 1.
               norm_class_idx: 1
            -
               depth: 2
               value: 2.
               norm_class_idx: 2
               splits:
                  - { var:30, quality:2.7098452148437500e+03,
                      le:9.4329090118408203e+00 }
            -
               depth: 3
               value: 2.
               norm_class_idx: 2
               splits:
                  - { var:14, quality:2.6984265136718750e+03,
                      le:1.8957692384719849e-01 }
            -
               depth: 4
               value: 2.
               norm_class_idx: 2
               splits:
                  - { var:6, quality:1.9218040466308594e+02,
                      le:2.6624551415443420e-01 }
            -
               depth: 5
               value: 1.
               norm_class_idx: 1
               splits:
                  - { var:7, quality:1.1738584136962891e+02,
                      le:2.5882389396429062e-02 }
            -
               depth: 6
               value: 1.
               norm_class_idx: 1
               splits:
                  - { var:9, quality:1.0795460510253906e+02,
                      le:9.5444172620773315e-02 }
            -
               depth: 7
               value: 1.
               norm_class_idx: 1
            -
               depth: 7
               value: 2.
               norm_class_idx: 2
            -
               depth: 6
               value: 2.
               norm_class_idx: 2
            -
               depth: 5
               value: 2.
               norm_class_idx: 2
               splits:
                  - { var:22, quality:1.0368800354003906e+02,
                      le:9.3094348907470703e-01 }
            -
               depth: 6
               value: 1.
               norm_class_idx: 1
               splits:
                  - { var:18, quality:9.0499973297119141e+00,
                      le:4.6556854248046875e+00 }
            -
               depth: 7
               value: 2.
               norm_class_idx: 2
            -
               depth: 7
               value: 1.
               norm_class_idx: 1
            -
               depth: 6
               value: 2.
               norm_class_idx: 2
               splits:
                  - { var:2, quality:1.0149927520751953e+02,
                      le:7.6511263847351074e-02 }
            -
               depth: 7
               value: 1.
               norm_class_idx: 1
            -
               depth: 7
               value: 2.
               norm_class_idx: 2
               splits:
                  - { var:7, quality:1.0048767089843750e+02,
                      le:4.8798117786645889e-03 }
            -
               depth: 8
               value: 2.
               norm_class_idx: 2
            -
               depth: 8
               value: 2.
               norm_class_idx: 2
            -
               depth: 4
               value: 2.
               norm_class_idx: 2
               splits:
                  - { var:23, quality:2.6069296875000000e+03,
                      le:1.3458625078201294e+00 }
            -
               depth: 5
               value: 2.
               norm_class_idx: 2
               splits:
                  - { var:8, quality:1.6886434936523438e+02,
                      le:-7.8909546136856079e-02 }
            -
               depth: 6
               value: 2.
               norm_class_idx: 2
               splits:
                  - { var:9, quality:1.2779084777832031e+02,
                      le:4.1486926376819611e-02 }
            -
               depth: 7
               value: 1.
               norm_class_idx: 1
            -
               depth: 7
               value: 2.
               norm_class_idx: 2
            -
               depth: 6
               value: 1.
               norm_class_idx: 1
               splits:
                  - { var:3, quality:5.3383148193359375e+01,
                      le:4.5721417665481567e-01 }
            -
               depth: 7
               value: 1.
               norm_class_idx: 1
               splits:
                  - { var:10, quality:4.7530475616455078e+01,
                      le:-1.1186435222625732e+00 }
            -
               depth: 8
               value: 1.
               norm_class_idx: 1
               splits:
                  - { var:17, quality:3.1448558807373047e+01,
                      le:3.7137024104595184e-02 }
            -
               depth: 9
               value: 1.
               norm_class_idx: 1
            -
               depth: 9
               value: 1.
               norm_class_idx: 1
            -
               depth: 8
               value: 1.
               norm_class_idx: 1
               splits:
                  - { var:8, quality:2.5274421691894531e+01,
                      le:-5.1510732620954514e-02 }
            -
               depth: 9
               value: 2.
               norm_class_idx: 2
            -
               depth: 9
               value: 1.
               norm_class_idx: 1
               splits:
                  - { var:13, quality:1.9418132781982422e+01,
                      le:1.0231328755617142e-01 }
            -
               depth: 10
               value: 1.
               norm_class_idx: 1
            -
               depth: 10
               value: 2.
               norm_class_idx: 2
            -
               depth: 7
               value: 2.
               norm_class_idx: 2
               splits:
                  - { var:18, quality:1.2331618309020996e+01,
                      le:1.8891117095947266e+01 }
            -
               depth: 8
               value: 2.
               norm_class_idx: 2
            -
               depth: 8
               value: 1.
               norm_class_idx: 1
            -
               depth: 5
               value: 2.
               norm_class_idx: 2
               splits:
                  - { var:8, quality:2.4955659179687500e+03,
                      le:-1.3995461165904999e-02 }
            -
               depth: 6
               value: 2.
               norm_class_idx: 2
               splits:
                  - { var:3, quality:2.4967866210937500e+03,
                      le:3.4249144792556763e-01 }
            -
               depth: 7
               value: 2.
               norm_class_idx: 2
               splits:
                  - { var:18, quality:2.4264617919921875e+01,
                      le:6.9666395187377930e+00 }
            -
               depth: 8
               value: 2.
               norm_class_idx: 2
            -
               depth: 8
               value: 1.
               norm_class_idx: 1
               splits:
                  - { var:12, quality:1.3823671340942383e+01,
                      le:1.5468269586563110e-01 }
            -
               depth: 9
               value: 2.
               norm_class_idx: 2
            -
               depth: 9
               value: 1.
               norm_class_idx: 1
            -
               depth: 7
               value: 2.
               norm_class_idx: 2
               splits:
                  - { var:7, quality:2.4825561523437500e+03,
                      le:1.5980046242475510e-02 }
            -
               depth: 8
               value: 2.
               norm_class_idx: 2
               splits:
                  - { var:6, quality:5.7191180419921875e+02,
                      le:1.7567297816276550e-01 }
            -
               depth: 9
               value: 2.
               norm_class_idx: 2
               splits:
                  - { var:11, quality:2.2803752899169922e+01,
                      le:2.0962236449122429e-02 }
            -
               depth: 10
               value: 1.
               norm_class_idx: 1
            -
               depth: 10
               value: 2.
               norm_class_idx: 2
            -
               depth: 9
               value: 2.
               norm_class_idx: 2
               splits:
                  - { var:16, quality:5.5879058837890625e+02,
                      le:4.0551459789276123e-01 }
            -
               depth: 10
               value: 2.
               norm_class_idx: 2
            -
               depth: 10
               value: 2.
               norm_class_idx: 2
            -
               depth: 8
               value: 2.
               norm_class_idx: 2
               splits:
                  - { var:3, quality:1.9204616699218750e+03,
                      le:3.5536471009254456e-01 }
            -
               depth: 9
               value: 2.
               norm_class_idx: 2
               splits:
                  - { var:3, quality:1.8248752593994141e+01,
                      le:3.5329145193099976e-01 }
            -
               depth: 10
               value: 2.
               norm_class_idx: 2
            -
               depth: 10
               value: 1.
               norm_class_idx: 1
            -
               depth: 9
               value: 2.
               norm_class_idx: 2
            -
               depth: 6
               value: 0.
               norm_class_idx: 0
               splits:
                  - { var:25, quality:9.3425493240356445e+00,
                      le:5.0000000000000000e-01 }
            -
               depth: 7
               value: 2.
               norm_class_idx: 2
            -
               depth: 7
               value: 0.
               norm_class_idx: 0
            -
               depth: 3
               value: 0.
               norm_class_idx: 0
            -
               depth: 1
               value: 0.
               norm_class_idx: 0
               splits:
                  - { var:1, quality:2.4969438476562500e+03,
                      le:6.0022003948688507e-02 }
            -
               depth: 2
               value: 1.
               norm_class_idx: 1
            -
               depth: 2
               value: 0.
               norm_class_idx: 0
               splits:
                  - { var:1, quality:2.4792451171875000e+03,
                      le:2.3601660132408142e-01 }
            -
               depth: 3
               value: 0.
               norm_class_idx: 0
               splits:
                  - { var:8, quality:1.0227409362792969e+02,
                      le:-1.6475366428494453e-02 }
            -
               depth: 4
               value: 2.
               norm_class_idx: 2
            -
               depth: 4
               value: 0.
               norm_class_idx: 0
               splits:
                  - { var:23, quality:8.2056518554687500e+01,
                      le:1.4980900287628174e+00 }
            -
               depth: 5
               value: 1.
               norm_class_idx: 1
            -
               depth: 5
               value: 0.
               norm_class_idx: 0
               splits:
                  - { var:10, quality:8.3082771301269531e+01,
                      le:-2.0008640289306641e+00 }
            -
               depth: 6
               value: 1.
               norm_class_idx: 1
            -
               depth: 6
               value: 0.
               norm_class_idx: 0
               splits:
                  - { var:6, quality:8.3175529479980469e+01,
                      le:5.4018288850784302e-01 }
            -
               depth: 7
               value: 2.
               norm_class_idx: 2
            -
               depth: 7
               value: 0.
               norm_class_idx: 0
               splits:
                  - { var:22, quality:8.5944015502929688e+01,
                      le:9.5503020286560059e-01 }
            -
               depth: 8
               value: 1.
               norm_class_idx: 1
            -
               depth: 8
               value: 0.
               norm_class_idx: 0
               splits:
                  - { var:29, quality:8.4654701232910156e+01,
                      le:9.9720275402069092e-01 }
            -
               depth: 9
               value: 0.
               norm_class_idx: 0
            -
               depth: 9
               value: 0.
               norm_class_idx: 0
               splits:
                  - { var:13, quality:2.0591224670410156e+01,
                      le:7.1181044578552246e+00 }
            -
               depth: 10
               value: 0.
               norm_class_idx: 0
            -
               depth: 10
               value: 1.
               norm_class_idx: 1
            -
               depth: 3
               value: 0.
               norm_class_idx: 0
      -
         nodes:
            -
               depth: 0
               value: 0.
               norm_class_idx: 0
               splits:
                  - { var:14, quality:5.2050273437500000e+03,
                      le:5.2497798204421997e-01 }
            -
               depth: 1
               value: 1.
               norm_class_idx: 1
               splits:
                  - { var:16, quality:4.8419389648437500e+03,
                      le:4.0940600633621216e-01 }
            -
               depth: 2
               value: 1.
               norm_class_idx: 1
               splits:
                  - { var:30, quality:2.5667927246093750e+03,
                      le:6.8549671173095703e+00 }
            -
               depth: 3
               value: 1.
               norm_class_idx: 1
               splits:
                  - { var:14, quality:2.4523994140625000e+03,
                      le:1.7053362727165222e-01 }
            -
               depth: 4
               value: 1.
               norm_class_idx: 1
               splits:
                  - { var:1, quality:2.3029306640625000e+03,
                      le:3.2488256692886353e-02 }
            -
               depth: 5
               value: 1.
               norm_class_idx: 1
               splits:
                  - { var:26, quality:9.5692863464355469e+00,
                      le:5.0000000000000000e-01 }
            -
               depth: 6
               value: 1.
               norm_class_idx: 1
            -
               depth: 6
               value: 0.
               norm_class_idx: 0
            -
               depth: 5
               value: 1.
               norm_class_idx: 1
               splits:
                  - { var:11, quality:2.2985258789062500e+03,
                      le:5.4324329830706120e-03 }
            -
               depth: 6
               value: 1.
               norm_class_idx: 1
               splits:
                  - { var:3, quality:2.2039387207031250e+03,
                      le:1.6479262709617615e-01 }
            -
               depth: 7
               value: 1.
               norm_class_idx: 1
            -
               depth: 7
               value: 1.
               norm_class_idx: 1
               splits:
                  - { var:3, quality:1.6981970214843750e+02,
                      le:1.6498908400535583e-01 }
            -
               depth: 8
               value: 2.
               norm_class_idx: 2
            -
               depth: 8
               value: 1.
               norm_class_idx: 1
               splits:
                  - { var:16, quality:1.6923725891113281e+02,
                      le:1.8220633268356323e-01 }
            -
               depth: 9
               value: 1.
               norm_class_idx: 1
            -
               depth: 9
               value: 1.
               norm_class_idx: 1
            -
               depth: 6
               value: 1.
               norm_class_idx: 1
               splits:
                  - { var:30, quality:9.7079971313476562e+01,
                      le:6.5642051696777344e+00 }
            -
               depth: 7
               value: 1.
               norm_class_idx: 1
               splits:
                  - { var:7, quality:9.7359985351562500e+01,
                      le:7.3006199672818184e-03 }
            -
               depth: 8
               value: 1.
               norm_class_idx: 1
            -
               depth: 8
               value: 1.
               norm_class_idx: 1
               splits:
                  - { var:7, quality:1.4328514099121094e+01,
                      le:7.6670665293931961e-03 }
            -
               depth: 9
               value: 2.
               norm_class_idx: 2
            -
               depth: 9
               value: 1.
               norm_class_idx: 1
               splits:
                  - { var:22, quality:1.2615999221801758e+01,
                      le:9.4256281852722168e-01 }
            -
               depth: 10
               value: 1.
               norm_class_idx: 1
            -
               depth: 10
               value: 1.
               norm_class_idx: 1
            -
               depth: 7
               value: 2.
               norm_class_idx: 2
            -
               depth: 4
               value: 1.
               norm_class_idx: 1
               splits:
                  - { var:24, quality:2.1037940979003906e+02,
                      le:6.3638687133789062e-03 }
            -
               depth: 5
               value: 1.
               norm_class_idx: 1
               splits:
                  - { var:25, quality:1.8363964843750000e+02,
                      le:5.0000000000000000e-01 }
            -
               depth: 6
               value: 1.
               norm_class_idx: 1
               splits:
                  - { var:12, quality:1.7560031127929688e+02,
                      le:1.2364025413990021e-01 }
            -
               depth: 7
               value: 2.
               norm_class_idx: 2
            -
               depth: 7
               value: 1.
               norm_class_idx: 1
               splits:
                  - { var:24, quality:1.7439859008789062e+02,
                      le:5.0573348999023438e-03 }
            -
               depth: 8
               value: 1.
               norm_class_idx: 1
               splits:
                  - { var:16, quality:1.7160359191894531e+02,
                      le:4.0727421641349792e-01 }
            -
               depth: 9
               value: 1.
               norm_class_idx: 1
            -
               depth: 9
               value: 2.
               norm_class_idx: 2
            -
               depth: 8
               value: 1.
               norm_class_idx: 1
               splits:
                  - { var:23, quality:1.0392546653747559e+01,
                      le:1.6157884597778320e+00 }
            -
               depth: 9
               value: 1.
               norm_class_idx: 1
            -
               depth: 9
               value: 2.
               norm_class_idx: 2
            -
               depth: 6
               value: 0.
               norm_class_idx: 0
               splits:
                  - { var:6, quality:1.9054094314575195e+01,
                      le:8.6742854118347168e-01 }
            -
               depth: 7
               value: 0.
               norm_class_idx: 0
               splits:
                  - { var:11, quality:1.7314477920532227e+01,
                      le:5.3281393775250763e-05 }
            -
               depth: 8
               value: 0.
               norm_class_idx: 0
               splits:
                  - { var:17, quality:5.5912246704101562e+00,
                      le:1.9544159993529320e-02 }
            -
               depth: 9
               value: 0.
               norm_class_idx: 0
            -
               depth: 9
               value: 1.
               norm_class_idx: 1
            -
               depth: 8
               value: 0.
               norm_class_idx: 0
            -
               depth: 7
               value: 1.
               norm_class_idx: 1
            -
               depth: 5
               value: 2.
               norm_class_idx: 2
               splits:
                  - { var:11, quality:5.8875057220458984e+01,
                      le:1.0729779023677111e-03 }
            -
               depth: 6
               value: 2.
               norm_class_idx: 2
               splits:
                  - { var:19, quality:5.2061157226562500e+01,
                      le:2.1144287586212158e+00 }
            -
               depth: 7
               value: 1.
               norm_class_idx: 1
            -
               depth: 7
               value: 2.
               norm_class_idx: 2
            -
               depth: 6
               value: 1.
               norm_class_idx: 1
               splits:
                  - { var:20, quality:2.0260997772216797e+01,
                      le:1.7194317579269409e+00 }
            -
               depth: 7
               value: 2.
               norm_class_idx: 2
            -
               depth: 7
               value: 1.
               norm_class_idx: 1
               splits:
                  - { var:23, quality:1.1388294219970703e+01,
                      le:1.5446025133132935e+00 }
            -
               depth: 8
               value: 1.
               norm_class_idx: 1
            -
               depth: 8
               value: 1.
               norm_class_idx: 1
            -
               depth: 3
               value: 0.
               norm_class_idx: 0
               splits:
                  - { var:5, quality:2.0137120056152344e+02,
                      le:6.7171677947044373e-02 }
            -
               depth: 4
               value: 0.
               norm_class_idx: 0
               splits:
                  - { var:22, quality:1.2262575531005859e+02,
                      le:9.8564505577087402e-01 }
            -
               depth: 5
               value: 0.
               norm_class_idx: 0
               splits:
                  - { var:24, quality:1.0725059509277344e+02,
                      le:1.7929077148437500e-04 }
            -
               depth: 6
               value: 1.
               norm_class_idx: 1
            -
               depth: 6
               value: 0.
               norm_class_idx: 0
               splits:
                  - { var:22, quality:1.0655516815185547e+02,
                      le:9.7912979125976562e-01 }
            -
               depth: 7
               value: 0.
               norm_class_idx: 0
            -
               depth: 7
               value: 0.
               norm_class_idx: 0
               splits:
                  - { var:30, quality:3.3037460327148438e+01,
                      le:6.8949999809265137e+00 }
            -
               depth: 8
               value: 0.
               norm_class_idx: 0
               splits:
                  - { var:29, quality:3.2333629608154297e+01,
                      le:9.9709933996200562e-01 }
            -
               depth: 9
               value: 0.
               norm_class_idx: 0
            -
               depth: 9
               value: 0.
               norm_class_idx: 0
               splits:
                  - { var:15, quality:9.7956123352050781e+00,
                      le:9.9999940395355225e-01 }
            -
               depth: 10
               value: 1.
               norm_class_idx: 1
            -
               depth: 10
               value: 0.
               norm_class_idx: 0
            -
               depth: 8
               value: 1.
               norm_class_idx: 1
            -
               depth: 5
               value: 1.
               norm_class_idx: 1
               splits:
                  - { var:29, quality:2.0015218734741211e+01,
                      le:9.9637258052825928e-01 }
            -
               depth: 6
               value: 0.
               norm_class_idx: 0
            -
               depth: 6
               value: 1.
               norm_class_idx: 1
            -
               depth: 4
               value: 1.
               norm_class_idx: 1
               splits:
                  - { var:30, quality:1.5659423828125000e+02,
                      le:9.4733953475952148e+00 }
            -
               depth: 5
               value: 1.
               norm_class_idx: 1
               splits:
                  - { var:24, quality:1.5571185302734375e+02,
                      le:6.5999031066894531e-03 }
            -
               depth: 6
               value: 1.
               norm_class_idx: 1
               splits:
                  - { var:30, quality:1.4984532165527344e+02,
                      le:6.8757972717285156e+00 }
            -
               depth: 7
               value: 0.
               norm_class_idx: 0
            -
               depth: 7
               value: 1.
               norm_class_idx: 1
            -
               depth: 6
               value: 2.
               norm_class_idx: 2
               splits:
                  - { var:20, quality:3.2370948791503906e+01,
                      le:2.0847883224487305e+00 }
            -
               depth: 7
               value: 2.
               norm_class_idx: 2
               splits:
                  - { var:29, quality:3.2356056213378906e+01,
                      le:9.7053837776184082e-01 }
            -
               depth: 8
               value: 1.
               norm_class_idx: 1
            -
               depth: 8
               value: 2.
               norm_class_idx: 2
            -
               depth: 7
               value: 1.
               norm_class_idx: 1
            -
               depth: 5
               value: 0.
               norm_class_idx: 0
               splits:
                  - { var:22, quality:4.5795612335205078e+01,
                      le:9.1610211133956909e-01 }
            -
               depth: 6
               value: 1.
               norm_class_idx: 1
            -
               depth: 6
               value: 0.
               norm_class_idx: 0
            -
               depth: 2
               value: 2.
               norm_class_idx: 2
               splits:
                  - { var:25, quality:2.5788737792968750e+03,
                      le:5.0000000000000000e-01 }
            -
               depth: 3
               value: 2.
               norm_class_idx: 2
               splits:
                  - { var:12, quality:2.5567932128906250e+03,
                      le:1.4484436810016632e-01 }
            -
               depth: 4
               value: 2.
               norm_class_idx: 2
               splits:
                  - { var:4, quality:1.3931280517578125e+02,
                      le:3.8666501641273499e-02 }
            -
               depth: 5
               value: 1.
               norm_class_idx: 1
               splits:
                  - { var:8, quality:9.2716018676757812e+01,
                      le:-8.2424074411392212e-02 }
            -
               depth: 6
               value: 2.
               norm_class_idx: 2
            -
               depth: 6
               value: 1.
               norm_class_idx: 1
               splits:
                  - { var:3, quality:8.5519096374511719e+01,
                      le:3.8122871518135071e-01 }
            -
               depth: 7
               value: 1.
               norm_class_idx: 1
               splits:
                  - { var:11, quality:8.1991348266601562e+01,
                      le:2.8008542954921722e-02 }
            -
               depth: 8
               value: 1.
               norm_class_idx: 1
               splits:
                  - { var:18, quality:8.1572135925292969e+01,
                      le:7.4736089706420898e+00 }
            -
               depth: 9
               value: 1.
               norm_class_idx: 1
            -
               depth: 9
               value: 1.
               norm_class_idx: 1
            -
               depth: 8
               value: 2.
               norm_class_idx: 2
            -
               depth: 7
               value: 2.
               norm_class_idx: 2
               splits:
                  - { var:13, quality:7.5083584785461426e+00,
                      le:6.5911829471588135e-02 }
            -
               depth: 8
               value: 2.
               norm_class_idx: 2
            -
               depth: 8
               value: 1.
               norm_class_idx: 1
            -
               depth: 5
               value: 2.
               norm_class_idx: 2
               splits:
                  - { var:22, quality:7.1854515075683594e+01,
                      le:9.0870624780654907e-01 }
            -
               depth: 6
               value: 1.
               norm_class_idx: 1
            -
               depth: 6
               value: 2.
               norm_class_idx: 2
               splits:
                  - { var:14, quality:7.0621971130371094e+01,
                      le:1.4781481027603149e-01 }
            -
               depth: 7
               value: 2.
               norm_class_idx: 2
            -
               depth: 7
               value: 2.
               norm_class_idx: 2
            -
               depth: 4
               value: 2.
               norm_class_idx: 2
               splits:
                  - { var:23, quality:2.4779953613281250e+03,
                      le:1.3241055011749268e+00 }
            -
               depth: 5
               value: 2.
               norm_class_idx: 2
               splits:
                  - { var:9, quality:1.1928333282470703e+02,
                      le:4.9362652003765106e-02 }
            -
               depth: 6
               value: 1.
               norm_class_idx: 1
               splits:
                  - { var:16, quality:3.2669692993164062e+01,
                      le:6.2716168165206909e-01 }
            -
               depth: 7
               value: 1.
               norm_class_idx: 1
            -
               depth: 7
               value: 2.
               norm_class_idx: 2
            -
               depth: 6
               value: 2.
               norm_class_idx: 2
               splits:
                  - { var:1, quality:9.7760414123535156e+01,
                      le:1.4984411001205444e-01 }
            -
               depth: 7
               value: 1.
               norm_class_idx: 1
            -
               depth: 7
               value: 2.
               norm_class_idx: 2
               splits:
                  - { var:15, quality:9.6676536560058594e+01,
                      le:6.2939095497131348e-01 }
            -
               depth: 8
               value: 2.
               norm_class_idx: 2
               splits:
                  - { var:8, quality:9.7459152221679688e+01,
                      le:-3.2931268215179443e-02 }
            -
               depth: 9
               value: 2.
               norm_class_idx: 2
            -
               depth: 9
               value: 1.
               norm_class_idx: 1
            -
               depth: 8
               value: 1.
               norm_class_idx: 1
            -
               depth: 5
               value: 2.
               norm_class_idx: 2
               splits:
                  - { var:2, quality:2.3990949707031250e+03,
                      le:9.7234897315502167e-02 }
            -
               depth: 6
               value: 1.
               norm_class_idx: 1
            -
               depth: 6
               value: 2.
               norm_class_idx: 2
               splits:
                  - { var:3, quality:2.4061484375000000e+03,
                      le:3.2674875855445862e-01 }
            -
               depth: 7
               value: 1.
               norm_class_idx: 1
               splits:
                  - { var:18, quality:1.1983771324157715e+01,
                      le:5.1814374923706055e+00 }
            -
               depth: 8
               value: 2.
               norm_class_idx: 2
            -
               depth: 8
               value: 1.
               norm_class_idx: 1
            -
               depth: 7
               value: 2.
               norm_class_idx: 2
               splits:
                  - { var:29, quality:2.4026413574218750e+03,
                      le:9.8963963985443115e-01 }
            -
               depth: 8
               value: 2.
               norm_class_idx: 2
               splits:
                  - { var:4, quality:2.4040324707031250e+03,
                      le:7.7667497098445892e-03 }
            -
               depth: 9
               value: 1.
               norm_class_idx: 1
            -
               depth: 9
               value: 2.
               norm_class_idx: 2
               splits:
                  - { var:3, quality:2.4030639648437500e+03,
                      le:3.9819088578224182e-01 }
            -
               depth: 10
               value: 2.
               norm_class_idx: 2
            -
               depth: 10
               value: 2.
               norm_class_idx: 2
            -
               depth: 8
               value: 1.
               norm_class_idx: 1
            -
               depth: 3
               value: 0.
               norm_class_idx: 0
               splits:
                  - { var:30, quality:1.1749960327148438e+02,
                      le:8.7478361129760742e+00 }
            -
               depth: 4
               value: 2.
               norm_class_idx: 2
               splits:
                  - { var:8, quality:2.2138238906860352e+01,
                      le:-1.7168618738651276e-02 }
            -
               depth: 5
               value: 2.
               norm_class_idx: 2
            -
               depth: 5
               value: 0.
               norm_class_idx: 0
            -
               depth: 4
               value: 0.
               norm_class_idx: 0
            -
               depth: 1
               value: 0.
               norm_class_idx: 0
               splits:
                  - { var:2, quality:2.6065256347656250e+03,
                      le:4.0014930069446564e-02 }
            -
               depth: 2
               value: 1.
               norm_class_idx: 1
            -
               depth: 2
               value: 0.
               norm_class_idx: 0
               splits:
                  - { var:2, quality:2.5983989257812500e+03,
                      le:2.1927082538604736e-01 }
            -
               depth: 3
               value: 0.
               norm_class_idx: 0
               splits:
                  - { var:7, quality:1.8863363647460938e+02,
                      le:1.0057669132947922e-03 }
            -
               depth: 4
               value: 0.
               norm_class_idx: 0
               splits:
                  - { var:27, quality:1.5025512695312500e+02,
                      le:1.5000000000000000e+00 }
            -
               depth: 5
               value: 0.
               norm_class_idx: 0
               splits:
                  - { var:1, quality:1.4927915954589844e+02,
                      le:5.8240659534931183e-02 }
            -
               depth: 6
               value: 1.
               norm_class_idx: 1
            -
               depth: 6
               value: 0.
               norm_class_idx: 0
               splits:
                  - { var:10, quality:1.4957589721679688e+02,
                      le:-4.9957400560379028e-01 }
            -
               depth: 7
               value: 0.
               norm_class_idx: 0
               splits:
                  - { var:29, quality:1.4825163269042969e+02,
                      le:9.9718248844146729e-01 }
            -
               depth: 8
               value: 0.
               norm_class_idx: 0
            -
               depth: 8
               value: 0.
               norm_class_idx: 0
               splits:
                  - { var:18, quality:2.6795612335205078e+01,
                      le:4.7215327620506287e-02 }
            -
               depth: 9
               value: 1.
               norm_class_idx: 1
            -
               depth: 9
               value: 0.
               norm_class_idx: 0
            -
               depth: 7
               value: 1.
               norm_class_idx: 1
            -
               depth: 5
               value: 2.
               norm_class_idx: 2
            -
               depth: 4
               value: 2.
               norm_class_idx: 2
               splits:
                  - { var:0, quality:4.7989223480224609e+01,
                      le:3.0500000000000000e+01 }
            -
               depth: 5
               value: 2.
               norm_class_idx: 2
            -
               depth: 5
               value: 0.
               norm_class_idx: 0
            -
               depth: 3
               value: 0.
               norm_class_idx: 0
      -
         nodes:
            -
               depth: 0
               value: 0.
               norm_class_idx: 0
               splits:
                  - { var:1, quality:5.1740708007812500e+03,
                      le:2.6495498418807983e-01 }
            -
               depth: 1
               value: 1.
               norm_class_idx: 1
               splits:
                  - { var:16, quality:4.8256708984375000e+03,
                      le:3.8721126317977905e-01 }
            -
               depth: 2
               value: 1.
               norm_class_idx: 1
               splits:
                  - { var:30, quality:2.6154050292968750e+03,
                      le:6.8549671173095703e+00 }
            -
               depth: 3
               value: 1.
               norm_class_idx: 1
               splits:
                  - { var:24, quality:2.4679055175781250e+03,
                      le:1.2788444757461548e-02 }
            -
               depth: 4
               value: 1.
               norm_class_idx: 1
               splits:
                  - { var:3, quality:2.4664230957031250e+03,
                      le:2.8798469901084900e-01 }
            -
               depth: 5
               value: 1.
               norm_class_idx: 1
               splits:
                  - { var:26, quality:2.4114169921875000e+03,
                      le:5.0000000000000000e-01 }
            -
               depth: 6
               value: 1.
               norm_class_idx: 1
               splits:
                  - { var:12, quality:2.3384206542968750e+03,
                      le:2.6614141464233398e-01 }
            -
               depth: 7
               value: 1.
               norm_class_idx: 1
               splits:
                  - { var:22, quality:2.2783115234375000e+03,
                      le:9.3778836727142334e-01 }
            -
               depth: 8
               value: 1.
               norm_class_idx: 1
               splits:
                  - { var:22, quality:4.8813888549804688e+01,
                      le:9.3772667646408081e-01 }
            -
               depth: 9
               value: 1.
               norm_class_idx: 1
               splits:
                  - { var:6, quality:4.8304756164550781e+01,
                      le:5.6138789653778076e-01 }
            -
               depth: 10
               value: 1.
               norm_class_idx: 1
            -
               depth: 10
               value: 1.
               norm_class_idx: 1
            -
               depth: 9
               value: 2.
               norm_class_idx: 2
            -
               depth: 8
               value: 1.
               norm_class_idx: 1
            -
               depth: 7
               value: 1.
               norm_class_idx: 1
               splits:
                  - { var:30, quality:7.0147026062011719e+01,
                      le:3.4999666213989258e+00 }
            -
               depth: 8
               value: 0.
               norm_class_idx: 0
            -
               depth: 8
               value: 1.
               norm_class_idx: 1
               splits:
                  - { var:17, quality:7.0312149047851562e+01,
                      le:1.6958173364400864e-02 }
            -
               depth: 9
               value: 2.
               norm_class_idx: 2
            -
               depth: 9
               value: 1.
               norm_class_idx: 1
            -
               depth: 6
               value: 1.
               norm_class_idx: 1
               splits:
                  - { var:25, quality:9.1948074340820312e+01,
                      le:5.0000000000000000e-01 }
            -
               depth: 7
               value: 1.
               norm_class_idx: 1
            -
               depth: 7
               value: 0.
               norm_class_idx: 0
            -
               depth: 5
               value: 1.
               norm_class_idx: 1
               splits:
                  - { var:6, quality:9.1084030151367188e+01,
                      le:5.0659573078155518e-01 }
            -
               depth: 6
               value: 1.
               norm_class_idx: 1
               splits:
                  - { var:8, quality:7.1000854492187500e+01,
                      le:-3.6925584077835083e-02 }
            -
               depth: 7
               value: 1.
               norm_class_idx: 1
               splits:
                  - { var:14, quality:1.0392546653747559e+01,
                      le:1.6837829351425171e-01 }
            -
               depth: 8
               value: 1.
               norm_class_idx: 1
            -
               depth: 8
               value: 2.
               norm_class_idx: 2
            -
               depth: 7
               value: 1.
               norm_class_idx: 1
               splits:
                  - { var:24, quality:6.6285545349121094e+01,
                      le:8.0690383911132812e-03 }
            -
               depth: 8
               value: 1.
               norm_class_idx: 1
            -
               depth: 8
               value: 1.
               norm_class_idx: 1
            -
               depth: 6
               value: 2.
               norm_class_idx: 2
               splits:
                  - { var:9, quality:3.4850982666015625e+01,
                      le:1.0993536561727524e-02 }
            -
               depth: 7
               value: 0.
               norm_class_idx: 0
            -
               depth: 7
               value: 2.
               norm_class_idx: 2
            -
               depth: 4
               value: 2.
               norm_class_idx: 2
               splits:
                  - { var:28, quality:3.8536495208740234e+01,
                      le:1.5500003099441528e-01 }
            -
               depth: 5
               value: 2.
               norm_class_idx: 2
            -
               depth: 5
               value: 1.
               norm_class_idx: 1
            -
               depth: 3
               value: 0.
               norm_class_idx: 0
               splits:
                  - { var:30, quality:2.4410633850097656e+02,
                      le:6.9005403518676758e+00 }
            -
               depth: 4
               value: 0.
               norm_class_idx: 0
               splits:
                  - { var:22, quality:1.4798248291015625e+02,
                      le:9.9208188056945801e-01 }
            -
               depth: 5
               value: 0.
               norm_class_idx: 0
               splits:
                  - { var:1, quality:1.4378181457519531e+02,
                      le:6.6147178411483765e-02 }
            -
               depth: 6
               value: 0.
               norm_class_idx: 0
               splits:
                  - { var:6, quality:1.4454455566406250e+02,
                      le:9.9998486042022705e-01 }
            -
               depth: 7
               value: 0.
               norm_class_idx: 0
               splits:
                  - { var:22, quality:1.4356272888183594e+02,
                      le:9.8013722896575928e-01 }
            -
               depth: 8
               value: 0.
               norm_class_idx: 0
            -
               depth: 8
               value: 0.
               norm_class_idx: 0
               splits:
                  - { var:6, quality:2.5642282485961914e+01,
                      le:9.9283200502395630e-01 }
            -
               depth: 9
               value: 0.
               norm_class_idx: 0
               splits:
                  - { var:3, quality:2.4795612335205078e+01,
                      le:1.2216193974018097e-01 }
            -
               depth: 10
               value: 0.
               norm_class_idx: 0
            -
               depth: 10
               value: 1.
               norm_class_idx: 1
            -
               depth: 9
               value: 1.
               norm_class_idx: 1
            -
               depth: 7
               value: 1.
               norm_class_idx: 1
            -
               depth: 6
               value: 2.
               norm_class_idx: 2
            -
               depth: 5
               value: 1.
               norm_class_idx: 1
            -
               depth: 4
               value: 1.
               norm_class_idx: 1
               splits:
                  - { var:30, quality:1.8126205444335938e+02,
                      le:9.4709415435791016e+00 }
            -
               depth: 5
               value: 1.
               norm_class_idx: 1
               splits:
                  - { var:3, quality:1.4290361022949219e+02,
                      le:2.8524094820022583e-01 }
            -
               depth: 6
               value: 1.
               norm_class_idx: 1
               splits:
                  - { var:7, quality:1.3541615295410156e+02,
                      le:3.4492001868784428e-03 }
            -
               depth: 7
               value: 1.
               norm_class_idx: 1
            -
               depth: 7
               value: 2.
               norm_class_idx: 2
               splits:
                  - { var:16, quality:8.3039703369140625e+00,
                      le:3.2189100980758667e-01 }
            -
               depth: 8
               value: 2.
               norm_class_idx: 2
            -
               depth: 8
               value: 1.
               norm_class_idx: 1
            -
               depth: 6
               value: 2.
               norm_class_idx: 2
               splits:
                  - { var:8, quality:3.3029518127441406e+01,
                      le:-2.6257937774062157e-02 }
            -
               depth: 7
               value: 2.
               norm_class_idx: 2
               splits:
                  - { var:8, quality:2.5210172653198242e+01,
                      le:-4.3864510953426361e-02 }
            -
               depth: 8
               value: 1.
               norm_class_idx: 1
            -
               depth: 8
               value: 2.
               norm_class_idx: 2
            -
               depth: 7
               value: 0.
               norm_class_idx: 0
               splits:
                  - { var:8, quality:2.4138572692871094e+01,
                      le:-8.3818547427654266e-03 }
            -
               depth: 8
               value: 1.
               norm_class_idx: 1
            -
               depth: 8
               value: 0.
               norm_class_idx: 0
            -
               depth: 5
               value: 0.
               norm_class_idx: 0
               splits:
                  - { var:25, quality:6.8386840820312500e+01,
                      le:5.0000000000000000e-01 }
            -
               depth: 6
               value: 1.
               norm_class_idx: 1
            -
               depth: 6
               value: 0.
               norm_class_idx: 0
            -
               depth: 2
               value: 2.
               norm_class_idx: 2
               splits:
                  - { var:4, quality:2.6355322265625000e+03,
                      le:8.4009662270545959e-02 }
            -
               depth: 3
               value: 2.
               norm_class_idx: 2
               splits:
                  - { var:12, quality:2.6166674804687500e+03,
                      le:1.4709368348121643e-01 }
            -
               depth: 4
               value: 1.
               norm_class_idx: 1
               splits:
                  - { var:4, quality:1.6604260253906250e+02,
                      le:3.9171703159809113e-02 }
            -
               depth: 5
               value: 1.
               norm_class_idx: 1
               splits:
                  - { var:8, quality:1.1107819366455078e+02,
                      le:-6.9906517863273621e-02 }
            -
               depth: 6
               value: 2.
               norm_class_idx: 2
               splits:
                  - { var:6, quality:1.8318126678466797e+01,
                      le:6.5154366195201874e-02 }
            -
               depth: 7
               value: 1.
               norm_class_idx: 1
            -
               depth: 7
               value: 2.
               norm_class_idx: 2
               splits:
                  - { var:23, quality:1.8248752593994141e+01,
                      le:1.1788980960845947e+00 }
            -
               depth: 8
               value: 1.
               norm_class_idx: 1
            -
               depth: 8
               value: 2.
               norm_class_idx: 2
            -
               depth: 6
               value: 1.
               norm_class_idx: 1
               splits:
                  - { var:20, quality:1.1333165740966797e+02,
                      le:2.5123281478881836e+00 }
            -
               depth: 7
               value: 1.
               norm_class_idx: 1
               splits:
                  - { var:9, quality:1.0770592498779297e+02,
                      le:9.6955858170986176e-02 }
            -
               depth: 8
               value: 1.
               norm_class_idx: 1
            -
               depth: 8
               value: 2.
               norm_class_idx: 2
            -
               depth: 7
               value: 2.
               norm_class_idx: 2
               splits:
                  - { var:13, quality:1.3674167633056641e+01,
                      le:8.7636753916740417e-02 }
            -
               depth: 8
               value: 2.
               norm_class_idx: 2
            -
               depth: 8
               value: 1.
               norm_class_idx: 1
            -
               depth: 5
               value: 2.
               norm_class_idx: 2
               splits:
                  - { var:7, quality:7.7295188903808594e+01,
                      le:3.3106107730418444e-03 }
            -
               depth: 6
               value: 1.
               norm_class_idx: 1
            -
               depth: 6
               value: 2.
               norm_class_idx: 2
               splits:
                  - { var:9, quality:7.9599761962890625e+01,
                      le:3.8480933755636215e-02 }
            -
               depth: 7
               value: 1.
               norm_class_idx: 1
            -
               depth: 7
               value: 2.
               norm_class_idx: 2
               splits:
                  - { var:22, quality:7.8599853515625000e+01,
                      le:9.1601097583770752e-01 }
            -
               depth: 8
               value: 2.
               norm_class_idx: 2
               splits:
                  - { var:15, quality:6.4144845008850098e+00,
                      le:1.9633609056472778e-01 }
            -
               depth: 9
               value: 2.
               norm_class_idx: 2
            -
               depth: 9
               value: 1.
               norm_class_idx: 1
            -
               depth: 8
               value: 2.
               norm_class_idx: 2
            -
               depth: 4
               value: 2.
               norm_class_idx: 2
               splits:
                  - { var:8, quality:2.5195981445312500e+03,
                      le:-1.2158002704381943e-02 }
            -
               depth: 5
               value: 2.
               norm_class_idx: 2
               splits:
                  - { var:14, quality:2.5225563964843750e+03,
                      le:2.2016586363315582e-01 }
            -
               depth: 6
               value: 2.
               norm_class_idx: 2
               splits:
                  - { var:6, quality:2.8056607055664062e+02,
                      le:1.1916185170412064e-01 }
            -
               depth: 7
               value: 1.
               norm_class_idx: 1
               splits:
                  - { var:16, quality:4.2982727050781250e+01,
                      le:6.3521307706832886e-01 }
            -
               depth: 8
               value: 1.
               norm_class_idx: 1
               splits:
                  - { var:24, quality:3.1933181762695312e+01,
                      le:1.2171566486358643e-03 }
            -
               depth: 9
               value: 2.
               norm_class_idx: 2
            -
               depth: 9
               value: 1.
               norm_class_idx: 1
               splits:
                  - { var:4, quality:3.3167041778564453e+01,
                      le:2.0662259310483932e-02 }
            -
               depth: 10
               value: 1.
               norm_class_idx: 1
            -
               depth: 10
               value: 2.
               norm_class_idx: 2
            -
               depth: 8
               value: 2.
               norm_class_idx: 2
            -
               depth: 7
               value: 2.
               norm_class_idx: 2
               splits:
                  - { var:7, quality:2.6293322753906250e+02,
                      le:6.2498105689883232e-03 }
            -
               depth: 8
               value: 2.
               norm_class_idx: 2
               splits:
                  - { var:6, quality:2.8840387344360352e+01,
                      le:3.5597714781761169e-01 }
            -
               depth: 9
               value: 1.
               norm_class_idx: 1
            -
               depth: 9
               value: 2.
               norm_class_idx: 2
            -
               depth: 8
               value: 2.
               norm_class_idx: 2
               splits:
                  - { var:22, quality:2.5287289428710938e+02,
                      le:8.9113831520080566e-01 }
            -
               depth: 9
               value: 1.
               norm_class_idx: 1
            -
               depth: 9
               value: 2.
               norm_class_idx: 2
               splits:
                  - { var:4, quality:2.5132234191894531e+02,
                      le:3.1982790678739548e-02 }
            -
               depth: 10
               value: 2.
               norm_class_idx: 2
            -
               depth: 10
               value: 2.
               norm_class_idx: 2
            -
               depth: 6
               value: 2.
               norm_class_idx: 2
               splits:
                  - { var:18, quality:2.2774304199218750e+03,
                      le:6.1862277984619141e+01 }
            -
               depth: 7
               value: 2.
               norm_class_idx: 2
               splits:
                  - { var:5, quality:2.2782104492187500e+03,
                      le:3.0793972313404083e-02 }
            -
               depth: 8
               value: 0.
               norm_class_idx: 0
            -
               depth: 8
               value: 2.
               norm_class_idx: 2
               splits:
                  - { var:29, quality:2.2777751464843750e+03,
                      le:9.8945629596710205e-01 }
            -
               depth: 9
               value: 2.
               norm_class_idx: 2
               splits:
                  - { var:23, quality:2.2808159179687500e+03,
                      le:1.2268981933593750e+00 }
            -
               depth: 10
               value: 2.
               norm_class_idx: 2
            -
               depth: 10
               value: 2.
               norm_class_idx: 2
            -
               depth: 9
               value: 1.
               norm_class_idx: 1
            -
               depth: 7
               value: 1.
               norm_class_idx: 1
            -
               depth: 5
               value: 0.
               norm_class_idx: 0
            -
               depth: 3
               value: 0.
               norm_class_idx: 0
               splits:
                  - { var:25, quality:1.3005529785156250e+02,
                      le:5.0000000000000000e-01 }
            -
               depth: 4
               value: 2.
               norm_class_idx: 2
            -
               depth: 4
               value: 0.
               norm_class_idx: 0
            -
               depth: 1
               value: 0.
               norm_class_idx: 0
               splits:
                  - { var:7, quality:2.5287956542968750e+03,
                      le:4.1199363768100739e-02 }
            -
               depth: 2
               value: 0.
               norm_class_idx: 0
            -
               depth: 2
               value: 2.
               norm_class_idx: 2
      -
         nodes:
            -
               depth: 0
               value: 2.
               norm_class_idx: 2
               splits:
                  - { var:14, quality:5.1703256835937500e+03,
                      le:5.8412319421768188e-01 }
            -
               depth: 1
               value: 1.
               norm_class_idx: 1
               splits:
                  - { var:24, quality:4.3710585937500000e+03,
                      le:9.5717906951904297e-03 }
            -
               depth: 2
               value: 1.
               norm_class_idx: 1
               splits:
                  - { var:16, quality:2.8775649414062500e+03,
                      le:4.5695751905441284e-01 }
            -
               depth: 3
               value: 1.
               norm_class_idx: 1
               splits:
                  - { var:4, quality:2.5870488281250000e+03,
                      le:6.0823053121566772e-02 }
            -
               depth: 4
               value: 1.
               norm_class_idx: 1
               splits:
                  - { var:16, quality:2.4179162597656250e+03,
                      le:3.1209176778793335e-01 }
            -
               depth: 5
               value: 1.
               norm_class_idx: 1
               splits:
                  - { var:12, quality:2.2433586425781250e+03,
                      le:3.2396137714385986e-02 }
            -
               depth: 6
               value: 0.
               norm_class_idx: 0
            -
               depth: 6
               value: 1.
               norm_class_idx: 1
               splits:
                  - { var:30, quality:2.2445698242187500e+03,
                      le:6.8750000000000000e+00 }
            -
               depth: 7
               value: 1.
               norm_class_idx: 1
               splits:
                  - { var:14, quality:2.2430405273437500e+03,
                      le:3.8734519481658936e-01 }
            -
               depth: 8
               value: 1.
               norm_class_idx: 1
               splits:
                  - { var:14, quality:2.2381398925781250e+03,
                      le:2.0331826806068420e-01 }
            -
               depth: 9
               value: 1.
               norm_class_idx: 1
               splits:
                  - { var:21, quality:2.1722055664062500e+03,
                      le:1.9719920158386230e+00 }
            -
               depth: 10
               value: 1.
               norm_class_idx: 1
            -
               depth: 10
               value: 1.
               norm_class_idx: 1
            -
               depth: 9
               value: 1.
               norm_class_idx: 1
               splits:
                  - { var:23, quality:7.1443862915039062e+01,
                      le:1.6633632183074951e+00 }
            -
               depth: 10
               value: 1.
               norm_class_idx: 1
            -
               depth: 10
               value: 0.
               norm_class_idx: 0
            -
               depth: 8
               value: 1.
               norm_class_idx: 1
               splits:
                  - { var:3, quality:9.0499973297119141e+00,
                      le:1.8920373916625977e-01 }
            -
               depth: 9
               value: 1.
               norm_class_idx: 1
            -
               depth: 9
               value: 2.
               norm_class_idx: 2
            -
               depth: 7
               value: 1.
               norm_class_idx: 1
               splits:
                  - { var:4, quality:6.1824493408203125e+00,
                      le:6.0083992779254913e-02 }
            -
               depth: 8
               value: 0.
               norm_class_idx: 0
            -
               depth: 8
               value: 1.
               norm_class_idx: 1
            -
               depth: 5
               value: 1.
               norm_class_idx: 1
               splits:
                  - { var:6, quality:2.2725723266601562e+02,
                      le:4.5085650682449341e-01 }
            -
               depth: 6
               value: 1.
               norm_class_idx: 1
               splits:
                  - { var:17, quality:2.0000471496582031e+02,
                      le:1.8746744841337204e-02 }
            -
               depth: 7
               value: 1.
               norm_class_idx: 1
               splits:
                  - { var:2, quality:1.3041860580444336e+01,
                      le:8.2207754254341125e-02 }
            -
               depth: 8
               value: 1.
               norm_class_idx: 1
            -
               depth: 8
               value: 2.
               norm_class_idx: 2
            -
               depth: 7
               value: 1.
               norm_class_idx: 1
               splits:
                  - { var:3, quality:1.9268569946289062e+02,
                      le:3.6763587594032288e-01 }
            -
               depth: 8
               value: 1.
               norm_class_idx: 1
               splits:
                  - { var:13, quality:1.8760606384277344e+02,
                      le:3.7908270955085754e-02 }
            -
               depth: 9
               value: 1.
               norm_class_idx: 1
               splits:
                  - { var:5, quality:1.2985964775085449e+01,
                      le:1.0378475487232208e-01 }
            -
               depth: 10
               value: 2.
               norm_class_idx: 2
            -
               depth: 10
               value: 1.
               norm_class_idx: 1
            -
               depth: 9
               value: 1.
               norm_class_idx: 1
            -
               depth: 8
               value: 1.
               norm_class_idx: 1
               splits:
                  - { var:6, quality:9.8456096649169922e+00,
                      le:3.5597714781761169e-01 }
            -
               depth: 9
               value: 1.
               norm_class_idx: 1
            -
               depth: 9
               value: 2.
               norm_class_idx: 2
            -
               depth: 6
               value: 2.
               norm_class_idx: 2
               splits:
                  - { var:17, quality:4.2069763183593750e+01,
                      le:8.9412247762084007e-03 }
            -
               depth: 7
               value: 0.
               norm_class_idx: 0
            -
               depth: 7
               value: 2.
               norm_class_idx: 2
               splits:
                  - { var:14, quality:3.8811950683593750e+01,
                      le:1.7022669315338135e-01 }
            -
               depth: 8
               value: 1.
               norm_class_idx: 1
               splits:
                  - { var:6, quality:6.1162233352661133e+00,
                      le:5.7834988832473755e-01 }
            -
               depth: 9
               value: 1.
               norm_class_idx: 1
            -
               depth: 9
               value: 2.
               norm_class_idx: 2
            -
               depth: 8
               value: 2.
               norm_class_idx: 2
               splits:
                  - { var:2, quality:3.5558849334716797e+01,
                      le:1.1507280915975571e-01 }
            -
               depth: 9
               value: 2.
               norm_class_idx: 2
            -
               depth: 9
               value: 2.
               norm_class_idx: 2
            -
               depth: 4
               value: 1.
               norm_class_idx: 1
               splits:
                  - { var:8, quality:2.3571055603027344e+02,
                      le:-1.1898143216967583e-02 }
            -
               depth: 5
               value: 1.
