%YAML:1.0
---
opencv_ml_rtrees:
   format: 3
   is_classifier: 1
   var_all: 31
   var_count: 30
   ord_var_count: 30
   cat_var_count: 1
   training_params:
      use_surrogates: 0
      max_categories: 15
      regression_accuracy: 1.0000000474974513e-03
      max_depth: 10
      min_sample_count: 5
      cross_validation_folds: 0
      priors: !!opencv-matrix
         rows: 1
         cols: 3
         dt: f
         data: [ 4.59163468e-41, 1.22093074e+33, 4.59163468e-41 ]
      nactive_vars: 15
   global_var_idx: 1
   var_idx: [ 0, 1, 2, 3, 4, 5, 6, 7, 8, 9, 10, 11, 12, 13, 14, 15, 16,
       17, 18, 19, 20, 21, 22, 23, 24, 25, 26, 27, 28, 29 ]
   var_type: [ 0, 0, 0, 0, 0, 0, 0, 0, 0, 0, 0, 0, 0, 0, 0, 0, 0, 0, 0,
       0, 0, 0, 0, 0, 0, 0, 0, 0, 0, 0, 1 ]
   cat_ofs: [ 0, 0, 0, 0, 0, 0, 0, 0, 0, 0, 0, 0, 0, 0, 0, 0, 0, 0, 0, 0,
       0, 0, 0, 0, 0, 0, 0, 0, 0, 0, 0, 0, 0, 0, 0, 0, 0, 0, 0, 0, 0, 0,
       0, 0, 0, 0, 0, 0, 0, 0, 0, 0, 0, 0, 0, 0, 0, 0, 0, 0 ]
   class_labels: [ 0, 1, 2 ]
   missing_subst: [ 0., 0., 0., 0., 0., 0., 0., 0., 0., 0., 0., 0., 0.,
       0., 0., 0., 0., 0., 0., 0., 0., 0., 0., 0., 0., 0., 0., 0., 0.,
       0., 0. ]
   oob_error: 1.0274279728621974e-02
   var_importance: [ 9.34069324e-03, 1.17658347e-01, 6.11481480e-02,
       1.19739316e-01, 3.48107815e-02, 1.06216744e-02, 1.81430764e-02,
       3.32631357e-02, 3.09952516e-02, 2.53380015e-02, 1.10951886e-02,
       1.60745662e-02, 4.06723917e-02, 2.83660013e-02, 1.09576203e-01,
       9.05907713e-03, 7.57672787e-02, 9.74941161e-03, 1.34851905e-02,
       1.24708731e-02, 1.85468085e-02, 1.07562523e-02, 3.21715623e-02,
       1.99823063e-02, 3.33777778e-02, 2.31797732e-02, 9.61732585e-03,
       9.61732585e-03, 3.46662365e-02, 2.07100231e-02 ]
   ntrees: 100
   trees:
      -
         nodes:
            -
               depth: 0
               value: 0.
               norm_class_idx: 0
               splits:
                  - { var:12, quality:5.1431337890625000e+03,
                      le:5.1088494062423706e-01 }
            -
               depth: 1
               value: 1.
               norm_class_idx: 1
               splits:
                  - { var:3, quality:4.8338735351562500e+03,
                      le:3.2700371742248535e-01 }
            -
               depth: 2
               value: 1.
               norm_class_idx: 1
               splits:
                  - { var:4, quality:2.5737365722656250e+03,
                      le:6.0645397752523422e-02 }
            -
               depth: 3
               value: 1.
               norm_class_idx: 1
               splits:
                  - { var:24, quality:2.4328535156250000e+03,
                      le:1.6229569911956787e-02 }
            -
               depth: 4
               value: 1.
               norm_class_idx: 1
               splits:
                  - { var:14, quality:2.4180163574218750e+03,
                      le:1.5100428462028503e-01 }
            -
               depth: 5
               value: 1.
               norm_class_idx: 1
               splits:
                  - { var:12, quality:2.1715307617187500e+03,
                      le:3.2396137714385986e-02 }
            -
               depth: 6
               value: 1.
               norm_class_idx: 1
               splits:
                  - { var:20, quality:5.1824493408203125e+00,
                      le:1.5041863918304443e+00 }
            -
               depth: 7
               value: 0.
               norm_class_idx: 0
            -
               depth: 7
               value: 1.
               norm_class_idx: 1
            -
               depth: 6
               value: 1.
               norm_class_idx: 1
               splits:
                  - { var:15, quality:2.1697268066406250e+03,
                      le:1.7510569095611572e-01 }
            -
               depth: 7
               value: 1.
               norm_class_idx: 1
               splits:
                  - { var:5, quality:1.5414896011352539e+01,
                      le:7.2230227291584015e-02 }
            -
               depth: 8
               value: 1.
               norm_class_idx: 1
            -
               depth: 8
               value: 2.
               norm_class_idx: 2
            -
               depth: 7
               value: 1.
               norm_class_idx: 1
               splits:
                  - { var:7, quality:2.1591020507812500e+03,
                      le:1.3853972777724266e-02 }
            -
               depth: 8
               value: 1.
               norm_class_idx: 1
            -
               depth: 8
               value: 1.
               norm_class_idx: 1
               splits:
                  - { var:29, quality:1.0094285011291504e+01,
                      le:9.5401549339294434e-01 }
            -
               depth: 9
               value: 1.
               norm_class_idx: 1
            -
               depth: 9
               value: 2.
               norm_class_idx: 2
            -
               depth: 5
               value: 1.
               norm_class_idx: 1
               splits:
                  - { var:23, quality:2.6877954101562500e+02,
                      le:1.7116169929504395e+00 }
            -
               depth: 6
               value: 1.
               norm_class_idx: 1
               splits:
                  - { var:8, quality:2.5982849121093750e+02,
                      le:-3.6116860806941986e-02 }
            -
               depth: 7
               value: 1.
               norm_class_idx: 1
               splits:
                  - { var:4, quality:5.8838127136230469e+01,
                      le:4.3793559074401855e-02 }
            -
               depth: 8
               value: 1.
               norm_class_idx: 1
               splits:
                  - { var:6, quality:5.2878719329833984e+01,
                      le:3.4473755955696106e-01 }
            -
               depth: 9
               value: 1.
               norm_class_idx: 1
               splits:
                  - { var:10, quality:5.1466125488281250e+01,
                      le:-4.6971136331558228e-01 }
            -
               depth: 10
               value: 1.
               norm_class_idx: 1
            -
               depth: 10
               value: 2.
               norm_class_idx: 2
            -
               depth: 9
               value: 2.
               norm_class_idx: 2
            -
               depth: 8
               value: 2.
               norm_class_idx: 2
               splits:
                  - { var:6, quality:1.5644996643066406e+01,
                      le:2.8246200084686279e-01 }
            -
               depth: 9
               value: 1.
               norm_class_idx: 1
            -
               depth: 9
               value: 2.
               norm_class_idx: 2
               splits:
                  - { var:12, quality:1.5563653945922852e+01,
                      le:1.1227268725633621e-01 }
            -
               depth: 10
               value: 1.
               norm_class_idx: 1
            -
               depth: 10
               value: 2.
               norm_class_idx: 2
            -
               depth: 7
               value: 1.
               norm_class_idx: 1
               splits:
                  - { var:23, quality:2.1740873718261719e+02,
                      le:1.6715985536575317e+00 }
            -
               depth: 8
               value: 1.
               norm_class_idx: 1
               splits:
                  - { var:18, quality:2.0969944763183594e+02,
                      le:8.6241805553436279e-01 }
            -
               depth: 9
               value: 1.
               norm_class_idx: 1
               splits:
                  - { var:13, quality:7.5692863464355469e+00,
                      le:3.8927245140075684e-01 }
            -
               depth: 10
               value: 0.
               norm_class_idx: 0
            -
               depth: 10
               value: 1.
               norm_class_idx: 1
            -
               depth: 9
               value: 1.
               norm_class_idx: 1
               splits:
                  - { var:4, quality:2.0540998840332031e+02,
                      le:6.0039602220058441e-02 }
            -
               depth: 10
               value: 1.
               norm_class_idx: 1
            -
               depth: 10
               value: 1.
               norm_class_idx: 1
            -
               depth: 8
               value: 1.
               norm_class_idx: 1
               splits:
                  - { var:8, quality:1.3342960357666016e+01,
                      le:-3.7106866948306561e-03 }
            -
               depth: 9
               value: 1.
               norm_class_idx: 1
            -
               depth: 9
               value: 0.
               norm_class_idx: 0
            -
               depth: 6
               value: 2.
               norm_class_idx: 2
               splits:
                  - { var:2, quality:2.3730012893676758e+01,
                      le:6.9179356098175049e-02 }
            -
               depth: 7
               value: 1.
               norm_class_idx: 1
               splits:
                  - { var:22, quality:9.3648986816406250e+00,
                      le:9.9592852592468262e-01 }
            -
               depth: 8
               value: 1.
               norm_class_idx: 1
            -
               depth: 8
               value: 0.
               norm_class_idx: 0
            -
               depth: 7
               value: 2.
               norm_class_idx: 2
               splits:
                  - { var:17, quality:2.4720067977905273e+01,
                      le:3.3894054591655731e-02 }
            -
               depth: 8
               value: 2.
               norm_class_idx: 2
               splits:
                  - { var:23, quality:2.2276399612426758e+01,
                      le:1.8425521850585938e+00 }
            -
               depth: 9
               value: 2.
               norm_class_idx: 2
            -
               depth: 9
               value: 1.
               norm_class_idx: 1
            -
               depth: 8
               value: 1.
               norm_class_idx: 1
            -
               depth: 4
               value: 2.
               norm_class_idx: 2
               splits:
                  - { var:20, quality:3.6790435791015625e+01,
                      le:1.1450333595275879e+00 }
            -
               depth: 5
               value: 1.
               norm_class_idx: 1
            -
               depth: 5
               value: 2.
               norm_class_idx: 2
               splits:
                  - { var:28, quality:3.1714212417602539e+01,
                      le:3.1499993801116943e-01 }
            -
               depth: 6
               value: 2.
               norm_class_idx: 2
               splits:
                  - { var:3, quality:3.1674243927001953e+01,
                      le:3.2491719722747803e-01 }
            -
               depth: 7
               value: 2.
               norm_class_idx: 2
            -
               depth: 7
               value: 1.
               norm_class_idx: 1
            -
               depth: 6
               value: 1.
               norm_class_idx: 1
            -
               depth: 3
               value: 1.
               norm_class_idx: 1
               splits:
                  - { var:5, quality:2.2483291625976562e+02,
                      le:6.7172408103942871e-02 }
            -
               depth: 4
               value: 0.
               norm_class_idx: 0
               splits:
                  - { var:29, quality:1.1810081481933594e+02,
                      le:9.9564266204833984e-01 }
            -
               depth: 5
               value: 1.
               norm_class_idx: 1
            -
               depth: 5
               value: 0.
               norm_class_idx: 0
               splits:
                  - { var:3, quality:1.1467066955566406e+02,
                      le:1.2212489545345306e-01 }
            -
               depth: 6
               value: 0.
               norm_class_idx: 0
               splits:
                  - { var:22, quality:1.1389624786376953e+02,
                      le:9.8564505577087402e-01 }
            -
               depth: 7
               value: 0.
               norm_class_idx: 0
               splits:
                  - { var:22, quality:1.0772561645507812e+02,
                      le:9.7912979125976562e-01 }
            -
               depth: 8
               value: 0.
               norm_class_idx: 0
            -
               depth: 8
               value: 0.
               norm_class_idx: 0
               splits:
                  - { var:19, quality:4.1914508819580078e+01,
                      le:1.2059684991836548e+00 }
            -
               depth: 9
               value: 1.
               norm_class_idx: 1
            -
               depth: 9
               value: 0.
               norm_class_idx: 0
               splits:
                  - { var:29, quality:4.0314479827880859e+01,
                      le:9.9709933996200562e-01 }
            -
               depth: 10
               value: 0.
               norm_class_idx: 0
            -
               depth: 10
               value: 0.
               norm_class_idx: 0
            -
               depth: 7
               value: 1.
               norm_class_idx: 1
               splits:
                  - { var:6, quality:1.0956123352050781e+01,
                      le:9.0569126605987549e-01 }
            -
               depth: 8
               value: 0.
               norm_class_idx: 0
            -
               depth: 8
               value: 1.
               norm_class_idx: 1
            -
               depth: 6
               value: 1.
               norm_class_idx: 1
            -
               depth: 4
               value: 1.
               norm_class_idx: 1
               splits:
                  - { var:19, quality:1.7993841552734375e+02,
                      le:2.0207707881927490e+00 }
            -
               depth: 5
               value: 1.
               norm_class_idx: 1
               splits:
                  - { var:25, quality:2.0010641479492188e+02,
                      le:5.0000000000000000e-01 }
            -
               depth: 6
               value: 1.
               norm_class_idx: 1
               splits:
                  - { var:16, quality:1.6037513732910156e+02,
                      le:3.8820573687553406e-01 }
            -
               depth: 7
               value: 1.
               norm_class_idx: 1
               splits:
                  - { var:10, quality:1.6384983825683594e+02,
                      le:-5.5691087245941162e-01 }
            -
               depth: 8
               value: 1.
               norm_class_idx: 1
            -
               depth: 8
               value: 1.
               norm_class_idx: 1
               splits:
                  - { var:3, quality:4.0090251922607422e+01,
                      le:1.2216265499591827e-01 }
            -
               depth: 9
               value: 0.
               norm_class_idx: 0
               splits:
                  - { var:11, quality:1.7865442276000977e+01,
                      le:7.1261269107836256e-10 }
            -
               depth: 10
               value: 0.
               norm_class_idx: 0
            -
               depth: 10
               value: 1.
               norm_class_idx: 1
            -
               depth: 9
               value: 1.
               norm_class_idx: 1
               splits:
                  - { var:16, quality:3.0572553634643555e+01,
                      le:1.3348209857940674e-01 }
            -
               depth: 10
               value: 1.
               norm_class_idx: 1
            -
               depth: 10
               value: 1.
               norm_class_idx: 1
            -
               depth: 7
               value: 2.
               norm_class_idx: 2
            -
               depth: 6
               value: 0.
               norm_class_idx: 0
               splits:
                  - { var:29, quality:5.1978061676025391e+01,
                      le:9.9708855152130127e-01 }
            -
               depth: 7
               value: 0.
               norm_class_idx: 0
            -
               depth: 7
               value: 1.
               norm_class_idx: 1
            -
               depth: 5
               value: 2.
               norm_class_idx: 2
               splits:
                  - { var:29, quality:3.8386989593505859e+01,
                      le:9.7117167711257935e-01 }
            -
               depth: 6
               value: 1.
               norm_class_idx: 1
            -
               depth: 6
               value: 2.
               norm_class_idx: 2
            -
               depth: 2
               value: 2.
               norm_class_idx: 2
               splits:
                  - { var:4, quality:2.5974719238281250e+03,
                      le:8.3669155836105347e-02 }
            -
               depth: 3
               value: 2.
               norm_class_idx: 2
               splits:
                  - { var:23, quality:2.5483603515625000e+03,
                      le:1.3265289068222046e+00 }
            -
               depth: 4
               value: 2.
               norm_class_idx: 2
               splits:
                  - { var:16, quality:1.6974772644042969e+02,
                      le:5.8501124382019043e-01 }
            -
               depth: 5
               value: 1.
               norm_class_idx: 1
               splits:
                  - { var:4, quality:8.1549438476562500e+01,
                      le:5.5108040571212769e-02 }
            -
               depth: 6
               value: 1.
               norm_class_idx: 1
               splits:
                  - { var:7, quality:7.6391716003417969e+01,
                      le:1.0255951434373856e-02 }
            -
               depth: 7
               value: 1.
               norm_class_idx: 1
            -
               depth: 7
               value: 1.
               norm_class_idx: 1
               splits:
                  - { var:4, quality:1.1029802322387695e+01,
                      le:2.0400468260049820e-02 }
            -
               depth: 8
               value: 1.
               norm_class_idx: 1
            -
               depth: 8
               value: 2.
               norm_class_idx: 2
            -
               depth: 6
               value: 2.
               norm_class_idx: 2
               splits:
                  - { var:23, quality:7.5083584785461426e+00,
                      le:1.2658506631851196e+00 }
            -
               depth: 7
               value: 1.
               norm_class_idx: 1
            -
               depth: 7
               value: 2.
               norm_class_idx: 2
            -
               depth: 5
               value: 2.
               norm_class_idx: 2
               splits:
                  - { var:9, quality:1.0427963256835938e+02,
                      le:3.9125967770814896e-02 }
            -
               depth: 6
               value: 1.
               norm_class_idx: 1
            -
               depth: 6
               value: 2.
               norm_class_idx: 2
               splits:
                  - { var:12, quality:1.0418405151367188e+02,
                      le:2.5463145971298218e-01 }
            -
               depth: 7
               value: 2.
               norm_class_idx: 2
               splits:
                  - { var:21, quality:1.0417189788818359e+02,
                      le:9.2383885383605957e-01 }
            -
               depth: 8
               value: 1.
               norm_class_idx: 1
            -
               depth: 8
               value: 2.
               norm_class_idx: 2
            -
               depth: 7
               value: 1.
               norm_class_idx: 1
            -
               depth: 4
               value: 2.
               norm_class_idx: 2
               splits:
                  - { var:9, quality:2.4707448730468750e+03,
                      le:2.1539445966482162e-02 }
            -
               depth: 5
               value: 0.
               norm_class_idx: 0
               splits:
                  - { var:0, quality:2.0387130737304688e+01,
                      le:1.2500000000000000e+01 }
            -
               depth: 6
               value: 1.
               norm_class_idx: 1
               splits:
                  - { var:19, quality:1.3246256828308105e+01,
                      le:2.3204569816589355e+00 }
            -
               depth: 7
               value: 1.
               norm_class_idx: 1
            -
               depth: 7
               value: 2.
               norm_class_idx: 2
               splits:
                  - { var:9, quality:7.5083584785461426e+00,
                      le:2.0309966057538986e-02 }
            -
               depth: 8
               value: 2.
               norm_class_idx: 2
            -
               depth: 8
               value: 1.
               norm_class_idx: 1
            -
               depth: 6
               value: 0.
               norm_class_idx: 0
            -
               depth: 5
               value: 2.
               norm_class_idx: 2
               splits:
                  - { var:7, quality:2.4716791992187500e+03,
                      le:3.3707639668136835e-03 }
            -
               depth: 6
               value: 2.
               norm_class_idx: 2
               splits:
                  - { var:16, quality:4.8876213073730469e+01,
                      le:4.0115326642990112e-01 }
            -
               depth: 7
               value: 1.
               norm_class_idx: 1
               splits:
                  - { var:18, quality:2.0052371978759766e+01,
                      le:4.4262571334838867e+00 }
            -
               depth: 8
               value: 2.
               norm_class_idx: 2
               splits:
                  - { var:24, quality:8.3039703369140625e+00,
                      le:5.4605007171630859e-03 }
            -
               depth: 9
               value: 1.
               norm_class_idx: 1
            -
               depth: 9
               value: 2.
               norm_class_idx: 2
            -
               depth: 8
               value: 1.
               norm_class_idx: 1
            -
               depth: 7
               value: 2.
               norm_class_idx: 2
               splits:
                  - { var:23, quality:3.8414058685302734e+01,
                      le:1.3922648429870605e+00 }
            -
               depth: 8
               value: 1.
               norm_class_idx: 1
            -
               depth: 8
               value: 2.
               norm_class_idx: 2
               splits:
                  - { var:7, quality:3.8793567657470703e+01,
                      le:3.0022081919014454e-03 }
            -
               depth: 9
               value: 2.
               norm_class_idx: 2
            -
               depth: 9
               value: 2.
               norm_class_idx: 2
            -
               depth: 6
               value: 2.
               norm_class_idx: 2
               splits:
                  - { var:17, quality:2.4385273437500000e+03,
                      le:1.1089697480201721e-01 }
            -
               depth: 7
               value: 2.
               norm_class_idx: 2
               splits:
                  - { var:16, quality:2.4387087402343750e+03,
                      le:4.8771774768829346e-01 }
            -
               depth: 8
               value: 2.
               norm_class_idx: 2
               splits:
                  - { var:4, quality:1.6625079345703125e+02,
                      le:2.9146803542971611e-02 }
            -
               depth: 9
               value: 1.
               norm_class_idx: 1
               splits:
                  - { var:7, quality:1.6711620330810547e+01,
                      le:1.1452067643404007e-02 }
            -
               depth: 10
               value: 1.
               norm_class_idx: 1
            -
               depth: 10
               value: 2.
               norm_class_idx: 2
            -
               depth: 9
               value: 2.
               norm_class_idx: 2
               splits:
                  - { var:7, quality:1.5728157043457031e+02,
                      le:4.7799232415854931e-03 }
            -
               depth: 10
               value: 2.
               norm_class_idx: 2
            -
               depth: 10
               value: 2.
               norm_class_idx: 2
            -
               depth: 8
               value: 2.
               norm_class_idx: 2
               splits:
                  - { var:6, quality:2.2823117675781250e+03,
                      le:1.2449581921100616e-01 }
            -
               depth: 9
               value: 2.
               norm_class_idx: 2
               splits:
                  - { var:27, quality:2.3603868103027344e+02,
                      le:1.5000000000000000e+00 }
            -
               depth: 10
               value: 1.
               norm_class_idx: 1
            -
               depth: 10
               value: 2.
               norm_class_idx: 2
            -
               depth: 9
               value: 2.
               norm_class_idx: 2
            -
               depth: 7
               value: 1.
               norm_class_idx: 1
            -
               depth: 3
               value: 0.
               norm_class_idx: 0
               splits:
                  - { var:25, quality:1.2639784240722656e+02,
                      le:5.0000000000000000e-01 }
            -
               depth: 4
               value: 2.
               norm_class_idx: 2
            -
               depth: 4
               value: 0.
               norm_class_idx: 0
            -
               depth: 1
               value: 0.
               norm_class_idx: 0
               splits:
                  - { var:28, quality:2.5690944824218750e+03,
                      le:1.9500005245208740e-01 }
            -
               depth: 2
               value: 0.
               norm_class_idx: 0
               splits:
                  - { var:18, quality:8.9002708435058594e+01,
                      le:2.3385989665985107e+00 }
            -
               depth: 3
               value: 0.
               norm_class_idx: 0
               splits:
                  - { var:3, quality:7.5927215576171875e+01,
                      le:1.2004361301660538e-01 }
            -
               depth: 4
               value: 1.
               norm_class_idx: 1
            -
               depth: 4
               value: 0.
               norm_class_idx: 0
               splits:
                  - { var:22, quality:4.4264507293701172e+01,
                      le:9.6202301979064941e-01 }
            -
               depth: 5
               value: 2.
               norm_class_idx: 2
            -
               depth: 5
               value: 0.
               norm_class_idx: 0
               splits:
                  - { var:4, quality:4.5681159973144531e+01,
                      le:4.4823676347732544e-02 }
            -
               depth: 6
               value: 1.
               norm_class_idx: 1
            -
               depth: 6
               value: 0.
               norm_class_idx: 0
               splits:
                  - { var:19, quality:4.6780487060546875e+01,
                      le:1.0442559719085693e+00 }
            -
               depth: 7
               value: 0.
               norm_class_idx: 0
               splits:
                  - { var:23, quality:7.6052775382995605e+00,
                      le:1.4999865293502808e+00 }
            -
               depth: 8
               value: 0.
               norm_class_idx: 0
               splits:
                  - { var:27, quality:5.7956123352050781e+00,
                      le:5.0000000000000000e-01 }
            -
               depth: 9
               value: 0.
               norm_class_idx: 0
            -
               depth: 9
               value: 1.
               norm_class_idx: 1
            -
               depth: 8
               value: 1.
               norm_class_idx: 1
            -
               depth: 7
               value: 0.
               norm_class_idx: 0
               splits:
                  - { var:23, quality:4.3795612335205078e+01,
                      le:1.4285326004028320e+00 }
            -
               depth: 8
               value: 1.
               norm_class_idx: 1
            -
               depth: 8
               value: 0.
               norm_class_idx: 0
            -
               depth: 3
               value: 2.
               norm_class_idx: 2
               splits:
                  - { var:20, quality:6.0016868591308594e+01,
                      le:2.8217711448669434e+00 }
            -
               depth: 4
               value: 2.
               norm_class_idx: 2
            -
               depth: 4
               value: 0.
               norm_class_idx: 0
            -
               depth: 2
               value: 0.
               norm_class_idx: 0
               splits:
                  - { var:22, quality:2.5340551757812500e+03,
                      le:9.4940829277038574e-01 }
            -
               depth: 3
               value: 2.
               norm_class_idx: 2
            -
               depth: 3
               value: 0.
               norm_class_idx: 0
      -
         nodes:
            -
               depth: 0
               value: 2.
               norm_class_idx: 2
               splits:
                  - { var:13, quality:5.1335156250000000e+03,
                      le:3.8281777501106262e-01 }
            -
               depth: 1
               value: 2.
               norm_class_idx: 2
               splits:
                  - { var:16, quality:4.8586147460937500e+03,
                      le:3.8041064143180847e-01 }
            -
               depth: 2
               value: 1.
               norm_class_idx: 1
               splits:
                  - { var:4, quality:2.4803974609375000e+03,
                      le:6.0645028948783875e-02 }
            -
               depth: 3
               value: 1.
               norm_class_idx: 1
               splits:
                  - { var:14, quality:2.3391391601562500e+03,
                      le:1.9713535904884338e-01 }
            -
               depth: 4
               value: 1.
               norm_class_idx: 1
               splits:
                  - { var:25, quality:2.2748308105468750e+03,
                      le:5.0000000000000000e-01 }
            -
               depth: 5
               value: 1.
               norm_class_idx: 1
               splits:
                  - { var:9, quality:2.2255964355468750e+03,
                      le:7.1692511439323425e-02 }
            -
               depth: 6
               value: 1.
               norm_class_idx: 1
               splits:
                  - { var:15, quality:2.2233986816406250e+03,
                      le:2.2436526417732239e-01 }
            -
               depth: 7
               value: 1.
               norm_class_idx: 1
               splits:
                  - { var:24, quality:1.5271855354309082e+01,
                      le:4.7921538352966309e-03 }
            -
               depth: 8
               value: 1.
               norm_class_idx: 1
            -
               depth: 8
               value: 2.
               norm_class_idx: 2
            -
               depth: 7
               value: 1.
               norm_class_idx: 1
               splits:
                  - { var:24, quality:2.2120869140625000e+03,
                      le:7.0770978927612305e-03 }
            -
               depth: 8
               value: 1.
               norm_class_idx: 1
            -
               depth: 8
               value: 1.
               norm_class_idx: 1
               splits:
                  - { var:24, quality:9.9998481750488281e+01,
                      le:7.1262419223785400e-03 }
            -
               depth: 9
               value: 2.
               norm_class_idx: 2
            -
               depth: 9
               value: 1.
               norm_class_idx: 1
            -
               depth: 6
               value: 1.
               norm_class_idx: 1
               splits:
                  - { var:6, quality:7.4587726593017578e+00,
                      le:3.1304860115051270e-01 }
            -
               depth: 7
               value: 1.
               norm_class_idx: 1
            -
               depth: 7
               value: 2.
               norm_class_idx: 2
            -
               depth: 5
               value: 1.
               norm_class_idx: 1
               splits:
                  - { var:26, quality:6.6217071533203125e+01,
                      le:5.0000000000000000e-01 }
            -
               depth: 6
               value: 1.
               norm_class_idx: 1
               splits:
                  - { var:14, quality:6.0357769012451172e+01,
                      le:1.6503572463989258e-01 }
            -
               depth: 7
               value: 1.
               norm_class_idx: 1
            -
               depth: 7
               value: 2.
               norm_class_idx: 2
            -
               depth: 6
               value: 0.
               norm_class_idx: 0
            -
               depth: 4
               value: 1.
               norm_class_idx: 1
               splits:
                  - { var:21, quality:1.0155632019042969e+02,
                      le:1.4116311073303223e+00 }
            -
               depth: 5
               value: 2.
               norm_class_idx: 2
               splits:
                  - { var:4, quality:4.3128753662109375e+01,
                      le:3.1767137348651886e-02 }
            -
               depth: 6
               value: 1.
               norm_class_idx: 1
               splits:
                  - { var:7, quality:1.1364898681640625e+01,
                      le:2.6023807004094124e-04 }
            -
               depth: 7
               value: 0.
               norm_class_idx: 0
            -
               depth: 7
               value: 1.
               norm_class_idx: 1
            -
               depth: 6
               value: 2.
               norm_class_idx: 2
               splits:
                  - { var:6, quality:4.5626934051513672e+01,
                      le:4.3464744091033936e-01 }
            -
               depth: 7
               value: 1.
               norm_class_idx: 1
            -
               depth: 7
               value: 2.
               norm_class_idx: 2
               splits:
                  - { var:13, quality:4.2414638519287109e+01,
                      le:1.5816849470138550e-01 }
            -
               depth: 8
               value: 1.
               norm_class_idx: 1
            -
               depth: 8
               value: 2.
               norm_class_idx: 2
            -
               depth: 5
               value: 1.
               norm_class_idx: 1
               splits:
                  - { var:4, quality:7.5985267639160156e+01,
                      le:5.9700097888708115e-02 }
            -
               depth: 6
               value: 1.
               norm_class_idx: 1
               splits:
                  - { var:25, quality:7.6593475341796875e+01,
                      le:5.0000000000000000e-01 }
            -
               depth: 7
               value: 1.
               norm_class_idx: 1
            -
               depth: 7
               value: 0.
               norm_class_idx: 0
               splits:
                  - { var:20, quality:6.3868370056152344e+00,
                      le:1.5059313774108887e+00 }
            -
               depth: 8
               value: 1.
               norm_class_idx: 1
            -
               depth: 8
               value: 0.
               norm_class_idx: 0
            -
               depth: 6
               value: 0.
               norm_class_idx: 0
            -
               depth: 3
               value: 1.
               norm_class_idx: 1
               splits:
                  - { var:1, quality:2.1159570312500000e+02,
                      le:6.3669271767139435e-02 }
            -
               depth: 4
               value: 0.
               norm_class_idx: 0
               splits:
                  - { var:3, quality:1.3639431762695312e+02,
                      le:1.1987252533435822e-01 }
            -
               depth: 5
               value: 1.
               norm_class_idx: 1
            -
               depth: 5
               value: 0.
               norm_class_idx: 0
               splits:
                  - { var:22, quality:1.1982447814941406e+02,
                      le:9.8597109317779541e-01 }
            -
               depth: 6
               value: 0.
               norm_class_idx: 0
               splits:
                  - { var:3, quality:1.0679372406005859e+02,
                      le:1.2451341003179550e-01 }
            -
               depth: 7
               value: 0.
               norm_class_idx: 0
               splits:
                  - { var:3, quality:1.0675008392333984e+02,
                      le:1.2101572751998901e-01 }
            -
               depth: 8
               value: 0.
               norm_class_idx: 0
               splits:
                  - { var:22, quality:9.8311714172363281e+01,
                      le:9.8013722896575928e-01 }
            -
               depth: 9
               value: 0.
               norm_class_idx: 0
            -
               depth: 9
               value: 0.
               norm_class_idx: 0
               splits:
                  - { var:4, quality:1.1795612335205078e+01,
                      le:6.3323743641376495e-02 }
            -
               depth: 10
               value: 0.
               norm_class_idx: 0
            -
               depth: 10
               value: 1.
               norm_class_idx: 1
            -
               depth: 8
               value: 0.
               norm_class_idx: 0
               splits:
                  - { var:3, quality:1.2386837005615234e+01,
                      le:1.2167722731828690e-01 }
            -
               depth: 9
               value: 1.
               norm_class_idx: 1
            -
               depth: 9
               value: 0.
               norm_class_idx: 0
            -
               depth: 7
               value: 1.
               norm_class_idx: 1
            -
               depth: 6
               value: 1.
               norm_class_idx: 1
               splits:
                  - { var:29, quality:2.0949979782104492e+01,
                      le:9.9565839767456055e-01 }
            -
               depth: 7
               value: 0.
               norm_class_idx: 0
               splits:
                  - { var:22, quality:9.7351598739624023e+00,
                      le:9.9208188056945801e-01 }
            -
               depth: 8
               value: 0.
               norm_class_idx: 0
               splits:
                  - { var:10, quality:8.7956123352050781e+00,
                      le:-5.2339446544647217e-01 }
            -
               depth: 9
               value: 0.
               norm_class_idx: 0
            -
               depth: 9
               value: 1.
               norm_class_idx: 1
            -
               depth: 8
               value: 1.
               norm_class_idx: 1
            -
               depth: 7
               value: 1.
               norm_class_idx: 1
            -
               depth: 4
               value: 1.
               norm_class_idx: 1
               splits:
                  - { var:4, quality:1.6176629638671875e+02,
                      le:8.3815723657608032e-02 }
            -
               depth: 5
               value: 1.
               norm_class_idx: 1
               splits:
                  - { var:24, quality:1.7193313598632812e+02,
                      le:6.6297054290771484e-03 }
            -
               depth: 6
               value: 1.
               norm_class_idx: 1
               splits:
                  - { var:20, quality:1.4149253845214844e+02,
                      le:6.2331473827362061e-01 }
            -
               depth: 7
               value: 1.
               norm_class_idx: 1
               splits:
                  - { var:21, quality:2.5663982391357422e+01,
                      le:1.0760092735290527e+00 }
            -
               depth: 8
               value: 1.
               norm_class_idx: 1
            -
               depth: 8
               value: 0.
               norm_class_idx: 0
            -
               depth: 7
               value: 1.
               norm_class_idx: 1
            -
               depth: 6
               value: 2.
               norm_class_idx: 2
               splits:
                  - { var:10, quality:3.4806869506835938e+01,
                      le:-1.3300886154174805e+00 }
            -
               depth: 7
               value: 1.
               norm_class_idx: 1
               splits:
                  - { var:13, quality:5.3206110000610352e+00,
                      le:5.5877089500427246e-02 }
            -
               depth: 8
               value: 2.
               norm_class_idx: 2
            -
               depth: 8
               value: 1.
               norm_class_idx: 1
            -
               depth: 7
               value: 2.
               norm_class_idx: 2
               splits:
                  - { var:2, quality:3.5950565338134766e+01,
                      le:1.1732638627290726e-01 }
            -
               depth: 8
               value: 2.
               norm_class_idx: 2
            -
               depth: 8
               value: 1.
               norm_class_idx: 1
            -
               depth: 5
               value: 0.
               norm_class_idx: 0
               splits:
                  - { var:22, quality:4.1182449340820312e+01,
                      le:9.2246961593627930e-01 }
            -
               depth: 6
               value: 1.
               norm_class_idx: 1
            -
               depth: 6
               value: 0.
               norm_class_idx: 0
            -
               depth: 2
               value: 2.
               norm_class_idx: 2
               splits:
                  - { var:4, quality:2.6460847167968750e+03,
                      le:8.4140256047248840e-02 }
            -
               depth: 3
               value: 2.
               norm_class_idx: 2
               splits:
                  - { var:14, quality:2.6515476074218750e+03,
                      le:1.9305819272994995e-01 }
            -
               depth: 4
               value: 2.
               norm_class_idx: 2
               splits:
                  - { var:8, quality:1.7157989501953125e+02,
                      le:-6.0912299901247025e-02 }
            -
               depth: 5
               value: 2.
               norm_class_idx: 2
               splits:
                  - { var:29, quality:1.0369994354248047e+02,
                      le:9.3762439489364624e-01 }
            -
               depth: 6
               value: 1.
               norm_class_idx: 1
               splits:
                  - { var:8, quality:2.5434288024902344e+01,
                      le:-8.9082024991512299e-02 }
            -
               depth: 7
               value: 2.
               norm_class_idx: 2
               splits:
                  - { var:6, quality:1.0193456649780273e+01,
                      le:8.1129819154739380e-02 }
            -
               depth: 8
               value: 1.
               norm_class_idx: 1
            -
               depth: 8
               value: 2.
               norm_class_idx: 2
            -
               depth: 7
               value: 1.
               norm_class_idx: 1
            -
               depth: 6
               value: 2.
               norm_class_idx: 2
               splits:
                  - { var:20, quality:9.2102706909179688e+01,
                      le:9.3007671833038330e-01 }
            -
               depth: 7
               value: 1.
               norm_class_idx: 1
            -
               depth: 7
               value: 2.
               norm_class_idx: 2
               splits:
                  - { var:6, quality:9.2088958740234375e+01,
                      le:1.7947337031364441e-01 }
            -
               depth: 8
               value: 1.
               norm_class_idx: 1
            -
               depth: 8
               value: 2.
               norm_class_idx: 2
            -
               depth: 5
               value: 1.
               norm_class_idx: 1
               splits:
                  - { var:6, quality:1.2384497070312500e+02,
                      le:3.3532792329788208e-01 }
            -
               depth: 6
               value: 1.
               norm_class_idx: 1
               splits:
                  - { var:24, quality:9.9602630615234375e+01,
                      le:1.9627749919891357e-02 }
            -
               depth: 7
               value: 1.
               norm_class_idx: 1
               splits:
                  - { var:16, quality:9.9998481750488281e+01,
                      le:3.8084998726844788e-01 }
            -
               depth: 8
               value: 2.
               norm_class_idx: 2
            -
               depth: 8
               value: 1.
               norm_class_idx: 1
            -
               depth: 7
               value: 2.
               norm_class_idx: 2
            -
               depth: 6
               value: 2.
               norm_class_idx: 2
               splits:
                  - { var:10, quality:3.1127307891845703e+01,
                      le:-1.0294551849365234e+00 }
            -
               depth: 7
               value: 1.
               norm_class_idx: 1
            -
               depth: 7
               value: 2.
               norm_class_idx: 2
            -
               depth: 4
               value: 2.
               norm_class_idx: 2
               splits:
                  - { var:9, quality:2.5412131347656250e+03,
                      le:2.3028932511806488e-02 }
            -
               depth: 5
               value: 0.
               norm_class_idx: 0
               splits:
                  - { var:0, quality:1.2748288154602051e+01,
                      le:1.4500000000000000e+01 }
            -
               depth: 6
               value: 1.
               norm_class_idx: 1
               splits:
                  - { var:22, quality:6.9118356704711914e+00,
                      le:9.1684317588806152e-01 }
            -
               depth: 7
               value: 2.
               norm_class_idx: 2
            -
               depth: 7
               value: 1.
               norm_class_idx: 1
            -
               depth: 6
               value: 0.
               norm_class_idx: 0
            -
               depth: 5
               value: 2.
               norm_class_idx: 2
               splits:
                  - { var:23, quality:2.5573544921875000e+03,
                      le:1.3005018234252930e+00 }
            -
               depth: 6
               value: 2.
               norm_class_idx: 2
               splits:
                  - { var:7, quality:1.0670626831054688e+02,
                      le:2.3619845509529114e-02 }
            -
               depth: 7
               value: 1.
               norm_class_idx: 1
               splits:
                  - { var:5, quality:3.9223457336425781e+01,
                      le:1.5446013212203979e-01 }
            -
               depth: 8
               value: 2.
               norm_class_idx: 2
               splits:
                  - { var:20, quality:8.3039703369140625e+00,
                      le:2.2672398090362549e+00 }
            -
               depth: 9
               value: 1.
               norm_class_idx: 1
            -
               depth: 9
               value: 2.
               norm_class_idx: 2
            -
               depth: 8
               value: 1.
               norm_class_idx: 1
               splits:
                  - { var:27, quality:3.7260147094726562e+01,
                      le:1.5000000000000000e+00 }
            -
               depth: 9
               value: 2.
               norm_class_idx: 2
            -
               depth: 9
               value: 1.
               norm_class_idx: 1
            -
               depth: 7
               value: 2.
               norm_class_idx: 2
               splits:
                  - { var:12, quality:7.7931587219238281e+01,
                      le:2.5463145971298218e-01 }
            -
               depth: 8
               value: 2.
               norm_class_idx: 2
               splits:
                  - { var:12, quality:7.9459075927734375e+01,
                      le:1.4090725779533386e-01 }
            -
               depth: 9
               value: 1.
               norm_class_idx: 1
            -
               depth: 9
               value: 2.
               norm_class_idx: 2
            -
               depth: 8
               value: 1.
               norm_class_idx: 1
            -
               depth: 6
               value: 2.
               norm_class_idx: 2
               splits:
                  - { var:5, quality:2.4921401367187500e+03,
                      le:3.5535699129104614e-01 }
            -
               depth: 7
               value: 2.
               norm_class_idx: 2
               splits:
                  - { var:16, quality:2.4912670898437500e+03,
                      le:4.7670155763626099e-01 }
            -
               depth: 8
               value: 2.
               norm_class_idx: 2
               splits:
                  - { var:6, quality:1.3441462707519531e+02,
                      le:2.1222150325775146e-01 }
            -
               depth: 9
               value: 1.
               norm_class_idx: 1
            -
               depth: 9
               value: 2.
               norm_class_idx: 2
               splits:
                  - { var:16, quality:1.3224446105957031e+02,
                      le:4.7304534912109375e-01 }
            -
               depth: 10
               value: 2.
               norm_class_idx: 2
            -
               depth: 10
               value: 1.
               norm_class_idx: 1
            -
               depth: 8
               value: 2.
               norm_class_idx: 2
               splits:
                  - { var:28, quality:2.3679011230468750e+03,
                      le:9.0000033378601074e-02 }
            -
               depth: 9
               value: 2.
               norm_class_idx: 2
               splits:
                  - { var:20, quality:9.6465196609497070e+00,
                      le:2.6457481384277344e+00 }
            -
               depth: 10
               value: 2.
               norm_class_idx: 2
            -
               depth: 10
               value: 1.
               norm_class_idx: 1
            -
               depth: 9
               value: 2.
               norm_class_idx: 2
               splits:
                  - { var:3, quality:2.3619914550781250e+03,
                      le:3.5516682267189026e-01 }
            -
               depth: 10
               value: 2.
               norm_class_idx: 2
            -
               depth: 10
               value: 2.
               norm_class_idx: 2
            -
               depth: 7
               value: 1.
               norm_class_idx: 1
               splits:
                  - { var:23, quality:6.1162233352661133e+00,
                      le:2.2317714691162109e+00 }
            -
               depth: 8
               value: 1.
               norm_class_idx: 1
            -
               depth: 8
               value: 2.
               norm_class_idx: 2
            -
               depth: 3
               value: 0.
               norm_class_idx: 0
               splits:
                  - { var:13, quality:1.1262154388427734e+02,
                      le:1.5561801195144653e-01 }
            -
               depth: 4
               value: 2.
               norm_class_idx: 2
               splits:
                  - { var:18, quality:1.9940719604492188e+01,
                      le:2.2178809642791748e+00 }
            -
               depth: 5
               value: 0.
               norm_class_idx: 0
            -
               depth: 5
               value: 2.
               norm_class_idx: 2
            -
               depth: 4
               value: 0.
               norm_class_idx: 0
            -
               depth: 1
               value: 0.
               norm_class_idx: 0
               splits:
                  - { var:1, quality:2.5359953613281250e+03,
                      le:2.6310637593269348e-01 }
            -
               depth: 2
               value: 0.
               norm_class_idx: 0
               splits:
                  - { var:8, quality:1.7604673767089844e+02,
                      le:-1.7850492149591446e-02 }
            -
               depth: 3
               value: 2.
               norm_class_idx: 2
            -
               depth: 3
               value: 0.
               norm_class_idx: 0
               splits:
                  - { var:16, quality:1.4501837158203125e+02,
                      le:1.2004479020833969e-01 }
            -
               depth: 4
               value: 1.
               norm_class_idx: 1
            -
               depth: 4
               value: 0.
               norm_class_idx: 0
               splits:
                  - { var:22, quality:1.2304871368408203e+02,
                      le:9.6202301979064941e-01 }
            -
               depth: 5
               value: 1.
               norm_class_idx: 1
               splits:
                  - { var:22, quality:1.2530708312988281e+01,
                      le:9.4351255893707275e-01 }
            -
               depth: 6
               value: 2.
               norm_class_idx: 2
            -
               depth: 6
               value: 1.
               norm_class_idx: 1
            -
               depth: 5
               value: 0.
               norm_class_idx: 0
               splits:
                  - { var:21, quality:1.2081593322753906e+02,
                      le:1.8641011714935303e+00 }
            -
               depth: 6
               value: 0.
               norm_class_idx: 0
               splits:
                  - { var:1, quality:1.2128575134277344e+02,
                      le:5.8240659534931183e-02 }
            -
               depth: 7
               value: 1.
               norm_class_idx: 1
            -
               depth: 7
               value: 0.
               norm_class_idx: 0
               splits:
                  - { var:27, quality:1.2110213470458984e+02,
                      le:1.5000000000000000e+00 }
            -
               depth: 8
               value: 0.
               norm_class_idx: 0
               splits:
                  - { var:25, quality:1.2139572143554688e+02,
                      le:5.0000000000000000e-01 }
            -
               depth: 9
               value: 0.
               norm_class_idx: 0
               splits:
                  - { var:5, quality:3.0025308609008789e+01,
                      le:6.1039101332426071e-02 }
            -
               depth: 10
               value: 0.
               norm_class_idx: 0
            -
               depth: 10
               value: 1.
               norm_class_idx: 1
            -
               depth: 9
               value: 0.
               norm_class_idx: 0
            -
               depth: 8
               value: 2.
               norm_class_idx: 2
            -
               depth: 6
               value: 1.
               norm_class_idx: 1
            -
               depth: 2
               value: 0.
               norm_class_idx: 0
               splits:
                  - { var:23, quality:2.4413425292968750e+03,
                      le:1.7080130577087402e+00 }
            -
               depth: 3
               value: 2.
               norm_class_idx: 2
            -
               depth: 3
               value: 0.
               norm_class_idx: 0
      -
         nodes:
            -
               depth: 0
               value: 0.
               norm_class_idx: 0
               splits:
                  - { var:1, quality:5.1515903320312500e+03,
                      le:2.6344829797744751e-01 }
            -
               depth: 1
               value: 1.
               norm_class_idx: 1
               splits:
                  - { var:3, quality:4.8757275390625000e+03,
                      le:3.1611561775207520e-01 }
            -
               depth: 2
               value: 1.
               norm_class_idx: 1
               splits:
                  - { var:1, quality:2.5407785644531250e+03,
                      le:6.0022003948688507e-02 }
            -
               depth: 3
               value: 1.
               norm_class_idx: 1
               splits:
                  - { var:1, quality:1.9670086669921875e+03,
                      le:3.2488256692886353e-02 }
            -
               depth: 4
               value: 1.
               norm_class_idx: 1
               splits:
                  - { var:15, quality:1.0956123352050781e+01,
                      le:5.7770067453384399e-01 }
            -
               depth: 5
               value: 0.
               norm_class_idx: 0
            -
               depth: 5
               value: 1.
               norm_class_idx: 1
            -
               depth: 4
               value: 1.
               norm_class_idx: 1
               splits:
                  - { var:21, quality:1.9617554931640625e+03,
                      le:1.7457215785980225e+00 }
            -
               depth: 5
               value: 1.
               norm_class_idx: 1
            -
               depth: 5
               value: 1.
               norm_class_idx: 1
               splits:
                  - { var:29, quality:8.3186668395996094e+01,
                      le:9.7768032550811768e-01 }
            -
               depth: 6
               value: 0.
               norm_class_idx: 0
               splits:
                  - { var:27, quality:1.5160511016845703e+01,
                      le:5.0000000000000000e-01 }
            -
               depth: 7
               value: 0.
               norm_class_idx: 0
            -
               depth: 7
               value: 1.
               norm_class_idx: 1
            -
               depth: 6
               value: 1.
               norm_class_idx: 1
            -
               depth: 3
               value: 1.
               norm_class_idx: 1
               splits:
                  - { var:29, quality:7.0191668701171875e+02,
                      le:9.9563956260681152e-01 }
            -
               depth: 4
               value: 1.
               norm_class_idx: 1
               splits:
                  - { var:4, quality:6.1574621582031250e+02,
                      le:8.3772346377372742e-02 }
            -
               depth: 5
               value: 1.
               norm_class_idx: 1
               splits:
                  - { var:8, quality:6.2531201171875000e+02,
                      le:-7.1410439908504486e-02 }
            -
               depth: 6
               value: 2.
               norm_class_idx: 2
               splits:
                  - { var:6, quality:3.0700925827026367e+01,
                      le:1.9951754808425903e-01 }
            -
               depth: 7
               value: 1.
               norm_class_idx: 1
               splits:
                  - { var:8, quality:9.8456096649169922e+00,
                      le:-1.0558590292930603e-01 }
            -
               depth: 8
               value: 2.
               norm_class_idx: 2
            -
               depth: 8
               value: 1.
               norm_class_idx: 1
            -
               depth: 7
               value: 2.
               norm_class_idx: 2
               splits:
                  - { var:9, quality:2.6304046630859375e+01,
                      le:3.0911909416317940e-02 }
            -
               depth: 8
               value: 1.
               norm_class_idx: 1
            -
               depth: 8
               value: 2.
               norm_class_idx: 2
            -
               depth: 6
               value: 1.
               norm_class_idx: 1
               splits:
                  - { var:12, quality:6.2401446533203125e+02,
                      le:1.5096364915370941e-01 }
            -
               depth: 7
               value: 1.
               norm_class_idx: 1
               splits:
                  - { var:1, quality:5.8375390625000000e+02,
                      le:1.3596461713314056e-01 }
            -
               depth: 8
               value: 1.
               norm_class_idx: 1
               splits:
                  - { var:10, quality:5.8475976562500000e+02,
                      le:-5.5189877748489380e-01 }
            -
               depth: 9
               value: 1.
               norm_class_idx: 1
               splits:
                  - { var:7, quality:5.5159082031250000e+02,
                      le:6.7805545404553413e-03 }
            -
               depth: 10
               value: 1.
               norm_class_idx: 1
            -
               depth: 10
               value: 1.
               norm_class_idx: 1
            -
               depth: 9
               value: 1.
               norm_class_idx: 1
               splits:
                  - { var:10, quality:4.7605815887451172e+01,
                      le:-5.4270398616790771e-01 }
            -
               depth: 10
               value: 0.
               norm_class_idx: 0
            -
               depth: 10
               value: 1.
               norm_class_idx: 1
            -
               depth: 8
               value: 2.
               norm_class_idx: 2
               splits:
                  - { var:10, quality:1.0690807342529297e+01,
                      le:-6.2857997417449951e-01 }
            -
               depth: 9
               value: 1.
               norm_class_idx: 1
            -
               depth: 9
               value: 2.
               norm_class_idx: 2
            -
               depth: 7
               value: 1.
               norm_class_idx: 1
               splits:
                  - { var:24, quality:7.7257888793945312e+01,
                      le:7.7902078628540039e-03 }
            -
               depth: 8
               value: 1.
               norm_class_idx: 1
               splits:
                  - { var:22, quality:5.4847076416015625e+01,
                      le:9.9646568298339844e-01 }
            -
               depth: 9
               value: 1.
               norm_class_idx: 1
               splits:
                  - { var:24, quality:5.4807788848876953e+01,
                      le:4.3606758117675781e-03 }
            -
               depth: 10
               value: 1.
               norm_class_idx: 1
            -
               depth: 10
               value: 1.
               norm_class_idx: 1
            -
               depth: 9
               value: 0.
               norm_class_idx: 0
               splits:
                  - { var:28, quality:5.7956123352050781e+00,
                      le:1.2499988079071045e-01 }
            -
               depth: 10
               value: 1.
               norm_class_idx: 1
            -
               depth: 10
               value: 0.
               norm_class_idx: 0
            -
               depth: 8
               value: 2.
               norm_class_idx: 2
               splits:
                  - { var:20, quality:3.2469856262207031e+01,
                      le:1.2186634540557861e+00 }
            -
               depth: 9
               value: 1.
               norm_class_idx: 1
            -
               depth: 9
               value: 2.
               norm_class_idx: 2
            -
               depth: 5
               value: 0.
               norm_class_idx: 0
               splits:
                  - { var:18, quality:3.0494512557983398e+01,
                      le:3.3156180381774902e+00 }
            -
               depth: 6
               value: 0.
               norm_class_idx: 0
            -
               depth: 6
               value: 2.
               norm_class_idx: 2
            -
               depth: 4
               value: 0.
               norm_class_idx: 0
               splits:
                  - { var:3, quality:1.7110398864746094e+02,
                      le:1.2085273861885071e-01 }
            -
               depth: 5
               value: 0.
               norm_class_idx: 0
               splits:
                  - { var:22, quality:1.2660128784179688e+02,
                      le:9.8564505577087402e-01 }
            -
               depth: 6
               value: 0.
               norm_class_idx: 0
               splits:
                  - { var:4, quality:1.2429615783691406e+02,
                      le:6.3324503600597382e-02 }
            -
               depth: 7
               value: 0.
               norm_class_idx: 0
            -
               depth: 7
               value: 0.
               norm_class_idx: 0
               splits:
                  - { var:10, quality:1.3795612335205078e+01,
                      le:-5.0000274181365967e-01 }
            -
               depth: 8
               value: 1.
               norm_class_idx: 1
            -
               depth: 8
               value: 0.
               norm_class_idx: 0
            -
               depth: 6
               value: 1.
               norm_class_idx: 1
            -
               depth: 5
               value: 1.
               norm_class_idx: 1
               splits:
                  - { var:13, quality:6.8851242065429688e+01,
                      le:4.0311563014984131e-01 }
            -
               depth: 6
               value: 1.
               norm_class_idx: 1
               splits:
                  - { var:22, quality:5.8203300476074219e+01,
                      le:9.6952533721923828e-01 }
            -
               depth: 7
               value: 0.
               norm_class_idx: 0
            -
               depth: 7
               value: 1.
               norm_class_idx: 1
               splits:
                  - { var:15, quality:6.0212856292724609e+01,
                      le:5.7538223266601562e-01 }
            -
               depth: 8
               value: 0.
               norm_class_idx: 0
            -
               depth: 8
               value: 1.
               norm_class_idx: 1
               splits:
                  - { var:29, quality:5.8307353973388672e+01,
                      le:9.9565839767456055e-01 }
            -
               depth: 9
               value: 0.
               norm_class_idx: 0
            -
               depth: 9
               value: 1.
               norm_class_idx: 1
            -
               depth: 6
               value: 0.
               norm_class_idx: 0
               splits:
                  - { var:10, quality:1.9795612335205078e+01,
                      le:-2.0020747184753418e+00 }
            -
               depth: 7
               value: 1.
               norm_class_idx: 1
            -
               depth: 7
               value: 0.
               norm_class_idx: 0
            -
               depth: 2
               value: 2.
               norm_class_idx: 2
               splits:
                  - { var:4, quality:2.6853195800781250e+03,
                      le:8.3756506443023682e-02 }
            -
               depth: 3
               value: 2.
               norm_class_idx: 2
               splits:
                  - { var:16, quality:2.5886630859375000e+03,
                      le:5.0751131772994995e-01 }
            -
               depth: 4
               value: 2.
               norm_class_idx: 2
               splits:
                  - { var:6, quality:3.3773904418945312e+02,
                      le:2.8727710247039795e-01 }
            -
               depth: 5
               value: 1.
               norm_class_idx: 1
               splits:
                  - { var:3, quality:1.0112132263183594e+02,
                      le:4.2259308695793152e-01 }
            -
               depth: 6
               value: 1.
               norm_class_idx: 1
               splits:
                  - { var:27, quality:9.9259384155273438e+01,
                      le:5.0000000000000000e-01 }
            -
               depth: 7
               value: 2.
               norm_class_idx: 2
            -
               depth: 7
               value: 1.
               norm_class_idx: 1
               splits:
                  - { var:15, quality:9.9459739685058594e+01,
                      le:9.1539692878723145e-01 }
            -
               depth: 8
               value: 1.
               norm_class_idx: 1
               splits:
                  - { var:5, quality:9.9179573059082031e+01,
                      le:1.0449028760194778e-01 }
            -
               depth: 9
               value: 1.
               norm_class_idx: 1
            -
               depth: 9
               value: 1.
               norm_class_idx: 1
               splits:
                  - { var:3, quality:9.8188682556152344e+01,
                      le:3.9685025811195374e-01 }
            -
               depth: 10
               value: 1.
               norm_class_idx: 1
            -
               depth: 10
               value: 1.
               norm_class_idx: 1
            -
               depth: 8
               value: 2.
               norm_class_idx: 2
            -
               depth: 6
               value: 2.
               norm_class_idx: 2
            -
               depth: 5
               value: 2.
               norm_class_idx: 2
               splits:
                  - { var:9, quality:2.6519491577148438e+02,
                      le:9.2496788129210472e-03 }
            -
               depth: 6
               value: 0.
               norm_class_idx: 0
            -
               depth: 6
               value: 2.
               norm_class_idx: 2
               splits:
                  - { var:24, quality:2.6300833129882812e+02,
                      le:4.5859813690185547e-03 }
            -
               depth: 7
               value: 2.
               norm_class_idx: 2
               splits:
                  - { var:16, quality:3.3658287048339844e+01,
                      le:4.0001553297042847e-01 }
            -
               depth: 8
               value: 1.
               norm_class_idx: 1
            -
               depth: 8
               value: 2.
               norm_class_idx: 2
               splits:
                  - { var:5, quality:2.5459894180297852e+01,
                      le:1.3938599824905396e-01 }
            -
               depth: 9
               value: 2.
               norm_class_idx: 2
            -
               depth: 9
               value: 1.
               norm_class_idx: 1
            -
               depth: 7
               value: 2.
               norm_class_idx: 2
               splits:
                  - { var:23, quality:2.4384220886230469e+02,
                      le:1.2665965557098389e+00 }
            -
               depth: 8
               value: 1.
               norm_class_idx: 1
            -
               depth: 8
               value: 2.
               norm_class_idx: 2
               splits:
                  - { var:28, quality:2.4445965576171875e+02,
                      le:8.9999914169311523e-02 }
            -
               depth: 9
               value: 2.
               norm_class_idx: 2
               splits:
                  - { var:6, quality:1.2580293655395508e+01,
                      le:5.8948612213134766e-01 }
            -
               depth: 10
               value: 1.
               norm_class_idx: 1
            -
               depth: 10
               value: 2.
               norm_class_idx: 2
            -
               depth: 9
               value: 2.
               norm_class_idx: 2
               splits:
                  - { var:19, quality:2.3783906555175781e+02,
                      le:1.9800863265991211e+00 }
            -
               depth: 10
               value: 2.
               norm_class_idx: 2
            -
               depth: 10
               value: 2.
               norm_class_idx: 2
            -
               depth: 4
               value: 2.
               norm_class_idx: 2
               splits:
                  - { var:23, quality:2.3746567382812500e+03,
                      le:1.2468349933624268e+00 }
            -
               depth: 5
               value: 2.
               norm_class_idx: 2
               splits:
                  - { var:7, quality:5.9358489990234375e+01,
                      le:2.9478348791599274e-02 }
            -
               depth: 6
               value: 1.
               norm_class_idx: 1
               splits:
                  - { var:5, quality:2.6145145416259766e+01,
                      le:1.3688033819198608e-01 }
            -
               depth: 7
               value: 2.
               norm_class_idx: 2
            -
               depth: 7
               value: 1.
               norm_class_idx: 1
               splits:
                  - { var:13, quality:2.6006530761718750e+01,
                      le:1.0503754764795303e-01 }
            -
               depth: 8
               value: 1.
               norm_class_idx: 1
            -
               depth: 8
               value: 2.
               norm_class_idx: 2
            -
               depth: 6
               value: 2.
               norm_class_idx: 2
            -
               depth: 5
               value: 2.
               norm_class_idx: 2
               splits:
                  - { var:7, quality:2.3532014160156250e+03,
                      le:7.2472746251150966e-04 }
            -
               depth: 6
               value: 0.
               norm_class_idx: 0
            -
               depth: 6
               value: 2.
               norm_class_idx: 2
               splits:
                  - { var:17, quality:2.3509140625000000e+03,
                      le:1.1798544973134995e-01 }
            -
               depth: 7
               value: 2.
               norm_class_idx: 2
               splits:
                  - { var:17, quality:2.3505151367187500e+03,
                      le:6.5902993083000183e-03 }
            -
               depth: 8
               value: 0.
               norm_class_idx: 0
            -
               depth: 8
               value: 2.
               norm_class_idx: 2
               splits:
                  - { var:12, quality:2.3510888671875000e+03,
                      le:1.2590810656547546e-01 }
            -
               depth: 9
               value: 1.
               norm_class_idx: 1
            -
               depth: 9
               value: 2.
               norm_class_idx: 2
               splits:
                  - { var:4, quality:2.3519875488281250e+03,
                      le:7.7667497098445892e-03 }
            -
               depth: 10
               value: 1.
               norm_class_idx: 1
            -
               depth: 10
               value: 2.
               norm_class_idx: 2
            -
               depth: 7
               value: 1.
               norm_class_idx: 1
            -
               depth: 3
               value: 0.
               norm_class_idx: 0
               splits:
                  - { var:25, quality:1.9548078918457031e+02,
                      le:5.0000000000000000e-01 }
            -
               depth: 4
               value: 2.
               norm_class_idx: 2
            -
               depth: 4
               value: 0.
               norm_class_idx: 0
            -
               depth: 1
               value: 0.
               norm_class_idx: 0
               splits:
                  - { var:14, quality:2.4943979492187500e+03,
                      le:4.6207150816917419e-01 }
            -
               depth: 2
               value: 2.
               norm_class_idx: 2
            -
               depth: 2
               value: 0.
               norm_class_idx: 0
      -
         nodes:
            -
               depth: 0
               value: 1.
               norm_class_idx: 1
               splits:
                  - { var:14, quality:5.2240507812500000e+03,
                      le:5.2380311489105225e-01 }
            -
               depth: 1
               value: 1.
               norm_class_idx: 1
               splits:
                  - { var:3, quality:4.9123989257812500e+03,
                      le:2.9834634065628052e-01 }
            -
               depth: 2
               value: 1.
               norm_class_idx: 1
               splits:
                  - { var:1, quality:2.4883952636718750e+03,
                      le:6.0278568416833878e-02 }
            -
               depth: 3
               value: 1.
               norm_class_idx: 1
               splits:
                  - { var:25, quality:1.9155714111328125e+03,
                      le:5.0000000000000000e-01 }
            -
               depth: 4
               value: 1.
               norm_class_idx: 1
            -
               depth: 4
               value: 1.
               norm_class_idx: 1
               splits:
                  - { var:9, quality:6.6950340270996094e+01,
                      le:2.3942636325955391e-03 }
            -
               depth: 5
               value: 0.
               norm_class_idx: 0
               splits:
                  - { var:15, quality:5.7956123352050781e+00,
                      le:9.9636840820312500e-01 }
            -
               depth: 6
               value: 0.
               norm_class_idx: 0
            -
               depth: 6
               value: 1.
               norm_class_idx: 1
            -
               depth: 5
               value: 1.
               norm_class_idx: 1
               splits:
                  - { var:26, quality:7.1831436157226562e+01,
                      le:5.0000000000000000e-01 }
            -
               depth: 6
               value: 1.
               norm_class_idx: 1
            -
               depth: 6
               value: 0.
               norm_class_idx: 0
            -
               depth: 3
               value: 1.
               norm_class_idx: 1
               splits:
                  - { var:6, quality:6.4852050781250000e+02,
                      le:9.2051607370376587e-01 }
            -
               depth: 4
               value: 1.
               norm_class_idx: 1
               splits:
                  - { var:4, quality:5.7164898681640625e+02,
                      le:8.4741599857807159e-02 }
            -
               depth: 5
               value: 1.
               norm_class_idx: 1
               splits:
                  - { var:7, quality:5.7413067626953125e+02,
                      le:1.6937693580985069e-02 }
            -
               depth: 6
               value: 1.
               norm_class_idx: 1
               splits:
                  - { var:4, quality:5.7152862548828125e+02,
                      le:6.0600213706493378e-02 }
            -
               depth: 7
               value: 1.
               norm_class_idx: 1
               splits:
                  - { var:3, quality:4.8710525512695312e+02,
                      le:2.8679439425468445e-01 }
            -
               depth: 8
               value: 1.
               norm_class_idx: 1
               splits:
                  - { var:8, quality:4.6248934936523438e+02,
                      le:-5.9116953052580357e-03 }
            -
               depth: 9
               value: 1.
               norm_class_idx: 1
               splits:
                  - { var:14, quality:4.5895672607421875e+02,
                      le:2.8639131784439087e-01 }
            -
               depth: 10
               value: 1.
               norm_class_idx: 1
            -
               depth: 10
               value: 1.
               norm_class_idx: 1
            -
               depth: 9
               value: 1.
               norm_class_idx: 1
               splits:
                  - { var:4, quality:9.3648986816406250e+00,
                      le:2.7790267020463943e-02 }
            -
               depth: 10
               value: 0.
               norm_class_idx: 0
            -
               depth: 10
               value: 1.
               norm_class_idx: 1
            -
               depth: 8
               value: 1.
               norm_class_idx: 1
               splits:
                  - { var:23, quality:4.2414512634277344e+01,
                      le:1.5757125616073608e+00 }
            -
               depth: 9
               value: 1.
               norm_class_idx: 1
            -
               depth: 9
               value: 2.
               norm_class_idx: 2
               splits:
                  - { var:28, quality:1.2878555297851562e+01,
                      le:1.9500011205673218e-01 }
            -
               depth: 10
               value: 2.
               norm_class_idx: 2
            -
               depth: 10
               value: 1.
               norm_class_idx: 1
            -
               depth: 7
               value: 1.
               norm_class_idx: 1
               splits:
                  - { var:24, quality:1.1834293365478516e+02,
                      le:6.7925453186035156e-03 }
            -
               depth: 8
               value: 1.
               norm_class_idx: 1
               splits:
                  - { var:5, quality:1.1458375549316406e+02,
                      le:7.2726443409919739e-02 }
            -
               depth: 9
               value: 0.
               norm_class_idx: 0
               splits:
                  - { var:10, quality:2.5946685791015625e+01,
                      le:-1.1918017864227295e+00 }
            -
               depth: 10
               value: 1.
               norm_class_idx: 1
            -
               depth: 10
               value: 0.
               norm_class_idx: 0
            -
               depth: 9
               value: 1.
               norm_class_idx: 1
            -
               depth: 8
               value: 2.
               norm_class_idx: 2
               splits:
                  - { var:22, quality:2.6005784988403320e+01,
                      le:9.2824137210845947e-01 }
            -
               depth: 9
               value: 1.
               norm_class_idx: 1
            -
               depth: 9
               value: 2.
               norm_class_idx: 2
            -
               depth: 6
               value: 2.
               norm_class_idx: 2
               splits:
                  - { var:4, quality:1.6607940673828125e+01,
                      le:1.8936613574624062e-02 }
            -
               depth: 7
               value: 1.
               norm_class_idx: 1
            -
               depth: 7
               value: 2.
               norm_class_idx: 2
            -
               depth: 5
               value: 0.
               norm_class_idx: 0
               splits:
                  - { var:20, quality:1.8477426528930664e+01,
                      le:1.3699491024017334e+00 }
            -
               depth: 6
               value: 1.
               norm_class_idx: 1
            -
               depth: 6
               value: 0.
               norm_class_idx: 0
            -
               depth: 4
               value: 0.
               norm_class_idx: 0
               splits:
                  - { var:6, quality:1.2166712188720703e+02,
                      le:9.9997866153717041e-01 }
            -
               depth: 5
               value: 0.
               norm_class_idx: 0
               splits:
                  - { var:22, quality:1.1896541595458984e+02,
                      le:9.8430085182189941e-01 }
            -
               depth: 6
               value: 0.
               norm_class_idx: 0
               splits:
                  - { var:3, quality:9.1001510620117188e+01,
                      le:1.2101572751998901e-01 }
            -
               depth: 7
               value: 0.
               norm_class_idx: 0
               splits:
                  - { var:8, quality:8.4537689208984375e+01,
                      le:-1.6192631796002388e-02 }
            -
               depth: 8
               value: 1.
               norm_class_idx: 1
            -
               depth: 8
               value: 0.
               norm_class_idx: 0
               splits:
                  - { var:22, quality:8.4268486022949219e+01,
                      le:9.8013722896575928e-01 }
            -
               depth: 9
               value: 0.
               norm_class_idx: 0
            -
               depth: 9
               value: 0.
               norm_class_idx: 0
               splits:
                  - { var:18, quality:1.7386837005615234e+01,
                      le:2.9101305007934570e+00 }
            -
               depth: 10
               value: 0.
               norm_class_idx: 0
            -
               depth: 10
               value: 1.
               norm_class_idx: 1
            -
               depth: 7
               value: 1.
               norm_class_idx: 1
               splits:
                  - { var:2, quality:9.7517356872558594e+00,
                      le:4.1364710777997971e-02 }
            -
               depth: 8
               value: 0.
               norm_class_idx: 0
            -
               depth: 8
               value: 1.
               norm_class_idx: 1
            -
               depth: 6
               value: 1.
               norm_class_idx: 1
               splits:
                  - { var:16, quality:7.0881645202636719e+01,
                      le:2.2739586234092712e-01 }
            -
               depth: 7
               value: 1.
               norm_class_idx: 1
               splits:
                  - { var:11, quality:4.7632877349853516e+01,
                      le:6.7899180722363894e-10 }
            -
               depth: 8
               value: 1.
               norm_class_idx: 1
            -
               depth: 8
               value: 1.
               norm_class_idx: 1
               splits:
                  - { var:7, quality:8.5692863464355469e+00,
                      le:4.0248903678730130e-04 }
            -
               depth: 9
               value: 1.
               norm_class_idx: 1
            -
               depth: 9
               value: 0.
               norm_class_idx: 0
            -
               depth: 7
               value: 0.
               norm_class_idx: 0
            -
               depth: 5
               value: 1.
               norm_class_idx: 1
            -
               depth: 2
               value: 2.
               norm_class_idx: 2
               splits:
                  - { var:4, quality:2.6172075195312500e+03,
                      le:8.4105432033538818e-02 }
            -
               depth: 3
               value: 2.
               norm_class_idx: 2
               splits:
                  - { var:16, quality:2.6278984375000000e+03,
                      le:4.7137147188186646e-01 }
            -
               depth: 4
               value: 2.
               norm_class_idx: 2
               splits:
                  - { var:24, quality:2.6089129638671875e+02,
                      le:5.5766105651855469e-03 }
            -
               depth: 5
               value: 1.
               norm_class_idx: 1
               splits:
                  - { var:5, quality:9.5252639770507812e+01,
                      le:7.6136201620101929e-02 }
            -
               depth: 6
               value: 2.
               norm_class_idx: 2
               splits:
                  - { var:23, quality:1.2055294990539551e+01,
                      le:1.7683379650115967e+00 }
            -
               depth: 7
               value: 2.
               norm_class_idx: 2
            -
               depth: 7
               value: 0.
               norm_class_idx: 0
            -
               depth: 6
               value: 1.
               norm_class_idx: 1
               splits:
                  - { var:3, quality:9.4318443298339844e+01,
                      le:3.6948883533477783e-01 }
            -
               depth: 7
               value: 1.
               norm_class_idx: 1
            -
               depth: 7
               value: 1.
               norm_class_idx: 1
               splits:
                  - { var:21, quality:2.1263912200927734e+01,
                      le:1.5176358222961426e+00 }
            -
               depth: 8
               value: 1.
               norm_class_idx: 1
               splits:
                  - { var:17, quality:1.5663571357727051e+01,
                      le:3.0895717442035675e-02 }
            -
               depth: 9
               value: 2.
               norm_class_idx: 2
            -
               depth: 9
               value: 1.
               norm_class_idx: 1
            -
               depth: 8
               value: 2.
               norm_class_idx: 2
            -
               depth: 5
               value: 2.
               norm_class_idx: 2
               splits:
                  - { var:23, quality:2.1263760375976562e+02,
                      le:1.4322226047515869e+00 }
            -
               depth: 6
               value: 1.
               norm_class_idx: 1
               splits:
                  - { var:21, quality:3.2013854980468750e+01,
                      le:1.8524589538574219e+00 }
            -
               depth: 7
               value: 1.
               norm_class_idx: 1
               splits:
                  - { var:7, quality:3.0347434997558594e+01,
                      le:1.6631789039820433e-03 }
            -
               depth: 8
               value: 2.
               norm_class_idx: 2
            -
               depth: 8
               value: 1.
               norm_class_idx: 1
               splits:
                  - { var:15, quality:2.9687377929687500e+01,
                      le:2.4022573232650757e-01 }
            -
               depth: 9
               value: 1.
               norm_class_idx: 1
            -
               depth: 9
               value: 1.
               norm_class_idx: 1
            -
               depth: 7
               value: 2.
               norm_class_idx: 2
            -
               depth: 6
               value: 2.
               norm_class_idx: 2
               splits:
                  - { var:6, quality:2.1382797241210938e+02,
                      le:2.8725007176399231e-01 }
            -
               depth: 7
               value: 1.
               norm_class_idx: 1
               splits:
                  - { var:7, quality:2.3080818176269531e+01,
                      le:1.2234577909111977e-02 }
            -
               depth: 8
               value: 1.
               norm_class_idx: 1
            -
               depth: 8
               value: 2.
               norm_class_idx: 2
               splits:
                  - { var:23, quality:9.8951950073242188e+00,
                      le:2.8043813705444336e+00 }
            -
               depth: 9
               value: 2.
               norm_class_idx: 2
            -
               depth: 9
               value: 1.
               norm_class_idx: 1
            -
               depth: 7
               value: 2.
               norm_class_idx: 2
               splits:
                  - { var:18, quality:1.9676445007324219e+02,
                      le:9.2689819335937500e+00 }
            -
               depth: 8
               value: 2.
               norm_class_idx: 2
            -
               depth: 8
               value: 2.
               norm_class_idx: 2
            -
               depth: 4
               value: 2.
               norm_class_idx: 2
               splits:
                  - { var:23, quality:2.4650617675781250e+03,
                      le:1.2469813823699951e+00 }
            -
               depth: 5
               value: 1.
               norm_class_idx: 1
               splits:
                  - { var:8, quality:5.2934024810791016e+01,
                      le:-9.6004456281661987e-02 }
            -
               depth: 6
               value: 2.
               norm_class_idx: 2
            -
               depth: 6
               value: 1.
               norm_class_idx: 1
               splits:
                  - { var:9, quality:3.4085144042968750e+01,
                      le:7.8735545277595520e-02 }
            -
               depth: 7
               value: 1.
               norm_class_idx: 1
               splits:
                  - { var:12, quality:3.3167041778564453e+01,
                      le:1.9290319085121155e-01 }
            -
               depth: 8
               value: 1.
               norm_class_idx: 1
            -
               depth: 8
               value: 2.
               norm_class_idx: 2
            -
               depth: 7
               value: 2.
               norm_class_idx: 2
            -
               depth: 5
               value: 2.
               norm_class_idx: 2
               splits:
                  - { var:18, quality:2.4416740722656250e+03,
                      le:6.1862277984619141e+01 }
            -
               depth: 6
               value: 2.
               norm_class_idx: 2
               splits:
                  - { var:14, quality:2.4430524902343750e+03,
                      le:2.0732679963111877e-01 }
            -
               depth: 7
               value: 2.
               norm_class_idx: 2
               splits:
                  - { var:4, quality:1.3483621215820312e+02,
                      le:1.9032478332519531e-02 }
            -
               depth: 8
               value: 1.
               norm_class_idx: 1
               splits:
                  - { var:10, quality:2.0984182357788086e+01,
                      le:-1.9662276506423950e+00 }
            -
               depth: 9
               value: 2.
               norm_class_idx: 2
            -
               depth: 9
               value: 1.
               norm_class_idx: 1
            -
               depth: 8
               value: 2.
               norm_class_idx: 2
               splits:
                  - { var:23, quality:1.2007518005371094e+02,
                      le:1.2502609491348267e+00 }
            -
               depth: 9
               value: 1.
               norm_class_idx: 1
            -
               depth: 9
               value: 2.
               norm_class_idx: 2
               splits:
                  - { var:8, quality:1.2083983612060547e+02,
                      le:-4.2311817407608032e-02 }
            -
               depth: 10
               value: 2.
               norm_class_idx: 2
            -
               depth: 10
               value: 1.
               norm_class_idx: 1
            -
               depth: 7
               value: 2.
               norm_class_idx: 2
               splits:
                  - { var:16, quality:2.3358710937500000e+03,
                      le:1.7243790626525879e+00 }
            -
               depth: 8
               value: 2.
               norm_class_idx: 2
               splits:
                  - { var:6, quality:2.3352177734375000e+03,
                      le:1.2449581921100616e-01 }
            -
               depth: 9
               value: 2.
               norm_class_idx: 2
               splits:
                  - { var:0, quality:2.5512525939941406e+02, le:15. }
            -
               depth: 10
               value: 1.
               norm_class_idx: 1
            -
               depth: 10
               value: 2.
               norm_class_idx: 2
            -
               depth: 9
               value: 2.
               norm_class_idx: 2
               splits:
                  - { var:28, quality:2.0834865722656250e+03,
                      le:9.0000033378601074e-02 }
            -
               depth: 10
               value: 2.
               norm_class_idx: 2
            -
               depth: 10
               value: 2.
               norm_class_idx: 2
            -
               depth: 8
               value: 1.
               norm_class_idx: 1
            -
               depth: 6
               value: 1.
               norm_class_idx: 1
            -
               depth: 3
               value: 0.
               norm_class_idx: 0
               splits:
                  - { var:25, quality:9.4402717590332031e+01,
                      le:5.0000000000000000e-01 }
            -
               depth: 4
               value: 2.
               norm_class_idx: 2
               splits:
                  - { var:1, quality:8.8509073257446289e+00,
                      le:1.5844574570655823e-01 }
            -
               depth: 5
               value: 1.
               norm_class_idx: 1
            -
               depth: 5
               value: 2.
               norm_class_idx: 2
            -
               depth: 4
               value: 0.
               norm_class_idx: 0
            -
               depth: 1
               value: 0.
               norm_class_idx: 0
               splits:
                  - { var:2, quality:2.5742182617187500e+03,
                      le:1.8610273301601410e-01 }
            -
               depth: 2
               value: 0.
               norm_class_idx: 0
               splits:
                  - { var:7, quality:1.2874009704589844e+02,
                      le:6.1239069327712059e-04 }
            -
               depth: 3
               value: 0.
               norm_class_idx: 0
               splits:
                  - { var:3, quality:1.1565982055664062e+02,
                      le:1.2004361301660538e-01 }
            -
               depth: 4
               value: 1.
               norm_class_idx: 1
            -
               depth: 4
               value: 0.
               norm_class_idx: 0
               splits:
                  - { var:22, quality:9.4169784545898438e+01,
                      le:9.5503020286560059e-01 }
            -
               depth: 5
               value: 1.
               norm_class_idx: 1
