%YAML:1.0
---
opencv_ml_rtrees:
   format: 3
   is_classifier: 1
   var_all: 18
   var_count: 17
   ord_var_count: 17
   cat_var_count: 1
   training_params:
      use_surrogates: 0
      max_categories: 15
      regression_accuracy: 1.0000000474974513e-03
      max_depth: 10
      min_sample_count: 5
      cross_validation_folds: 0
      priors: !!opencv-matrix
         rows: 1
         cols: 3
         dt: f
         data: [ 4.59163468e-41, 5.15130161e-10, 4.59163468e-41 ]
      nactive_vars: 15
   global_var_idx: 1
   var_idx: [ 0, 1, 2, 3, 4, 5, 6, 7, 8, 9, 10, 11, 12, 13, 14, 15, 16 ]
   var_type: [ 0, 0, 0, 0, 0, 0, 0, 0, 0, 0, 0, 0, 0, 0, 0, 0, 0, 1 ]
   cat_ofs: [ 0, 0, 0, 0, 0, 0, 0, 0, 0, 0, 0, 0, 0, 0, 0, 0, 0, 0, 0, 0,
       0, 0, 0, 0, 0, 0, 0, 0, 0, 0, 0, 0, 0, 0 ]
   class_labels: [ 0, 1, 2 ]
   missing_subst: [ 0., 0., 0., 0., 0., 0., 0., 0., 0., 0., 0., 0., 0.,
       0., 0., 0., 0., 0. ]
   oob_error: 1.3230846561830470e-02
   var_importance: [ 1.03773205e-02, 1.91569373e-01, 6.34228289e-02,
       2.32494250e-01, 8.68155509e-02, 2.09065210e-02, 8.83838683e-02,
       8.43194500e-02, 1.42832613e-02, 2.08206754e-02, 1.30913388e-02,
       2.16329005e-02, 1.24574071e-02, 5.51982336e-02, 3.02900225e-02,
       4.35068272e-02, 1.04301488e-02 ]
   ntrees: 100
   trees:
      -
         nodes:
            -
               depth: 0
               value: 0.
               norm_class_idx: 0
               splits:
                  - { var:1, quality:5.1738261718750000e+03,
                      le:2.6495498418807983e-01 }
            -
               depth: 1
               value: 1.
               norm_class_idx: 1
               splits:
                  - { var:3, quality:4.8682343750000000e+03,
                      le:3.2700371742248535e-01 }
            -
               depth: 2
               value: 1.
               norm_class_idx: 1
               splits:
                  - { var:14, quality:2.6599094238281250e+03,
                      le:2.2849998474121094e+00 }
            -
               depth: 3
               value: 1.
               norm_class_idx: 1
               splits:
                  - { var:2, quality:2.5402778320312500e+03,
                      le:8.1142827868461609e-02 }
            -
               depth: 4
               value: 1.
               norm_class_idx: 1
               splits:
                  - { var:15, quality:2.3175412597656250e+03,
                      le:5.0000000000000000e-01 }
            -
               depth: 5
               value: 1.
               norm_class_idx: 1
               splits:
                  - { var:2, quality:2.2557475585937500e+03,
                      le:7.4694082140922546e-02 }
            -
               depth: 6
               value: 1.
               norm_class_idx: 1
            -
               depth: 6
               value: 1.
               norm_class_idx: 1
               splits:
                  - { var:8, quality:2.8508411407470703e+01,
                      le:1.7234206199645996e-02 }
            -
               depth: 7
               value: 2.
               norm_class_idx: 2
            -
               depth: 7
               value: 1.
               norm_class_idx: 1
            -
               depth: 5
               value: 1.
               norm_class_idx: 1
               splits:
                  - { var:16, quality:7.3861618041992188e+01,
                      le:5.0000000000000000e-01 }
            -
               depth: 6
               value: 1.
               norm_class_idx: 1
               splits:
                  - { var:9, quality:6.9430686950683594e+01,
                      le:1.5494216680526733e+00 }
            -
               depth: 7
               value: 1.
               norm_class_idx: 1
               splits:
                  - { var:12, quality:6.1824493408203125e+00,
                      le:1.9133255481719971e+00 }
            -
               depth: 8
               value: 1.
               norm_class_idx: 1
            -
               depth: 8
               value: 0.
               norm_class_idx: 0
            -
               depth: 7
               value: 1.
               norm_class_idx: 1
               splits:
                  - { var:2, quality:6.8969596862792969e+01,
                      le:6.8485438823699951e-02 }
            -
               depth: 8
               value: 1.
               norm_class_idx: 1
            -
               depth: 8
               value: 2.
               norm_class_idx: 2
            -
               depth: 6
               value: 0.
               norm_class_idx: 0
            -
               depth: 4
               value: 1.
               norm_class_idx: 1
               splits:
                  - { var:5, quality:2.7168441772460938e+02,
                      le:1.3026960659772158e-03 }
            -
               depth: 5
               value: 2.
               norm_class_idx: 2
               splits:
                  - { var:12, quality:7.1543876647949219e+01,
                      le:1.3824229240417480e+00 }
            -
               depth: 6
               value: 2.
               norm_class_idx: 2
               splits:
                  - { var:10, quality:6.3597164154052734e+01,
                      le:2.0139646530151367e+00 }
            -
               depth: 7
               value: 1.
               norm_class_idx: 1
            -
               depth: 7
               value: 2.
               norm_class_idx: 2
            -
               depth: 6
               value: 1.
               norm_class_idx: 1
               splits:
                  - { var:6, quality:1.5460055351257324e+01,
                      le:3.5957026481628418e-01 }
            -
               depth: 7
               value: 1.
               norm_class_idx: 1
            -
               depth: 7
               value: 2.
               norm_class_idx: 2
            -
               depth: 5
               value: 1.
               norm_class_idx: 1
               splits:
                  - { var:4, quality:2.4949243164062500e+02,
                      le:1.8249321728944778e-02 }
            -
               depth: 6
               value: 1.
               norm_class_idx: 1
               splits:
                  - { var:8, quality:2.3401747131347656e+02,
                      le:1.8794378265738487e-02 }
            -
               depth: 7
               value: 2.
               norm_class_idx: 2
               splits:
                  - { var:7, quality:1.0967087745666504e+01,
                      le:4.3969658017158508e-01 }
            -
               depth: 8
               value: 2.
               norm_class_idx: 2
               splits:
                  - { var:9, quality:9.6465196609497070e+00,
                      le:1.2074666976928711e+01 }
            -
               depth: 9
               value: 1.
               norm_class_idx: 1
            -
               depth: 9
               value: 2.
               norm_class_idx: 2
            -
               depth: 8
               value: 1.
               norm_class_idx: 1
            -
               depth: 7
               value: 1.
               norm_class_idx: 1
               splits:
                  - { var:15, quality:2.3416867065429688e+02,
                      le:5.0000000000000000e-01 }
            -
               depth: 8
               value: 1.
               norm_class_idx: 1
               splits:
                  - { var:12, quality:2.3258889770507812e+02,
                      le:2.0667603015899658e+00 }
            -
               depth: 9
               value: 1.
               norm_class_idx: 1
               splits:
                  - { var:11, quality:2.3276846313476562e+02,
                      le:1.6921384334564209e+00 }
            -
               depth: 10
               value: 1.
               norm_class_idx: 1
            -
               depth: 10
               value: 1.
               norm_class_idx: 1
            -
               depth: 9
               value: 2.
               norm_class_idx: 2
            -
               depth: 8
               value: 2.
               norm_class_idx: 2
            -
               depth: 6
               value: 2.
               norm_class_idx: 2
               splits:
                  - { var:14, quality:3.0105859756469727e+01,
                      le:1.4561800658702850e-01 }
            -
               depth: 7
               value: 1.
               norm_class_idx: 1
               splits:
                  - { var:4, quality:9.8456096649169922e+00,
                      le:2.7818672358989716e-02 }
            -
               depth: 8
               value: 1.
               norm_class_idx: 1
            -
               depth: 8
               value: 2.
               norm_class_idx: 2
            -
               depth: 7
               value: 2.
               norm_class_idx: 2
            -
               depth: 3
               value: 0.
               norm_class_idx: 0
               splits:
                  - { var:14, quality:2.3742988586425781e+02,
                      le:2.2947807312011719e+00 }
            -
               depth: 4
               value: 0.
               norm_class_idx: 0
               splits:
                  - { var:1, quality:1.4892694091796875e+02,
                      le:6.6147178411483765e-02 }
            -
               depth: 5
               value: 0.
               norm_class_idx: 0
               splits:
                  - { var:10, quality:1.4562507629394531e+02,
                      le:1.0442075729370117e+00 }
            -
               depth: 6
               value: 1.
               norm_class_idx: 1
            -
               depth: 6
               value: 0.
               norm_class_idx: 0
               splits:
                  - { var:3, quality:1.4631640625000000e+02,
                      le:1.2007737159729004e-01 }
            -
               depth: 7
               value: 1.
               norm_class_idx: 1
            -
               depth: 7
               value: 0.
               norm_class_idx: 0
               splits:
                  - { var:15, quality:1.4595433044433594e+02,
                      le:5.0000000000000000e-01 }
            -
               depth: 8
               value: 0.
               norm_class_idx: 0
               splits:
                  - { var:14, quality:1.4014221191406250e+02,
                      le:2.2925672531127930e+00 }
            -
               depth: 9
               value: 0.
               norm_class_idx: 0
               splits:
                  - { var:2, quality:1.0833362579345703e+02,
                      le:4.5166570693254471e-02 }
            -
               depth: 10
               value: 0.
               norm_class_idx: 0
            -
               depth: 10
               value: 0.
               norm_class_idx: 0
            -
               depth: 9
               value: 0.
               norm_class_idx: 0
               splits:
                  - { var:7, quality:3.4831996917724609e+01,
                      le:1.2673172354698181e-01 }
            -
               depth: 10
               value: 0.
               norm_class_idx: 0
            -
               depth: 10
               value: 1.
               norm_class_idx: 1
            -
               depth: 8
               value: 0.
               norm_class_idx: 0
               splits:
                  - { var:1, quality:8.5912246704101562e+00,
                      le:6.2821209430694580e-02 }
            -
               depth: 9
               value: 1.
               norm_class_idx: 1
            -
               depth: 9
               value: 0.
               norm_class_idx: 0
            -
               depth: 5
               value: 1.
               norm_class_idx: 1
            -
               depth: 4
               value: 1.
               norm_class_idx: 1
               splits:
                  - { var:11, quality:1.5359173583984375e+02,
                      le:1.0076034069061279e+00 }
            -
               depth: 5
               value: 1.
               norm_class_idx: 1
               splits:
                  - { var:1, quality:1.0920327758789062e+02,
                      le:6.0543861240148544e-02 }
            -
               depth: 6
               value: 0.
               norm_class_idx: 0
            -
               depth: 6
               value: 1.
               norm_class_idx: 1
            -
               depth: 5
               value: 0.
               norm_class_idx: 0
               splits:
                  - { var:13, quality:5.4308902740478516e+01,
                      le:9.4074563980102539e+00 }
            -
               depth: 6
               value: 1.
               norm_class_idx: 1
               splits:
                  - { var:2, quality:1.6535827636718750e+01,
                      le:4.1855432093143463e-02 }
            -
               depth: 7
               value: 0.
               norm_class_idx: 0
            -
               depth: 7
               value: 1.
               norm_class_idx: 1
               splits:
                  - { var:12, quality:1.0889897346496582e+01,
                      le:1.7979197502136230e+00 }
            -
               depth: 8
               value: 2.
               norm_class_idx: 2
            -
               depth: 8
               value: 1.
               norm_class_idx: 1
            -
               depth: 6
               value: 0.
               norm_class_idx: 0
            -
               depth: 2
               value: 2.
               norm_class_idx: 2
               splits:
                  - { var:9, quality:2.6068391113281250e+03,
                      le:2.6158075332641602e+00 }
            -
               depth: 3
               value: 0.
               norm_class_idx: 0
               splits:
                  - { var:12, quality:1.3451864624023438e+02,
                      le:1.4749023914337158e+00 }
            -
               depth: 4
               value: 2.
               norm_class_idx: 2
               splits:
                  - { var:4, quality:3.3823337554931641e+01,
                      le:8.8361179223284125e-04 }
            -
               depth: 5
               value: 0.
               norm_class_idx: 0
            -
               depth: 5
               value: 2.
               norm_class_idx: 2
            -
               depth: 4
               value: 0.
               norm_class_idx: 0
               splits:
                  - { var:15, quality:1.2395484924316406e+02,
                      le:5.0000000000000000e-01 }
            -
               depth: 5
               value: 1.
               norm_class_idx: 1
               splits:
                  - { var:8, quality:5.8675479888916016e+00,
                      le:6.0580149292945862e-02 }
            -
               depth: 6
               value: 2.
               norm_class_idx: 2
            -
               depth: 6
               value: 1.
               norm_class_idx: 1
            -
               depth: 5
               value: 0.
               norm_class_idx: 0
            -
               depth: 3
               value: 2.
               norm_class_idx: 2
               splits:
                  - { var:7, quality:2.5454721679687500e+03,
                      le:4.9092388153076172e-01 }
            -
               depth: 4
               value: 2.
               norm_class_idx: 2
               splits:
                  - { var:6, quality:2.1249409484863281e+02,
                      le:1.6083125770092010e-01 }
            -
               depth: 5
               value: 1.
               norm_class_idx: 1
               splits:
                  - { var:12, quality:7.1847373962402344e+01,
                      le:1.6309432983398438e+00 }
            -
               depth: 6
               value: 1.
               norm_class_idx: 1
               splits:
                  - { var:5, quality:6.7169769287109375e+01,
                      le:2.0831737667322159e-02 }
            -
               depth: 7
               value: 1.
               norm_class_idx: 1
               splits:
                  - { var:1, quality:6.2641494750976562e+01,
                      le:1.5825244784355164e-01 }
            -
               depth: 8
               value: 1.
               norm_class_idx: 1
               splits:
                  - { var:11, quality:6.1454608917236328e+01,
                      le:1.5512945652008057e+00 }
            -
               depth: 9
               value: 1.
               norm_class_idx: 1
            -
               depth: 9
               value: 1.
               norm_class_idx: 1
               splits:
                  - { var:4, quality:6.1148349761962891e+01,
                      le:1.0249423794448376e-02 }
            -
               depth: 10
               value: 1.
               norm_class_idx: 1
            -
               depth: 10
               value: 1.
               norm_class_idx: 1
            -
               depth: 8
               value: 2.
               norm_class_idx: 2
            -
               depth: 7
               value: 2.
               norm_class_idx: 2
            -
               depth: 6
               value: 2.
               norm_class_idx: 2
               splits:
                  - { var:13, quality:2.1182525634765625e+01,
                      le:5.4728994369506836e+00 }
            -
               depth: 7
               value: 1.
               norm_class_idx: 1
            -
               depth: 7
               value: 2.
               norm_class_idx: 2
            -
               depth: 5
               value: 2.
               norm_class_idx: 2
               splits:
                  - { var:13, quality:1.8222860717773438e+02,
                      le:3.1655805110931396e+00 }
            -
               depth: 6
               value: 1.
               norm_class_idx: 1
               splits:
                  - { var:8, quality:2.5928493499755859e+01,
                      le:1.7216004431247711e-02 }
            -
               depth: 7
               value: 0.
               norm_class_idx: 0
               splits:
                  - { var:10, quality:1.9370197296142578e+01,
                      le:2.7937121391296387e+00 }
            -
               depth: 8
               value: 0.
               norm_class_idx: 0
            -
               depth: 8
               value: 2.
               norm_class_idx: 2
            -
               depth: 7
               value: 1.
               norm_class_idx: 1
            -
               depth: 6
               value: 2.
               norm_class_idx: 2
               splits:
                  - { var:8, quality:1.7651484680175781e+02,
                      le:4.4368028640747070e-02 }
            -
               depth: 7
               value: 2.
               norm_class_idx: 2
               splits:
                  - { var:4, quality:1.5695909118652344e+02,
                      le:1.1730904225260019e-03 }
            -
               depth: 8
               value: 1.
               norm_class_idx: 1
            -
               depth: 8
               value: 2.
               norm_class_idx: 2
               splits:
                  - { var:2, quality:1.5508312988281250e+02,
                      le:1.3140764832496643e-01 }
            -
               depth: 9
               value: 2.
               norm_class_idx: 2
            -
               depth: 9
               value: 2.
               norm_class_idx: 2
               splits:
                  - { var:0, quality:8.8509073257446289e+00,
                      le:8.5000000000000000e+00 }
            -
               depth: 10
               value: 2.
               norm_class_idx: 2
            -
               depth: 10
               value: 1.
               norm_class_idx: 1
            -
               depth: 7
               value: 2.
               norm_class_idx: 2
               splits:
                  - { var:11, quality:3.1949676513671875e+01,
                      le:1.7211194038391113e+00 }
            -
               depth: 8
               value: 2.
               norm_class_idx: 2
               splits:
                  - { var:6, quality:2.2276399612426758e+01,
                      le:2.6071909070014954e-01 }
            -
               depth: 9
               value: 2.
               norm_class_idx: 2
            -
               depth: 9
               value: 1.
               norm_class_idx: 1
            -
               depth: 8
               value: 1.
               norm_class_idx: 1
               splits:
                  - { var:5, quality:1.8895606994628906e+01,
                      le:1.2748526409268379e-02 }
            -
               depth: 9
               value: 1.
               norm_class_idx: 1
            -
               depth: 9
               value: 2.
               norm_class_idx: 2
            -
               depth: 4
               value: 2.
               norm_class_idx: 2
               splits:
                  - { var:13, quality:2.4097270507812500e+03,
                      le:9.4208850860595703e+00 }
            -
               depth: 5
               value: 2.
               norm_class_idx: 2
               splits:
                  - { var:4, quality:2.3990815429687500e+03,
                      le:1.8273964524269104e-03 }
            -
               depth: 6
               value: 0.
               norm_class_idx: 0
               splits:
                  - { var:11, quality:1.2027647972106934e+01,
                      le:2.6723227500915527e+00 }
            -
               depth: 7
               value: 2.
               norm_class_idx: 2
            -
               depth: 7
               value: 0.
               norm_class_idx: 0
            -
               depth: 6
               value: 2.
               norm_class_idx: 2
               splits:
                  - { var:6, quality:2.3985930175781250e+03,
                      le:1.3060654699802399e-01 }
            -
               depth: 7
               value: 1.
               norm_class_idx: 1
            -
               depth: 7
               value: 2.
               norm_class_idx: 2
               splits:
                  - { var:8, quality:2.4000571289062500e+03,
                      le:1.1089697480201721e-01 }
            -
               depth: 8
               value: 2.
               norm_class_idx: 2
               splits:
                  - { var:6, quality:2.4007822265625000e+03,
                      le:1.4903876185417175e-01 }
            -
               depth: 9
               value: 2.
               norm_class_idx: 2
               splits:
                  - { var:2, quality:6.4315299987792969e+01,
                      le:1.3572862744331360e-01 }
            -
               depth: 10
               value: 2.
               norm_class_idx: 2
            -
               depth: 10
               value: 1.
               norm_class_idx: 1
            -
               depth: 9
               value: 2.
               norm_class_idx: 2
               splits:
                  - { var:9, quality:2.3435512695312500e+03,
                      le:6.3142143249511719e+01 }
            -
               depth: 10
               value: 2.
               norm_class_idx: 2
            -
               depth: 10
               value: 1.
               norm_class_idx: 1
            -
               depth: 8
               value: 1.
               norm_class_idx: 1
            -
               depth: 5
               value: 0.
               norm_class_idx: 0
            -
               depth: 1
               value: 0.
               norm_class_idx: 0
               splits:
                  - { var:4, quality:2.5244255371093750e+03,
                      le:4.1199363768100739e-02 }
            -
               depth: 2
               value: 0.
               norm_class_idx: 0
            -
               depth: 2
               value: 2.
               norm_class_idx: 2
      -
         nodes:
            -
               depth: 0
               value: 2.
               norm_class_idx: 2
               splits:
                  - { var:6, quality:5.1697539062500000e+03,
                      le:5.0189161300659180e-01 }
            -
               depth: 1
               value: 2.
               norm_class_idx: 2
               splits:
                  - { var:3, quality:4.9767133789062500e+03,
                      le:2.9824116826057434e-01 }
            -
               depth: 2
               value: 1.
               norm_class_idx: 1
               splits:
                  - { var:14, quality:2.5899238281250000e+03,
                      le:2.2833333015441895e+00 }
            -
               depth: 3
               value: 1.
               norm_class_idx: 1
               splits:
                  - { var:3, quality:2.4741445312500000e+03,
                      le:2.5741043686866760e-01 }
            -
               depth: 4
               value: 1.
               norm_class_idx: 1
               splits:
                  - { var:15, quality:2.3681704101562500e+03,
                      le:5.0000000000000000e-01 }
            -
               depth: 5
               value: 1.
               norm_class_idx: 1
               splits:
                  - { var:12, quality:2.3092568359375000e+03,
                      le:2.3404874801635742e+00 }
            -
               depth: 6
               value: 1.
               norm_class_idx: 1
               splits:
                  - { var:13, quality:2.3082961425781250e+03,
                      le:7.5684795379638672e+00 }
            -
               depth: 7
               value: 1.
               norm_class_idx: 1
               splits:
                  - { var:2, quality:2.3037553710937500e+03,
                      le:9.9073365330696106e-02 }
            -
               depth: 8
               value: 1.
               norm_class_idx: 1
            -
               depth: 8
               value: 1.
               norm_class_idx: 1
               splits:
                  - { var:12, quality:1.7254795074462891e+01,
                      le:1.0516490936279297e+00 }
            -
               depth: 9
               value: 2.
               norm_class_idx: 2
            -
               depth: 9
               value: 1.
               norm_class_idx: 1
            -
               depth: 7
               value: 1.
               norm_class_idx: 1
               splits:
                  - { var:11, quality:6.9118356704711914e+00,
                      le:1.0977265834808350e+00 }
            -
               depth: 8
               value: 2.
               norm_class_idx: 2
            -
               depth: 8
               value: 1.
               norm_class_idx: 1
            -
               depth: 6
               value: 1.
               norm_class_idx: 1
            -
               depth: 5
               value: 1.
               norm_class_idx: 1
               splits:
                  - { var:16, quality:7.9785903930664062e+01,
                      le:5.0000000000000000e-01 }
            -
               depth: 6
               value: 1.
               norm_class_idx: 1
               splits:
                  - { var:2, quality:6.9385787963867188e+01,
                      le:5.8622390031814575e-02 }
            -
               depth: 7
               value: 1.
               norm_class_idx: 1
               splits:
                  - { var:9, quality:6.8990112304687500e+01,
                      le:1.5494216680526733e+00 }
            -
               depth: 8
               value: 1.
               norm_class_idx: 1
            -
               depth: 8
               value: 1.
               norm_class_idx: 1
            -
               depth: 7
               value: 2.
               norm_class_idx: 2
            -
               depth: 6
               value: 0.
               norm_class_idx: 0
            -
               depth: 4
               value: 1.
               norm_class_idx: 1
               splits:
                  - { var:12, quality:1.2883435058593750e+02,
                      le:1.3992841243743896e+00 }
            -
               depth: 5
               value: 1.
               norm_class_idx: 1
               splits:
                  - { var:14, quality:6.3688091278076172e+01,
                      le:6.6786646842956543e-01 }
            -
               depth: 6
               value: 1.
               norm_class_idx: 1
               splits:
                  - { var:4, quality:4.7233768463134766e+01,
                      le:2.0750297233462334e-02 }
            -
               depth: 7
               value: 1.
               norm_class_idx: 1
               splits:
                  - { var:8, quality:4.6619720458984375e+01,
                      le:1.9734047353267670e-02 }
            -
               depth: 8
               value: 2.
               norm_class_idx: 2
               splits:
                  - { var:8, quality:1.2892781257629395e+01,
                      le:1.4659615233540535e-02 }
            -
               depth: 9
               value: 1.
               norm_class_idx: 1
               splits:
                  - { var:8, quality:7.7074480056762695e+00,
                      le:9.4838719815015793e-03 }
            -
               depth: 10
               value: 2.
               norm_class_idx: 2
            -
               depth: 10
               value: 1.
               norm_class_idx: 1
            -
               depth: 9
               value: 2.
               norm_class_idx: 2
               splits:
                  - { var:10, quality:8.8509073257446289e+00,
                      le:2.8156037330627441e+00 }
            -
               depth: 10
               value: 2.
               norm_class_idx: 2
            -
               depth: 10
               value: 1.
               norm_class_idx: 1
            -
               depth: 8
               value: 1.
               norm_class_idx: 1
            -
               depth: 7
               value: 2.
               norm_class_idx: 2
            -
               depth: 6
               value: 2.
               norm_class_idx: 2
               splits:
                  - { var:0, quality:3.1289993286132812e+01,
                      le:4.5000000000000000e+00 }
            -
               depth: 7
               value: 1.
               norm_class_idx: 1
            -
               depth: 7
               value: 2.
               norm_class_idx: 2
               splits:
                  - { var:3, quality:2.9577821731567383e+01,
                      le:2.9563164710998535e-01 }
            -
               depth: 8
               value: 2.
               norm_class_idx: 2
               splits:
                  - { var:6, quality:3.0331695556640625e+01,
                      le:1.1340095102787018e-01 }
            -
               depth: 9
               value: 1.
               norm_class_idx: 1
            -
               depth: 9
               value: 2.
               norm_class_idx: 2
            -
               depth: 8
               value: 1.
               norm_class_idx: 1
            -
               depth: 5
               value: 1.
               norm_class_idx: 1
               splits:
                  - { var:4, quality:8.5428779602050781e+01,
                      le:2.1663337945938110e-02 }
            -
               depth: 6
               value: 1.
               norm_class_idx: 1
            -
               depth: 6
               value: 2.
               norm_class_idx: 2
            -
               depth: 3
               value: 0.
               norm_class_idx: 0
               splits:
                  - { var:13, quality:1.9281835937500000e+02,
                      le:6.9049997329711914e+00 }
            -
               depth: 4
               value: 0.
               norm_class_idx: 0
               splits:
                  - { var:3, quality:1.1582266235351562e+02,
                      le:1.2410646677017212e-01 }
            -
               depth: 5
               value: 0.
               norm_class_idx: 0
               splits:
                  - { var:15, quality:1.1370075988769531e+02,
                      le:5.0000000000000000e-01 }
            -
               depth: 6
               value: 0.
               norm_class_idx: 0
               splits:
                  - { var:3, quality:1.1292238616943359e+02,
                      le:1.2216265499591827e-01 }
            -
               depth: 7
               value: 0.
               norm_class_idx: 0
               splits:
                  - { var:3, quality:1.1224858093261719e+02,
                      le:1.2007737159729004e-01 }
            -
               depth: 8
               value: 1.
               norm_class_idx: 1
            -
               depth: 8
               value: 0.
               norm_class_idx: 0
               splits:
                  - { var:13, quality:1.1155953216552734e+02,
                      le:6.8777017593383789e+00 }
            -
               depth: 9
               value: 0.
               norm_class_idx: 0
            -
               depth: 9
               value: 0.
               norm_class_idx: 0
               splits:
                  - { var:12, quality:3.2038600921630859e+01,
                      le:1.4480433464050293e+00 }
            -
               depth: 10
               value: 1.
               norm_class_idx: 1
            -
               depth: 10
               value: 0.
               norm_class_idx: 0
            -
               depth: 7
               value: 1.
               norm_class_idx: 1
            -
               depth: 6
               value: 1.
               norm_class_idx: 1
               splits:
                  - { var:1, quality:6.1824493408203125e+00,
                      le:6.2821209430694580e-02 }
            -
               depth: 7
               value: 1.
               norm_class_idx: 1
            -
               depth: 7
               value: 0.
               norm_class_idx: 0
            -
               depth: 5
               value: 1.
               norm_class_idx: 1
            -
               depth: 4
               value: 1.
               norm_class_idx: 1
               splits:
                  - { var:13, quality:1.4263398742675781e+02,
                      le:9.4733953475952148e+00 }
            -
               depth: 5
               value: 1.
               norm_class_idx: 1
            -
               depth: 5
               value: 0.
               norm_class_idx: 0
            -
               depth: 2
               value: 2.
               norm_class_idx: 2
               splits:
                  - { var:15, quality:2.7263530273437500e+03,
                      le:5.0000000000000000e-01 }
            -
               depth: 3
               value: 2.
               norm_class_idx: 2
               splits:
                  - { var:3, quality:2.6950063476562500e+03,
                      le:3.6512935161590576e-01 }
            -
               depth: 4
               value: 2.
               norm_class_idx: 2
               splits:
                  - { var:13, quality:2.5860559082031250e+02,
                      le:3.6468286514282227e+00 }
            -
               depth: 5
               value: 1.
               norm_class_idx: 1
               splits:
                  - { var:7, quality:8.8695159912109375e+01,
                      le:5.8502960205078125e-01 }
            -
               depth: 6
               value: 1.
               norm_class_idx: 1
               splits:
                  - { var:6, quality:7.8817413330078125e+01,
                      le:1.5882600843906403e-01 }
            -
               depth: 7
               value: 1.
               norm_class_idx: 1
            -
               depth: 7
               value: 1.
               norm_class_idx: 1
               splits:
                  - { var:6, quality:2.7448251724243164e+01,
                      le:1.6619116067886353e-01 }
            -
               depth: 8
               value: 2.
               norm_class_idx: 2
            -
               depth: 8
               value: 1.
               norm_class_idx: 1
            -
               depth: 6
               value: 2.
               norm_class_idx: 2
               splits:
                  - { var:8, quality:2.1430919647216797e+01,
                      le:9.8431468009948730e-02 }
            -
               depth: 7
               value: 2.
               norm_class_idx: 2
               splits:
                  - { var:4, quality:2.0386913299560547e+01,
                      le:2.4884467944502831e-02 }
            -
               depth: 8
               value: 1.
               norm_class_idx: 1
            -
               depth: 8
               value: 2.
               norm_class_idx: 2
            -
               depth: 7
               value: 1.
               norm_class_idx: 1
            -
               depth: 5
               value: 2.
               norm_class_idx: 2
               splits:
                  - { var:4, quality:2.1458979797363281e+02,
                      le:3.9726560935378075e-03 }
            -
               depth: 6
               value: 1.
               norm_class_idx: 1
               splits:
                  - { var:5, quality:5.8536308288574219e+01,
                      le:2.0568408071994781e-03 }
            -
               depth: 7
               value: 2.
               norm_class_idx: 2
               splits:
                  - { var:12, quality:2.6352176666259766e+01,
                      le:1.5066840648651123e+00 }
            -
               depth: 8
               value: 2.
               norm_class_idx: 2
               splits:
                  - { var:3, quality:2.6304046630859375e+01,
                      le:3.4164419770240784e-01 }
            -
               depth: 9
               value: 2.
               norm_class_idx: 2
            -
               depth: 9
               value: 1.
               norm_class_idx: 1
            -
               depth: 8
               value: 1.
               norm_class_idx: 1
            -
               depth: 7
               value: 1.
               norm_class_idx: 1
               splits:
                  - { var:9, quality:3.9178657531738281e+01,
                      le:3.2987856864929199e+00 }
            -
               depth: 8
               value: 2.
               norm_class_idx: 2
            -
               depth: 8
               value: 1.
               norm_class_idx: 1
               splits:
                  - { var:9, quality:3.9216098785400391e+01,
                      le:8.7764987945556641e+00 }
            -
               depth: 9
               value: 1.
               norm_class_idx: 1
               splits:
                  - { var:11, quality:3.7813457489013672e+01,
                      le:1.6992254257202148e+00 }
            -
               depth: 10
               value: 1.
               norm_class_idx: 1
            -
               depth: 10
               value: 1.
               norm_class_idx: 1
            -
               depth: 9
               value: 2.
               norm_class_idx: 2
            -
               depth: 6
               value: 2.
               norm_class_idx: 2
               splits:
                  - { var:8, quality:1.7916915893554688e+02,
                      le:5.7116542011499405e-02 }
            -
               depth: 7
               value: 2.
               norm_class_idx: 2
               splits:
                  - { var:6, quality:1.5153173828125000e+02,
                      le:1.3589094579219818e-01 }
            -
               depth: 8
               value: 2.
               norm_class_idx: 2
               splits:
                  - { var:4, quality:1.1645749092102051e+01,
                      le:4.8798117786645889e-03 }
            -
               depth: 9
               value: 1.
               norm_class_idx: 1
            -
               depth: 9
               value: 2.
               norm_class_idx: 2
               splits:
                  - { var:14, quality:1.1536005973815918e+01,
                      le:4.0230745077133179e-01 }
            -
               depth: 10
               value: 1.
               norm_class_idx: 1
            -
               depth: 10
               value: 2.
               norm_class_idx: 2
            -
               depth: 8
               value: 2.
               norm_class_idx: 2
            -
               depth: 7
               value: 2.
               norm_class_idx: 2
               splits:
                  - { var:4, quality:3.9987487792968750e+01,
                      le:1.4545656740665436e-02 }
            -
               depth: 8
               value: 1.
               norm_class_idx: 1
               splits:
                  - { var:14, quality:1.0094285011291504e+01,
                      le:1.4135744571685791e+00 }
            -
               depth: 9
               value: 1.
               norm_class_idx: 1
            -
               depth: 9
               value: 2.
               norm_class_idx: 2
            -
               depth: 8
               value: 2.
               norm_class_idx: 2
            -
               depth: 4
               value: 2.
               norm_class_idx: 2
               splits:
                  - { var:3, quality:2.4921179199218750e+03,
                      le:4.2433056235313416e-01 }
            -
               depth: 5
               value: 2.
               norm_class_idx: 2
               splits:
                  - { var:13, quality:3.9916436767578125e+02,
                      le:2.9445872306823730e+00 }
            -
               depth: 6
               value: 2.
               norm_class_idx: 2
               splits:
                  - { var:4, quality:8.5139533996582031e+01,
                      le:1.6515871509909630e-02 }
            -
               depth: 7
               value: 1.
               norm_class_idx: 1
               splits:
                  - { var:5, quality:3.1830728530883789e+01,
                      le:2.6947699487209320e-02 }
            -
               depth: 8
               value: 1.
               norm_class_idx: 1
            -
               depth: 8
               value: 2.
               norm_class_idx: 2
            -
               depth: 7
               value: 2.
               norm_class_idx: 2
               splits:
                  - { var:9, quality:6.2097106933593750e+01,
                      le:2.8518293380737305e+01 }
            -
               depth: 8
               value: 2.
               norm_class_idx: 2
               splits:
                  - { var:4, quality:5.4454231262207031e+01,
                      le:2.1554321050643921e-02 }
            -
               depth: 9
               value: 2.
               norm_class_idx: 2
            -
               depth: 9
               value: 2.
               norm_class_idx: 2
            -
               depth: 8
               value: 2.
               norm_class_idx: 2
               splits:
                  - { var:4, quality:1.2580293655395508e+01,
                      le:2.8946174308657646e-02 }
            -
               depth: 9
               value: 1.
               norm_class_idx: 1
            -
               depth: 9
               value: 2.
               norm_class_idx: 2
            -
               depth: 6
               value: 2.
               norm_class_idx: 2
               splits:
                  - { var:3, quality:3.4572302246093750e+02,
                      le:4.2403447628021240e-01 }
            -
               depth: 7
               value: 2.
               norm_class_idx: 2
               splits:
                  - { var:4, quality:3.4491409301757812e+02,
                      le:5.5124512873589993e-03 }
            -
               depth: 8
               value: 2.
               norm_class_idx: 2
               splits:
                  - { var:14, quality:4.2098739624023438e+01,
                      le:5.6206703186035156e-01 }
            -
               depth: 9
               value: 1.
               norm_class_idx: 1
               splits:
                  - { var:5, quality:8.2543849945068359e+00,
                      le:1.2255201116204262e-02 }
            -
               depth: 10
               value: 1.
               norm_class_idx: 1
            -
               depth: 10
               value: 2.
               norm_class_idx: 2
            -
               depth: 9
               value: 2.
               norm_class_idx: 2
               splits:
                  - { var:11, quality:3.8070137023925781e+01,
                      le:2.1530928611755371e+00 }
            -
               depth: 10
               value: 2.
               norm_class_idx: 2
            -
               depth: 10
               value: 2.
               norm_class_idx: 2
            -
               depth: 8
               value: 2.
               norm_class_idx: 2
               splits:
                  - { var:2, quality:3.0868930053710938e+02,
                      le:1.6791981458663940e-01 }
            -
               depth: 9
               value: 2.
               norm_class_idx: 2
               splits:
                  - { var:4, quality:3.0661282348632812e+02,
                      le:9.2284930869936943e-03 }
            -
               depth: 10
               value: 2.
               norm_class_idx: 2
            -
               depth: 10
               value: 2.
               norm_class_idx: 2
            -
               depth: 9
               value: 2.
               norm_class_idx: 2
            -
               depth: 7
               value: 1.
               norm_class_idx: 1
            -
               depth: 5
               value: 2.
               norm_class_idx: 2
               splits:
                  - { var:9, quality:2.1068559570312500e+03,
                      le:6.1862277984619141e+01 }
            -
               depth: 6
               value: 2.
               norm_class_idx: 2
               splits:
                  - { var:7, quality:2.1063125000000000e+03,
                      le:5.8126163482666016e-01 }
            -
               depth: 7
               value: 2.
               norm_class_idx: 2
               splits:
                  - { var:13, quality:2.0202769470214844e+02,
                      le:2.4283723831176758e+00 }
            -
               depth: 8
               value: 1.
               norm_class_idx: 1
            -
               depth: 8
               value: 2.
               norm_class_idx: 2
               splits:
                  - { var:7, quality:2.0274971008300781e+02,
                      le:5.8069360256195068e-01 }
            -
               depth: 9
               value: 2.
               norm_class_idx: 2
               splits:
                  - { var:13, quality:2.0186114501953125e+02,
                      le:2.9862518310546875e+00 }
            -
               depth: 10
               value: 2.
               norm_class_idx: 2
            -
               depth: 10
               value: 2.
               norm_class_idx: 2
            -
               depth: 9
               value: 1.
               norm_class_idx: 1
            -
               depth: 7
               value: 2.
               norm_class_idx: 2
               splits:
                  - { var:9, quality:1.9088951416015625e+03,
                      le:2.0646856307983398e+01 }
            -
               depth: 8
               value: 2.
               norm_class_idx: 2
            -
               depth: 8
               value: 2.
               norm_class_idx: 2
               splits:
                  - { var:9, quality:1.3047595214843750e+02,
                      le:2.1180601119995117e+01 }
            -
               depth: 9
               value: 1.
               norm_class_idx: 1
            -
               depth: 9
               value: 2.
               norm_class_idx: 2
            -
               depth: 6
               value: 1.
               norm_class_idx: 1
            -
               depth: 3
               value: 0.
               norm_class_idx: 0
               splits:
                  - { var:9, quality:1.4373992919921875e+02,
                      le:3.2516872882843018e+00 }
            -
               depth: 4
               value: 0.
               norm_class_idx: 0
            -
               depth: 4
               value: 2.
               norm_class_idx: 2
               splits:
                  - { var:4, quality:3.8536083221435547e+01,
                      le:3.5019963979721069e-03 }
            -
               depth: 5
               value: 0.
               norm_class_idx: 0
            -
               depth: 5
               value: 2.
               norm_class_idx: 2
            -
               depth: 1
               value: 0.
               norm_class_idx: 0
               splits:
                  - { var:1, quality:2.5137177734375000e+03,
                      le:6.0022003948688507e-02 }
            -
               depth: 2
               value: 1.
               norm_class_idx: 1
            -
               depth: 2
               value: 0.
               norm_class_idx: 0
               splits:
                  - { var:1, quality:2.5098100585937500e+03,
                      le:2.5713437795639038e-01 }
            -
               depth: 3
               value: 0.
               norm_class_idx: 0
               splits:
                  - { var:4, quality:1.4106880187988281e+02,
                      le:1.0684300214052200e-03 }
            -
               depth: 4
               value: 0.
               norm_class_idx: 0
               splits:
                  - { var:12, quality:1.0139315795898438e+02,
                      le:1.8641011714935303e+00 }
            -
               depth: 5
               value: 0.
               norm_class_idx: 0
               splits:
                  - { var:7, quality:1.0130225372314453e+02,
                      le:1.5989355742931366e-01 }
            -
               depth: 6
               value: 0.
               norm_class_idx: 0
               splits:
                  - { var:3, quality:2.7031265258789062e+01,
                      le:1.2543585896492004e-01 }
            -
               depth: 7
               value: 0.
               norm_class_idx: 0
               splits:
                  - { var:10, quality:2.3795612335205078e+01,
                      le:1.0442056655883789e+00 }
            -
               depth: 8
               value: 1.
               norm_class_idx: 1
            -
               depth: 8
               value: 0.
               norm_class_idx: 0
            -
               depth: 7
               value: 1.
               norm_class_idx: 1
            -
               depth: 6
               value: 0.
               norm_class_idx: 0
               splits:
                  - { var:7, quality:8.2043304443359375e+01,
                      le:2.0411194860935211e-01 }
            -
               depth: 7
               value: 0.
               norm_class_idx: 0
               splits:
                  - { var:13, quality:9.3425493240356445e+00,
                      le:8.9405174255371094e+00 }
            -
               depth: 8
               value: 2.
               norm_class_idx: 2
            -
               depth: 8
               value: 0.
               norm_class_idx: 0
            -
               depth: 7
               value: 0.
               norm_class_idx: 0
            -
               depth: 5
               value: 1.
               norm_class_idx: 1
            -
               depth: 4
               value: 2.
               norm_class_idx: 2
               splits:
                  - { var:14, quality:4.6304122924804688e+01,
                      le:9.6267506480216980e-02 }
            -
               depth: 5
               value: 0.
               norm_class_idx: 0
            -
               depth: 5
               value: 2.
               norm_class_idx: 2
            -
               depth: 3
               value: 0.
               norm_class_idx: 0
      -
         nodes:
            -
               depth: 0
               value: 0.
               norm_class_idx: 0
               splits:
                  - { var:1, quality:5.1560673828125000e+03,
                      le:2.6344829797744751e-01 }
            -
               depth: 1
               value: 1.
               norm_class_idx: 1
               splits:
                  - { var:7, quality:4.9000322265625000e+03,
                      le:4.0766817331314087e-01 }
            -
               depth: 2
               value: 1.
               norm_class_idx: 1
               splits:
                  - { var:13, quality:2.6936774902343750e+03,
                      le:6.8549671173095703e+00 }
            -
               depth: 3
               value: 1.
               norm_class_idx: 1
               splits:
                  - { var:3, quality:2.5386774902343750e+03,
                      le:2.8673279285430908e-01 }
            -
               depth: 4
               value: 1.
               norm_class_idx: 1
               splits:
                  - { var:15, quality:2.4642883300781250e+03,
                      le:5.0000000000000000e-01 }
            -
               depth: 5
               value: 1.
               norm_class_idx: 1
               splits:
                  - { var:7, quality:2.4096201171875000e+03,
                      le:3.4725907444953918e-01 }
            -
               depth: 6
               value: 1.
               norm_class_idx: 1
            -
               depth: 6
               value: 1.
               norm_class_idx: 1
               splits:
                  - { var:7, quality:4.4892574310302734e+01,
                      le:3.4765064716339111e-01 }
            -
               depth: 7
               value: 2.
               norm_class_idx: 2
            -
               depth: 7
               value: 1.
               norm_class_idx: 1
               splits:
                  - { var:9, quality:4.5835021972656250e+01,
                      le:6.7811641693115234e+00 }
            -
               depth: 8
               value: 2.
               norm_class_idx: 2
            -
               depth: 8
               value: 1.
               norm_class_idx: 1
               splits:
                  - { var:5, quality:4.3635692596435547e+01,
                      le:9.1244261711835861e-03 }
            -
               depth: 9
               value: 1.
               norm_class_idx: 1
            -
               depth: 9
               value: 1.
               norm_class_idx: 1
               splits:
                  - { var:5, quality:8.5030603408813477e+00,
                      le:9.6543692052364349e-03 }
            -
               depth: 10
               value: 2.
               norm_class_idx: 2
            -
               depth: 10
               value: 1.
               norm_class_idx: 1
            -
               depth: 5
               value: 1.
               norm_class_idx: 1
               splits:
                  - { var:6, quality:6.7118461608886719e+01,
                      le:1.9647297263145447e-01 }
            -
               depth: 6
               value: 1.
               norm_class_idx: 1
               splits:
                  - { var:16, quality:6.8057762145996094e+01,
                      le:5.0000000000000000e-01 }
            -
               depth: 7
               value: 1.
               norm_class_idx: 1
            -
               depth: 7
               value: 0.
               norm_class_idx: 0
            -
               depth: 6
               value: 0.
               norm_class_idx: 0
               splits:
                  - { var:5, quality:1.5978061676025391e+01,
                      le:1.2166998430984677e-06 }
            -
               depth: 7
               value: 1.
               norm_class_idx: 1
            -
               depth: 7
               value: 0.
               norm_class_idx: 0
            -
               depth: 4
               value: 1.
               norm_class_idx: 1
               splits:
                  - { var:5, quality:1.2238868713378906e+02,
                      le:1.5393195208162069e-03 }
            -
               depth: 5
               value: 2.
               norm_class_idx: 2
               splits:
                  - { var:8, quality:5.3614227294921875e+01,
                      le:3.9289508014917374e-02 }
            -
               depth: 6
               value: 2.
               norm_class_idx: 2
               splits:
                  - { var:16, quality:4.9331771850585938e+01,
                      le:5.0000000000000000e-01 }
            -
               depth: 7
               value: 2.
               norm_class_idx: 2
            -
               depth: 7
               value: 0.
               norm_class_idx: 0
            -
               depth: 6
               value: 1.
               norm_class_idx: 1
               splits:
                  - { var:16, quality:8.5030603408813477e+00,
                      le:5.0000000000000000e-01 }
            -
               depth: 7
               value: 1.
               norm_class_idx: 1
            -
               depth: 7
               value: 2.
               norm_class_idx: 2
            -
               depth: 5
               value: 1.
               norm_class_idx: 1
               splits:
                  - { var:15, quality:9.2191116333007812e+01,
                      le:5.0000000000000000e-01 }
            -
               depth: 6
               value: 1.
               norm_class_idx: 1
               splits:
                  - { var:11, quality:9.4971611022949219e+01,
                      le:1.6926724910736084e+00 }
            -
               depth: 7
               value: 2.
               norm_class_idx: 2
            -
               depth: 7
               value: 1.
               norm_class_idx: 1
               splits:
                  - { var:5, quality:9.2837966918945312e+01,
                      le:2.0891198888421059e-02 }
            -
               depth: 8
               value: 1.
               norm_class_idx: 1
            -
               depth: 8
               value: 2.
               norm_class_idx: 2
            -
               depth: 6
               value: 0.
               norm_class_idx: 0
               splits:
                  - { var:8, quality:1.1370197296142578e+01,
                      le:1.8626440316438675e-02 }
            -
               depth: 7
               value: 0.
               norm_class_idx: 0
            -
               depth: 7
               value: 2.
               norm_class_idx: 2
            -
               depth: 3
               value: 0.
               norm_class_idx: 0
               splits:
                  - { var:3, quality:2.5076895141601562e+02,
                      le:1.2207661569118500e-01 }
            -
               depth: 4
               value: 0.
               norm_class_idx: 0
               splits:
                  - { var:15, quality:1.4171719360351562e+02,
                      le:5.0000000000000000e-01 }
            -
               depth: 5
               value: 0.
               norm_class_idx: 0
               splits:
                  - { var:13, quality:1.4307836914062500e+02,
                      le:6.9049997329711914e+00 }
            -
               depth: 6
               value: 0.
               norm_class_idx: 0
               splits:
                  - { var:3, quality:1.4223941040039062e+02,
                      le:1.2007737159729004e-01 }
            -
               depth: 7
               value: 1.
               norm_class_idx: 1
            -
               depth: 7
               value: 0.
               norm_class_idx: 0
               splits:
                  - { var:2, quality:1.4150154113769531e+02,
                      le:4.2243909090757370e-02 }
            -
               depth: 8
               value: 0.
               norm_class_idx: 0
            -
               depth: 8
               value: 0.
               norm_class_idx: 0
               splits:
                  - { var:2, quality:5.4591224670410156e+01,
                      le:4.2452029883861542e-02 }
            -
               depth: 9
               value: 1.
               norm_class_idx: 1
            -
               depth: 9
               value: 0.
               norm_class_idx: 0
            -
               depth: 6
               value: 1.
               norm_class_idx: 1
            -
               depth: 5
               value: 1.
               norm_class_idx: 1
            -
               depth: 4
               value: 1.
               norm_class_idx: 1
               splits:
                  - { var:15, quality:2.1248333740234375e+02,
                      le:5.0000000000000000e-01 }
            -
               depth: 5
               value: 1.
               norm_class_idx: 1
               splits:
                  - { var:10, quality:1.4254234313964844e+02,
                      le:2.0503377914428711e+00 }
            -
               depth: 6
               value: 1.
               norm_class_idx: 1
               splits:
                  - { var:2, quality:1.3018855285644531e+02,
                      le:1.1520178616046906e-01 }
            -
               depth: 7
               value: 1.
               norm_class_idx: 1
               splits:
                  - { var:12, quality:1.2606508636474609e+02,
                      le:2.2861227989196777e+00 }
            -
               depth: 8
               value: 1.
               norm_class_idx: 1
               splits:
                  - { var:13, quality:1.2582057189941406e+02,
                      le:6.8757972717285156e+00 }
            -
               depth: 9
               value: 0.
               norm_class_idx: 0
            -
               depth: 9
               value: 1.
               norm_class_idx: 1
            -
               depth: 8
               value: 2.
               norm_class_idx: 2
            -
               depth: 7
               value: 2.
               norm_class_idx: 2
               splits:
                  - { var:10, quality:8.9939432144165039e+00,
                      le:1.8356177806854248e+00 }
            -
               depth: 8
               value: 2.
               norm_class_idx: 2
               splits:
                  - { var:5, quality:8.8509073257446289e+00,
                      le:4.6412339434027672e-03 }
            -
               depth: 9
               value: 2.
               norm_class_idx: 2
            -
               depth: 9
               value: 1.
               norm_class_idx: 1
            -
               depth: 8
               value: 1.
               norm_class_idx: 1
            -
               depth: 6
               value: 2.
               norm_class_idx: 2
               splits:
                  - { var:6, quality:2.4961498260498047e+01,
                      le:1.5424767136573792e-01 }
            -
               depth: 7
               value: 1.
               norm_class_idx: 1
            -
               depth: 7
               value: 2.
               norm_class_idx: 2
            -
               depth: 5
               value: 0.
               norm_class_idx: 0
               splits:
                  - { var:7, quality:1.1544947814941406e+02,
                      le:1.6236177086830139e-01 }
            -
               depth: 6
               value: 1.
               norm_class_idx: 1
               splits:
                  - { var:5, quality:9.9561233520507812e+00,
                      le:5.0851212129998657e-10 }
            -
               depth: 7
               value: 1.
               norm_class_idx: 1
            -
               depth: 7
               value: 0.
               norm_class_idx: 0
            -
               depth: 6
               value: 0.
               norm_class_idx: 0
               splits:
                  - { var:2, quality:1.0900599670410156e+02,
                      le:7.5396940112113953e-02 }
            -
               depth: 7
               value: 0.
               norm_class_idx: 0
               splits:
                  - { var:2, quality:1.0342549324035645e+01,
                      le:6.2018178403377533e-02 }
            -
               depth: 8
               value: 0.
               norm_class_idx: 0
            -
               depth: 8
               value: 2.
               norm_class_idx: 2
            -
               depth: 7
               value: 0.
               norm_class_idx: 0
            -
               depth: 2
               value: 2.
               norm_class_idx: 2
               splits:
                  - { var:13, quality:2.6587180175781250e+03,
                      le:9.3939867019653320e+00 }
            -
               depth: 3
               value: 2.
               norm_class_idx: 2
               splits:
                  - { var:3, quality:2.6232658691406250e+03,
                      le:3.6005431413650513e-01 }
            -
               depth: 4
               value: 2.
               norm_class_idx: 2
               splits:
                  - { var:13, quality:1.8418745422363281e+02,
                      le:3.3125929832458496e+00 }
            -
               depth: 5
               value: 1.
               norm_class_idx: 1
               splits:
                  - { var:4, quality:8.1598731994628906e+01,
                      le:2.7359254658222198e-02 }
            -
               depth: 6
               value: 1.
               norm_class_idx: 1
               splits:
                  - { var:6, quality:8.1842231750488281e+01,
                      le:1.5882600843906403e-01 }
            -
               depth: 7
               value: 1.
               norm_class_idx: 1
               splits:
                  - { var:6, quality:7.7721336364746094e+01,
                      le:9.0902417898178101e-02 }
            -
               depth: 8
               value: 2.
               norm_class_idx: 2
            -
               depth: 8
               value: 1.
               norm_class_idx: 1
            -
               depth: 7
               value: 2.
               norm_class_idx: 2
               splits:
                  - { var:13, quality:1.0442131996154785e+01,
                      le:2.0494484901428223e+00 }
            -
               depth: 8
               value: 1.
               norm_class_idx: 1
            -
               depth: 8
               value: 2.
               norm_class_idx: 2
            -
               depth: 6
               value: 2.
               norm_class_idx: 2
               splits:
                  - { var:8, quality:1.5265392303466797e+01,
                      le:9.8431468009948730e-02 }
            -
               depth: 7
               value: 2.
               norm_class_idx: 2
            -
               depth: 7
               value: 1.
               norm_class_idx: 1
            -
               depth: 5
               value: 2.
               norm_class_idx: 2
               splits:
                  - { var:4, quality:1.2321025848388672e+02,
                      le:1.0841615498065948e-02 }
            -
               depth: 6
               value: 2.
               norm_class_idx: 2
               splits:
                  - { var:13, quality:2.8085319519042969e+01,
                      le:4.7175445556640625e+00 }
            -
               depth: 7
               value: 1.
               norm_class_idx: 1
            -
               depth: 7
               value: 2.
               norm_class_idx: 2
               splits:
                  - { var:1, quality:1.9655921936035156e+01,
                      le:1.4766508340835571e-01 }
            -
               depth: 8
               value: 2.
               norm_class_idx: 2
               splits:
                  - { var:8, quality:1.9591300964355469e+01,
                      le:6.3700467348098755e-02 }
            -
               depth: 9
               value: 2.
               norm_class_idx: 2
            -
               depth: 9
               value: 1.
               norm_class_idx: 1
            -
               depth: 8
               value: 1.
               norm_class_idx: 1
            -
               depth: 6
               value: 2.
               norm_class_idx: 2
               splits:
                  - { var:3, quality:1.0687080383300781e+02,
                      le:3.5665392875671387e-01 }
            -
               depth: 7
               value: 2.
               norm_class_idx: 2
            -
               depth: 7
               value: 2.
               norm_class_idx: 2
            -
               depth: 4
               value: 2.
               norm_class_idx: 2
               splits:
                  - { var:4, quality:2.5322382812500000e+03,
                      le:5.0928274868056178e-04 }
            -
               depth: 5
               value: 0.
               norm_class_idx: 0
               splits:
                  - { var:7, quality:2.1342548370361328e+01,
                      le:4.5032602548599243e-01 }
            -
               depth: 6
               value: 2.
               norm_class_idx: 2
            -
               depth: 6
               value: 0.
               norm_class_idx: 0
            -
               depth: 5
               value: 2.
               norm_class_idx: 2
               splits:
                  - { var:3, quality:2.5216757812500000e+03,
                      le:3.8889047503471375e-01 }
            -
               depth: 6
               value: 2.
               norm_class_idx: 2
               splits:
                  - { var:9, quality:1.7606623840332031e+02,
                      le:1.1637186050415039e+01 }
            -
               depth: 7
               value: 2.
               norm_class_idx: 2
               splits:
                  - { var:4, quality:1.7244729614257812e+02,
                      le:3.3845168072730303e-03 }
            -
               depth: 8
               value: 1.
               norm_class_idx: 1
            -
               depth: 8
               value: 2.
               norm_class_idx: 2
               splits:
                  - { var:1, quality:1.6810717773437500e+02,
                      le:1.7826086282730103e-01 }
            -
               depth: 9
               value: 2.
               norm_class_idx: 2
               splits:
                  - { var:9, quality:1.6661944580078125e+02,
                      le:3.2307348251342773e+00 }
            -
               depth: 10
               value: 2.
               norm_class_idx: 2
            -
               depth: 10
               value: 2.
               norm_class_idx: 2
            -
               depth: 9
               value: 1.
               norm_class_idx: 1
            -
               depth: 7
               value: 1.
               norm_class_idx: 1
               splits:
                  - { var:5, quality:2.3157402038574219e+01,
                      le:2.6652421802282333e-02 }
            -
               depth: 8
               value: 1.
               norm_class_idx: 1
               splits:
                  - { var:4, quality:2.1779794692993164e+01,
                      le:2.8959780931472778e-02 }
            -
               depth: 9
               value: 1.
               norm_class_idx: 1
            -
               depth: 9
               value: 2.
               norm_class_idx: 2
            -
               depth: 8
               value: 2.
               norm_class_idx: 2
               splits:
                  - { var:5, quality:7.5083584785461426e+00,
                      le:3.4533616155385971e-02 }
            -
               depth: 9
               value: 2.
               norm_class_idx: 2
            -
               depth: 9
               value: 1.
               norm_class_idx: 1
            -
               depth: 6
               value: 2.
               norm_class_idx: 2
               splits:
                  - { var:8, quality:2.3683469238281250e+03,
                      le:5.3977607749402523e-03 }
            -
               depth: 7
               value: 0.
               norm_class_idx: 0
            -
               depth: 7
               value: 2.
               norm_class_idx: 2
               splits:
                  - { var:3, quality:2.3671838378906250e+03,
                      le:4.1700875759124756e-01 }
            -
               depth: 8
               value: 2.
               norm_class_idx: 2
               splits:
                  - { var:13, quality:2.4359703063964844e+02,
                      le:1.9859020709991455e+00 }
            -
               depth: 9
               value: 2.
               norm_class_idx: 2
               splits:
                  - { var:5, quality:1.2033356666564941e+01,
                      le:3.1733203679323196e-02 }
            -
               depth: 10
               value: 1.
               norm_class_idx: 1
            -
               depth: 10
               value: 2.
               norm_class_idx: 2
            -
               depth: 9
               value: 2.
               norm_class_idx: 2
               splits:
                  - { var:4, quality:2.3815699768066406e+02,
                      le:9.2284930869936943e-03 }
            -
               depth: 10
               value: 2.
               norm_class_idx: 2
            -
               depth: 10
               value: 2.
               norm_class_idx: 2
            -
               depth: 8
               value: 2.
               norm_class_idx: 2
               splits:
                  - { var:8, quality:2.1258376464843750e+03,
                      le:7.7116839587688446e-02 }
            -
               depth: 9
               value: 2.
               norm_class_idx: 2
               splits:
                  - { var:4, quality:2.1211325683593750e+03,
                      le:1.2800700962543488e-02 }
            -
               depth: 10
               value: 2.
               norm_class_idx: 2
            -
               depth: 10
               value: 2.
               norm_class_idx: 2
            -
               depth: 9
               value: 2.
               norm_class_idx: 2
            -
               depth: 3
               value: 0.
               norm_class_idx: 0
            -
               depth: 1
               value: 0.
               norm_class_idx: 0
               splits:
                  - { var:4, quality:2.4970830078125000e+03,
                      le:6.2948852777481079e-02 }
            -
               depth: 2
               value: 0.
               norm_class_idx: 0
            -
               depth: 2
               value: 2.
               norm_class_idx: 2
      -
         nodes:
            -
               depth: 0
               value: 0.
               norm_class_idx: 0
               splits:
                  - { var:6, quality:5.1934257812500000e+03,
                      le:5.0214737653732300e-01 }
            -
               depth: 1
               value: 2.
               norm_class_idx: 2
               splits:
                  - { var:3, quality:4.8870195312500000e+03,
                      le:3.2700371742248535e-01 }
            -
               depth: 2
               value: 1.
               norm_class_idx: 1
               splits:
                  - { var:14, quality:2.5670761718750000e+03,
                      le:2.2849998474121094e+00 }
            -
               depth: 3
               value: 1.
               norm_class_idx: 1
               splits:
                  - { var:3, quality:2.5195793457031250e+03,
                      le:2.8325656056404114e-01 }
            -
               depth: 4
               value: 1.
               norm_class_idx: 1
               splits:
                  - { var:4, quality:2.4032834472656250e+03,
                      le:1.7165407538414001e-02 }
            -
               depth: 5
               value: 1.
               norm_class_idx: 1
               splits:
                  - { var:15, quality:2.4029184570312500e+03,
                      le:5.0000000000000000e-01 }
            -
               depth: 6
               value: 1.
               norm_class_idx: 1
               splits:
                  - { var:12, quality:2.3463508300781250e+03,
                      le:2.3593783378601074e+00 }
            -
               depth: 7
               value: 1.
               norm_class_idx: 1
               splits:
                  - { var:3, quality:2.3443232421875000e+03,
                      le:2.4406722187995911e-01 }
            -
               depth: 8
               value: 1.
               norm_class_idx: 1
               splits:
                  - { var:13, quality:2.2216325683593750e+03,
                      le:6.2334070205688477e+00 }
            -
               depth: 9
               value: 1.
               norm_class_idx: 1
            -
               depth: 9
               value: 1.
               norm_class_idx: 1
               splits:
                  - { var:4, quality:1.0556776428222656e+02,
                      le:3.0180714093148708e-03 }
            -
               depth: 10
               value: 1.
               norm_class_idx: 1
            -
               depth: 10
               value: 2.
               norm_class_idx: 2
            -
               depth: 8
               value: 1.
               norm_class_idx: 1
               splits:
                  - { var:3, quality:1.2787310791015625e+02,
                      le:2.4442642927169800e-01 }
            -
               depth: 9
               value: 2.
               norm_class_idx: 2
            -
               depth: 9
               value: 1.
               norm_class_idx: 1
               splits:
                  - { var:13, quality:1.2536872863769531e+02,
                      le:2.5858612060546875e+00 }
            -
               depth: 10
               value: 1.
               norm_class_idx: 1
            -
               depth: 10
               value: 1.
               norm_class_idx: 1
            -
               depth: 7
               value: 2.
               norm_class_idx: 2
            -
               depth: 6
               value: 1.
               norm_class_idx: 1
               splits:
                  - { var:16, quality:7.4680427551269531e+01,
                      le:5.0000000000000000e-01 }
            -
               depth: 7
               value: 1.
               norm_class_idx: 1
               splits:
                  - { var:6, quality:7.1782684326171875e+01,
                      le:2.3026454448699951e-01 }
            -
               depth: 8
               value: 1.
               norm_class_idx: 1
            -
               depth: 8
               value: 0.
               norm_class_idx: 0
               splits:
                  - { var:12, quality:7.3868370056152344e+00,
                      le:1.8176177740097046e+00 }
            -
               depth: 9
               value: 1.
               norm_class_idx: 1
            -
               depth: 9
               value: 0.
               norm_class_idx: 0
            -
               depth: 7
               value: 0.
               norm_class_idx: 0
            -
               depth: 5
               value: 2.
               norm_class_idx: 2
            -
               depth: 4
               value: 1.
               norm_class_idx: 1
               splits:
                  - { var:5, quality:1.5824685668945312e+02,
                      le:8.8646390940994024e-04 }
            -
               depth: 5
               value: 2.
               norm_class_idx: 2
               splits:
                  - { var:7, quality:5.8065635681152344e+01,
                      le:3.0904239416122437e-01 }
            -
               depth: 6
               value: 1.
               norm_class_idx: 1
            -
               depth: 6
               value: 2.
               norm_class_idx: 2
               splits:
                  - { var:8, quality:5.7978290557861328e+01,
                      le:4.2485840618610382e-02 }
            -
               depth: 7
               value: 2.
               norm_class_idx: 2
            -
               depth: 7
               value: 1.
               norm_class_idx: 1
            -
               depth: 5
               value: 1.
               norm_class_idx: 1
               splits:
                  - { var:4, quality:1.3010670471191406e+02,
                      le:1.8046475946903229e-02 }
            -
               depth: 6
               value: 1.
               norm_class_idx: 1
               splits:
                  - { var:13, quality:1.2177292633056641e+02,
                      le:6.0710201263427734e+00 }
            -
               depth: 7
               value: 1.
               norm_class_idx: 1
               splits:
                  - { var:1, quality:1.0416972351074219e+02,
                      le:9.8867729306221008e-02 }
            -
               depth: 8
               value: 2.
               norm_class_idx: 2
            -
               depth: 8
               value: 1.
               norm_class_idx: 1
               splits:
                  - { var:15, quality:1.0389144897460938e+02,
                      le:5.0000000000000000e-01 }
            -
               depth: 9
               value: 1.
               norm_class_idx: 1
               splits:
                  - { var:13, quality:1.0412367248535156e+02,
                      le:5.0657429695129395e+00 }
            -
               depth: 10
               value: 1.
               norm_class_idx: 1
            -
               depth: 10
               value: 1.
               norm_class_idx: 1
            -
               depth: 9
               value: 2.
               norm_class_idx: 2
            -
               depth: 7
               value: 2.
               norm_class_idx: 2
               splits:
                  - { var:7, quality:3.7353015899658203e+01,
                      le:3.4498128294944763e-01 }
            -
               depth: 8
               value: 1.
               norm_class_idx: 1
            -
               depth: 8
               value: 2.
               norm_class_idx: 2
               splits:
                  - { var:3, quality:2.4325666427612305e+01,
                      le:3.2412135601043701e-01 }
            -
               depth: 9
               value: 2.
               norm_class_idx: 2
               splits:
                  - { var:2, quality:2.3989562988281250e+01,
                      le:1.0873118788003922e-01 }
            -
               depth: 10
               value: 2.
               norm_class_idx: 2
            -
               depth: 10
               value: 2.
               norm_class_idx: 2
            -
               depth: 9
               value: 1.
               norm_class_idx: 1
            -
               depth: 6
               value: 2.
               norm_class_idx: 2
               splits:
                  - { var:14, quality:2.7692388534545898e+01,
                      le:5.1938794553279877e-02 }
            -
               depth: 7
               value: 1.
               norm_class_idx: 1
            -
               depth: 7
               value: 2.
               norm_class_idx: 2
               splits:
                  - { var:1, quality:2.7646596908569336e+01,
                      le:1.1723519116640091e-01 }
            -
               depth: 8
               value: 1.
               norm_class_idx: 1
            -
               depth: 8
               value: 2.
               norm_class_idx: 2
            -
               depth: 3
               value: 0.
               norm_class_idx: 0
               splits:
                  - { var:13, quality:1.9445814514160156e+02,
                      le:6.8850002288818359e+00 }
            -
               depth: 4
               value: 0.
               norm_class_idx: 0
               splits:
                  - { var:3, quality:1.1551992797851562e+02,
                      le:1.2410646677017212e-01 }
            -
               depth: 5
               value: 0.
               norm_class_idx: 0
               splits:
                  - { var:3, quality:1.1539015960693359e+02,
                      le:1.2007737159729004e-01 }
            -
               depth: 6
               value: 1.
               norm_class_idx: 1
            -
               depth: 6
               value: 0.
               norm_class_idx: 0
               splits:
                  - { var:15, quality:1.1580496978759766e+02,
                      le:5.0000000000000000e-01 }
            -
               depth: 7
               value: 0.
               norm_class_idx: 0
               splits:
                  - { var:14, quality:1.1431782531738281e+02,
                      le:2.2925672531127930e+00 }
            -
               depth: 8
               value: 0.
               norm_class_idx: 0
               splits:
                  - { var:2, quality:9.5284538269042969e+01,
                      le:4.5166570693254471e-02 }
            -
               depth: 9
               value: 0.
               norm_class_idx: 0
            -
               depth: 9
               value: 0.
               norm_class_idx: 0
               splits:
                  - { var:9, quality:1.5795612335205078e+01,
                      le:4.2772846221923828e+00 }
            -
               depth: 10
               value: 1.
               norm_class_idx: 1
            -
               depth: 10
               value: 0.
               norm_class_idx: 0
            -
               depth: 8
               value: 0.
               norm_class_idx: 0
               splits:
                  - { var:4, quality:2.3386837005615234e+01,
                      le:2.0170651259832084e-04 }
            -
               depth: 9
               value: 0.
               norm_class_idx: 0
            -
               depth: 9
               value: 1.
               norm_class_idx: 1
            -
               depth: 7
               value: 0.
               norm_class_idx: 0
            -
               depth: 5
               value: 1.
               norm_class_idx: 1
            -
               depth: 4
               value: 1.
               norm_class_idx: 1
               splits:
                  - { var:11, quality:1.3961221313476562e+02,
                      le:1.3329207897186279e+00 }
            -
               depth: 5
               value: 1.
               norm_class_idx: 1
               splits:
                  - { var:3, quality:1.0106470489501953e+02,
                      le:1.2068884074687958e-01 }
            -
               depth: 6
               value: 0.
               norm_class_idx: 0
            -
               depth: 6
               value: 1.
               norm_class_idx: 1
            -
               depth: 5
               value: 0.
               norm_class_idx: 0
               splits:
                  - { var:13, quality:4.7795612335205078e+01,
                      le:1.0137861251831055e+01 }
            -
               depth: 6
               value: 0.
               norm_class_idx: 0
            -
               depth: 6
               value: 1.
               norm_class_idx: 1
            -
               depth: 2
               value: 2.
               norm_class_idx: 2
               splits:
                  - { var:13, quality:2.7091264648437500e+03,
                      le:9.4189405441284180e+00 }
            -
               depth: 3
               value: 2.
               norm_class_idx: 2
               splits:
                  - { var:3, quality:2.6344392089843750e+03,
                      le:3.8296186923980713e-01 }
            -
               depth: 4
               value: 2.
               norm_class_idx: 2
               splits:
                  - { var:13, quality:2.4759254455566406e+02,
                      le:3.9184455871582031e+00 }
            -
               depth: 5
               value: 1.
               norm_class_idx: 1
               splits:
                  - { var:4, quality:8.1847816467285156e+01,
                      le:1.4211802743375301e-02 }
            -
               depth: 6
               value: 1.
               norm_class_idx: 1
               splits:
                  - { var:8, quality:5.8229927062988281e+01,
                      le:1.7210733145475388e-02 }
            -
               depth: 7
               value: 0.
               norm_class_idx: 0
               splits:
                  - { var:2, quality:8.6850986480712891e+00,
                      le:9.7429834306240082e-02 }
            -
               depth: 8
               value: 0.
               norm_class_idx: 0
            -
               depth: 8
               value: 2.
               norm_class_idx: 2
            -
               depth: 7
               value: 1.
               norm_class_idx: 1
               splits:
                  - { var:5, quality:5.8377960205078125e+01,
                      le:2.6652421802282333e-02 }
            -
               depth: 8
               value: 1.
               norm_class_idx: 1
            -
               depth: 8
               value: 2.
               norm_class_idx: 2
            -
               depth: 6
               value: 2.
               norm_class_idx: 2
               splits:
                  - { var:13, quality:4.8128776550292969e+01,
                      le:2.1895847320556641e+00 }
            -
               depth: 7
               value: 1.
               norm_class_idx: 1
               splits:
                  - { var:0, quality:1.9691219329833984e+01, le:26. }
            -
               depth: 8
               value: 1.
               norm_class_idx: 1
            -
               depth: 8
               value: 2.
               norm_class_idx: 2
            -
               depth: 7
               value: 2.
               norm_class_idx: 2
            -
               depth: 5
               value: 2.
               norm_class_idx: 2
               splits:
                  - { var:4, quality:2.0747888183593750e+02,
                      le:2.6793843135237694e-03 }
            -
               depth: 6
               value: 1.
               norm_class_idx: 1
               splits:
                  - { var:3, quality:1.8348669052124023e+01,
                      le:3.6460399627685547e-01 }
            -
               depth: 7
               value: 1.
               norm_class_idx: 1
            -
               depth: 7
               value: 2.
               norm_class_idx: 2
            -
               depth: 6
               value: 2.
               norm_class_idx: 2
               splits:
                  - { var:6, quality:1.9788783264160156e+02,
                      le:1.3712149858474731e-01 }
            -
               depth: 7
               value: 2.
               norm_class_idx: 2
               splits:
                  - { var:8, quality:1.2704490661621094e+01,
                      le:5.7375527918338776e-02 }
            -
               depth: 8
               value: 2.
               norm_class_idx: 2
               splits:
                  - { var:7, quality:1.0193456649780273e+01,
                      le:4.0576058626174927e-01 }
            -
               depth: 9
               value: 1.
               norm_class_idx: 1
            -
               depth: 9
               value: 2.
               norm_class_idx: 2
            -
               depth: 8
               value: 1.
               norm_class_idx: 1
            -
               depth: 7
               value: 2.
               norm_class_idx: 2
               splits:
                  - { var:3, quality:1.9305671691894531e+02,
                      le:3.8259387016296387e-01 }
            -
               depth: 8
               value: 2.
               norm_class_idx: 2
               splits:
                  - { var:13, quality:1.9216719055175781e+02,
                      le:4.0173282623291016e+00 }
            -
               depth: 9
               value: 2.
               norm_class_idx: 2
               splits:
                  - { var:0, quality:1.1645749092102051e+01,
                      le:8.5000000000000000e+00 }
            -
               depth: 10
               value: 1.
               norm_class_idx: 1
            -
               depth: 10
               value: 2.
               norm_class_idx: 2
            -
               depth: 9
               value: 2.
               norm_class_idx: 2
               splits:
                  - { var:4, quality:1.8312898254394531e+02,
                      le:7.5226388871669769e-03 }
            -
               depth: 10
               value: 2.
               norm_class_idx: 2
            -
               depth: 10
               value: 2.
               norm_class_idx: 2
            -
               depth: 8
               value: 1.
               norm_class_idx: 1
            -
               depth: 4
               value: 2.
               norm_class_idx: 2
               splits:
                  - { var:4, quality:2.4330324707031250e+03,
                      le:1.3170418969821185e-04 }
            -
               depth: 5
               value: 0.
               norm_class_idx: 0
            -
               depth: 5
               value: 2.
               norm_class_idx: 2
               splits:
                  - { var:9, quality:2.4337006835937500e+03,
                      le:6.1862277984619141e+01 }
            -
               depth: 6
               value: 2.
               norm_class_idx: 2
               splits:
                  - { var:7, quality:2.4359892578125000e+03,
                      le:4.7141063213348389e-01 }
            -
               depth: 7
               value: 2.
               norm_class_idx: 2
               splits:
                  - { var:13, quality:4.5107593536376953e+01,
                      le:3.0732898712158203e+00 }
            -
               depth: 8
               value: 1.
               norm_class_idx: 1
            -
               depth: 8
               value: 2.
               norm_class_idx: 2
               splits:
                  - { var:8, quality:4.4843631744384766e+01,
                      le:4.4562909752130508e-02 }
            -
               depth: 9
               value: 2.
               norm_class_idx: 2
            -
               depth: 9
               value: 1.
               norm_class_idx: 1
               splits:
                  - { var:13, quality:1.1735095977783203e+01,
                      le:7.5479192733764648e+00 }
            -
               depth: 10
               value: 1.
               norm_class_idx: 1
            -
               depth: 10
               value: 2.
               norm_class_idx: 2
            -
               depth: 7
               value: 2.
               norm_class_idx: 2
               splits:
                  - { var:3, quality:2.4025288085937500e+03,
                      le:9.7278380393981934e-01 }
            -
               depth: 8
               value: 2.
               norm_class_idx: 2
               splits:
                  - { var:7, quality:2.4010549316406250e+03,
                      le:5.7896631956100464e-01 }
            -
               depth: 9
               value: 2.
               norm_class_idx: 2
               splits:
                  - { var:13, quality:3.5274127197265625e+02,
                      le:2.7698543071746826e+00 }
            -
               depth: 10
               value: 2.
               norm_class_idx: 2
            -
               depth: 10
               value: 2.
               norm_class_idx: 2
            -
               depth: 9
               value: 2.
               norm_class_idx: 2
               splits:
                  - { var:13, quality:2.0532373046875000e+03,
                      le:1.2546128034591675e+00 }
            -
               depth: 10
               value: 2.
               norm_class_idx: 2
            -
               depth: 10
               value: 2.
               norm_class_idx: 2
            -
               depth: 8
               value: 0.
               norm_class_idx: 0
            -
               depth: 6
               value: 1.
               norm_class_idx: 1
            -
               depth: 3
               value: 0.
               norm_class_idx: 0
            -
               depth: 1
               value: 0.
               norm_class_idx: 0
               splits:
                  - { var:1, quality:2.5667797851562500e+03,
                      le:6.0022003948688507e-02 }
            -
               depth: 2
               value: 1.
               norm_class_idx: 1
            -
               depth: 2
               value: 0.
               norm_class_idx: 0
               splits:
                  - { var:1, quality:2.5715979003906250e+03,
                      le:2.2626554965972900e-01 }
            -
               depth: 3
               value: 0.
               norm_class_idx: 0
               splits:
                  - { var:4, quality:1.4046009826660156e+02,
                      le:7.5914891203865409e-04 }
            -
               depth: 4
               value: 0.
               norm_class_idx: 0
               splits:
                  - { var:12, quality:9.5074363708496094e+01,
                      le:1.8673830032348633e+00 }
            -
               depth: 5
               value: 0.
               norm_class_idx: 0
               splits:
                  - { var:11, quality:9.4218955993652344e+01,
                      le:2.3087267875671387e+00 }
            -
               depth: 6
               value: 0.
               norm_class_idx: 0
               splits:
                  - { var:10, quality:9.2145919799804688e+01,
                      le:1.0442552566528320e+00 }
            -
               depth: 7
               value: 0.
               norm_class_idx: 0
               splits:
                  - { var:12, quality:1.9859565734863281e+01,
                      le:1.8189659118652344e+00 }
            -
               depth: 8
               value: 1.
               norm_class_idx: 1
            -
               depth: 8
               value: 0.
               norm_class_idx: 0
               splits:
                  - { var:9, quality:1.9795612335205078e+01,
                      le:5.3346022963523865e-02 }
            -
               depth: 9
               value: 0.
               norm_class_idx: 0
            -
               depth: 9
               value: 1.
               norm_class_idx: 1
            -
               depth: 7
               value: 0.
               norm_class_idx: 0
            -
