%YAML:1.0
---
opencv_ml_rtrees:
   format: 3
   is_classifier: 1
   var_all: 149
   var_count: 148
   ord_var_count: 148
   cat_var_count: 1
   training_params:
      use_surrogates: 0
      max_categories: 15
      regression_accuracy: 1.0000000474974513e-03
      max_depth: 10
      min_sample_count: 5
      cross_validation_folds: 0
      priors: !!opencv-matrix
         rows: 1
         cols: 3
         dt: f
         data: [ 4.59163468e-41, -8.18220275e-16, 4.59163468e-41 ]
      nactive_vars: 15
   global_var_idx: 1
   var_idx: [ 0, 1, 2, 3, 4, 5, 6, 7, 8, 9, 10, 11, 12, 13, 14, 15, 16,
       17, 18, 19, 20, 21, 22, 23, 24, 25, 26, 27, 28, 29, 30, 31, 32,
       33, 34, 35, 36, 37, 38, 39, 40, 41, 42, 43, 44, 45, 46, 47, 48,
       49, 50, 51, 52, 53, 54, 55, 56, 57, 58, 59, 60, 61, 62, 63, 64,
       65, 66, 67, 68, 69, 70, 71, 72, 73, 74, 75, 76, 77, 78, 79, 80,
       81, 82, 83, 84, 85, 86, 87, 88, 89, 90, 91, 92, 93, 94, 95, 96,
       97, 98, 99, 100, 101, 102, 103, 104, 105, 106, 107, 108, 109, 110,
       111, 112, 113, 114, 115, 116, 117, 118, 119, 120, 121, 122, 123,
       124, 125, 126, 127, 128, 129, 130, 131, 132, 133, 134, 135, 136,
       137, 138, 139, 140, 141, 142, 143, 144, 145, 146, 147 ]
   var_type: [ 0, 0, 0, 0, 0, 0, 0, 0, 0, 0, 0, 0, 0, 0, 0, 0, 0, 0, 0,
       0, 0, 0, 0, 0, 0, 0, 0, 0, 0, 0, 0, 0, 0, 0, 0, 0, 0, 0, 0, 0, 0,
       0, 0, 0, 0, 0, 0, 0, 0, 0, 0, 0, 0, 0, 0, 0, 0, 0, 0, 0, 0, 0, 0,
       0, 0, 0, 0, 0, 0, 0, 0, 0, 0, 0, 0, 0, 0, 0, 0, 0, 0, 0, 0, 0, 0,
       0, 0, 0, 0, 0, 0, 0, 0, 0, 0, 0, 0, 0, 0, 0, 0, 0, 0, 0, 0, 0, 0,
       0, 0, 0, 0, 0, 0, 0, 0, 0, 0, 0, 0, 0, 0, 0, 0, 0, 0, 0, 0, 0, 0,
       0, 0, 0, 0, 0, 0, 0, 0, 0, 0, 0, 0, 0, 0, 0, 0, 0, 0, 0, 1 ]
   cat_ofs: [ 0, 0, 0, 0, 0, 0, 0, 0, 0, 0, 0, 0, 0, 0, 0, 0, 0, 0, 0, 0,
       0, 0, 0, 0, 0, 0, 0, 0, 0, 0, 0, 0, 0, 0, 0, 0, 0, 0, 0, 0, 0, 0,
       0, 0, 0, 0, 0, 0, 0, 0, 0, 0, 0, 0, 0, 0, 0, 0, 0, 0, 0, 0, 0, 0,
       0, 0, 0, 0, 0, 0, 0, 0, 0, 0, 0, 0, 0, 0, 0, 0, 0, 0, 0, 0, 0, 0,
       0, 0, 0, 0, 0, 0, 0, 0, 0, 0, 0, 0, 0, 0, 0, 0, 0, 0, 0, 0, 0, 0,
       0, 0, 0, 0, 0, 0, 0, 0, 0, 0, 0, 0, 0, 0, 0, 0, 0, 0, 0, 0, 0, 0,
       0, 0, 0, 0, 0, 0, 0, 0, 0, 0, 0, 0, 0, 0, 0, 0, 0, 0, 0, 0, 0, 0,
       0, 0, 0, 0, 0, 0, 0, 0, 0, 0, 0, 0, 0, 0, 0, 0, 0, 0, 0, 0, 0, 0,
       0, 0, 0, 0, 0, 0, 0, 0, 0, 0, 0, 0, 0, 0, 0, 0, 0, 0, 0, 0, 0, 0,
       0, 0, 0, 0, 0, 0, 0, 0, 0, 0, 0, 0, 0, 0, 0, 0, 0, 0, 0, 0, 0, 0,
       0, 0, 0, 0, 0, 0, 0, 0, 0, 0, 0, 0, 0, 0, 0, 0, 0, 0, 0, 0, 0, 0,
       0, 0, 0, 0, 0, 0, 0, 0, 0, 0, 0, 0, 0, 0, 0, 0, 0, 0, 0, 0, 0, 0,
       0, 0, 0, 0, 0, 0, 0, 0, 0, 0, 0, 0, 0, 0, 0, 0, 0, 0, 0, 0, 0, 0,
       0, 0, 0, 0, 0, 0, 0, 0, 0, 0, 0, 0 ]
   class_labels: [ 0, 1, 2 ]
   missing_subst: [ 0., 0., 0., 0., 0., 0., 0., 0., 0., 0., 0., 0., 0.,
       0., 0., 0., 0., 0., 0., 0., 0., 0., 0., 0., 0., 0., 0., 0., 0.,
       0., 0., 0., 0., 0., 0., 0., 0., 0., 0., 0., 0., 0., 0., 0., 0.,
       0., 0., 0., 0., 0., 0., 0., 0., 0., 0., 0., 0., 0., 0., 0., 0.,
       0., 0., 0., 0., 0., 0., 0., 0., 0., 0., 0., 0., 0., 0., 0., 0.,
       0., 0., 0., 0., 0., 0., 0., 0., 0., 0., 0., 0., 0., 0., 0., 0.,
       0., 0., 0., 0., 0., 0., 0., 0., 0., 0., 0., 0., 0., 0., 0., 0.,
       0., 0., 0., 0., 0., 0., 0., 0., 0., 0., 0., 0., 0., 0., 0., 0.,
       0., 0., 0., 0., 0., 0., 0., 0., 0., 0., 0., 0., 0., 0., 0., 0.,
       0., 0., 0., 0., 0., 0., 0., 0. ]
   oob_error: 8.4764930987388312e-03
   var_importance: [ 5.02595399e-03, 2.24686675e-02, 1.90205704e-02,
       1.51268076e-02, 4.97443229e-03, 4.20289300e-03, 4.24797460e-03,
       7.74888229e-03, 5.66224847e-03, 4.87911655e-03, 3.86542478e-03,
       7.15638138e-03, 1.28830317e-02, 6.85240282e-03, 1.63105223e-02,
       3.75594106e-03, 2.28911471e-02, 3.92081076e-03, 4.00710991e-03,
       4.09984915e-03, 9.04723257e-03, 4.04188735e-03, 7.61492550e-03,
       4.55839327e-03, 5.84386289e-03, 5.84257487e-03, 3.77397356e-03,
       3.81647912e-03, 6.04093401e-03, 3.98778915e-03, 5.65194432e-03,
       3.76624544e-03, 4.48755082e-03, 4.30336036e-03, 4.01741406e-03,
       4.20160498e-03, 4.17584367e-03, 5.49093820e-03, 4.82888287e-03,
       4.64340439e-03, 4.48883884e-03, 4.33942582e-03, 7.67288776e-03,
       5.85030299e-03, 6.32430380e-03, 4.43731714e-03, 4.21448518e-03,
       4.05605556e-03, 4.39352356e-03, 4.16425150e-03, 3.96589236e-03,
       4.21834923e-03, 5.58238989e-03, 4.32783319e-03, 3.97233246e-03,
       5.95592288e-03, 3.85383237e-03, 5.98297175e-03, 5.30545972e-03,
       5.85159101e-03, 3.80978137e-02, 8.23576376e-03, 6.16201013e-03,
       1.44003499e-02, 4.46951808e-03, 3.98134906e-03, 4.14879480e-03,
       1.42535130e-02, 7.49771344e-03, 7.61878956e-03, 3.92982736e-03,
       7.56211579e-03, 1.36893485e-02, 1.19273020e-02, 1.40551534e-02,
       5.63777564e-03, 1.43990619e-02, 3.91823472e-03, 3.90020199e-03,
       9.89476591e-03, 5.80393337e-03, 4.25827876e-03, 5.62489498e-03,
       5.01564983e-03, 1.24618411e-02, 6.41446700e-03, 4.01999056e-03,
       4.70265467e-03, 5.80135733e-03, 6.86914707e-03, 4.09984915e-03,
       3.85254435e-03, 4.62279562e-03, 4.33942582e-03, 4.25055064e-03,
       3.89247388e-03, 7.27745751e-03, 4.42443648e-03, 5.97653165e-03,
       3.90020199e-03, 4.31752903e-03, 4.01097396e-03, 4.21963725e-03,
       4.07280028e-03, 3.99294123e-03, 4.18872433e-03, 4.11659386e-03,
       1.04898438e-02, 4.49270289e-03, 3.88088147e-03, 4.27115941e-03,
       5.29129151e-03, 3.78427794e-03, 4.36003460e-03, 5.61587885e-03,
       3.82420747e-03, 3.79715837e-03, 3.83451185e-03, 4.22221329e-03,
       9.11807455e-03, 7.36633269e-03, 7.63682229e-03, 4.01960388e-02,
       5.81166195e-03, 8.89395457e-03, 7.28132203e-03, 5.43168839e-03,
       6.71071745e-03, 4.29176819e-03, 6.53296756e-03, 1.41156921e-02,
       1.10256700e-02, 1.24554010e-02, 4.29305620e-03, 6.53554359e-03,
       5.11354115e-03, 4.02643066e-03, 4.71295882e-03, 3.94399557e-03,
       7.71410530e-03, 4.88813315e-03, 5.88379242e-03, 6.75579906e-03,
       1.01279030e-02, 3.93626746e-03, 3.92596284e-03, 6.09889580e-03,
       4.81085014e-03 ]
   ntrees: 100
   trees:
      -
         nodes:
            -
               depth: 0
               value: 0.
               norm_class_idx: 0
               splits:
                  - { var:42, quality:4.8014750976562500e+03,
                      le:2.8866946697235107e-01 }
            -
               depth: 1
               value: 1.
               norm_class_idx: 1
               splits:
                  - { var:132, quality:4.5358930664062500e+03,
                      le:1.1574723720550537e+00 }
            -
               depth: 2
               value: 1.
               norm_class_idx: 1
               splits:
                  - { var:64, quality:2.4673242187500000e+03,
                      le:4.1785436868667603e-01 }
            -
               depth: 3
               value: 1.
               norm_class_idx: 1
               splits:
                  - { var:60, quality:2.3192600097656250e+03,
                      le:3.8119789123535156e+01 }
            -
               depth: 4
               value: 1.
               norm_class_idx: 1
               splits:
                  - { var:11, quality:2.3168315429687500e+03,
                      le:1.0868303477764130e-02 }
            -
               depth: 5
               value: 1.
               norm_class_idx: 1
               splits:
                  - { var:79, quality:2.3166606445312500e+03,
                      le:1.3738183975219727e+01 }
            -
               depth: 6
               value: 1.
               norm_class_idx: 1
               splits:
                  - { var:44, quality:2.3191481933593750e+03,
                      le:8.2564048469066620e-02 }
            -
               depth: 7
               value: 1.
               norm_class_idx: 1
               splits:
                  - { var:7, quality:2.3178134765625000e+03,
                      le:1.3853972777724266e-02 }
            -
               depth: 8
               value: 1.
               norm_class_idx: 1
               splits:
                  - { var:113, quality:2.3174052734375000e+03,
                      le:6.8730514612980187e-05 }
            -
               depth: 9
               value: 1.
               norm_class_idx: 1
               splits:
                  - { var:86, quality:6.0644111633300781e+01,
                      le:1.9074816703796387e+00 }
            -
               depth: 10
               value: 1.
               norm_class_idx: 1
            -
               depth: 10
               value: 0.
               norm_class_idx: 0
            -
               depth: 9
               value: 1.
               norm_class_idx: 1
               splits:
                  - { var:84, quality:2.2637912597656250e+03,
                      le:3.4666985273361206e-02 }
            -
               depth: 10
               value: 1.
               norm_class_idx: 1
            -
               depth: 10
               value: 1.
               norm_class_idx: 1
            -
               depth: 8
               value: 2.
               norm_class_idx: 2
            -
               depth: 7
               value: 0.
               norm_class_idx: 0
            -
               depth: 6
               value: 1.
               norm_class_idx: 1
               splits:
                  - { var:110, quality:6.6631598472595215e+00,
                      le:2.2994419932365417e-01 }
            -
               depth: 7
               value: 2.
               norm_class_idx: 2
            -
               depth: 7
               value: 1.
               norm_class_idx: 1
            -
               depth: 5
               value: 2.
               norm_class_idx: 2
            -
               depth: 4
               value: 2.
               norm_class_idx: 2
               splits:
                  - { var:34, quality:8.3039703369140625e+00,
                      le:8.7625049054622650e-03 }
            -
               depth: 5
               value: 1.
               norm_class_idx: 1
            -
               depth: 5
               value: 2.
               norm_class_idx: 2
            -
               depth: 3
               value: 1.
               norm_class_idx: 1
               splits:
                  - { var:61, quality:2.2358738708496094e+02,
                      le:4.3761807680130005e-01 }
            -
               depth: 4
               value: 0.
               norm_class_idx: 0
               splits:
                  - { var:60, quality:1.4273075866699219e+02,
                      le:2.0564998626708984e+01 }
            -
               depth: 5
               value: 1.
               norm_class_idx: 1
            -
               depth: 5
               value: 0.
               norm_class_idx: 0
               splits:
                  - { var:6, quality:1.2612742614746094e+02,
                      le:9.9998432397842407e-01 }
            -
               depth: 6
               value: 0.
               norm_class_idx: 0
               splits:
                  - { var:87, quality:1.3533229064941406e+02,
                      le:6.9049997329711914e+00 }
            -
               depth: 7
               value: 0.
               norm_class_idx: 0
               splits:
                  - { var:52, quality:1.3203790283203125e+02,
                      le:1.4485105872154236e-01 }
            -
               depth: 8
               value: 0.
               norm_class_idx: 0
               splits:
                  - { var:111, quality:1.3057431030273438e+02,
                      le:3.2671239972114563e-01 }
            -
               depth: 9
               value: 0.
               norm_class_idx: 0
            -
               depth: 9
               value: 0.
               norm_class_idx: 0
               splits:
                  - { var:122, quality:3.0591224670410156e+01,
                      le:1.8997123837471008e-01 }
            -
               depth: 10
               value: 0.
               norm_class_idx: 0
            -
               depth: 10
               value: 1.
               norm_class_idx: 1
            -
               depth: 8
               value: 1.
               norm_class_idx: 1
            -
               depth: 7
               value: 1.
               norm_class_idx: 1
            -
               depth: 6
               value: 1.
               norm_class_idx: 1
            -
               depth: 4
               value: 1.
               norm_class_idx: 1
               splits:
                  - { var:79, quality:1.6422409057617188e+02,
                      le:1.5064940452575684e+01 }
            -
               depth: 5
               value: 1.
               norm_class_idx: 1
               splits:
                  - { var:85, quality:1.5278341674804688e+02,
                      le:8.9640235900878906e+00 }
            -
               depth: 6
               value: 1.
               norm_class_idx: 1
               splits:
                  - { var:140, quality:1.4742758178710938e+02,
                      le:4.9436068534851074e+00 }
            -
               depth: 7
               value: 1.
               norm_class_idx: 1
               splits:
                  - { var:72, quality:1.4569773864746094e+02,
                      le:4.3599322438240051e-01 }
            -
               depth: 8
               value: 1.
               norm_class_idx: 1
               splits:
                  - { var:108, quality:1.2751735687255859e+01,
                      le:4.9105364084243774e-01 }
            -
               depth: 9
               value: 0.
               norm_class_idx: 0
            -
               depth: 9
               value: 1.
               norm_class_idx: 1
            -
               depth: 8
               value: 1.
               norm_class_idx: 1
            -
               depth: 7
               value: 2.
               norm_class_idx: 2
            -
               depth: 6
               value: 0.
               norm_class_idx: 0
            -
               depth: 5
               value: 2.
               norm_class_idx: 2
               splits:
                  - { var:59, quality:5.6144996643066406e+01,
                      le:1.0702588409185410e-01 }
            -
               depth: 6
               value: 0.
               norm_class_idx: 0
            -
               depth: 6
               value: 2.
               norm_class_idx: 2
               splits:
                  - { var:91, quality:4.1648872375488281e+01,
                      le:2.6596941053867340e-02 }
            -
               depth: 7
               value: 2.
               norm_class_idx: 2
               splits:
                  - { var:104, quality:4.2414638519287109e+01,
                      le:2.6021443307399750e-02 }
            -
               depth: 8
               value: 1.
               norm_class_idx: 1
            -
               depth: 8
               value: 2.
               norm_class_idx: 2
            -
               depth: 7
               value: 1.
               norm_class_idx: 1
            -
               depth: 2
               value: 2.
               norm_class_idx: 2
               splits:
                  - { var:70, quality:2.7561757812500000e+03,
                      le:-1.9701879501342773e+01 }
            -
               depth: 3
               value: 0.
               norm_class_idx: 0
            -
               depth: 3
               value: 2.
               norm_class_idx: 2
               splits:
                  - { var:69, quality:2.5869990234375000e+03,
                      le:1.4687943458557129e-01 }
            -
               depth: 4
               value: 2.
               norm_class_idx: 2
               splits:
                  - { var:16, quality:3.6772720336914062e+02,
                      le:5.2664422988891602e-01 }
            -
               depth: 5
               value: 1.
               norm_class_idx: 1
               splits:
                  - { var:122, quality:2.6308575439453125e+02,
                      le:3.1232500076293945e-01 }
            -
               depth: 6
               value: 1.
               norm_class_idx: 1
               splits:
                  - { var:14, quality:2.1775093078613281e+02,
                      le:6.9239246845245361e-01 }
            -
               depth: 7
               value: 1.
               norm_class_idx: 1
               splits:
                  - { var:122, quality:2.1703511047363281e+02,
                      le:2.9522222280502319e-01 }
            -
               depth: 8
               value: 1.
               norm_class_idx: 1
               splits:
                  - { var:126, quality:2.1647520446777344e+02,
                      le:-4.9748313613235950e-03 }
            -
               depth: 9
               value: 1.
               norm_class_idx: 1
               splits:
                  - { var:94, quality:2.1965386962890625e+02,
                      le:3.8944225758314133e-02 }
            -
               depth: 10
               value: 1.
               norm_class_idx: 1
            -
               depth: 10
               value: 2.
               norm_class_idx: 2
            -
               depth: 9
               value: 0.
               norm_class_idx: 0
            -
               depth: 8
               value: 1.
               norm_class_idx: 1
               splits:
                  - { var:131, quality:8.8013219833374023e+00,
                      le:1.3451793193817139e+00 }
            -
               depth: 9
               value: 1.
               norm_class_idx: 1
            -
               depth: 9
               value: 2.
               norm_class_idx: 2
            -
               depth: 7
               value: 0.
               norm_class_idx: 0
               splits:
                  - { var:90, quality:6.1390333175659180e+00,
                      le:2.8565384447574615e-02 }
            -
               depth: 8
               value: 0.
               norm_class_idx: 0
            -
               depth: 8
               value: 2.
               norm_class_idx: 2
            -
               depth: 6
               value: 2.
               norm_class_idx: 2
               splits:
                  - { var:114, quality:1.0422174835205078e+02,
                      le:2.7777777984738350e-02 }
            -
               depth: 7
               value: 2.
               norm_class_idx: 2
               splits:
                  - { var:42, quality:6.4267784118652344e+01,
                      le:3.3521518111228943e-02 }
            -
               depth: 8
               value: 1.
               norm_class_idx: 1
               splits:
                  - { var:6, quality:7.4587726593017578e+00,
                      le:6.3300335407257080e-01 }
            -
               depth: 9
               value: 1.
               norm_class_idx: 1
            -
               depth: 9
               value: 2.
               norm_class_idx: 2
            -
               depth: 8
               value: 2.
               norm_class_idx: 2
               splits:
                  - { var:107, quality:6.0775867462158203e+01,
                      le:9.2396110296249390e-01 }
            -
               depth: 9
               value: 2.
               norm_class_idx: 2
            -
               depth: 9
               value: 2.
               norm_class_idx: 2
               splits:
                  - { var:87, quality:6.8476228713989258e+00,
                      le:8.3705997467041016e+00 }
            -
               depth: 10
               value: 1.
               norm_class_idx: 1
            -
               depth: 10
               value: 2.
               norm_class_idx: 2
            -
               depth: 7
               value: 0.
               norm_class_idx: 0
            -
               depth: 5
               value: 2.
               norm_class_idx: 2
               splits:
                  - { var:143, quality:2.2012788391113281e+02,
                      le:2.5000000000000000e+00 }
            -
               depth: 6
               value: 2.
               norm_class_idx: 2
               splits:
                  - { var:124, quality:2.1709963989257812e+02,
                      le:1.1922059059143066e+00 }
            -
               depth: 7
               value: 1.
               norm_class_idx: 1
               splits:
                  - { var:5, quality:9.2986726760864258e+00,
                      le:2.3037528991699219e-01 }
            -
               depth: 8
               value: 1.
               norm_class_idx: 1
            -
               depth: 8
               value: 2.
               norm_class_idx: 2
            -
               depth: 7
               value: 2.
               norm_class_idx: 2
               splits:
                  - { var:122, quality:2.1526060485839844e+02,
                      le:2.4728877842426300e-01 }
            -
               depth: 8
               value: 1.
               norm_class_idx: 1
               splits:
                  - { var:75, quality:8.4844703674316406e+00,
                      le:4.1938000917434692e-01 }
            -
               depth: 9
               value: 2.
               norm_class_idx: 2
               splits:
                  - { var:75, quality:6.9614214897155762e+00,
                      le:2.6421985030174255e-01 }
            -
               depth: 10
               value: 1.
               norm_class_idx: 1
            -
               depth: 10
               value: 2.
               norm_class_idx: 2
            -
               depth: 9
               value: 1.
               norm_class_idx: 1
            -
               depth: 8
               value: 2.
               norm_class_idx: 2
               splits:
                  - { var:23, quality:2.1035189819335938e+02,
                      le:1.2951893806457520e+00 }
            -
               depth: 9
               value: 2.
               norm_class_idx: 2
               splits:
                  - { var:82, quality:8.3039703369140625e+00,
                      le:2.1324090957641602e+00 }
            -
               depth: 10
               value: 2.
               norm_class_idx: 2
            -
               depth: 10
               value: 1.
               norm_class_idx: 1
            -
               depth: 9
               value: 2.
               norm_class_idx: 2
               splits:
                  - { var:35, quality:2.0475744628906250e+02,
                      le:1.7615514993667603e-01 }
            -
               depth: 10
               value: 2.
               norm_class_idx: 2
            -
               depth: 10
               value: 2.
               norm_class_idx: 2
            -
               depth: 6
               value: 0.
               norm_class_idx: 0
               splits:
                  - { var:45, quality:1.9685098648071289e+01,
                      le:2.1269086003303528e-01 }
            -
               depth: 7
               value: 0.
               norm_class_idx: 0
            -
               depth: 7
               value: 2.
               norm_class_idx: 2
            -
               depth: 4
               value: 2.
               norm_class_idx: 2
               splits:
                  - { var:80, quality:2.4327692871093750e+03,
                      le:2.5786827087402344e+01 }
            -
               depth: 5
               value: 2.
               norm_class_idx: 2
               splits:
                  - { var:59, quality:2.3953857421875000e+03,
                      le:1.0439109802246094e-01 }
            -
               depth: 6
               value: 0.
               norm_class_idx: 0
            -
               depth: 6
               value: 2.
               norm_class_idx: 2
               splits:
                  - { var:67, quality:2.4108447265625000e+03,
                      le:3.7872638553380966e-02 }
            -
               depth: 7
               value: 2.
               norm_class_idx: 2
               splits:
                  - { var:122, quality:1.9078189086914062e+02,
                      le:3.3445829153060913e-01 }
            -
               depth: 8
               value: 1.
               norm_class_idx: 1
               splits:
                  - { var:3, quality:5.1874855041503906e+01,
                      le:3.8512200117111206e-01 }
            -
               depth: 9
               value: 1.
               norm_class_idx: 1
               splits:
                  - { var:94, quality:4.6990715026855469e+01,
                      le:7.6507455669343472e-03 }
            -
               depth: 10
               value: 2.
               norm_class_idx: 2
            -
               depth: 10
               value: 1.
               norm_class_idx: 1
            -
               depth: 9
               value: 2.
               norm_class_idx: 2
               splits:
                  - { var:47, quality:2.0337327957153320e+01,
                      le:1.4321438968181610e-02 }
            -
               depth: 10
               value: 2.
               norm_class_idx: 2
            -
               depth: 10
               value: 1.
               norm_class_idx: 1
            -
               depth: 8
               value: 2.
               norm_class_idx: 2
               splits:
                  - { var:66, quality:1.5176719665527344e+02,
                      le:7.7714461088180542e-01 }
            -
               depth: 9
               value: 2.
               norm_class_idx: 2
               splits:
                  - { var:95, quality:7.7570338249206543e+00,
                      le:1.7550934106111526e-02 }
            -
               depth: 10
               value: 2.
               norm_class_idx: 2
            -
               depth: 10
               value: 1.
               norm_class_idx: 1
            -
               depth: 9
               value: 2.
               norm_class_idx: 2
               splits:
                  - { var:96, quality:1.4884887695312500e+02,
                      le:8.6733617354184389e-04 }
            -
               depth: 10
               value: 2.
               norm_class_idx: 2
            -
               depth: 10
               value: 1.
               norm_class_idx: 1
            -
               depth: 7
               value: 2.
               norm_class_idx: 2
               splits:
                  - { var:34, quality:2.2679689941406250e+03,
                      le:7.4026244692504406e-03 }
            -
               depth: 8
               value: 1.
               norm_class_idx: 1
            -
               depth: 8
               value: 2.
               norm_class_idx: 2
               splits:
                  - { var:60, quality:2.2753022460937500e+03,
                      le:3.2225059509277344e+01 }
            -
               depth: 9
               value: 1.
               norm_class_idx: 1
               splits:
                  - { var:51, quality:6.9118356704711914e+00,
                      le:4.4205075502395630e-01 }
            -
               depth: 10
               value: 1.
               norm_class_idx: 1
            -
               depth: 10
               value: 2.
               norm_class_idx: 2
            -
               depth: 9
               value: 2.
               norm_class_idx: 2
               splits:
                  - { var:127, quality:2.2707121582031250e+03,
                      le:2.6436972618103027e-01 }
            -
               depth: 10
               value: 2.
               norm_class_idx: 2
            -
               depth: 10
               value: 2.
               norm_class_idx: 2
            -
               depth: 5
               value: 0.
               norm_class_idx: 0
            -
               depth: 1
               value: 0.
               norm_class_idx: 0
               splits:
                  - { var:63, quality:2.2807624511718750e+03,
                      le:8.2227569818496704e-01 }
            -
               depth: 2
               value: 1.
               norm_class_idx: 1
               splits:
                  - { var:95, quality:3.8736328125000000e+01,
                      le:1.2716446816921234e-01 }
            -
               depth: 3
               value: 2.
               norm_class_idx: 2
            -
               depth: 3
               value: 1.
               norm_class_idx: 1
            -
               depth: 2
               value: 0.
               norm_class_idx: 0
               splits:
                  - { var:32, quality:2.2452009277343750e+03,
                      le:5.8978977613151073e-03 }
            -
               depth: 3
               value: 0.
               norm_class_idx: 0
               splits:
                  - { var:98, quality:1.9386837005615234e+01,
                      le:2.9743154300376773e-05 }
            -
               depth: 4
               value: 0.
               norm_class_idx: 0
            -
               depth: 4
               value: 1.
               norm_class_idx: 1
            -
               depth: 3
               value: 0.
               norm_class_idx: 0
      -
         nodes:
            -
               depth: 0
               value: 0.
               norm_class_idx: 0
               splits:
                  - { var:73, quality:5.2470253906250000e+03,
                      le:2.5878348350524902e+00 }
            -
               depth: 1
               value: 1.
               norm_class_idx: 1
               splits:
                  - { var:2, quality:4.7694614257812500e+03,
                      le:1.0346661508083344e-01 }
            -
               depth: 2
               value: 1.
               norm_class_idx: 1
               splits:
                  - { var:30, quality:2.4973937988281250e+03,
                      le:4.3763703107833862e-01 }
            -
               depth: 3
               value: 0.
               norm_class_idx: 0
               splits:
                  - { var:5, quality:1.7155212402343750e+02,
                      le:6.7171677947044373e-02 }
            -
               depth: 4
               value: 0.
               norm_class_idx: 0
               splits:
                  - { var:75, quality:1.1407961273193359e+02,
                      le:6.9049978256225586e+00 }
            -
               depth: 5
               value: 0.
               norm_class_idx: 0
               splits:
                  - { var:23, quality:1.0718383789062500e+02,
                      le:1.4837670326232910e+00 }
            -
               depth: 6
               value: 0.
               norm_class_idx: 0
               splits:
                  - { var:82, quality:1.0704663085937500e+02,
                      le:6.8115715980529785e+00 }
            -
               depth: 7
               value: 0.
               norm_class_idx: 0
               splits:
                  - { var:70, quality:1.0552918243408203e+02,
                      le:-3.4323863983154297e+00 }
            -
               depth: 8
               value: 0.
               norm_class_idx: 0
               splits:
                  - { var:142, quality:9.5249931335449219e+01,
                      le:3.5662651062011719e-03 }
            -
               depth: 9
               value: 0.
               norm_class_idx: 0
            -
               depth: 9
               value: 0.
               norm_class_idx: 0
               splits:
                  - { var:5, quality:2.7795612335205078e+01,
                      le:6.5261304378509521e-02 }
            -
               depth: 10
               value: 1.
               norm_class_idx: 1
            -
               depth: 10
               value: 0.
               norm_class_idx: 0
            -
               depth: 8
               value: 0.
               norm_class_idx: 0
               splits:
                  - { var:5, quality:1.1795612335205078e+01,
                      le:6.3200421631336212e-02 }
            -
               depth: 9
               value: 1.
               norm_class_idx: 1
            -
               depth: 9
               value: 0.
               norm_class_idx: 0
            -
               depth: 7
               value: 1.
               norm_class_idx: 1
            -
               depth: 6
               value: 1.
               norm_class_idx: 1
            -
               depth: 5
               value: 1.
               norm_class_idx: 1
            -
               depth: 4
               value: 1.
               norm_class_idx: 1
               splits:
                  - { var:60, quality:9.6249969482421875e+01,
                      le:2.0627391815185547e+01 }
            -
               depth: 5
               value: 0.
               norm_class_idx: 0
            -
               depth: 5
               value: 1.
               norm_class_idx: 1
               splits:
                  - { var:120, quality:1.0520941162109375e+02,
                      le:2.6310092210769653e-01 }
            -
               depth: 6
               value: 1.
               norm_class_idx: 1
            -
               depth: 6
               value: 0.
               norm_class_idx: 0
               splits:
                  - { var:78, quality:1.6591224670410156e+01,
                      le:3.4465972900390625e+01 }
            -
               depth: 7
               value: 0.
               norm_class_idx: 0
            -
               depth: 7
               value: 1.
               norm_class_idx: 1
            -
               depth: 3
               value: 1.
               norm_class_idx: 1
               splits:
                  - { var:130, quality:2.4318920898437500e+03,
                      le:1.0332343578338623e+00 }
            -
               depth: 4
               value: 1.
               norm_class_idx: 1
               splits:
                  - { var:143, quality:2.3440383300781250e+03,
                      le:3.5000000000000000e+00 }
            -
               depth: 5
               value: 1.
               norm_class_idx: 1
               splits:
                  - { var:89, quality:2.3071850585937500e+03,
                      le:6.9904685020446777e+00 }
            -
               depth: 6
               value: 1.
               norm_class_idx: 1
               splits:
                  - { var:68, quality:2.2903659667968750e+03,
                      le:-3.2293888926506042e-01 }
            -
               depth: 7
               value: 2.
               norm_class_idx: 2
            -
               depth: 7
               value: 1.
               norm_class_idx: 1
               splits:
                  - { var:92, quality:2.2892521972656250e+03,
                      le:4.1200764477252960e-02 }
            -
               depth: 8
               value: 1.
               norm_class_idx: 1
            -
               depth: 8
               value: 1.
               norm_class_idx: 1
               splits:
                  - { var:22, quality:1.3275346374511719e+02,
                      le:9.9590247869491577e-01 }
            -
               depth: 9
               value: 1.
               norm_class_idx: 1
            -
               depth: 9
               value: 1.
               norm_class_idx: 1
            -
               depth: 6
               value: 1.
               norm_class_idx: 1
               splits:
                  - { var:109, quality:2.7799962997436523e+01,
                      le:3.0136305093765259e-01 }
            -
               depth: 7
               value: 2.
               norm_class_idx: 2
            -
               depth: 7
               value: 1.
               norm_class_idx: 1
               splits:
                  - { var:54, quality:2.3619693756103516e+01,
                      le:8.7032816372811794e-04 }
            -
               depth: 8
               value: 1.
               norm_class_idx: 1
            -
               depth: 8
               value: 2.
               norm_class_idx: 2
            -
               depth: 5
               value: 1.
               norm_class_idx: 1
               splits:
                  - { var:130, quality:5.1971206665039062e+01,
                      le:7.8589189052581787e-01 }
            -
               depth: 6
               value: 1.
               norm_class_idx: 1
               splits:
                  - { var:121, quality:5.1532352447509766e+01,
                      le:2.9455935955047607e-01 }
            -
               depth: 7
               value: 0.
               norm_class_idx: 0
            -
               depth: 7
               value: 1.
               norm_class_idx: 1
            -
               depth: 6
               value: 0.
               norm_class_idx: 0
               splits:
                  - { var:66, quality:8.3425493240356445e+00,
                      le:2.7567660808563232e+00 }
            -
               depth: 7
               value: 0.
               norm_class_idx: 0
            -
               depth: 7
               value: 2.
               norm_class_idx: 2
            -
               depth: 4
               value: 1.
               norm_class_idx: 1
               splits:
                  - { var:47, quality:1.2591311645507812e+02,
                      le:4.8470837064087391e-03 }
            -
               depth: 5
               value: 2.
               norm_class_idx: 2
               splits:
                  - { var:68, quality:6.8293495178222656e+01,
                      le:-7.0849850773811340e-02 }
            -
               depth: 6
               value: 2.
               norm_class_idx: 2
            -
               depth: 6
               value: 1.
               norm_class_idx: 1
               splits:
                  - { var:120, quality:2.1206192016601562e+01,
                      le:9.9206697940826416e-01 }
            -
               depth: 7
               value: 1.
               norm_class_idx: 1
            -
               depth: 7
               value: 0.
               norm_class_idx: 0
               splits:
                  - { var:22, quality:8.3425493240356445e+00,
                      le:9.5561003684997559e-01 }
            -
               depth: 8
               value: 2.
               norm_class_idx: 2
            -
               depth: 8
               value: 0.
               norm_class_idx: 0
            -
               depth: 5
               value: 1.
               norm_class_idx: 1
               splits:
                  - { var:122, quality:9.9451347351074219e+01,
                      le:3.1751638650894165e-01 }
            -
               depth: 6
               value: 1.
               norm_class_idx: 1
               splits:
                  - { var:133, quality:9.2127189636230469e+01,
                      le:2.7446064949035645e+00 }
            -
               depth: 7
               value: 2.
               norm_class_idx: 2
               splits:
                  - { var:42, quality:1.0143871307373047e+01,
                      le:4.2410068213939667e-02 }
            -
               depth: 8
               value: 2.
               norm_class_idx: 2
            -
               depth: 8
               value: 1.
               norm_class_idx: 1
            -
               depth: 7
               value: 1.
               norm_class_idx: 1
               splits:
                  - { var:113, quality:9.0710807800292969e+01,
                      le:7.5243413448333740e-05 }
            -
               depth: 8
               value: 0.
               norm_class_idx: 0
               splits:
                  - { var:13, quality:7.9780616760253906e+00,
                      le:1.7759209871292114e-01 }
            -
               depth: 9
               value: 1.
               norm_class_idx: 1
            -
               depth: 9
               value: 0.
               norm_class_idx: 0
            -
               depth: 8
               value: 1.
               norm_class_idx: 1
            -
               depth: 6
               value: 2.
               norm_class_idx: 2
            -
               depth: 2
               value: 2.
               norm_class_idx: 2
               splits:
                  - { var:57, quality:2.5215874023437500e+03,
                      le:1.0595908761024475e-01 }
            -
               depth: 3
               value: 0.
               norm_class_idx: 0
               splits:
                  - { var:122, quality:7.7368614196777344e+01,
                      le:3.3996045589447021e-01 }
            -
               depth: 4
               value: 2.
               norm_class_idx: 2
               splits:
                  - { var:129, quality:6.4144845008850098e+00,
                      le:1.2980381026864052e-02 }
            -
               depth: 5
               value: 2.
               norm_class_idx: 2
            -
               depth: 5
               value: 1.
               norm_class_idx: 1
            -
               depth: 4
               value: 0.
               norm_class_idx: 0
               splits:
                  - { var:130, quality:7.5499671936035156e+01,
                      le:5.2303248643875122e-01 }
            -
               depth: 5
               value: 1.
               norm_class_idx: 1
            -
               depth: 5
               value: 0.
               norm_class_idx: 0
               splits:
                  - { var:139, quality:7.5225814819335938e+01,
                      le:9.1868724822998047e+00 }
            -
               depth: 6
               value: 0.
               norm_class_idx: 0
               splits:
                  - { var:139, quality:6.3425493240356445e+00,
                      le:8.6177845001220703e+00 }
            -
               depth: 7
               value: 0.
               norm_class_idx: 0
            -
               depth: 7
               value: 2.
               norm_class_idx: 2
            -
               depth: 6
               value: 0.
               norm_class_idx: 0
            -
               depth: 3
               value: 2.
               norm_class_idx: 2
               splits:
                  - { var:14, quality:2.5769284667968750e+03,
                      le:2.0566536486148834e-01 }
            -
               depth: 4
               value: 2.
               norm_class_idx: 2
               splits:
                  - { var:67, quality:3.3650985717773438e+02,
                      le:4.0416359901428223e-02 }
            -
               depth: 5
               value: 1.
               norm_class_idx: 1
               splits:
                  - { var:23, quality:1.5802249145507812e+02,
                      le:1.4384481906890869e+00 }
            -
               depth: 6
               value: 1.
               norm_class_idx: 1
               splits:
                  - { var:107, quality:1.3929153442382812e+02,
                      le:6.2280076742172241e-01 }
            -
               depth: 7
               value: 1.
               norm_class_idx: 1
            -
               depth: 7
               value: 1.
               norm_class_idx: 1
               splits:
                  - { var:5, quality:1.4037637329101562e+02,
                      le:2.2649753093719482e-01 }
            -
               depth: 8
               value: 1.
               norm_class_idx: 1
               splits:
                  - { var:12, quality:1.3954937744140625e+02,
                      le:1.6264545917510986e-01 }
            -
               depth: 9
               value: 1.
               norm_class_idx: 1
               splits:
                  - { var:45, quality:1.3618029785156250e+02,
                      le:4.5127317309379578e-02 }
            -
               depth: 10
               value: 1.
               norm_class_idx: 1
            -
               depth: 10
               value: 1.
               norm_class_idx: 1
            -
               depth: 9
               value: 1.
               norm_class_idx: 1
               splits:
                  - { var:99, quality:6.1162233352661133e+00,
                      le:-7.6494924724102020e-02 }
            -
               depth: 10
               value: 1.
               norm_class_idx: 1
            -
               depth: 10
               value: 2.
               norm_class_idx: 2
            -
               depth: 8
               value: 2.
               norm_class_idx: 2
            -
               depth: 6
               value: 1.
               norm_class_idx: 1
               splits:
                  - { var:131, quality:2.6152717590332031e+01,
                      le:4.0885484218597412e-01 }
            -
               depth: 7
               value: 2.
               norm_class_idx: 2
               splits:
                  - { var:78, quality:8.9939432144165039e+00,
                      le:2.3961585998535156e+01 }
            -
               depth: 8
               value: 1.
               norm_class_idx: 1
            -
               depth: 8
               value: 2.
               norm_class_idx: 2
               splits:
                  - { var:140, quality:8.8509073257446289e+00,
                      le:1.1343223571777344e+01 }
            -
               depth: 9
               value: 2.
               norm_class_idx: 2
            -
               depth: 9
               value: 1.
               norm_class_idx: 1
            -
               depth: 7
               value: 1.
               norm_class_idx: 1
               splits:
                  - { var:143, quality:2.1639474868774414e+01, le:3. }
            -
               depth: 8
               value: 1.
               norm_class_idx: 1
               splits:
                  - { var:70, quality:2.2824081420898438e+01,
                      le:-7.2810459136962891e+00 }
            -
               depth: 9
               value: 2.
               norm_class_idx: 2
            -
               depth: 9
               value: 1.
               norm_class_idx: 1
            -
               depth: 8
               value: 2.
               norm_class_idx: 2
            -
               depth: 5
               value: 2.
               norm_class_idx: 2
               splits:
                  - { var:23, quality:1.8573495483398438e+02,
                      le:1.1829185485839844e+00 }
            -
               depth: 6
               value: 1.
               norm_class_idx: 1
            -
               depth: 6
               value: 2.
               norm_class_idx: 2
               splits:
                  - { var:67, quality:1.8509788513183594e+02,
                      le:4.4004641473293304e-02 }
            -
               depth: 7
               value: 2.
               norm_class_idx: 2
               splits:
                  - { var:129, quality:1.0442131996154785e+01,
                      le:4.0509685873985291e-02 }
            -
               depth: 8
               value: 1.
               norm_class_idx: 1
            -
               depth: 8
               value: 2.
               norm_class_idx: 2
            -
               depth: 7
               value: 2.
               norm_class_idx: 2
               splits:
                  - { var:60, quality:1.7990859985351562e+02,
                      le:2.8484687805175781e+01 }
            -
               depth: 8
               value: 1.
               norm_class_idx: 1
            -
               depth: 8
               value: 2.
               norm_class_idx: 2
               splits:
                  - { var:116, quality:1.7916645812988281e+02,
                      le:2.9285717010498047e-01 }
            -
               depth: 9
               value: 2.
               norm_class_idx: 2
            -
               depth: 9
               value: 2.
               norm_class_idx: 2
               splits:
                  - { var:130, quality:2.0933851242065430e+01,
                      le:1.3804202079772949e+00 }
            -
               depth: 10
               value: 2.
               norm_class_idx: 2
            -
               depth: 10
               value: 1.
               norm_class_idx: 1
            -
               depth: 4
               value: 2.
               norm_class_idx: 2
               splits:
                  - { var:130, quality:2.4261882324218750e+03,
                      le:1.4086320877075195e+01 }
            -
               depth: 5
               value: 2.
               norm_class_idx: 2
               splits:
                  - { var:146, quality:2.4104289550781250e+03,
                      le:4.9000024795532227e-01 }
            -
               depth: 6
               value: 1.
               norm_class_idx: 1
            -
               depth: 6
               value: 2.
               norm_class_idx: 2
               splits:
                  - { var:126, quality:2.4106223144531250e+03,
                      le:-6.2056648731231689e-01 }
            -
               depth: 7
               value: 2.
               norm_class_idx: 2
               splits:
                  - { var:83, quality:1.9806241455078125e+03,
                      le:1.5538363456726074e+00 }
            -
               depth: 8
               value: 2.
               norm_class_idx: 2
            -
               depth: 8
               value: 2.
               norm_class_idx: 2
               splits:
                  - { var:5, quality:1.9812315673828125e+03,
                      le:4.4545674324035645e-01 }
            -
               depth: 9
               value: 2.
               norm_class_idx: 2
               splits:
                  - { var:122, quality:1.9821114501953125e+03,
                      le:2.8593048453330994e-01 }
            -
               depth: 10
               value: 2.
               norm_class_idx: 2
            -
               depth: 10
               value: 2.
               norm_class_idx: 2
            -
               depth: 9
               value: 1.
               norm_class_idx: 1
            -
               depth: 7
               value: 2.
               norm_class_idx: 2
               splits:
                  - { var:35, quality:4.5272039794921875e+02,
                      le:3.3731717616319656e-02 }
            -
               depth: 8
               value: 2.
               norm_class_idx: 2
               splits:
                  - { var:106, quality:4.1990399169921875e+02,
                      le:1.3144370168447495e-02 }
            -
               depth: 9
               value: 2.
               norm_class_idx: 2
               splits:
                  - { var:38, quality:4.1350820922851562e+02,
                      le:-1.4334424398839474e-02 }
            -
               depth: 10
               value: 1.
               norm_class_idx: 1
            -
               depth: 10
               value: 2.
               norm_class_idx: 2
            -
               depth: 9
               value: 2.
               norm_class_idx: 2
               splits:
                  - { var:105, quality:1.1784681320190430e+01,
                      le:8.2261532545089722e-02 }
            -
               depth: 10
               value: 1.
               norm_class_idx: 1
            -
               depth: 10
               value: 2.
               norm_class_idx: 2
            -
               depth: 8
               value: 2.
               norm_class_idx: 2
               splits:
                  - { var:37, quality:4.1683586120605469e+01,
                      le:3.6655124276876450e-03 }
            -
               depth: 9
               value: 1.
               norm_class_idx: 1
               splits:
                  - { var:23, quality:3.3133071899414062e+01,
                      le:1.4282007217407227e+00 }
            -
               depth: 10
               value: 1.
               norm_class_idx: 1
            -
               depth: 10
               value: 2.
               norm_class_idx: 2
            -
               depth: 9
               value: 2.
               norm_class_idx: 2
            -
               depth: 5
               value: 0.
               norm_class_idx: 0
            -
               depth: 1
               value: 0.
               norm_class_idx: 0
               splits:
                  - { var:63, quality:2.6538637695312500e+03,
                      le:8.1989961862564087e-01 }
            -
               depth: 2
               value: 1.
               norm_class_idx: 1
            -
               depth: 2
               value: 0.
               norm_class_idx: 0
               splits:
                  - { var:20, quality:2.6398881835937500e+03,
                      le:2.5131151676177979e+00 }
            -
               depth: 3
               value: 0.
               norm_class_idx: 0
               splits:
                  - { var:67, quality:2.0738999938964844e+02,
                      le:7.9421950504183769e-03 }
            -
               depth: 4
               value: 0.
               norm_class_idx: 0
               splits:
                  - { var:107, quality:1.6403076171875000e+02,
                      le:4.6829283237457275e-01 }
            -
               depth: 5
               value: 0.
               norm_class_idx: 0
               splits:
                  - { var:20, quality:1.6733244323730469e+02,
                      le:9.8723578453063965e-01 }
            -
               depth: 6
               value: 1.
               norm_class_idx: 1
            -
               depth: 6
               value: 0.
               norm_class_idx: 0
               splits:
                  - { var:72, quality:1.6936474609375000e+02,
                      le:2.6517267227172852e+00 }
            -
               depth: 7
               value: 2.
               norm_class_idx: 2
            -
               depth: 7
               value: 0.
               norm_class_idx: 0
               splits:
                  - { var:72, quality:1.6738914489746094e+02,
                      le:2.9137954711914062e+00 }
            -
               depth: 8
               value: 0.
               norm_class_idx: 0
               splits:
                  - { var:94, quality:6.5912246704101562e+00,
                      le:2.0346367731690407e-02 }
            -
               depth: 9
               value: 0.
               norm_class_idx: 0
            -
               depth: 9
               value: 1.
               norm_class_idx: 1
            -
               depth: 8
               value: 0.
               norm_class_idx: 0
               splits:
                  - { var:136, quality:1.6324299621582031e+02,
                      le:1.3977423310279846e-01 }
            -
               depth: 9
               value: 0.
               norm_class_idx: 0
               splits:
                  - { var:53, quality:3.2795612335205078e+01,
                      le:1.9188378751277924e-01 }
            -
               depth: 10
               value: 0.
               norm_class_idx: 0
            -
               depth: 10
               value: 1.
               norm_class_idx: 1
            -
               depth: 9
               value: 0.
               norm_class_idx: 0
            -
               depth: 5
               value: 2.
               norm_class_idx: 2
            -
               depth: 4
               value: 2.
               norm_class_idx: 2
            -
               depth: 3
               value: 0.
               norm_class_idx: 0
      -
         nodes:
            -
               depth: 0
               value: 1.
               norm_class_idx: 1
               splits:
                  - { var:76, quality:4.9313276367187500e+03,
                      le:1.4518443346023560e+00 }
            -
               depth: 1
               value: 1.
               norm_class_idx: 1
               splits:
                  - { var:121, quality:2.6071992187500000e+03,
                      le:6.6646795272827148e+00 }
            -
               depth: 2
               value: 1.
               norm_class_idx: 1
               splits:
                  - { var:64, quality:2.5949455566406250e+03,
                      le:4.1247308254241943e-01 }
            -
               depth: 3
               value: 1.
               norm_class_idx: 1
               splits:
                  - { var:56, quality:2.4553237304687500e+03,
                      le:2.4746376276016235e-01 }
            -
               depth: 4
               value: 1.
               norm_class_idx: 1
               splits:
                  - { var:131, quality:2.4414943847656250e+03,
                      le:1.5979323387145996e+00 }
            -
               depth: 5
               value: 1.
               norm_class_idx: 1
               splits:
                  - { var:132, quality:2.4003911132812500e+03,
                      le:3.2786216735839844e+00 }
            -
               depth: 6
               value: 1.
               norm_class_idx: 1
               splits:
                  - { var:87, quality:2.3945344238281250e+03,
                      le:1.0578825950622559e+01 }
            -
               depth: 7
               value: 1.
               norm_class_idx: 1
               splits:
                  - { var:127, quality:2.3945683593750000e+03,
                      le:1.4716080427169800e+00 }
            -
               depth: 8
               value: 1.
               norm_class_idx: 1
               splits:
                  - { var:102, quality:2.3935715332031250e+03,
                      le:1.9913609139621258e-03 }
            -
               depth: 9
               value: 1.
               norm_class_idx: 1
               splits:
                  - { var:68, quality:9.0951566696166992e+00,
                      le:-9.3610361218452454e-02 }
            -
               depth: 10
               value: 2.
               norm_class_idx: 2
            -
               depth: 10
               value: 1.
               norm_class_idx: 1
            -
               depth: 9
               value: 1.
               norm_class_idx: 1
               splits:
                  - { var:68, quality:2.3861843261718750e+03,
                      le:-1.9321785867214203e-01 }
            -
               depth: 10
               value: 1.
               norm_class_idx: 1
            -
               depth: 10
               value: 1.
               norm_class_idx: 1
            -
               depth: 8
               value: 2.
               norm_class_idx: 2
            -
               depth: 7
               value: 1.
               norm_class_idx: 1
            -
               depth: 6
               value: 1.
               norm_class_idx: 1
               splits:
                  - { var:8, quality:1.1983771324157715e+01,
                      le:-9.6509136259555817e-02 }
            -
               depth: 7
               value: 2.
               norm_class_idx: 2
            -
               depth: 7
               value: 1.
               norm_class_idx: 1
            -
               depth: 5
               value: 1.
               norm_class_idx: 1
               splits:
                  - { var:2, quality:6.5848945617675781e+01,
                      le:7.2057947516441345e-02 }
            -
               depth: 6
               value: 1.
               norm_class_idx: 1
            -
               depth: 6
               value: 2.
               norm_class_idx: 2
               splits:
                  - { var:41, quality:3.2825763702392578e+01,
                      le:3.2469158759340644e-04 }
            -
               depth: 7
               value: 2.
               norm_class_idx: 2
            -
               depth: 7
               value: 1.
               norm_class_idx: 1
               splits:
                  - { var:35, quality:1.2535828590393066e+01,
                      le:2.7848910540342331e-02 }
            -
               depth: 8
               value: 0.
               norm_class_idx: 0
            -
               depth: 8
               value: 1.
               norm_class_idx: 1
               splits:
                  - { var:38, quality:1.0889897346496582e+01,
                      le:-2.5886364281177521e-02 }
            -
               depth: 9
               value: 2.
               norm_class_idx: 2
            -
               depth: 9
               value: 1.
               norm_class_idx: 1
            -
               depth: 4
               value: 1.
               norm_class_idx: 1
               splits:
                  - { var:2, quality:5.1438587188720703e+01,
                      le:6.1533760279417038e-02 }
            -
               depth: 5
               value: 1.
               norm_class_idx: 1
               splits:
                  - { var:99, quality:3.6261032104492188e+01,
                      le:-1.3588424026966095e-01 }
            -
               depth: 6
               value: 1.
               norm_class_idx: 1
            -
               depth: 6
               value: 1.
               norm_class_idx: 1
               splits:
                  - { var:145, quality:1.1160511016845703e+01, le:5. }
            -
               depth: 7
               value: 0.
               norm_class_idx: 0
            -
               depth: 7
               value: 1.
               norm_class_idx: 1
            -
               depth: 5
               value: 0.
               norm_class_idx: 0
               splits:
                  - { var:68, quality:1.8795612335205078e+01,
                      le:-3.6586355417966843e-02 }
            -
               depth: 6
               value: 1.
               norm_class_idx: 1
            -
               depth: 6
               value: 0.
               norm_class_idx: 0
            -
               depth: 3
               value: 0.
               norm_class_idx: 0
               splits:
                  - { var:60, quality:2.2840905761718750e+02,
                      le:2.0685001373291016e+01 }
            -
               depth: 4
               value: 0.
               norm_class_idx: 0
               splits:
                  - { var:63, quality:1.8361781311035156e+02,
                      le:8.2373082637786865e-01 }
            -
               depth: 5
               value: 1.
               norm_class_idx: 1
            -
               depth: 5
               value: 0.
               norm_class_idx: 0
               splits:
                  - { var:88, quality:1.5583288574218750e+02,
                      le:3.4383052587509155e-01 }
            -
               depth: 6
               value: 0.
               norm_class_idx: 0
               splits:
                  - { var:82, quality:1.5540222167968750e+02,
                      le:6.8154821395874023e+00 }
            -
               depth: 7
               value: 0.
               norm_class_idx: 0
               splits:
                  - { var:75, quality:1.5374041748046875e+02,
                      le:6.8549842834472656e+00 }
            -
               depth: 8
               value: 1.
               norm_class_idx: 1
            -
               depth: 8
               value: 0.
               norm_class_idx: 0
               splits:
                  - { var:92, quality:1.5448071289062500e+02,
                      le:4.1368819773197174e-02 }
            -
               depth: 9
               value: 0.
               norm_class_idx: 0
               splits:
                  - { var:64, quality:1.5404496765136719e+02,
                      le:4.3552646040916443e-01 }
            -
               depth: 10
               value: 0.
               norm_class_idx: 0
            -
               depth: 10
               value: 0.
               norm_class_idx: 0
            -
               depth: 9
               value: 1.
               norm_class_idx: 1
            -
               depth: 7
               value: 1.
               norm_class_idx: 1
            -
               depth: 6
               value: 1.
               norm_class_idx: 1
            -
               depth: 4
               value: 1.
               norm_class_idx: 1
               splits:
                  - { var:63, quality:1.0045153808593750e+02,
                      le:8.3327698707580566e-01 }
            -
               depth: 5
               value: 0.
               norm_class_idx: 0
            -
               depth: 5
               value: 1.
               norm_class_idx: 1
            -
               depth: 2
               value: 2.
               norm_class_idx: 2
               splits:
                  - { var:122, quality:1.5576657104492188e+02,
                      le:2.3513749241828918e-01 }
            -
               depth: 3
               value: 1.
               norm_class_idx: 1
               splits:
                  - { var:84, quality:1.3574995994567871e+01,
                      le:2.0799746736884117e-02 }
            -
               depth: 4
               value: 1.
               norm_class_idx: 1
            -
               depth: 4
               value: 2.
               norm_class_idx: 2
            -
               depth: 3
               value: 2.
               norm_class_idx: 2
               splits:
                  - { var:48, quality:1.5355099487304688e+02,
                      le:3.8885545730590820e+00 }
            -
               depth: 4
               value: 0.
               norm_class_idx: 0
            -
               depth: 4
               value: 2.
               norm_class_idx: 2
               splits:
                  - { var:127, quality:1.5471556091308594e+02,
                      le:7.8144979476928711e-01 }
            -
               depth: 5
               value: 1.
               norm_class_idx: 1
            -
               depth: 5
               value: 2.
               norm_class_idx: 2
               splits:
                  - { var:9, quality:1.5272689819335938e+02,
                      le:5.2331544458866119e-02 }
            -
               depth: 6
               value: 2.
               norm_class_idx: 2
               splits:
                  - { var:129, quality:1.4093844413757324e+01,
                      le:8.7021249532699585e-01 }
            -
               depth: 7
               value: 1.
               norm_class_idx: 1
            -
               depth: 7
               value: 2.
               norm_class_idx: 2
            -
               depth: 6
               value: 2.
               norm_class_idx: 2
            -
               depth: 1
               value: 2.
               norm_class_idx: 2
               splits:
                  - { var:1, quality:4.7728076171875000e+03,
                      le:2.6344829797744751e-01 }
            -
               depth: 2
               value: 2.
               norm_class_idx: 2
               splits:
                  - { var:59, quality:2.5959333496093750e+03,
                      le:1.0482682287693024e-01 }
            -
               depth: 3
               value: 0.
               norm_class_idx: 0
               splits:
                  - { var:53, quality:1.5754719543457031e+02,
                      le:1.4909484982490540e-01 }
            -
               depth: 4
               value: 0.
               norm_class_idx: 0
               splits:
                  - { var:77, quality:8.9780616760253906e+00,
                      le:8.4440100193023682e-01 }
            -
               depth: 5
               value: 1.
               norm_class_idx: 1
            -
               depth: 5
               value: 0.
               norm_class_idx: 0
            -
               depth: 4
               value: 0.
               norm_class_idx: 0
            -
               depth: 3
               value: 2.
               norm_class_idx: 2
               splits:
                  - { var:16, quality:2.6198327636718750e+03,
                      le:4.0463531017303467e-01 }
            -
               depth: 4
               value: 1.
               norm_class_idx: 1
               splits:
                  - { var:60, quality:2.0503471374511719e+02,
                      le:3.8098678588867188e+01 }
            -
               depth: 5
               value: 1.
               norm_class_idx: 1
               splits:
                  - { var:61, quality:1.6463383483886719e+02,
                      le:1.3154673576354980e+00 }
            -
               depth: 6
               value: 1.
               norm_class_idx: 1
               splits:
                  - { var:24, quality:1.5224871826171875e+02,
                      le:6.7925453186035156e-03 }
            -
               depth: 7
               value: 1.
               norm_class_idx: 1
               splits:
                  - { var:32, quality:1.3659664916992188e+02,
                      le:7.9212673008441925e-03 }
            -
               depth: 8
               value: 2.
               norm_class_idx: 2
            -
               depth: 8
               value: 1.
               norm_class_idx: 1
            -
               depth: 7
               value: 1.
               norm_class_idx: 1
               splits:
                  - { var:5, quality:2.4890060424804688e+01,
                      le:1.4397874474525452e-01 }
            -
               depth: 8
               value: 2.
               norm_class_idx: 2
               splits:
                  - { var:35, quality:2.2095474243164062e+01,
                      le:1.9328609108924866e-02 }
            -
               depth: 9
               value: 2.
               norm_class_idx: 2
            -
               depth: 9
               value: 1.
               norm_class_idx: 1
               splits:
                  - { var:67, quality:1.1436834335327148e+01,
                      le:3.8227982819080353e-02 }
            -
               depth: 10
               value: 1.
               norm_class_idx: 1
            -
               depth: 10
               value: 2.
               norm_class_idx: 2
            -
               depth: 8
               value: 1.
               norm_class_idx: 1
            -
               depth: 6
               value: 0.
               norm_class_idx: 0
            -
               depth: 5
               value: 2.
               norm_class_idx: 2
               splits:
                  - { var:130, quality:8.9959075927734375e+01,
                      le:6.1585593223571777e-01 }
            -
               depth: 6
               value: 1.
               norm_class_idx: 1
            -
               depth: 6
               value: 2.
               norm_class_idx: 2
               splits:
                  - { var:24, quality:8.5937751770019531e+01,
                      le:4.3451786041259766e-03 }
            -
               depth: 7
               value: 1.
               norm_class_idx: 1
            -
               depth: 7
               value: 2.
               norm_class_idx: 2
               splits:
                  - { var:104, quality:8.5491256713867188e+01,
                      le:6.4897865056991577e-02 }
            -
               depth: 8
               value: 2.
               norm_class_idx: 2
            -
               depth: 8
               value: 2.
               norm_class_idx: 2
            -
               depth: 4
               value: 2.
               norm_class_idx: 2
               splits:
                  - { var:125, quality:2.5065109863281250e+03,
                      le:5.4345205426216125e-03 }
            -
               depth: 5
               value: 0.
               norm_class_idx: 0
               splits:
                  - { var:22, quality:1.7370197296142578e+01,
                      le:9.8246073722839355e-01 }
            -
               depth: 6
               value: 2.
               norm_class_idx: 2
            -
               depth: 6
               value: 0.
               norm_class_idx: 0
            -
               depth: 5
               value: 2.
               norm_class_idx: 2
               splits:
                  - { var:98, quality:2.5024609375000000e+03,
                      le:9.1749755665659904e-04 }
            -
               depth: 6
               value: 0.
               norm_class_idx: 0
            -
               depth: 6
               value: 2.
               norm_class_idx: 2
               splits:
                  - { var:122, quality:2.5204560546875000e+03,
                      le:3.0748242139816284e-01 }
            -
               depth: 7
               value: 2.
               norm_class_idx: 2
               splits:
                  - { var:119, quality:3.0938369750976562e+01,
                      le:1.4471132755279541e+00 }
            -
               depth: 8
               value: 1.
               norm_class_idx: 1
               splits:
                  - { var:119, quality:1.9249916076660156e+01,
                      le:9.7103619575500488e-01 }
            -
               depth: 9
               value: 2.
               norm_class_idx: 2
            -
               depth: 9
               value: 1.
               norm_class_idx: 1
            -
               depth: 8
               value: 2.
               norm_class_idx: 2
               splits:
                  - { var:135, quality:1.9333583831787109e+01,
                      le:1.3822393417358398e+00 }
            -
               depth: 9
               value: 2.
               norm_class_idx: 2
               splits:
                  - { var:137, quality:1.9464040756225586e+01,
                      le:2.0296833038330078e+01 }
            -
               depth: 10
               value: 1.
               norm_class_idx: 1
            -
               depth: 10
               value: 2.
               norm_class_idx: 2
            -
               depth: 9
               value: 1.
               norm_class_idx: 1
            -
               depth: 7
               value: 2.
               norm_class_idx: 2
               splits:
                  - { var:108, quality:2.4990175781250000e+03,
                      le:3.6822378635406494e-01 }
            -
               depth: 8
               value: 2.
               norm_class_idx: 2
               splits:
                  - { var:3, quality:2.4467175292968750e+03,
                      le:3.7733507156372070e-01 }
            -
               depth: 9
               value: 2.
               norm_class_idx: 2
               splits:
                  - { var:22, quality:1.8343527221679688e+02,
                      le:9.4441151618957520e-01 }
            -
               depth: 10
               value: 2.
               norm_class_idx: 2
            -
               depth: 10
               value: 2.
               norm_class_idx: 2
            -
               depth: 9
               value: 2.
               norm_class_idx: 2
               splits:
                  - { var:76, quality:2.2648088378906250e+03,
                      le:2.1649184226989746e+00 }
            -
               depth: 10
               value: 2.
               norm_class_idx: 2
            -
               depth: 10
               value: 2.
               norm_class_idx: 2
            -
               depth: 8
               value: 2.
               norm_class_idx: 2
               splits:
                  - { var:54, quality:5.7059177398681641e+01,
                      le:6.2533724121749401e-04 }
            -
               depth: 9
               value: 1.
               norm_class_idx: 1
               splits:
                  - { var:15, quality:1.0939483642578125e+01,
                      le:4.3750333786010742e-01 }
            -
               depth: 10
               value: 2.
               norm_class_idx: 2
            -
               depth: 10
               value: 1.
               norm_class_idx: 1
            -
               depth: 9
               value: 2.
               norm_class_idx: 2
               splits:
                  - { var:63, quality:5.1927524566650391e+01,
                      le:2.0968096256256104e+00 }
            -
               depth: 10
               value: 2.
               norm_class_idx: 2
            -
               depth: 10
               value: 2.
               norm_class_idx: 2
            -
               depth: 2
               value: 0.
               norm_class_idx: 0
               splits:
                  - { var:13, quality:2.4689582519531250e+03,
                      le:2.6996856927871704e-01 }
            -
               depth: 3
               value: 2.
               norm_class_idx: 2
               splits:
                  - { var:3, quality:2.8453140258789062e+01,
                      le:9.5465886592864990e-01 }
            -
               depth: 4
               value: 2.
               norm_class_idx: 2
            -
               depth: 4
               value: 0.
               norm_class_idx: 0
            -
               depth: 3
               value: 0.
               norm_class_idx: 0
      -
         nodes:
            -
               depth: 0
               value: 0.
               norm_class_idx: 0
               splits:
                  - { var:60, quality:5.1753833007812500e+03,
                      le:3.5809291839599609e+01 }
            -
               depth: 1
               value: 1.
               norm_class_idx: 1
               splits:
                  - { var:92, quality:2.6260742187500000e+03,
                      le:4.0025793015956879e-02 }
            -
               depth: 2
               value: 1.
               norm_class_idx: 1
               splits:
                  - { var:142, quality:2.3675300292968750e+03,
                      le:1.8647639453411102e-01 }
            -
               depth: 3
               value: 1.
               norm_class_idx: 1
               splits:
                  - { var:100, quality:2.3535051269531250e+03,
                      le:2.9118899255990982e-03 }
            -
               depth: 4
               value: 1.
               norm_class_idx: 1
               splits:
                  - { var:122, quality:2.3497382812500000e+03,
                      le:2.7271047234535217e-01 }
            -
               depth: 5
               value: 1.
               norm_class_idx: 1
               splits:
                  - { var:1, quality:2.3143601074218750e+03,
                      le:1.6127647459506989e-01 }
            -
               depth: 6
               value: 1.
               norm_class_idx: 1
               splits:
                  - { var:143, quality:2.3179096679687500e+03,
                      le:3.5000000000000000e+00 }
            -
               depth: 7
               value: 1.
               norm_class_idx: 1
            -
               depth: 7
               value: 1.
               norm_class_idx: 1
               splits:
                  - { var:27, quality:4.3052734375000000e+01,
                      le:5.0000000000000000e-01 }
            -
               depth: 8
               value: 0.
               norm_class_idx: 0
            -
               depth: 8
               value: 1.
               norm_class_idx: 1
               splits:
                  - { var:1, quality:3.9598167419433594e+01,
                      le:3.2488256692886353e-02 }
            -
               depth: 9
               value: 0.
               norm_class_idx: 0
            -
               depth: 9
               value: 1.
               norm_class_idx: 1
            -
               depth: 6
               value: 2.
               norm_class_idx: 2
            -
               depth: 5
               value: 1.
               norm_class_idx: 1
               splits:
                  - { var:131, quality:5.1395957946777344e+01,
                      le:1.3398414850234985e+00 }
            -
               depth: 6
               value: 1.
               norm_class_idx: 1
               splits:
                  - { var:76, quality:4.4632835388183594e+01,
                      le:8.7723714113235474e-01 }
            -
               depth: 7
               value: 2.
               norm_class_idx: 2
            -
               depth: 7
               value: 1.
               norm_class_idx: 1
               splits:
                  - { var:139, quality:4.5896839141845703e+01,
                      le:9.5570831298828125e+00 }
            -
               depth: 8
               value: 2.
               norm_class_idx: 2
            -
               depth: 8
               value: 1.
               norm_class_idx: 1
            -
               depth: 6
               value: 2.
               norm_class_idx: 2
               splits:
                  - { var:44, quality:1.1645749092102051e+01,
                      le:9.1943472623825073e-02 }
            -
               depth: 7
               value: 2.
               norm_class_idx: 2
               splits:
                  - { var:9, quality:1.1536005973815918e+01,
                      le:3.7282962352037430e-02 }
            -
               depth: 8
               value: 1.
               norm_class_idx: 1
            -
               depth: 8
               value: 2.
               norm_class_idx: 2
            -
               depth: 7
               value: 1.
               norm_class_idx: 1
            -
               depth: 4
               value: 2.
               norm_class_idx: 2
            -
               depth: 3
               value: 2.
               norm_class_idx: 2
               splits:
                  - { var:129, quality:4.0428176879882812e+01,
                      le:6.1933106184005737e-01 }
            -
               depth: 4
               value: 1.
               norm_class_idx: 1
               splits:
                  - { var:49, quality:3.7197273254394531e+01,
                      le:1.3596634864807129e+00 }
            -
               depth: 5
               value: 2.
               norm_class_idx: 2
               splits:
                  - { var:71, quality:1.4221104621887207e+01,
                      le:7.6884642243385315e-02 }
            -
               depth: 6
               value: 2.
               norm_class_idx: 2
            -
               depth: 6
               value: 1.
               norm_class_idx: 1
            -
               depth: 5
               value: 1.
               norm_class_idx: 1
               splits:
                  - { var:88, quality:2.7349409103393555e+01,
                      le:5.4923671483993530e-01 }
            -
               depth: 6
               value: 1.
               norm_class_idx: 1
               splits:
                  - { var:17, quality:2.4415306091308594e+01,
                      le:1.3503158465027809e-02 }
            -
               depth: 7
               value: 2.
               norm_class_idx: 2
            -
               depth: 7
               value: 1.
               norm_class_idx: 1
            -
               depth: 6
               value: 1.
               norm_class_idx: 1
               splits:
                  - { var:140, quality:1.0939483642578125e+01,
                      le:1.5615119934082031e+01 }
            -
               depth: 7
               value: 1.
               norm_class_idx: 1
            -
               depth: 7
               value: 2.
               norm_class_idx: 2
            -
               depth: 4
               value: 2.
               norm_class_idx: 2
            -
               depth: 2
               value: 1.
               norm_class_idx: 1
               splits:
                  - { var:38, quality:4.4447760009765625e+02,
                      le:-1.5481553273275495e-03 }
            -
               depth: 3
               value: 1.
               norm_class_idx: 1
               splits:
                  - { var:113, quality:2.7107678222656250e+02,
                      le:2.4048089981079102e-03 }
            -
               depth: 4
               value: 1.
               norm_class_idx: 1
               splits:
                  - { var:134, quality:2.7811749267578125e+02,
                      le:4.1889314651489258e+00 }
            -
               depth: 5
               value: 1.
               norm_class_idx: 1
               splits:
                  - { var:22, quality:2.7110293579101562e+02,
                      le:8.8390511274337769e-01 }
            -
               depth: 6
               value: 2.
               norm_class_idx: 2
            -
               depth: 6
               value: 1.
               norm_class_idx: 1
               splits:
                  - { var:36, quality:2.7994219970703125e+02,
                      le:1.3363787531852722e-01 }
            -
               depth: 7
               value: 1.
               norm_class_idx: 1
               splits:
                  - { var:13, quality:2.7555685424804688e+02,
                      le:4.5675843954086304e-02 }
            -
               depth: 8
               value: 1.
               norm_class_idx: 1
               splits:
                  - { var:109, quality:1.3028059005737305e+01,
                      le:2.7798911929130554e-01 }
            -
               depth: 9
               value: 2.
               norm_class_idx: 2
            -
               depth: 9
               value: 1.
               norm_class_idx: 1
            -
               depth: 8
               value: 1.
               norm_class_idx: 1
               splits:
                  - { var:78, quality:2.6691329956054688e+02,
                      le:3.7253570556640625e+01 }
            -
               depth: 9
               value: 1.
               norm_class_idx: 1
            -
               depth: 9
               value: 1.
               norm_class_idx: 1
               splits:
                  - { var:121, quality:2.6802143096923828e+01,
                      le:1.1559292078018188e+00 }
            -
               depth: 10
               value: 2.
               norm_class_idx: 2
            -
               depth: 10
               value: 1.
               norm_class_idx: 1
            -
               depth: 7
               value: 0.
               norm_class_idx: 0
               splits:
                  - { var:139, quality:6.7956123352050781e+00,
                      le:4.0211267471313477e+00 }
            -
               depth: 8
               value: 0.
               norm_class_idx: 0
            -
               depth: 8
               value: 1.
               norm_class_idx: 1
            -
               depth: 5
               value: 2.
               norm_class_idx: 2
               splits:
                  - { var:22, quality:1.2331618309020996e+01,
                      le:9.0717095136642456e-01 }
            -
               depth: 6
               value: 1.
               norm_class_idx: 1
            -
               depth: 6
               value: 2.
               norm_class_idx: 2
            -
               depth: 4
               value: 2.
               norm_class_idx: 2
               splits:
                  - { var:46, quality:1.8444469451904297e+01,
                      le:3.3020734786987305e-02 }
            -
               depth: 5
               value: 0.
               norm_class_idx: 0
            -
               depth: 5
               value: 2.
               norm_class_idx: 2
               splits:
                  - { var:35, quality:1.6052825927734375e+01,
                      le:2.8893383219838142e-02 }
            -
               depth: 6
               value: 2.
               norm_class_idx: 2
               splits:
                  - { var:40, quality:1.1657663345336914e+01,
                      le:-1.8074899911880493e-01 }
            -
               depth: 7
               value: 1.
               norm_class_idx: 1
            -
               depth: 7
               value: 2.
               norm_class_idx: 2
               splits:
                  - { var:111, quality:1.2181245803833008e+01,
                      le:1.8428286910057068e-01 }
            -
               depth: 8
               value: 1.
               norm_class_idx: 1
            -
               depth: 8
               value: 2.
               norm_class_idx: 2
               splits:
                  - { var:40, quality:1.2878555297851562e+01,
                      le:-1.0798543691635132e-01 }
            -
               depth: 9
               value: 2.
               norm_class_idx: 2
            -
               depth: 9
               value: 1.
               norm_class_idx: 1
            -
               depth: 6
               value: 1.
               norm_class_idx: 1
            -
               depth: 3
               value: 0.
               norm_class_idx: 0
               splits:
                  - { var:3, quality:2.1624603271484375e+02,
                      le:1.2221170961856842e-01 }
            -
               depth: 4
               value: 0.
               norm_class_idx: 0
               splits:
                  - { var:114, quality:1.6448661804199219e+02,
                      le:1.6666667163372040e-01 }
            -
               depth: 5
               value: 0.
               norm_class_idx: 0
               splits:
                  - { var:30, quality:1.6965809631347656e+02,
                      le:4.3446800112724304e-01 }
            -
               depth: 6
               value: 1.
               norm_class_idx: 1
            -
               depth: 6
               value: 0.
               norm_class_idx: 0
               splits:
                  - { var:77, quality:1.6723425292968750e+02,
                      le:2.3737297952175140e-01 }
            -
               depth: 7
               value: 1.
               norm_class_idx: 1
            -
               depth: 7
               value: 0.
               norm_class_idx: 0
               splits:
                  - { var:142, quality:1.6653053283691406e+02,
                      le:3.5662651062011719e-03 }
            -
               depth: 8
               value: 0.
               norm_class_idx: 0
            -
               depth: 8
               value: 0.
               norm_class_idx: 0
               splits:
                  - { var:54, quality:4.1591224670410156e+01,
                      le:1.9470416009426117e-04 }
            -
               depth: 9
               value: 1.
               norm_class_idx: 1
            -
               depth: 9
               value: 0.
               norm_class_idx: 0
            -
               depth: 5
               value: 1.
               norm_class_idx: 1
            -
               depth: 4
               value: 0.
               norm_class_idx: 0
               splits:
                  - { var:1, quality:9.1628067016601562e+01,
                      le:8.4439925849437714e-02 }
            -
               depth: 5
               value: 1.
               norm_class_idx: 1
               splits:
                  - { var:49, quality:5.4401004791259766e+01,
                      le:1.8743748962879181e-01 }
            -
               depth: 6
               value: 1.
               norm_class_idx: 1
            -
               depth: 6
               value: 0.
               norm_class_idx: 0
               splits:
                  - { var:80, quality:1.0530772209167480e+01,
                      le:5.4687228202819824e+00 }
            -
               depth: 7
               value: 1.
               norm_class_idx: 1
            -
               depth: 7
               value: 0.
               norm_class_idx: 0
               splits:
                  - { var:16, quality:8.7956123352050781e+00,
                      le:1.3229024410247803e-01 }
            -
               depth: 8
               value: 1.
               norm_class_idx: 1
            -
               depth: 8
               value: 0.
               norm_class_idx: 0
            -
               depth: 5
               value: 0.
               norm_class_idx: 0
               splits:
                  - { var:140, quality:5.4947612762451172e+01,
                      le:2.8444490432739258e+00 }
            -
               depth: 6
               value: 2.
               norm_class_idx: 2
            -
               depth: 6
               value: 0.
               norm_class_idx: 0
               splits:
                  - { var:23, quality:5.3888374328613281e+01,
                      le:1.4285326004028320e+00 }
            -
               depth: 7
               value: 1.
               norm_class_idx: 1
            -
               depth: 7
               value: 0.
               norm_class_idx: 0
               splits:
                  - { var:12, quality:5.4591224670410156e+01,
                      le:2.2599066793918610e-01 }
            -
               depth: 8
               value: 1.
               norm_class_idx: 1
            -
               depth: 8
               value: 0.
               norm_class_idx: 0
            -
               depth: 1
               value: 2.
               norm_class_idx: 2
               splits:
                  - { var:131, quality:4.8473681640625000e+03,
                      le:4.9420967102050781e+00 }
            -
               depth: 2
               value: 2.
               norm_class_idx: 2
               splits:
                  - { var:89, quality:2.7517524414062500e+03,
                      le:9.2489318847656250e+00 }
            -
               depth: 3
               value: 2.
               norm_class_idx: 2
               splits:
                  - { var:126, quality:2.6178093261718750e+03,
                      le:-1.5541732311248779e-01 }
            -
               depth: 4
               value: 2.
               norm_class_idx: 2
               splits:
                  - { var:69, quality:2.6129790039062500e+03,
                      le:4.0852252393960953e-02 }
            -
               depth: 5
               value: 0.
               norm_class_idx: 0
            -
               depth: 5
               value: 2.
               norm_class_idx: 2
               splits:
                  - { var:122, quality:2.6139121093750000e+03,
                      le:3.4692144393920898e-01 }
            -
               depth: 6
               value: 2.
               norm_class_idx: 2
               splits:
                  - { var:94, quality:1.7118612670898438e+02,
                      le:2.2695254534482956e-02 }
            -
               depth: 7
               value: 2.
               norm_class_idx: 2
               splits:
                  - { var:12, quality:1.6225399780273438e+02,
                      le:1.2423729896545410e-01 }
            -
               depth: 8
               value: 1.
               norm_class_idx: 1
               splits:
                  - { var:142, quality:5.8675479888916016e+00,
                      le:7.6744556427001953e-03 }
            -
               depth: 9
               value: 2.
               norm_class_idx: 2
            -
               depth: 9
               value: 1.
               norm_class_idx: 1
            -
               depth: 8
               value: 2.
               norm_class_idx: 2
               splits:
                  - { var:141, quality:1.6096536254882812e+02,
                      le:1.8253990173339844e+01 }
            -
               depth: 9
               value: 2.
               norm_class_idx: 2
               splits:
                  - { var:57, quality:4.9732433319091797e+01,
                      le:5.5257374048233032e-01 }
            -
               depth: 10
               value: 2.
               norm_class_idx: 2
            -
               depth: 10
               value: 1.
               norm_class_idx: 1
            -
               depth: 9
               value: 2.
               norm_class_idx: 2
               splits:
                  - { var:28, quality:1.2028249359130859e+02,
                      le:4.4000005722045898e-01 }
            -
               depth: 10
               value: 2.
               norm_class_idx: 2
            -
               depth: 10
               value: 1.
               norm_class_idx: 1
            -
               depth: 7
               value: 1.
               norm_class_idx: 1
               splits:
                  - { var:3, quality:1.4072346687316895e+01,
                      le:2.7479338645935059e-01 }
            -
               depth: 8
               value: 2.
               norm_class_idx: 2
            -
               depth: 8
               value: 1.
               norm_class_idx: 1
            -
               depth: 6
               value: 2.
               norm_class_idx: 2
               splits:
                  - { var:28, quality:2.4612424316406250e+03,
                      le:1.0000002384185791e-01 }
            -
               depth: 7
               value: 2.
               norm_class_idx: 2
               splits:
                  - { var:37, quality:6.4712112426757812e+01,
                      le:2.0536126103252172e-03 }
            -
               depth: 8
               value: 2.
               norm_class_idx: 2
            -
               depth: 8
               value: 1.
               norm_class_idx: 1
               splits:
                  - { var:125, quality:5.8675479888916016e+00,
                      le:1.2203966826200485e-01 }
            -
               depth: 9
               value: 1.
               norm_class_idx: 1
            -
               depth: 9
               value: 2.
               norm_class_idx: 2
            -
               depth: 7
               value: 2.
               norm_class_idx: 2
               splits:
                  - { var:23, quality:2.3997045898437500e+03,
                      le:1.2805528640747070e+00 }
            -
               depth: 8
               value: 2.
               norm_class_idx: 2
               splits:
                  - { var:23, quality:5.7182678222656250e+01,
                      le:1.2793247699737549e+00 }
            -
               depth: 9
               value: 2.
               norm_class_idx: 2
            -
               depth: 9
               value: 1.
               norm_class_idx: 1
            -
               depth: 8
               value: 2.
               norm_class_idx: 2
            -
               depth: 4
               value: 1.
               norm_class_idx: 1
               splits:
                  - { var:16, quality:2.4828889846801758e+01,
                      le:3.9898115396499634e-01 }
            -
               depth: 5
               value: 1.
               norm_class_idx: 1
               splits:
                  - { var:61, quality:2.0503471374511719e+01,
                      le:4.8081928491592407e-01 }
            -
               depth: 6
               value: 0.
               norm_class_idx: 0
            -
               depth: 6
               value: 1.
               norm_class_idx: 1
            -
               depth: 5
