%YAML:1.0
---
opencv_ml_boost:
   format: 3
   is_classifier: 1
   var_all: 32
   var_count: 31
   ord_var_count: 30
   cat_var_count: 2
   training_params:
      boosting_type: RealAdaboost
      use_surrogates: 0
      max_categories: 10
      regression_accuracy: 1.0000000474974513e-03
      max_depth: 5
      min_sample_count: 5
      cross_validation_folds: 0
      priors: !!opencv-matrix
         rows: 1
         cols: 2
         dt: f
         data: [ 6.02484936e-33, 3.06870351e-41 ]
      weight_trimming_rate: 1.
   global_var_idx: 1
   var_idx: [ 0, 1, 2, 3, 4, 5, 6, 7, 8, 9, 10, 11, 12, 13, 14, 15, 16,
       17, 18, 19, 20, 21, 22, 23, 24, 25, 26, 27, 28, 29, 30 ]
   var_type: [ 0, 0, 0, 0, 0, 0, 0, 0, 0, 0, 0, 0, 0, 0, 0, 0, 0, 0, 0,
       0, 0, 0, 0, 0, 0, 0, 0, 0, 0, 0, 1, 1 ]
   cat_ofs: [ 0, 0, 0, 0, 0, 0, 0, 0, 0, 0, 0, 0, 0, 0, 0, 0, 0, 0, 0, 0,
       0, 0, 0, 0, 0, 0, 0, 0, 0, 0, 0, 0, 0, 0, 0, 0, 0, 0, 0, 0, 0, 0,
       0, 0, 0, 0, 0, 0, 0, 0, 0, 0, 0, 0, 0, 0, 0, 0, 0, 0, 0, 3 ]
   cat_map: [ 0, 1, 2 ]
   class_labels: [ 0, 1 ]
   missing_subst: [ 0., 0., 0., 0., 0., 0., 0., 0., 0., 0., 0., 0., 0.,
       0., 0., 0., 0., 0., 0., 0., 0., 0., 0., 0., 0., 0., 0., 0., 0.,
       0., -1., 0. ]
   ntrees: 20
   trees:
      -
         nodes:
            -
               depth: 0
               value: 0.
               splits:
                  - { var:30, quality:2.1729847416281700e-02, in:[ 2 ] }
            -
               depth: 1
               value: -2.2325444474595768e-01
               splits:
                  - { var:7, quality:1.4580278098583221e-01,
                      le:1.6434988006949425e-02 }
            -
               depth: 2
               value: -1.1274700530959911e+00
               splits:
                  - { var:3, quality:1.2317273020744324e-01,
                      le:3.4107154607772827e-01 }
            -
               depth: 3
               value: -1.9973433548382358e+00
               splits:
                  - { var:3, quality:1.1826743930578232e-01,
                      le:2.8447285294532776e-01 }
            -
               depth: 4
               value: -2.8412393606168846e+00
               splits:
                  - { var:15, quality:1.1072400957345963e-01,
                      le:3.8588339090347290e-01 }
            -
               depth: 5
               value: -1.5081757803783646e+00
            -
               depth: 5
               value: -3.0464769716391351e+00
            -
               depth: 4
               value: -9.3089877296580814e-01
               splits:
                  - { var:21, quality:8.4589738398790359e-03,
                      le:1.4148402214050293e+00 }
            -
               depth: 5
               value: -4.5263566831227242e-01
            -
               depth: 5
               value: -1.7095459357693132e+00
            -
               depth: 3
               value: -3.8152828413572998e-01
               splits:
                  - { var:26, quality:1.4951224438846111e-02,
                      le:5.0000000000000000e-01 }
            -
               depth: 4
               value: -1.6978187367140355e-02
               splits:
                  - { var:6, quality:8.5443491116166115e-03,
                      le:2.1456721425056458e-01 }
            -
               depth: 5
               value: -9.8260167599496651e-01
            -
               depth: 5
               value: 4.2470489679515455e-01
            -
               depth: 4
               value: -2.1217413501129241e+00
               splits:
                  - { var:14, quality:1.5167215839028358e-02,
                      le:2.1687966585159302e-01 }
            -
               depth: 5
               value: 8.9587973461402781e-01
            -
               depth: 5
               value: -2.2997197556395679e+00
            -
               depth: 2
               value: 5.4084928311304126e-01
               splits:
                  - { var:3, quality:8.2185126841068268e-02,
                      le:9.0834975242614746e-01 }
            -
               depth: 3
               value: 9.1558403682206357e-01
               splits:
                  - { var:26, quality:8.4281288087368011e-02,
                      le:5.0000000000000000e-01 }
            -
               depth: 4
               value: 1.2024568015888766e+00
               splits:
                  - { var:3, quality:8.5244141519069672e-02,
                      le:3.5860568284988403e-01 }
            -
               depth: 5
               value: -1.6084761252135263e-01
            -
               depth: 5
               value: 1.4199252682815258e+00
            -
               depth: 4
               value: -1.0956002313664115e+00
               splits:
                  - { var:28, quality:6.4357272349298000e-03,
                      le:3.5000002384185791e-01 }
            -
               depth: 5
               value: 1.1157177565710470e-01
            -
               depth: 5
               value: -1.8904687992659419e+00
            -
               depth: 3
               value: -2.4705235036448174e+00
               splits:
                  - { var:24, quality:1.8523953855037689e-02,
                      le:3.6591291427612305e-03 }
            -
               depth: 4
               value: 3.4657359027997259e-01
            -
               depth: 4
               value: -2.6726601100717327e+00
               splits:
                  - { var:20, quality:1.8605349585413933e-02,
                      le:2.0275197029113770e+00 }
            -
               depth: 5
               value: 5.7564577324623896e+00
            -
               depth: 5
               value: -2.8165011462976270e+00
            -
               depth: 1
               value: 9.9268741921265113e-02
               splits:
                  - { var:7, quality:6.2827371060848236e-02,
                      le:1.7697717994451523e-02 }
            -
               depth: 2
               value: 2.9338140300920357e-01
               splits:
                  - { var:3, quality:4.1989956051111221e-02,
                      le:3.4107154607772827e-01 }
            -
               depth: 3
               value: 3.3705372974874404e-01
               splits:
                  - { var:30, quality:5.8786429464817047e-02, not_in:[ 1 ] }
            -
               depth: 4
               value: 8.0312508153043333e-02
               splits:
                  - { var:26, quality:5.2573379129171371e-02,
                      le:5.0000000000000000e-01 }
            -
               depth: 5
               value: -2.9189586671844014e-01
            -
               depth: 5
               value: 1.4716639956921023e+00
            -
               depth: 4
               value: 5.9251866366187755e-01
               splits:
                  - { var:26, quality:1.0818943381309509e-01,
                      le:5.0000000000000000e-01 }
            -
               depth: 5
               value: 9.5086465788680852e-01
            -
               depth: 5
               value: -7.8555284667100267e-01
            -
               depth: 3
               value: 1.4659687638265265e-01
               splits:
                  - { var:30, quality:3.7833962589502335e-02, in:[ 1 ] }
            -
               depth: 4
               value: -6.3313834383107870e-01
               splits:
                  - { var:23, quality:3.2058686017990112e-02,
                      le:1.4484127759933472e+00 }
            -
               depth: 5
               value: 8.7892895877617216e-01
            -
               depth: 5
               value: -1.4943818021189763e+00
            -
               depth: 4
               value: 7.2143350204070666e-01
               splits:
                  - { var:14, quality:3.7708066403865814e-02,
                      le:2.9221642017364502e-01 }
            -
               depth: 5
               value: -2.4629659581966870e-01
            -
               depth: 5
               value: 1.2929654270730644e+00
            -
               depth: 2
               value: -3.5147078907612339e-01
               splits:
                  - { var:1, quality:6.0554429888725281e-02,
                      le:2.6810348033905029e-01 }
            -
               depth: 3
               value: -7.2959934015182648e-01
               splits:
                  - { var:26, quality:6.8582668900489807e-02,
                      le:5.0000000000000000e-01 }
            -
               depth: 4
               value: -9.2939825344601035e-01
               splits:
                  - { var:7, quality:7.6093181967735291e-02,
                      le:5.9377864003181458e-02 }
            -
               depth: 5
               value: -4.9382760904106116e-01
            -
               depth: 5
               value: -2.2583402220140187e+00
            -
               depth: 4
               value: 2.6966323964353511e-01
               splits:
                  - { var:30, quality:1.3164650648832321e-02, in:[ 1 ] }
            -
               depth: 5
               value: -1.9186497296161056e+00
            -
               depth: 5
               value: 1.5193491547187183e+00
            -
               depth: 3
               value: 3.0120503350975769e-01
               splits:
                  - { var:30, quality:6.0384906828403473e-02, in:[ 1 ] }
            -
               depth: 4
               value: -5.7564577324601141e+00
            -
               depth: 4
               value: 1.8701857961835926e+00
               splits:
                  - { var:3, quality:3.9892110973596573e-02,
                      le:8.0100262165069580e-01 }
            -
               depth: 5
               value: -3.8273392106978582e-01
            -
               depth: 5
               value: 2.2028173242297688e+00
      -
         nodes:
            -
               depth: 0
               value: -1.3045449024965636e-04
               splits:
                  - { var:7, quality:1.0119351558387280e-02,
                      le:5.9572055935859680e-02 }
            -
               depth: 1
               value: -3.0837327937576337e-02
               splits:
                  - { var:3, quality:8.7738325819373131e-03,
                      le:4.4678509235382080e-01 }
            -
               depth: 2
               value: 1.8943421960600108e-02
               splits:
                  - { var:30, quality:2.6525789871811867e-03, not_in:[ 1 ] }
            -
               depth: 3
               value: -3.3897194968995459e-02
               splits:
                  - { var:3, quality:5.7747866958379745e-02,
                      le:1.6304117441177368e-01 }
            -
               depth: 4
               value: -5.7439367496449767e-01
               splits:
                  - { var:3, quality:6.7491210997104645e-02,
                      le:6.4357578754425049e-02 }
            -
               depth: 5
               value: 1.1683157003192277e+00
            -
               depth: 5
               value: -7.8158708310937475e-01
            -
               depth: 4
               value: 2.7685599422408647e-01
               splits:
                  - { var:15, quality:5.6970521807670593e-02,
                      le:5.0887620449066162e-01 }
            -
               depth: 5
               value: -3.5346235732659292e-01
            -
               depth: 5
               value: 6.0600544492829866e-01
            -
               depth: 3
               value: 8.2964457435725614e-02
               splits:
                  - { var:25, quality:6.6602408885955811e-02,
                      le:5.0000000000000000e-01 }
            -
               depth: 4
               value: 3.0921510126154306e-01
               splits:
                  - { var:28, quality:6.0208629816770554e-02,
                      le:5.4999828338623047e-02 }
            -
               depth: 5
               value: 1.4914005717775505e+00
            -
               depth: 5
               value: 6.6017876557838071e-02
            -
               depth: 4
               value: -1.2184283755966470e+00
               splits:
                  - { var:1, quality:4.8275444656610489e-02,
                      le:5.3779169917106628e-02 }
            -
               depth: 5
               value: 1.6085158085889517e-01
            -
               depth: 5
               value: -1.6037498107284007e+00
            -
               depth: 2
               value: -2.0736283088525978e-01
               splits:
                  - { var:30, quality:2.3999989032745361e-02, in:[ 1 ] }
            -
               depth: 3
               value: -1.1330795137715710e+00
               splits:
                  - { var:6, quality:2.4976002052426338e-02,
                      le:1.2197614461183548e-01 }
            -
               depth: 4
               value: -2.7473389648143515e-01
               splits:
                  - { var:20, quality:3.7006367929279804e-03,
                      le:2.1858181953430176e+00 }
            -
               depth: 5
               value: 8.5207778075165364e-01
            -
               depth: 5
               value: -1.3030260619135008e+00
            -
               depth: 4
               value: -1.5892622828016980e+00
               splits:
                  - { var:16, quality:2.5122527033090591e-02,
                      le:5.8997929096221924e-01 }
            -
               depth: 5
               value: -6.2174555985220736e-01
            -
               depth: 5
               value: -2.1371806591666540e+00
            -
               depth: 3
               value: -7.9603910894824936e-02
               splits:
                  - { var:26, quality:1.0457365773618221e-02,
                      le:5.0000000000000000e-01 }
            -
               depth: 4
               value: -1.7269131573958948e-01
               splits:
                  - { var:30, quality:5.8710537850856781e-03, in:[ 2 ] }
            -
               depth: 5
               value: -2.8403501515805113e-01
            -
               depth: 5
               value: -6.9504165179195540e-02
            -
               depth: 4
               value: 5.8641067024420090e-01
               splits:
                  - { var:30, quality:1.2301482260227203e-02, in:[ 2 ] }
            -
               depth: 5
               value: -4.2247288942863076e-01
            -
               depth: 5
               value: 1.1763796270205626e+00
            -
               depth: 1
               value: 3.4229046315745426e-01
               splits:
                  - { var:30, quality:2.3811560124158859e-02, not_in:[ 2 ] }
            -
               depth: 2
               value: -6.2451699801196844e-02
               splits:
                  - { var:0, quality:9.7146797925233841e-03,
                      le:1.6500000000000000e+01 }
            -
               depth: 3
               value: 6.2428130530595571e-01
               splits:
                  - { var:4, quality:1.1198790743947029e-02,
                      le:2.9222073033452034e-02 }
            -
               depth: 4
               value: 1.6536615601648676e+00
               splits:
                  - { var:21, quality:1.0887701995670795e-02,
                      le:7.9587078094482422e-01 }
            -
               depth: 5
               value: -5.7564577324601141e+00
            -
               depth: 5
               value: 1.9366851943997032e+00
            -
               depth: 4
               value: -5.2507422995899788e-01
               splits:
                  - { var:24, quality:3.9387503638863564e-03,
                      le:1.3707566261291504e-01 }
            -
               depth: 5
               value: -2.0144069169818648e+00
            -
               depth: 5
               value: 1.7527527788336998e+00
            -
               depth: 3
               value: -4.3230902466521759e-01
               splits:
                  - { var:3, quality:1.7339931800961494e-02,
                      le:9.0707230567932129e-01 }
            -
               depth: 4
               value: -1.0187298013198152e+00
               splits:
                  - { var:21, quality:1.7511224374175072e-02,
                      le:1.2717146873474121e+00 }
            -
               depth: 5
               value: -1.8949750611285947e+00
            -
               depth: 5
               value: 3.0938592380689817e-01
            -
               depth: 4
               value: 1.0957119322937023e+00
               splits:
                  - { var:16, quality:4.8827859573066235e-03,
                      le:1.3075873851776123e+00 }
            -
               depth: 5
               value: -5.7564577324601141e+00
            -
               depth: 5
               value: 1.2658535845876175e+00
            -
               depth: 2
               value: 1.0098576165042599e+00
               splits:
                  - { var:2, quality:2.8483401983976364e-02,
                      le:2.5607991218566895e-01 }
            -
               depth: 3
               value: 1.2185395173682774e+00
               splits:
                  - { var:17, quality:2.8772793710231781e-02,
                      le:8.3454579114913940e-02 }
            -
               depth: 4
               value: 1.3670823472827616e+00
               splits:
                  - { var:28, quality:2.9693154618144035e-02,
                      le:8.1499999761581421e-01 }
            -
               depth: 5
               value: 1.4352994189200201e+00
            -
               depth: 5
               value: -1.6698112603300506e+00
            -
               depth: 4
               value: -2.3412747106993864e-01
               splits:
                  - { var:8, quality:8.5759628564119339e-04,
                      le:-1.8653047084808350e-01 }
            -
               depth: 5
               value: 1.5451795900302092e+00
            -
               depth: 5
               value: -9.4831500971811311e-01
            -
               depth: 3
               value: -1.3305931616564415e+00
               splits:
                  - { var:3, quality:1.6691188793629408e-03,
                      le:8.2269936800003052e-01 }
            -
               depth: 4
               value: 1.3865643579823128e+00
               splits:
                  - { var:4, quality:1.0928720439551398e-04,
                      le:4.9518603831529617e-02 }
            -
               depth: 5
               value: 5.7564577324623896e+00
            -
               depth: 5
               value: -5.7564577324601141e+00
            -
               depth: 4
               value: -2.5216512638126933e+00
               splits:
                  - { var:17, quality:1.6254378715530038e-03,
                      le:6.3357695937156677e-02 }
            -
               depth: 5
               value: -5.7564577324601141e+00
            -
               depth: 5
               value: 5.7564577324623896e+00
      -
         nodes:
            -
               depth: 0
               value: -7.7348246228006475e-06
               splits:
                  - { var:3, quality:1.6796264797449112e-02,
                      le:6.4801648259162903e-02 }
            -
               depth: 1
               value: -8.5033734566456165e-01
               splits:
                  - { var:30, quality:2.6565873995423317e-02, not_in:[ 0 ] }
            -
               depth: 2
               value: -2.4597112190268633e+00
               splits:
                  - { var:12, quality:2.5794031098484993e-02,
                      le:2.0247189998626709e+00 }
            -
               depth: 3
               value: -2.6265275519710474e+00
               splits:
                  - { var:4, quality:2.5816850364208221e-02,
                      le:2.6919186115264893e-02 }
            -
               depth: 4
               value: -3.1065969709121810e+00
               splits:
                  - { var:3, quality:2.4993486702442169e-02,
                      le:6.4158618450164795e-02 }
            -
               depth: 5
               value: -3.1568275847989447e+00
            -
               depth: 5
               value: 1.0394730260385630e+00
            -
               depth: 4
               value: -1.2583982720636129e+00
               splits:
                  - { var:0, quality:1.1048576561734080e-03,
                      le:3.5000000000000000e+00 }
            -
               depth: 5
               value: 8.1741819164241325e-01
            -
               depth: 5
               value: -5.7564577324601141e+00
            -
               depth: 3
               value: 8.0134529404169985e-02
               splits:
                  - { var:1, quality:7.1867842052597553e-05,
                      le:2.7933444827795029e-02 }
            -
               depth: 4
               value: 9.3273043537274591e-01
            -
               depth: 4
               value: -5.7564577324601141e+00
            -
               depth: 2
               value: 3.5804568186470703e-01
               splits:
                  - { var:18, quality:6.0672145336866379e-03,
                      le:8.7295293807983398e+00 }
            -
               depth: 3
               value: -9.9395127946988948e-01
               splits:
                  - { var:4, quality:2.6884048711508512e-03,
                      le:1.9340652972459793e-02 }
            -
               depth: 4
               value: 5.7564577324623896e+00
            -
               depth: 4
               value: -2.8567979930882155e+00
               splits:
                  - { var:1, quality:2.4000925477594137e-03,
                      le:3.1802579760551453e-02 }
            -
               depth: 5
               value: -5.7564577324601141e+00
            -
               depth: 5
               value: 5.7564577324623896e+00
            -
               depth: 3
               value: 2.0653539582027376e+00
               splits:
                  - { var:19, quality:4.7463397495448589e-03,
                      le:5.2344179153442383e-01 }
            -
               depth: 4
               value: -1.4116261014924887e+00
            -
               depth: 4
               value: 3.1064037831057703e+00
               splits:
                  - { var:3, quality:4.7285920009016991e-03,
                      le:6.4158618450164795e-02 }
            -
               depth: 5
               value: 5.7564577324623896e+00
            -
               depth: 5
               value: -5.7564577324601141e+00
            -
               depth: 1
               value: 2.4295863253996866e-02
               splits:
                  - { var:25, quality:1.6534833237528801e-02,
                      le:5.0000000000000000e-01 }
            -
               depth: 2
               value: -3.4661601645384697e-02
               splits:
                  - { var:30, quality:1.6294574365019798e-02, in:[ 0 ] }
            -
               depth: 3
               value: -2.0180855797036423e-01
               splits:
                  - { var:21, quality:3.7959974259138107e-02,
                      le:1.1055028438568115e+00 }
            -
               depth: 4
               value: 4.4606439580953963e-02
               splits:
                  - { var:19, quality:3.0124658718705177e-02,
                      le:2.3332185745239258e+00 }
            -
               depth: 5
               value: 8.2261653921822142e-01
            -
               depth: 5
               value: -2.1333310994858046e-01
            -
               depth: 4
               value: -5.5774248263422022e-01
               splits:
                  - { var:26, quality:4.9302726984024048e-02,
                      le:5.0000000000000000e-01 }
            -
               depth: 5
               value: -8.0835322799909448e-01
            -
               depth: 5
               value: -1.4555225969905721e-02
            -
               depth: 3
               value: 8.2355718650129611e-02
               splits:
                  - { var:18, quality:3.1763564795255661e-02,
                      le:3.9449648857116699e+00 }
            -
               depth: 4
               value: -5.4366877690476900e-01
               splits:
                  - { var:20, quality:2.6753375306725502e-02,
                      le:6.3798362016677856e-01 }
            -
               depth: 5
               value: -2.3589799201504702e+00
            -
               depth: 5
               value: -2.4605867859256059e-01
            -
               depth: 4
               value: 1.9051573948645922e-01
               splits:
                  - { var:10, quality:3.0867714434862137e-02,
                      le:-1.1321005821228027e+00 }
            -
               depth: 5
               value: 1.0067660100850841e-02
            -
               depth: 5
               value: 4.5826810486018849e-01
            -
               depth: 2
               value: 3.1467474548274832e-01
               splits:
                  - { var:30, quality:9.1644778847694397e-02, not_in:[ 0 ] }
            -
               depth: 3
               value: -4.9154835850951356e-01
               splits:
                  - { var:14, quality:3.1484950333833694e-02,
                      le:2.5285199284553528e-01 }
            -
               depth: 4
               value: 1.5466219640247747e-02
               splits:
                  - { var:21, quality:1.2643917463719845e-02,
                      le:1.5254416465759277e+00 }
            -
               depth: 5
               value: 9.1605906141601312e-01
            -
               depth: 5
               value: -5.1086030027578844e-01
            -
               depth: 4
               value: -1.5973954803381432e+00
               splits:
                  - { var:3, quality:3.3502396196126938e-02,
                      le:1.9506061077117920e-01 }
            -
               depth: 5
               value: -2.4866264496025269e-02
            -
               depth: 5
               value: -2.3571113636606338e+00
            -
               depth: 3
               value: 1.4779975827020675e+00
               splits:
                  - { var:1, quality:8.1066228449344635e-02,
                      le:5.3440161049365997e-02 }
            -
               depth: 4
               value: -8.5730594210004984e-01
               splits:
                  - { var:26, quality:1.8186807865276933e-03,
                      le:5.0000000000000000e-01 }
            -
               depth: 5
               value: -5.7564577324601141e+00
            -
               depth: 5
               value: 5.7564577324623896e+00
            -
               depth: 4
               value: 1.6777735740500255e+00
               splits:
                  - { var:23, quality:8.2605078816413879e-02,
                      le:2.3293552398681641e+00 }
            -
               depth: 5
               value: 1.7968899294496827e+00
            -
               depth: 5
               value: -1.8507910126356670e+00
      -
         nodes:
            -
               depth: 0
               value: 1.1549585121645133e-06
               splits:
                  - { var:10, quality:8.8843256235122681e-03,
                      le:-1.3868943452835083e+00 }
            -
               depth: 1
               value: 1.1804811217178664e-01
               splits:
                  - { var:30, quality:1.5650656074285507e-02, in:[ 2 ] }
            -
               depth: 2
               value: -1.6363472036617618e-01
               splits:
                  - { var:29, quality:1.6994267702102661e-02,
                      le:9.2533028125762939e-01 }
            -
               depth: 3
               value: -4.9404933518784760e-01
               splits:
                  - { var:11, quality:2.8964480385184288e-02,
                      le:3.5740233957767487e-02 }
            -
               depth: 4
               value: -9.5999793077738649e-01
               splits:
                  - { var:21, quality:3.0781142413616180e-02,
                      le:7.8429722785949707e-01 }
            -
               depth: 5
               value: 3.9661618329682641e-01
            -
               depth: 5
               value: -1.2093380273210590e+00
            -
               depth: 4
               value: 4.8811836312536472e-01
               splits:
                  - { var:17, quality:7.6292082667350769e-03,
                      le:4.6016491949558258e-02 }
            -
               depth: 5
               value: 1.5595657456706689e+00
            -
               depth: 5
               value: -2.2538304174149285e-01
            -
               depth: 3
               value: 3.4874517081715883e-01
               splits:
                  - { var:3, quality:1.1653030291199684e-02,
                      le:4.5114940404891968e-01 }
            -
               depth: 4
               value: -6.5353138214362533e-02
               splits:
                  - { var:9, quality:3.7877103313803673e-03,
                      le:2.5376535952091217e-02 }
            -
               depth: 5
               value: -1.1040429548652115e+00
            -
               depth: 5
               value: 1.8089714179259078e-01
            -
               depth: 4
               value: 1.2584469572541084e+00
               splits:
                  - { var:25, quality:1.2659344822168350e-02,
                      le:5.0000000000000000e-01 }
            -
               depth: 5
               value: 1.6890551789723058e+00
            -
               depth: 5
               value: 2.9944863887223363e-02
            -
               depth: 2
               value: 2.1427421148110032e-01
               splits:
                  - { var:28, quality:3.1493410468101501e-02,
                      le:2.7999985218048096e-01 }
            -
               depth: 3
               value: 2.7185209245798579e-03
               splits:
                  - { var:24, quality:6.9135683588683605e-03,
                      le:1.8194079399108887e-02 }
            -
               depth: 4
               value: 7.3840224796412168e-02
               splits:
                  - { var:4, quality:4.3040155433118343e-03,
                      le:1.6842268407344818e-02 }
            -
               depth: 5
               value: 4.2285093279303371e-01
            -
               depth: 5
               value: 4.5652558204210304e-03
            -
               depth: 4
               value: -6.3072182619538375e-01
               splits:
                  - { var:17, quality:1.2938170693814754e-02,
                      le:4.2395818978548050e-02 }
            -
               depth: 5
               value: -2.0649963552961337e+00
            -
               depth: 5
               value: 3.1063867138694790e-01
            -
               depth: 3
               value: 5.6607454090881293e-01
               splits:
                  - { var:30, quality:4.5043084770441055e-02, not_in:[ 0 ] }
            -
               depth: 4
               value: 1.8566898162381860e-02
               splits:
                  - { var:6, quality:1.8453208729624748e-02,
                      le:1.1771324276924133e-01 }
            -
               depth: 5
               value: 9.2856636556848526e-01
            -
               depth: 5
               value: -8.0040671815709374e-01
            -
               depth: 4
               value: 9.5330046343991937e-01
               splits:
                  - { var:0, quality:5.3790472447872162e-02,
                      le:1.6500000000000000e+01 }
            -
               depth: 5
               value: 1.2400981833684668e+00
            -
               depth: 5
               value: -2.9262747381729914e-01
            -
               depth: 1
               value: -7.5753642128619694e-02
               splits:
                  - { var:18, quality:9.5299910753965378e-03,
                      le:3.6796092987060547e+00 }
            -
               depth: 2
               value: 1.6083586127765739e-01
               splits:
                  - { var:30, quality:1.0683896951377392e-02, in:[ 1 ] }
            -
               depth: 3
               value: -2.8183952703853121e-01
               splits:
                  - { var:1, quality:7.8179845586419106e-03,
                      le:5.4009560495615005e-02 }
            -
               depth: 4
               value: 1.2364019101783541e+00
               splits:
                  - { var:9, quality:3.0629935208708048e-03,
                      le:2.6496173813939095e-03 }
            -
               depth: 5
               value: 2.4267127298786123e-01
            -
               depth: 5
               value: 2.1792904118750513e+00
            -
               depth: 4
               value: -4.7302120497090350e-01
               splits:
                  - { var:13, quality:8.8353520259261131e-03,
                      le:1.6151966154575348e-01 }
            -
               depth: 5
               value: 2.6150884242259784e-02
            -
               depth: 5
               value: -9.7503761811529721e-01
            -
               depth: 3
               value: 3.8389576736513686e-01
               splits:
                  - { var:1, quality:1.3721271418035030e-02,
                      le:5.2196525037288666e-02 }
            -
               depth: 4
               value: -1.8321682616397188e+00
               splits:
                  - { var:23, quality:2.7648620307445526e-03,
                      le:1.6757029294967651e+00 }
            -
               depth: 5
               value: -3.8948780381249168e+00
            -
               depth: 5
               value: -1.4171977278047827e-02
            -
               depth: 4
               value: 4.5997358007027178e-01
               splits:
                  - { var:20, quality:1.3723723590373993e-02,
                      le:1.0415695905685425e+00 }
            -
               depth: 5
               value: 9.1449889822948016e-01
            -
               depth: 5
               value: 2.8800319682614839e-01
            -
               depth: 2
               value: -1.1846906737019602e-01
               splits:
                  - { var:30, quality:2.0095188170671463e-02, in:[ 0 ] }
            -
               depth: 3
               value: -3.2853380621598194e-01
               splits:
                  - { var:20, quality:3.5130079835653305e-02,
                      le:2.8587374687194824e+00 }
            -
               depth: 4
               value: -4.2641063982281163e-01
               splits:
                  - { var:22, quality:4.6566531062126160e-02,
                      le:9.5632779598236084e-01 }
            -
               depth: 5
               value: -1.5415269565654974e+00
            -
               depth: 5
               value: -2.2171084290880749e-01
            -
               depth: 4
               value: 6.4643867418464751e-01
               splits:
                  - { var:2, quality:9.1763399541378021e-03,
                      le:1.8264073133468628e-01 }
            -
               depth: 5
               value: 3.5621450676045996e-02
            -
               depth: 5
               value: 1.7900704991850043e+00
            -
               depth: 3
               value: 7.8598161652136955e-03
               splits:
                  - { var:20, quality:9.8602939397096634e-03,
                      le:3.1101808547973633e+00 }
            -
               depth: 4
               value: 4.5801771264310773e-02
               splits:
                  - { var:13, quality:9.3254810199141502e-03,
                      le:1.1169774830341339e-01 }
            -
               depth: 5
               value: 1.6250059887815130e-01
            -
               depth: 5
               value: -2.0657286199018349e-01
            -
               depth: 4
               value: -1.1365841690002993e+00
               splits:
                  - { var:21, quality:1.0443901643157005e-02,
                      le:1.2694571018218994e+00 }
            -
               depth: 5
               value: 4.4110189902706237e-01
            -
               depth: 5
               value: -1.3950910885858323e+00
      -
         nodes:
            -
               depth: 0
               value: -5.1748329778170514e-09
               splits:
                  - { var:12, quality:5.0541837699711323e-03,
                      le:2.2108623385429382e-01 }
            -
               depth: 1
               value: -3.9385660570257205e-02
               splits:
                  - { var:30, quality:9.1590415686368942e-03, not_in:[ 1 ] }
            -
               depth: 2
               value: -1.3116467690183162e-01
               splits:
                  - { var:5, quality:2.8704151511192322e-02,
                      le:1.6013959050178528e-01 }
            -
               depth: 3
               value: 1.5364640225566417e-02
               splits:
                  - { var:28, quality:2.7538303285837173e-02,
                      le:6.5000057220458984e-02 }
            -
               depth: 4
               value: -5.9670094225511805e-01
               splits:
                  - { var:5, quality:3.0013468116521835e-02,
                      le:6.0582406818866730e-02 }
            -
               depth: 5
               value: -1.1652722863975316e+00
            -
               depth: 5
               value: -3.1803329812452569e-02
            -
               depth: 4
               value: 1.8404585870703657e-01
               splits:
                  - { var:4, quality:2.8788506984710693e-02,
                      le:1.6692291945219040e-02 }
            -
               depth: 5
               value: -8.1780384655534699e-01
            -
               depth: 5
               value: 2.9806552240911260e-01
            -
               depth: 3
               value: -5.1747982814259141e-01
               splits:
                  - { var:12, quality:3.7035476416349411e-02,
                      le:1.8189446628093719e-01 }
            -
               depth: 4
               value: -8.1649785361800120e-01
               splits:
                  - { var:21, quality:4.3228190392255783e-02,
                      le:1.7634720802307129e+00 }
            -
               depth: 5
               value: -1.0428711370439692e+00
            -
               depth: 5
               value: 1.6976195925412327e-01
            -
               depth: 4
               value: -1.4022010560299109e-01
               splits:
                  - { var:23, quality:4.0585733950138092e-03,
                      le:1.5330798625946045e+00 }
            -
               depth: 5
               value: -5.0519406433050462e-01
            -
               depth: 5
               value: 6.6838096298145300e-02
            -
               depth: 2
               value: 7.5189432661625880e-02
               splits:
                  - { var:4, quality:2.7188703417778015e-02,
                      le:1.6692291945219040e-02 }
            -
               depth: 3
               value: 1.0497099665060650e+00
               splits:
                  - { var:11, quality:3.6392003297805786e-02,
                      le:3.4141730517148972e-02 }
            -
               depth: 4
               value: 1.6390786754328925e+00
               splits:
                  - { var:0, quality:3.7011571228504181e-02,
                      le:4.5000000000000000e+00 }
            -
               depth: 5
               value: -5.7564577324601141e+00
            -
               depth: 5
               value: 1.9472089613880934e+00
            -
               depth: 4
               value: -8.5832671315993858e-01
               splits:
                  - { var:20, quality:2.5885740760713816e-03,
                      le:1.9178361892700195e+00 }
            -
               depth: 5
               value: 1.4003779438102004e-01
            -
               depth: 5
               value: -1.4748605177927112e+00
            -
               depth: 3
               value: -3.0434269270574708e-02
               splits:
                  - { var:5, quality:2.1038876846432686e-02,
                      le:1.5443128347396851e-01 }
            -
               depth: 4
               value: -1.8397392883372293e-01
               splits:
                  - { var:3, quality:3.0534707009792328e-02,
                      le:1.8017295002937317e-01 }
            -
               depth: 5
               value: 1.2632349543518082e-01
            -
               depth: 5
               value: -5.7694279834885764e-01
            -
               depth: 4
               value: 4.6484711346558083e-01
               splits:
                  - { var:4, quality:2.4806527420878410e-02,
                      le:4.1410744190216064e-02 }
            -
               depth: 5
               value: 7.8003917523766120e-01
            -
               depth: 5
               value: -2.7389344476714977e-01
            -
               depth: 1
               value: 1.2910439539196700e-01
               splits:
                  - { var:30, quality:1.1762307025492191e-02, in:[ 1 ] }
            -
               depth: 2
               value: -2.8542347302925603e-01
               splits:
                  - { var:23, quality:1.2696795165538788e-02,
                      le:1.6542661190032959e+00 }
            -
               depth: 3
               value: 2.7418254173057388e-01
               splits:
                  - { var:4, quality:4.0397034026682377e-03,
                      le:6.0000613331794739e-02 }
            -
               depth: 4
               value: 5.7071577607663759e-01
               splits:
                  - { var:7, quality:6.3782343640923500e-03,
                      le:4.6240009367465973e-02 }
            -
               depth: 5
               value: 8.1816237524399404e-01
            -
               depth: 5
               value: -1.9808699479419689e+00
            -
               depth: 4
               value: -3.7268322954970973e-01
               splits:
                  - { var:11, quality:2.0620070863515139e-03,
                      le:7.3492323338086862e-12 }
            -
               depth: 5
               value: -1.1404086715166146e+00
            -
               depth: 5
               value: 2.5824303023277978e-01
            -
               depth: 3
               value: -9.1249167014285815e-01
               splits:
                  - { var:17, quality:1.3438063673675060e-02,
                      le:7.4025854468345642e-02 }
            -
               depth: 4
               value: -1.1232530653491259e+00
               splits:
                  - { var:3, quality:1.4824517071247101e-02,
                      le:2.5473475456237793e-01 }
            -
               depth: 5
               value: 9.5152011370438361e-01
            -
               depth: 5
               value: -1.2899253753988171e+00
            -
               depth: 4
               value: 3.5959225866018590e-01
               splits:
                  - { var:18, quality:9.9597708322107792e-04,
                      le:1.1810050010681152e+01 }
            -
               depth: 5
               value: 8.8377323484708814e-01
            -
               depth: 5
               value: -5.7564577324601141e+00
            -
               depth: 2
               value: 2.1441539650736349e-01
               splits:
                  - { var:23, quality:1.1006457731127739e-02,
                      le:1.4347335100173950e+00 }
            -
               depth: 3
               value: -7.1388791198196211e-01
               splits:
                  - { var:8, quality:1.7899933736771345e-03,
                      le:-6.3245475292205811e-02 }
            -
               depth: 4
               value: -1.1314919232759119e-01
               splits:
                  - { var:30, quality:5.1884027197957039e-04, in:[ 0 ] }
            -
               depth: 5
               value: -2.7774117809760903e+00
            -
               depth: 5
               value: 3.3896299473652164e-01
            -
               depth: 4
               value: -1.6686196358406955e+00
               splits:
                  - { var:4, quality:1.8907043850049376e-03,
                      le:6.6041104495525360e-02 }
            -
               depth: 5
               value: -5.7564577324601141e+00
            -
               depth: 5
               value: -9.6289222149693918e-02
            -
               depth: 3
               value: 2.2952676729661950e-01
               splits:
                  - { var:19, quality:1.2104665860533714e-02,
                      le:1.0441912412643433e+00 }
            -
               depth: 4
               value: -8.5654599403260923e-01
               splits:
                  - { var:30, quality:1.5239593340083957e-03, in:[ 2 ] }
            -
               depth: 5
               value: -5.7564577324601141e+00
            -
               depth: 5
               value: -4.9031280034334035e-01
            -
               depth: 4
               value: 2.4365184420137490e-01
               splits:
                  - { var:2, quality:1.3599365018308163e-02,
                      le:9.8566025495529175e-02 }
            -
               depth: 5
               value: 6.1166291075426960e-01
            -
               depth: 5
               value: 1.9258735770558960e-01
      -
         nodes:
            -
               depth: 0
               value: -1.5330691668243710e-05
               splits:
                  - { var:15, quality:6.6876243799924850e-03,
                      le:5.1163101196289062e-01 }
            -
               depth: 1
               value: 1.2599672366419540e-01
               splits:
                  - { var:30, quality:1.4876466244459152e-02, in:[ 0 ] }
            -
               depth: 2
               value: -1.8813813780923144e-01
               splits:
                  - { var:29, quality:9.1340932995080948e-03,
                      le:7.2712326049804688e-01 }
            -
               depth: 3
               value: 1.1942882818275238e+00
               splits:
                  - { var:26, quality:5.7600517757236958e-03,
                      le:5.0000000000000000e-01 }
            -
               depth: 4
               value: -4.0701366492022606e+00
               splits:
                  - { var:1, quality:4.8430913011543453e-04,
                      le:6.3741672039031982e-01 }
            -
               depth: 5
               value: -5.7564577324601141e+00
            -
               depth: 5
               value: 5.7564577324623896e+00
            -
               depth: 4
               value: 5.7564577324623896e+00
            -
               depth: 3
               value: -2.7405969690078641e-01
               splits:
                  - { var:16, quality:1.4800836332142353e-02,
                      le:6.1391806602478027e-01 }
            -
               depth: 4
               value: 1.2195745331269983e-01
               splits:
                  - { var:21, quality:5.8532902039587498e-03,
                      le:1.0292595624923706e+00 }
            -
               depth: 5
               value: -1.6245904111756551e+00
            -
               depth: 5
               value: 2.7958638861993335e-01
            -
               depth: 4
               value: -7.1264792365386276e-01
               splits:
                  - { var:25, quality:2.0521957427263260e-02,
                      le:5.0000000000000000e-01 }
            -
               depth: 5
               value: -1.0182563663535291e+00
            -
               depth: 5
               value: 4.5672024124808447e-01
            -
               depth: 2
               value: 2.3941654640948079e-01
               splits:
                  - { var:5, quality:1.6311274841427803e-02,
                      le:2.2082269191741943e-01 }
            -
               depth: 3
               value: 2.9194595303912957e-01
               splits:
                  - { var:10, quality:1.9507857039570808e-02,
                      le:-1.0842329263687134e+00 }
            -
               depth: 4
               value: 4.4056501043777357e-01
               splits:
                  - { var:3, quality:2.3749820888042450e-02,
                      le:6.4239877462387085e-01 }
            -
               depth: 5
               value: 5.2012818768368230e-01
            -
               depth: 5
               value: -5.3801426512797057e-01
            -
               depth: 4
               value: 1.3818717817954335e-01
               splits:
                  - { var:3, quality:5.3732991218566895e-03,
                      le:4.4855403900146484e-01 }
            -
               depth: 5
               value: 2.5316456745698327e-02
            -
               depth: 5
               value: 5.3641900323376601e-01
            -
               depth: 3
               value: -1.4735974419579595e-01
               splits:
                  - { var:26, quality:3.5744078923016787e-03,
                      le:5.0000000000000000e-01 }
            -
               depth: 4
               value: -4.8145727054937125e-03
               splits:
                  - { var:29, quality:1.6496493481099606e-03,
                      le:7.9072988033294678e-01 }
            -
               depth: 5
               value: 1.1358195748103095e+00
            -
               depth: 5
               value: -9.8647086181169491e-02
            -
               depth: 4
               value: -5.7564577324601141e+00
            -
               depth: 1
               value: -5.3417893479008854e-02
               splits:
                  - { var:7, quality:8.6697684600949287e-03,
                      le:1.5475557884201407e-03 }
            -
               depth: 2
               value: 9.1946647958575656e-02
               splits:
                  - { var:30, quality:6.8086674436926842e-03, not_in:[ 0 ] }
            -
               depth: 3
               value: -4.2392221352904283e-02
               splits:
                  - { var:29, quality:1.7307471483945847e-02,
                      le:9.6766972541809082e-01 }
            -
               depth: 4
               value: -1.0566259805638014e+00
               splits:
                  - { var:16, quality:1.6762239858508110e-02,
                      le:2.0316264033317566e-01 }
            -
               depth: 5
               value: -3.4077482825877636e-01
            -
               depth: 5
               value: -1.5930885693811616e+00
            -
               depth: 4
               value: 1.4737802140962508e-01
               splits:
                  - { var:5, quality:1.2592156417667866e-02,
                      le:5.2127234637737274e-02 }
            -
               depth: 5
               value: 7.4292254482414211e-01
            -
               depth: 5
               value: -7.6687011398763064e-02
            -
               depth: 3
               value: 2.6778013966532360e-01
               splits:
                  - { var:29, quality:1.9243242219090462e-02,
                      le:9.7066938877105713e-01 }
            -
               depth: 4
               value: 1.0445047142404253e+00
               splits:
                  - { var:22, quality:2.3051640018820763e-02,
                      le:9.3264031410217285e-01 }
            -
               depth: 5
               value: -7.7260789561761434e-01
            -
               depth: 5
               value: 1.3089513709809031e+00
            -
               depth: 4
               value: 7.9996694400139862e-03
               splits:
                  - { var:3, quality:7.6678725890815258e-03,
                      le:1.0785888135433197e-01 }
            -
               depth: 5
               value: -1.4327301902520746e+00
            -
               depth: 5
               value: 1.4055502282160554e-01
            -
               depth: 2
               value: -1.1950620000621168e-01
               splits:
                  - { var:14, quality:1.1603157036006451e-02,
                      le:2.6974225044250488e-01 }
            -
               depth: 3
               value: -1.8804625254266505e-01
               splits:
                  - { var:0, quality:1.4472553506493568e-02,
                      le:1.3500000000000000e+01 }
            -
               depth: 4
               value: -1.5723984130488891e-01
               splits:
                  - { var:4, quality:9.8559278994798660e-03,
                      le:2.5154732167720795e-02 }
            -
               depth: 5
               value: -2.0978741609256318e-02
            -
               depth: 5
               value: -2.2081928788274729e-01
            -
               depth: 4
               value: -5.3210907908224292e-01
               splits:
                  - { var:30, quality:1.0300619527697563e-02, not_in:[ 2 ] }
            -
               depth: 5
               value: -7.8851600497027741e-01
            -
               depth: 5
               value: 1.3499339355196002e-01
            -
               depth: 3
               value: 2.8597024711252313e-02
               splits:
                  - { var:6, quality:3.2282089814543724e-03,
                      le:2.0725825428962708e-01 }
            -
               depth: 4
               value: 2.5818760919093392e-01
               splits:
                  - { var:21, quality:6.5959612838923931e-03,
                      le:7.8007113933563232e-01 }
            -
               depth: 5
               value: -1.0411354592879475e-01
            -
               depth: 5
               value: 5.4329952954249405e-01
            -
               depth: 4
               value: -6.3445642070267261e-02
               splits:
                  - { var:1, quality:1.8377343658357859e-03,
                      le:3.1353643536567688e-01 }
            -
               depth: 5
               value: -8.5236196216697452e-02
            -
               depth: 5
               value: 6.1107856031415853e-01
      -
         nodes:
            -
               depth: 0
               value: 4.2689084354256664e-06
               splits:
                  - { var:4, quality:2.7855022344738245e-03,
                      le:1.6929596662521362e-02 }
            -
               depth: 1
               value: -1.7778805508034673e-01
               splits:
                  - { var:11, quality:6.1623486690223217e-03,
                      le:3.1114060431718826e-02 }
            -
               depth: 2
               value: -3.2760459936405562e-01
               splits:
                  - { var:30, quality:1.1175562627613544e-02, in:[ 0 ] }
            -
               depth: 3
               value: -1.1061923226118064e+00
               splits:
                  - { var:4, quality:1.5369355678558350e-02,
                      le:1.6929574310779572e-02 }
            -
               depth: 4
               value: -2.0245730595878877e+00
               splits:
                  - { var:0, quality:1.5024793334305286e-02,
                      le:4.5000000000000000e+00 }
            -
               depth: 5
               value: 5.7564577324623896e+00
            -
               depth: 5
               value: -3.4800269645122839e+00
            -
               depth: 4
               value: 2.0893770171279167e+00
               splits:
                  - { var:7, quality:1.3869189424440265e-03,
                      le:3.2369517721235752e-03 }
            -
               depth: 5
               value: 5.7564577324623896e+00
            -
               depth: 5
               value: -5.7564577324601141e+00
            -
               depth: 3
               value: -1.1874206758883399e-01
               splits:
                  - { var:23, quality:3.3655483275651932e-03,
                      le:1.3858308792114258e+00 }
            -
               depth: 4
               value: -5.7835620066838600e-01
               splits:
                  - { var:30, quality:5.7590613141655922e-03, in:[ 2 ] }
            -
               depth: 5
               value: -1.3073457587797728e+00
            -
               depth: 5
               value: 7.7755289670144653e-02
            -
               depth: 4
               value: 5.3728980216400143e-02
               splits:
                  - { var:4, quality:2.1440072450786829e-03,
                      le:1.6929574310779572e-02 }
            -
               depth: 5
               value: 1.2481336111843269e-01
            -
               depth: 5
               value: -2.2675240359619453e+00
            -
               depth: 2
               value: 1.3602307236301373e-01
               splits:
                  - { var:20, quality:3.1011493410915136e-03,
                      le:2.8591756820678711e+00 }
            -
               depth: 3
               value: 3.7722516282967977e-01
               splits:
                  - { var:30, quality:5.4160887375473976e-03, in:[ 1 ] }
            -
               depth: 4
               value: -5.0624161092761533e-01
               splits:
                  - { var:23, quality:2.0629665814340115e-03,
                      le:1.4073641300201416e+00 }
            -
               depth: 5
               value: 7.1500420547966292e-01
            -
               depth: 5
               value: -1.0618870318902236e+00
            -
               depth: 4
               value: 6.6915491721426612e-01
               splits:
                  - { var:9, quality:5.5752662010490894e-03,
                      le:4.7515179961919785e-02 }
            -
               depth: 5
               value: -4.1363004507931962e-02
            -
               depth: 5
               value: 8.6273231178673870e-01
            -
               depth: 3
               value: -3.3189406354171552e-01
               splits:
                  - { var:12, quality:2.8621321544051170e-03,
                      le:2.2897791862487793e-01 }
            -
               depth: 4
               value: 7.5272837663252179e-01
               splits:
                  - { var:30, quality:1.7257890431210399e-03, not_in:[ 2 ] }
            -
               depth: 5
               value: -3.0031166188297753e+00
            -
               depth: 5
               value: 3.9237140889163520e+00
            -
               depth: 4
               value: -6.4049865820853324e-01
               splits:
                  - { var:30, quality:5.5696847848594189e-03, not_in:[ 0 ] }
            -
               depth: 5
               value: -1.8039730210487275e+00
            -
               depth: 5
               value: 9.8424334191894336e-01
            -
               depth: 1
               value: 1.5837482469799314e-02
               splits:
                  - { var:20, quality:2.8376122936606407e-03,
                      le:3.1107442378997803e+00 }
            -
               depth: 2
               value: 9.1235611224469767e-03
               splits:
                  - { var:7, quality:1.7561163986101747e-03,
                      le:1.6443181782960892e-02 }
            -
               depth: 3
               value: 3.4568826803217913e-02
               splits:
                  - { var:22, quality:3.5769699607044458e-03,
                      le:9.6717423200607300e-01 }
            -
               depth: 4
               value: 1.0947610371108923e-01
               splits:
                  - { var:20, quality:5.2717141807079315e-03,
                      le:5.9487873315811157e-01 }
            -
               depth: 5
               value: 5.5120833921088142e-01
            -
               depth: 5
               value: 9.2716892261231462e-02
            -
               depth: 4
               value: -2.1068145139787414e-02
               splits:
                  - { var:26, quality:3.6867675371468067e-03,
                      le:5.0000000000000000e-01 }
            -
               depth: 5
               value: 2.6757411396298829e-02
            -
               depth: 5
               value: -2.1602745462985595e-01
            -
               depth: 3
               value: -6.4150661080235385e-02
               splits:
                  - { var:3, quality:5.2880896255373955e-03,
                      le:3.5861101746559143e-01 }
            -
               depth: 4
               value: 1.9852869960847574e-01
               splits:
                  - { var:8, quality:2.8650397434830666e-03,
                      le:-1.2276935577392578e-01 }
            -
               depth: 5
               value: 5.6265482285951129e-01
            -
               depth: 5
               value: 1.3753578666016938e-01
            -
               depth: 4
               value: -1.3644044985699619e-01
               splits:
                  - { var:30, quality:9.3056177720427513e-03, in:[ 1 ] }
            -
               depth: 5
               value: -5.9681673873225571e-01
            -
               depth: 5
               value: -5.4084247690263557e-02
            -
               depth: 2
               value: 4.7127385566512536e-01
               splits:
                  - { var:30, quality:4.0686610154807568e-03, not_in:[ 0 ] }
            -
               depth: 3
               value: 1.3565756820245647e-01
               splits:
                  - { var:16, quality:2.8819532599300146e-03,
                      le:5.7114332914352417e-01 }
            -
               depth: 4
               value: -1.8985474064214534e+00
               splits:
                  - { var:4, quality:1.6755894757807255e-03,
                      le:2.0725551992654800e-02 }
            -
               depth: 5
               value: 9.5053603032366052e-01
            -
               depth: 5
               value: -2.3893000894544572e+00
            -
               depth: 4
               value: 5.3612240789177390e-01
               splits:
                  - { var:8, quality:2.6287566870450974e-03,
                      le:-1.9327756762504578e-01 }
            -
               depth: 5
               value: -1.1868961816152823e+00
            -
               depth: 5
               value: 8.2873264585790962e-01
            -
               depth: 3
               value: 9.4807913952504486e-01
               splits:
                  - { var:4, quality:5.4902364499866962e-03,
                      le:2.2514889016747475e-02 }
            -
               depth: 4
               value: -2.1613320119384780e+00
               splits:
                  - { var:0, quality:4.9254659097641706e-04,
                      le:1.2500000000000000e+01 }
            -
               depth: 5
               value: 5.7564577324623896e+00
            -
               depth: 5
               value: -5.7564577324601141e+00
            -
               depth: 4
               value: 1.3104745279338057e+00
               splits:
                  - { var:13, quality:5.5193500593304634e-03,
                      le:1.2309822440147400e-01 }
            -
               depth: 5
               value: 1.7355700029724468e+00
            -
               depth: 5
               value: -1.1612896815143220e-01
      -
         nodes:
            -
               depth: 0
               value: 3.6937076464337227e-06
               splits:
                  - { var:23, quality:1.7130763735622168e-03,
                      le:1.4528635740280151e+00 }
            -
               depth: 1
               value: -6.9795808629753042e-02
               splits:
                  - { var:3, quality:3.7788881454616785e-03,
                      le:1.0787352174520493e-01 }
            -
               depth: 2
               value: 4.0895306416261396e-01
               splits:
                  - { var:30, quality:4.5339688658714294e-03, not_in:[ 1 ] }
            -
               depth: 3
               value: -2.3658119616537623e-01
               splits:
                  - { var:19, quality:3.6747991107404232e-03,
                      le:6.5949541330337524e-01 }
            -
               depth: 4
               value: 2.9587181695095301e+00
               splits:
                  - { var:6, quality:1.5026592882350087e-03,
                      le:5.5553996562957764e-01 }
            -
               depth: 5
               value: -5.7564577324601141e+00
            -
               depth: 5
               value: 3.3509545140195791e+00
            -
               depth: 4
               value: -1.2887942505813625e+00
               splits:
                  - { var:3, quality:2.8649114537984133e-03,
                      le:1.0783566534519196e-01 }
            -
               depth: 5
               value: -2.4903194152217356e+00
            -
               depth: 5
               value: 1.8834849039299881e+00
            -
               depth: 3
               value: 1.0504287097039313e+00
               splits:
                  - { var:3, quality:5.7742646895349026e-03,
                      le:5.6020081043243408e-02 }
            -
               depth: 4
               value: -5.7564577324601141e+00
            -
               depth: 4
               value: 1.4741956053700644e+00
               splits:
                  - { var:3, quality:5.6678163819015026e-03,
                      le:1.0783566534519196e-01 }
            -
               depth: 5
               value: 1.6459050501791392e+00
            -
               depth: 5
               value: -1.4741745973215938e+00
            -
               depth: 2
               value: -9.1005122263358745e-02
               splits:
                  - { var:17, quality:3.9371899329125881e-03,
                      le:5.5985063314437866e-02 }
            -
               depth: 3
               value: -1.4687099949698532e-01
               splits:
                  - { var:3, quality:5.2149067632853985e-03,
                      le:3.3800107240676880e-01 }
            -
               depth: 4
               value: -7.0728937973714157e-02
               splits:
                  - { var:30, quality:1.9939970225095749e-03, in:[ 2 ] }
            -
               depth: 5
               value: -3.0415679887873376e-01
            -
               depth: 5
               value: -7.8055511744637160e-03
            -
               depth: 4
               value: -2.5844915049391659e-01
               splits:
                  - { var:30, quality:7.6593882404267788e-03, in:[ 1 ] }
            -
               depth: 5
               value: -5.3851909222276462e-01
            -
               depth: 5
               value: -8.4072752208482357e-02
            -
               depth: 3
               value: 4.6516902369856103e-02
               splits:
                  - { var:30, quality:2.2437996231019497e-03, not_in:[ 1 ] }
            -
               depth: 4
               value: -1.0472460545410675e-01
               splits:
                  - { var:6, quality:7.2689903900027275e-03,
                      le:6.0404181480407715e-01 }
            -
               depth: 5
               value: -3.0827638042562533e-01
            -
               depth: 5
               value: 1.0202699028865538e+00
            -
               depth: 4
               value: 2.4536634060951235e-01
               splits:
                  - { var:6, quality:9.0715568512678146e-03,
                      le:6.0404181480407715e-01 }
            -
               depth: 5
               value: 4.6313017327925243e-01
            -
               depth: 5
               value: -2.1113480081488047e+00
            -
               depth: 1
               value: 2.4591303668519447e-02
               splits:
                  - { var:20, quality:2.0154789090156555e-03,
                      le:1.1119349002838135e+00 }
            -
               depth: 2
               value: -6.6824293078535116e-02
               splits:
                  - { var:30, quality:4.4923331588506699e-03, in:[ 2 ] }
            -
               depth: 3
               value: -9.6866653611544695e-01
               splits:
                  - { var:7, quality:5.3811995312571526e-03,
                      le:3.3158022910356522e-02 }
            -
               depth: 4
               value: -1.3749494350894986e+00
               splits:
                  - { var:12, quality:5.9352829121053219e-03,
                      le:1.4704194068908691e+00 }
            -
               depth: 5
               value: -1.9670092142119964e+00
            -
               depth: 5
               value: 1.9663680224742919e-01
            -
               depth: 4
               value: 2.3934425875989457e-01
               splits:
                  - { var:6, quality:8.2281435607001185e-04,
                      le:9.3837901949882507e-02 }
            -
               depth: 5
               value: -2.4750213196718334e+00
            -
               depth: 5
               value: 1.5906642793411105e+00
            -
               depth: 3
               value: -2.9305496625593175e-02
               splits:
                  - { var:23, quality:1.9147027051076293e-03,
                      le:1.4933481216430664e+00 }
            -
               depth: 4
               value: 2.5346057121838655e-01
               splits:
                  - { var:9, quality:2.0394988823682070e-03,
                      le:4.1450085118412971e-03 }
            -
               depth: 5
               value: 6.9558887413952331e-01
            -
               depth: 5
               value: 1.3481261556926030e-01
            -
               depth: 4
               value: -7.4885233626120970e-02
               splits:
                  - { var:4, quality:2.6472155004739761e-03,
                      le:9.0954385697841644e-02 }
            -
               depth: 5
               value: -5.4617719159530960e-02
            -
               depth: 5
               value: -1.3402280388228958e+00
            -
               depth: 2
               value: 4.7861735954274037e-02
               splits:
                  - { var:10, quality:3.1033724080771208e-03,
                      le:-1.4021519422531128e+00 }
            -
               depth: 3
               value: -2.9241041468626817e-02
               splits:
                  - { var:17, quality:2.0624811295419931e-03,
                      le:2.6730265468358994e-02 }
            -
               depth: 4
               value: 1.0015293348427555e-01
               splits:
                  - { var:30, quality:2.0633351523429155e-03, not_in:[ 0 ] }
            -
               depth: 5
               value: -2.2241701785373932e-02
            -
               depth: 5
               value: 2.5827235067336540e-01
            -
               depth: 4
               value: -1.0416301759693140e-01
               splits:
                  - { var:28, quality:2.7183296624571085e-03,
                      le:1.0999983549118042e-01 }
            -
               depth: 5
               value: 2.9958549987346722e-01
            -
               depth: 5
               value: -1.3245559170839252e-01
            -
               depth: 3
               value: 8.6704941882623981e-02
               splits:
                  - { var:30, quality:6.2073487788438797e-03, in:[ 0 ] }
            -
               depth: 4
               value: -3.5331177174926821e-02
               splits:
                  - { var:10, quality:1.8231892958283424e-02,
                      le:-1.2391916513442993e+00 }
            -
               depth: 5
               value: 6.3096435788816996e-01
            -
               depth: 5
               value: -2.5604577152775093e-01
            -
               depth: 4
               value: 1.5621106766024809e-01
               splits:
                  - { var:23, quality:1.6411047428846359e-02,
                      le:2.6142816543579102e+00 }
            -
               depth: 5
               value: 2.1354602567824502e-01
            -
               depth: 5
               value: -6.7898250993288345e-01
      -
         nodes:
            -
               depth: 0
               value: -1.4674411184450682e-06
               splits:
                  - { var:28, quality:4.2550438083708286e-03,
                      le:5.9999704360961914e-02 }
            -
               depth: 1
               value: -1.8238315357101206e-01
               splits:
                  - { var:30, quality:6.6984039731323719e-03, in:[ 2 ] }
            -
               depth: 2
               value: -7.6628177295122757e-01
               splits:
                  - { var:23, quality:8.4178904071450233e-03,
                      le:1.7420887947082520e+00 }
            -
               depth: 3
               value: -2.2008059498840207e+00
               splits:
                  - { var:9, quality:8.3953579887747765e-03,
                      le:2.9141534119844437e-02 }
            -
               depth: 4
               value: -5.7564577324601141e+00
            -
               depth: 4
               value: -5.5650447661053770e-01
               splits:
                  - { var:9, quality:3.9325884426943958e-04,
                      le:2.9734421521425247e-02 }
            -
               depth: 5
               value: 1.2276960458508877e+00
            -
               depth: 5
               value: -5.7564577324601141e+00
            -
               depth: 3
               value: 1.8970989569549224e-01
               splits:
                  - { var:15, quality:3.0808439478278160e-03,
                      le:9.1394817829132080e-01 }
            -
               depth: 4
               value: -5.7564577324601141e+00
            -
               depth: 4
               value: 1.5075525053732088e+00
               splits:
                  - { var:20, quality:2.0115061197429895e-03,
                      le:2.1036620140075684e+00 }
            -
               depth: 5
               value: 2.0034099080287695e+00
            -
               depth: 5
               value: -5.7564577324601141e+00
            -
               depth: 2
               value: -1.2639633964509497e-01
               splits:
                  - { var:23, quality:3.5359950270503759e-03,
                      le:1.7420887947082520e+00 }
            -
               depth: 3
               value: -8.8466192095025417e-02
               splits:
                  - { var:16, quality:2.0226328633725643e-03,
                      le:3.8185653090476990e-01 }
            -
               depth: 4
               value: -1.0294683568638295e-01
               splits:
                  - { var:5, quality:1.7996097449213266e-03,
                      le:6.1295308172702789e-02 }
            -
               depth: 5
               value: -2.0310576630296395e-02
            -
               depth: 5
               value: -2.0877082378434889e-01
            -
               depth: 4
               value: 1.2071973920888412e+00
               splits:
                  - { var:5, quality:1.0738492710515857e-03,
                      le:1.5270748734474182e-01 }
            -
               depth: 5
               value: 1.3189961616186390e+00
            -
               depth: 5
               value: -2.1338602636543200e-01
            -
               depth: 3
               value: -7.1797666442883867e-01
               splits:
                  - { var:30, quality:4.0244511328637600e-03, in:[ 1 ] }
            -
               depth: 4
               value: -1.2240537657895287e+00
               splits:
                  - { var:4, quality:5.4554706439375877e-03,
                      le:2.7226850390434265e-02 }
            -
               depth: 5
               value: 4.2855284460486454e+00
            -
               depth: 5
               value: -2.3303833590420346e+00
            -
               depth: 4
               value: 1.3181527392076073e-01
               splits:
                  - { var:20, quality:1.6778593417257071e-03,
                      le:2.3022975921630859e+00 }
            -
               depth: 5
               value: -5.7564577324601141e+00
            -
               depth: 5
               value: 2.4911556214355990e+00
            -
               depth: 1
               value: 2.3591457871258419e-02
               splits:
                  - { var:21, quality:2.1901167929172516e-03,
                      le:2.9276046752929688e+00 }
            -
               depth: 2
               value: 2.5803580352218723e-02
               splits:
                  - { var:28, quality:2.1176044829189777e-03,
                      le:6.0000300407409668e-02 }
            -
               depth: 3
               value: 2.4422813488446954e-01
               splits:
                  - { var:30, quality:3.9738225750625134e-03, in:[ 2 ] }
            -
               depth: 4
               value: -5.4724625389657222e-01
               splits:
                  - { var:24, quality:2.6050799060612917e-03,
                      le:7.1249008178710938e-03 }
            -
               depth: 5
               value: -2.1503771996136547e+00
            -
               depth: 5
               value: 6.2750425693810541e-01
            -
               depth: 4
               value: 3.4117687036544891e-01
               splits:
                  - { var:1, quality:4.2595178820192814e-03,
                      le:5.1448978483676910e-02 }
            -
               depth: 5
               value: 8.0303384584777815e-01
            -
               depth: 5
               value: 2.1339862565077064e-01
            -
               depth: 3
               value: 1.7679977581459973e-02
               splits:
                  - { var:24, quality:1.7591367941349745e-03,
                      le:1.7913532257080078e-01 }
            -
               depth: 4
               value: 1.5717549515229814e-02
               splits:
                  - { var:24, quality:2.0128653850406408e-03,
                      le:1.3793110847473145e-01 }
            -
               depth: 5
               value: 1.9212676780406186e-02
            -
               depth: 5
               value: -6.8222719516252472e-01
            -
               depth: 4
               value: 1.5482803043546109e+00
               splits:
                  - { var:30, quality:1.7014397308230400e-03, in:[ 1 ] }
            -
               depth: 5
               value: -5.7564577324601141e+00
            -
               depth: 5
               value: 1.8996303858922117e+00
            -
               depth: 2
               value: -1.2382667032697521e+00
               splits:
                  - { var:30, quality:2.2452943958342075e-03, not_in:[ 0 ] }
            -
               depth: 3
               value: -5.7564577324601141e+00
            -
               depth: 3
               value: 5.7564577324623896e+00
      -
         nodes:
            -
               depth: 0
               value: -4.0090101193577264e-05
               splits:
                  - { var:22, quality:1.2407621834427118e-03,
                      le:9.5588958263397217e-01 }
            -
               depth: 1
               value: 4.7610285518036116e-02
               splits:
                  - { var:30, quality:4.0756016969680786e-03, in:[ 0 ] }
            -
               depth: 2
               value: -1.0396219340882068e-01
               splits:
                  - { var:18, quality:2.2508544847369194e-02,
                      le:1.4318332672119141e+01 }
            -
               depth: 3
               value: -4.1158526730486505e-01
               splits:
                  - { var:26, quality:3.0845049768686295e-02,
                      le:5.0000000000000000e-01 }
            -
               depth: 4
               value: -8.6388122280971447e-01
               splits:
                  - { var:0, quality:3.1089533120393753e-02,
                      le:4.5000000000000000e+00 }
            -
               depth: 5
               value: -1.3563338764999214e-01
            -
               depth: 5
               value: -1.2616634728864242e+00
            -
               depth: 4
               value: 5.2375930901607537e-01
               splits:
                  - { var:2, quality:1.1841952800750732e-02,
                      le:7.1716949343681335e-02 }
            -
               depth: 5
               value: -9.5923890980692039e-01
            -
               depth: 5
               value: 1.0869582330016363e+00
            -
               depth: 3
               value: 7.4127842731778437e-01
               splits:
                  - { var:29, quality:1.6290893778204918e-02,
                      le:9.0408432483673096e-01 }
            -
               depth: 4
               value: 9.4416322268346531e-01
               splits:
                  - { var:22, quality:1.7071871086955070e-02,
                      le:9.3364763259887695e-01 }
            -
               depth: 5
               value: 1.0973135046045301e+00
            -
               depth: 5
               value: -9.7100836403761903e-01
            -
               depth: 4
               value: -2.2179483145713106e+00
               splits:
                  - { var:12, quality:1.7523454735055566e-03,
                      le:5.2158695459365845e-01 }
            -
               depth: 5
               value: -2.8559203059689979e+00
            -
               depth: 5
               value: 5.3486196057241797e-01
            -
               depth: 2
               value: 1.0926040747823595e-01
               splits:
                  - { var:16, quality:1.2643129564821720e-02,
                      le:9.1813117265701294e-01 }
            -
               depth: 3
               value: 1.9058827031945283e-01
               splits:
                  - { var:3, quality:1.5028426423668861e-02,
                      le:4.7596091032028198e-01 }
            -
               depth: 4
               value: 1.0817249245578331e-01
               splits:
                  - { var:13, quality:8.6200190708041191e-03,
                      le:2.9334679245948792e-02 }
            -
               depth: 5
               value: -5.6181565171503112e-01
            -
               depth: 5
               value: 1.6742730631581204e-01
            -
               depth: 4
               value: 7.1088123764327737e-01
               splits:
                  - { var:30, quality:1.5445772558450699e-02, not_in:[ 2 ] }
            -
               depth: 5
               value: 9.3573374426140762e-02
            -
               depth: 5
               value: 9.7803061640015831e-01
            -
               depth: 3
               value: -3.9317624818144059e-01
               splits:
                  - { var:7, quality:1.2014936655759811e-02,
                      le:3.8162223994731903e-02 }
            -
               depth: 4
               value: -1.4245465618751971e+00
               splits:
                  - { var:29, quality:1.2567791156470776e-02,
                      le:9.2263358831405640e-01 }
            -
               depth: 5
               value: -1.5633013504317779e+00
            -
               depth: 5
               value: 6.1834314530805001e-01
            -
               depth: 4
               value: 8.8933190422487984e-03
               splits:
                  - { var:5, quality:3.0367444269359112e-03,
                      le:1.1431732773780823e-01 }
            -
               depth: 5
               value: -1.3169365063101952e+00
            -
               depth: 5
               value: 1.8066480528065323e-01
            -
               depth: 1
               value: -2.6104514785715929e-02
               splits:
                  - { var:30, quality:2.7623116038739681e-03, not_in:[ 0 ] }
            -
               depth: 2
               value: -7.7369236944320990e-02
               splits:
                  - { var:3, quality:1.9216025248169899e-02,
                      le:1.2076030671596527e-01 }
            -
               depth: 3
               value: -5.0842253546901583e-01
               splits:
                  - { var:23, quality:2.8637520968914032e-02,
                      le:1.6479659080505371e+00 }
            -
               depth: 4
               value: -1.2102590351235740e-01
               splits:
                  - { var:13, quality:4.7910092398524284e-03,
                      le:6.5752223134040833e-02 }
            -
               depth: 5
               value: 4.0981029870788077e-01
            -
               depth: 5
               value: -3.2940740389774964e-01
            -
               depth: 4
               value: -1.0976907868813948e+00
               splits:
                  - { var:4, quality:3.5919204354286194e-02,
                      le:2.5219731032848358e-02 }
            -
               depth: 5
               value: 6.9545368454112044e-01
            -
               depth: 5
               value: -1.6441749023793788e+00
            -
               depth: 3
               value: 3.8750532908782859e-02
               splits:
                  - { var:3, quality:1.8132794648408890e-02,
                      le:1.7724767327308655e-01 }
            -
               depth: 4
               value: 5.5324503851982687e-01
               splits:
                  - { var:23, quality:2.6327826082706451e-02,
                      le:1.3678898811340332e+00 }
            -
               depth: 5
               value: -5.5553933615308337e-01
            -
               depth: 5
               value: 7.9376793768880061e-01
            -
               depth: 4
               value: -9.3617698640979533e-02
               splits:
                  - { var:1, quality:1.1097252368927002e-02,
                      le:6.3899077475070953e-02 }
            -
               depth: 5
               value: -2.0078740764727825e+00
            -
               depth: 5
               value: -4.6704297646037618e-02
            -
               depth: 2
               value: 4.4219208146491586e-02
               splits:
                  - { var:3, quality:2.0166892558336258e-02,
                      le:1.2076030671596527e-01 }
            -
               depth: 3
               value: 5.4217616321180706e-01
               splits:
                  - { var:23, quality:2.6413368061184883e-02,
                      le:1.6127781867980957e+00 }
            -
               depth: 4
               value: 6.4991956521761207e-02
               splits:
                  - { var:7, quality:7.6475199311971664e-03,
                      le:5.8964529307559133e-04 }
            -
               depth: 5
               value: 4.0012011648318124e-01
            -
               depth: 5
               value: -1.0021285781747833e+00
            -
               depth: 4
               value: 1.0616766070891679e+00
               splits:
                  - { var:17, quality:3.3160556107759476e-02,
                      le:1.9067032262682915e-02 }
            -
               depth: 5
               value: -1.1428718270359088e+00
            -
               depth: 5
               value: 1.4083898207605161e+00
            -
               depth: 3
               value: -1.1652885981993755e-01
               splits:
                  - { var:20, quality:2.3156607523560524e-02,
                      le:1.6003921031951904e+00 }
            -
               depth: 4
               value: -6.2972566379353212e-01
               splits:
                  - { var:19, quality:3.6862947046756744e-02,
                      le:1.6978930234909058e+00 }
            -
               depth: 5
               value: 1.9078870536829054e-01
            -
               depth: 5
               value: -1.2870576276237731e+00
            -
               depth: 4
               value: 1.1513067837312163e-01
               splits:
                  - { var:28, quality:1.9220067188143730e-02,
                      le:1.8000003695487976e-01 }
            -
               depth: 5
               value: -3.2415985399259917e-01
            -
               depth: 5
               value: 4.5316272510572053e-01
      -
         nodes:
            -
               depth: 0
               value: -1.7961721002663837e-10
               splits:
                  - { var:14, quality:5.4302630014717579e-03,
                      le:1.7978185415267944e-01 }
            -
               depth: 1
               value: 8.5454379090988478e-02
               splits:
                  - { var:30, quality:1.0855880565941334e-02, in:[ 2 ] }
            -
               depth: 2
               value: -2.4324269193109260e-01
               splits:
                  - { var:4, quality:2.0103951916098595e-02,
                      le:4.1775003075599670e-02 }
            -
               depth: 3
               value: -8.2287596043193689e-01
               splits:
                  - { var:8, quality:2.2625628858804703e-02,
                      le:-1.0915237665176392e-01 }
            -
               depth: 4
               value: 6.6408814200019972e-01
               splits:
                  - { var:29, quality:3.3788920845836401e-03,
                      le:9.0952384471893311e-01 }
            -
               depth: 5
               value: 2.7893738626315465e+00
            -
               depth: 5
               value: -5.7564577324601141e+00
            -
               depth: 4
               value: -1.1187203098952074e+00
               splits:
                  - { var:24, quality:2.3057702928781509e-02,
                      le:1.8650710582733154e-02 }
            -
               depth: 5
               value: -1.2836775322225620e+00
            -
               depth: 5
               value: 1.5036486123345705e-01
            -
               depth: 3
               value: 3.7672858532789477e-01
               splits:
                  - { var:19, quality:1.0401509702205658e-02,
                      le:1.7951046228408813e+00 }
            -
               depth: 4
               value: -6.2305425921174684e-01
               splits:
                  - { var:15, quality:5.0417552702128887e-03,
                      le:3.9104443788528442e-01 }
            -
               depth: 5
               value: 1.8004987925036631e+00
            -
               depth: 5
               value: -1.3689613430325620e+00
            -
               depth: 4
               value: 7.6802990824145290e-01
               splits:
                  - { var:24, quality:1.1708122678101063e-02,
                      le:3.8855075836181641e-03 }
            -
               depth: 5
               value: -4.3126578369722740e-01
            -
               depth: 5
               value: 1.0933762402643463e+00
            -
               depth: 2
               value: 1.4214643747134872e-01
               splits:
                  - { var:19, quality:1.4481431804597378e-02,
                      le:2.6031823158264160e+00 }
            -
               depth: 3
               value: 8.7804280813932864e-02
               splits:
                  - { var:11, quality:5.5433446541428566e-03,
                      le:4.9074762500822544e-04 }
            -
               depth: 4
               value: 2.3491655210133553e-02
               splits:
                  - { var:17, quality:1.9279016414657235e-03,
                      le:1.9442765042185783e-02 }
            -
               depth: 5
               value: 3.3846101400168516e-01
            -
               depth: 5
               value: -3.1381527286584443e-03
            -
               depth: 4
               value: 2.4431311157631261e-01
               splits:
                  - { var:4, quality:9.1867977753281593e-03,
                      le:5.0579816102981567e-02 }
            -
               depth: 5
               value: 3.6449692561501362e-01
            -
               depth: 5
               value: -1.2502681251125006e-01
            -
               depth: 3
               value: 5.6276175949034168e-01
               splits:
                  - { var:10, quality:1.4758942648768425e-02,
                      le:-2.7866230010986328e+00 }
            -
               depth: 4
               value: -1.6630546340261831e+00
               splits:
                  - { var:1, quality:1.2600512709468603e-03,
                      le:1.1475147306919098e-01 }
            -
               depth: 5
               value: 1.2197142935143235e+00
            -
               depth: 5
               value: -5.7564577324601141e+00
            -
               depth: 4
               value: 6.1954225306649724e-01
               splits:
                  - { var:4, quality:1.5427689068019390e-02,
                      le:1.7191506922245026e-02 }
            -
               depth: 5
               value: 1.0016657492808458e+00
            -
               depth: 5
               value: 3.8219944304668924e-01
            -
               depth: 1
               value: -6.3786727659058115e-02
               splits:
                  - { var:24, quality:7.6790293678641319e-03,
                      le:7.5412005186080933e-02 }
            -
               depth: 2
               value: -8.3957399541111311e-02
               splits:
                  - { var:24, quality:6.9916713982820511e-03,
                      le:3.6666974425315857e-02 }
            -
               depth: 3
               value: -4.7577513842871337e-02
               splits:
                  - { var:18, quality:2.5478173047304153e-03,
                      le:2.5967512130737305e+01 }
            -
               depth: 4
               value: -3.5089973682130890e-02
               splits:
                  - { var:29, quality:2.6955802459269762e-03,
                      le:8.1755363941192627e-01 }
            -
               depth: 5
               value: 3.0012976555942078e-01
            -
               depth: 5
               value: -5.0676867873366137e-02
            -
               depth: 4
               value: -3.3613753125844353e-01
               splits:
                  - { var:9, quality:2.9871603474020958e-03,
                      le:6.6442057490348816e-02 }
            -
               depth: 5
               value: -1.2307964697803760e-01
            -
               depth: 5
               value: -6.5133115449919621e-01
            -
               depth: 3
               value: -2.4672964719224591e-01
               splits:
                  - { var:7, quality:9.2532718554139137e-03,
                      le:6.2742933630943298e-02 }
            -
               depth: 4
               value: -3.2666610456350387e-01
               splits:
                  - { var:7, quality:1.0659037157893181e-02,
                      le:5.9553209692239761e-02 }
            -
               depth: 5
               value: -2.7530262866462141e-01
            -
               depth: 5
               value: -1.0746926045200578e+00
            -
               depth: 4
               value: 1.9454610739011594e-01
               splits:
                  - { var:30, quality:6.4181718043982983e-03, not_in:[ 2 ] }
            -
               depth: 5
               value: -4.5671898451413406e-01
            -
               depth: 5
               value: 1.1892669611118245e+00
            -
               depth: 2
               value: 4.2706156612038321e-01
               splits:
                  - { var:30, quality:6.4156837761402130e-03, not_in:[ 0 ] }
            -
               depth: 3
               value: 2.5011192929972899e-02
               splits:
                  - { var:6, quality:4.4706840999424458e-03,
                      le:3.2873582839965820e-01 }
            -
               depth: 4
               value: 5.2103465540899307e-01
               splits:
                  - { var:20, quality:4.1984366253018379e-03,
                      le:2.4817788600921631e+00 }
            -
               depth: 5
               value: 9.3209618532322558e-01
            -
               depth: 5
               value: -5.2575620320968408e+00
            -
               depth: 4
               value: -1.7018559055651457e+00
               splits:
                  - { var:11, quality:3.1430847011506557e-03,
                      le:1.2709982693195343e-02 }
            -
               depth: 5
               value: 1.4019448606453107e+00
            -
               depth: 5
               value: -2.3007103696102691e+00
            -
               depth: 3
               value: 8.5369403650368791e-01
               splits:
                  - { var:23, quality:8.9322831481695175e-03,
                      le:1.9504454135894775e+00 }
            -
               depth: 4
               value: 1.3055319552057538e+00
               splits:
                  - { var:4, quality:9.7921555861830711e-03,
                      le:1.8195133656263351e-02 }
            -
               depth: 5
               value: -2.3650906032501289e+00
            -
               depth: 5
               value: 1.5755141884294339e+00
            -
               depth: 4
               value: -4.4537456333887165e-01
               splits:
                  - { var:3, quality:1.7277437727898359e-03,
                      le:1.0089770555496216e+00 }
            -
               depth: 5
               value: -2.3580932112948023e+00
            -
               depth: 5
               value: 5.7564577324623896e+00
      -
         nodes:
            -
               depth: 0
               value: -4.8658408527330651e-06
               splits:
                  - { var:23, quality:1.6213854542002082e-03,
                      le:1.1913914680480957e+00 }
            -
               depth: 1
               value: 2.7667235503962229e-01
               splits:
                  - { var:6, quality:2.0847159903496504e-03,
                      le:1.1704338341951370e-01 }
            -
               depth: 2
               value: 3.2468327608013360e-02
               splits:
                  - { var:30, quality:5.4881605319678783e-04, in:[ 0 ] }
            -
               depth: 3
               value: -5.7564577324601141e+00
            -
               depth: 3
               value: 1.1641472844370888e-01
               splits:
                  - { var:8, quality:3.2237201230600476e-04,
                      le:-1.1875760555267334e-01 }
            -
               depth: 4
               value: -1.4043943608989556e-01
               splits:
                  - { var:30, quality:1.2294813059270382e-03, in:[ 1 ] }
            -
               depth: 5
               value: -1.1327603565125850e+00
            -
               depth: 5
               value: 7.4812380266408129e-01
            -
               depth: 4
               value: 2.8772932922120625e-01
               splits:
                  - { var:30, quality:1.1390621075406671e-03, in:[ 2 ] }
            -
               depth: 5
               value: -3.3132828689506488e-01
            -
               depth: 5
               value: 8.3850301040890396e-01
            -
