%YAML:1.0
---
opencv_ml_boost:
   format: 3
   is_classifier: 1
   var_all: 55
   var_count: 54
   ord_var_count: 53
   cat_var_count: 2
   training_params:
      boosting_type: RealAdaboost
      use_surrogates: 0
      max_categories: 10
      regression_accuracy: 1.0000000474974513e-03
      max_depth: 5
      min_sample_count: 5
      cross_validation_folds: 0
      priors: !!opencv-matrix
         rows: 1
         cols: 2
         dt: f
         data: [ -5.46509881e+25, 3.06758247e-41 ]
      weight_trimming_rate: 1.
   global_var_idx: 1
   var_idx: [ 0, 1, 2, 3, 4, 5, 6, 7, 8, 9, 10, 11, 12, 13, 14, 15, 16,
       17, 18, 19, 20, 21, 22, 23, 24, 25, 26, 27, 28, 29, 30, 31, 32,
       33, 34, 35, 36, 37, 38, 39, 40, 41, 42, 43, 44, 45, 46, 47, 48,
       49, 50, 51, 52, 53 ]
   var_type: [ 0, 0, 0, 0, 0, 0, 0, 0, 0, 0, 0, 0, 0, 0, 0, 0, 0, 0, 0,
       0, 0, 0, 0, 0, 0, 0, 0, 0, 0, 0, 0, 0, 0, 0, 0, 0, 0, 0, 0, 0, 0,
       0, 0, 0, 0, 0, 0, 0, 0, 0, 0, 0, 0, 1, 1 ]
   cat_ofs: [ 0, 0, 0, 0, 0, 0, 0, 0, 0, 0, 0, 0, 0, 0, 0, 0, 0, 0, 0, 0,
       0, 0, 0, 0, 0, 0, 0, 0, 0, 0, 0, 0, 0, 0, 0, 0, 0, 0, 0, 0, 0, 0,
       0, 0, 0, 0, 0, 0, 0, 0, 0, 0, 0, 0, 0, 0, 0, 0, 0, 0, 0, 0, 0, 0,
       0, 0, 0, 0, 0, 0, 0, 0, 0, 0, 0, 0, 0, 0, 0, 0, 0, 0, 0, 0, 0, 0,
       0, 0, 0, 0, 0, 0, 0, 0, 0, 0, 0, 0, 0, 0, 0, 0, 0, 0, 0, 0, 0, 3 ]
   cat_map: [ 0, 1, 2 ]
   class_labels: [ 0, 1 ]
   missing_subst: [ 0., 0., 0., 0., 0., 0., 0., 0., 0., 0., 0., 0., 0.,
       0., 0., 0., 0., 0., 0., 0., 0., 0., 0., 0., 0., 0., 0., 0., 0.,
       0., 0., 0., 0., 0., 0., 0., 0., 0., 0., 0., 0., 0., 0., 0., 0.,
       0., 0., 0., 0., 0., 0., 0., 0., -1., 0. ]
   ntrees: 20
   trees:
      -
         nodes:
            -
               depth: 0
               value: 0.
               splits:
                  - { var:53, quality:2.1729847416281700e-02, in:[ 2 ] }
            -
               depth: 1
               value: -2.2325444474595768e-01
               splits:
                  - { var:30, quality:1.5234431624412537e-01,
                      le:3.6082984924316406e+01 }
            -
               depth: 2
               value: -1.8668330907117867e+00
               splits:
                  - { var:7, quality:1.2975481152534485e-01,
                      le:3.7270233035087585e-02 }
            -
               depth: 3
               value: -2.0785773083686663e+00
               splits:
                  - { var:24, quality:1.3020680844783783e-01,
                      le:2.2777259349822998e-02 }
            -
               depth: 4
               value: -2.1929678255853058e+00
               splits:
                  - { var:22, quality:1.3035632669925690e-01,
                      le:8.8244497776031494e-01 }
            -
               depth: 5
               value: 1.0381968238912227e-01
            -
               depth: 5
               value: -2.2488257279146988e+00
            -
               depth: 4
               value: -4.1645456146755289e-01
               splits:
                  - { var:17, quality:7.3885248275473714e-04,
                      le:5.0806254148483276e-02 }
            -
               depth: 5
               value: 4.5039327266909518e-01
            -
               depth: 5
               value: -1.1450031553935940e+00
            -
               depth: 3
               value: 1.4711973649896898e-01
               splits:
                  - { var:17, quality:5.7746615493670106e-04,
                      le:5.4526984691619873e-02 }
            -
               depth: 4
               value: 1.0906121179948891e+00
               splits:
                  - { var:23, quality:6.2213011551648378e-04,
                      le:1.2977527379989624e+00 }
            -
               depth: 5
               value: -4.5814536593707755e-01
            -
               depth: 5
               value: 1.7005986908310782e+00
            -
               depth: 4
               value: -2.7261352524166221e-01
               splits:
                  - { var:33, quality:4.6770559856668115e-04,
                      le:2.5088363647460938e+01 }
            -
               depth: 5
               value: 5.6748996641949234e-01
            -
               depth: 5
               value: -8.0471895621705081e-01
            -
               depth: 2
               value: 4.0377013096138320e-01
               splits:
                  - { var:26, quality:8.7386995553970337e-02,
                      le:5.0000000000000000e-01 }
            -
               depth: 3
               value: 7.9490030365495534e-01
               splits:
                  - { var:14, quality:9.9066659808158875e-02,
                      le:5.5633866786956787e-01 }
            -
               depth: 4
               value: 1.2359866774736696e+00
               splits:
                  - { var:25, quality:1.0275924950838089e-01,
                      le:5.0000000000000000e-01 }
            -
               depth: 5
               value: 1.5948599027303036e+00
            -
               depth: 5
               value: -6.6087791999115997e-01
            -
               depth: 4
               value: -1.0845268501847416e+00
               splits:
                  - { var:30, quality:1.2869420461356640e-02,
                      le:8.3580513000488281e+01 }
            -
               depth: 5
               value: 1.9901506481032449e-01
            -
               depth: 5
               value: -2.3810869673988564e+00
            -
               depth: 3
               value: -1.6751469374226908e+00
               splits:
                  - { var:39, quality:2.6496233418583870e-02,
                      le:2.2536745294928551e-02 }
            -
               depth: 4
               value: 8.9587973461402781e-01
               splits:
                  - { var:4, quality:2.3521504772361368e-04,
                      le:2.2165797650814056e-02 }
            -
               depth: 5
               value: 5.7564577324623896e+00
            -
               depth: 5
               value: -5.7564577324601141e+00
            -
               depth: 4
               value: -1.7861338036740400e+00
               splits:
                  - { var:12, quality:2.6650607585906982e-02,
                      le:1.9104115664958954e-01 }
            -
               depth: 5
               value: -3.6879947156538861e-01
            -
               depth: 5
               value: -1.9593999948536165e+00
            -
               depth: 1
               value: 9.9268741921265113e-02
               splits:
                  - { var:7, quality:6.2827371060848236e-02,
                      le:1.7697717994451523e-02 }
            -
               depth: 2
               value: 2.9338140300920357e-01
               splits:
                  - { var:30, quality:4.3580699712038040e-02,
                      le:3.6070552825927734e+01 }
            -
               depth: 3
               value: 3.4102591632125101e-01
               splits:
                  - { var:53, quality:5.9645213186740875e-02, not_in:[ 1 ] }
            -
               depth: 4
               value: 1.0859207792909889e-01
               splits:
                  - { var:26, quality:5.7582926005125046e-02,
                      le:5.0000000000000000e-01 }
            -
               depth: 5
               value: -2.7364966356683396e-01
            -
               depth: 5
               value: 1.5255655264719230e+00
            -
               depth: 4
               value: 5.7285108323537870e-01
               splits:
                  - { var:26, quality:1.1458843201398849e-01,
                      le:5.0000000000000000e-01 }
            -
               depth: 5
               value: 9.4723561365331688e-01
            -
               depth: 5
               value: -8.3938630291761385e-01
            -
               depth: 3
               value: 8.0926502969271147e-02
               splits:
                  - { var:53, quality:4.3426245450973511e-02, in:[ 1 ] }
            -
               depth: 4
               value: -1.1827990304114193e+00
               splits:
                  - { var:23, quality:2.7465444058179855e-02,
                      le:1.4863152503967285e+00 }
            -
               depth: 5
               value: 4.9559602002363984e-01
            -
               depth: 5
               value: -1.9459101490553454e+00
            -
               depth: 4
               value: 7.5976315385869753e-01
               splits:
                  - { var:7, quality:3.0177038162946701e-02,
                      le:7.1471394039690495e-03 }
            -
               depth: 5
               value: 1.1999503584084081e+00
            -
               depth: 5
               value: -2.3771184835753803e-01
            -
               depth: 2
               value: -3.5147078907612339e-01
               splits:
                  - { var:1, quality:6.0554429888725281e-02,
                      le:2.6810348033905029e-01 }
            -
               depth: 3
               value: -7.2959934015182648e-01
               splits:
                  - { var:26, quality:6.8582668900489807e-02,
                      le:5.0000000000000000e-01 }
            -
               depth: 4
               value: -9.2939825344601035e-01
               splits:
                  - { var:30, quality:8.0931469798088074e-02,
                      le:3.6572471618652344e+01 }
            -
               depth: 5
               value: 1.5777922099001651e-01
            -
               depth: 5
               value: -1.2554296414830581e+00
            -
               depth: 4
               value: 2.6966323964353511e-01
               splits:
                  - { var:53, quality:1.3164650648832321e-02, in:[ 1 ] }
            -
               depth: 5
               value: -1.9186497296161056e+00
            -
               depth: 5
               value: 1.5193491547187183e+00
            -
               depth: 3
               value: 3.0120503350975769e-01
               splits:
                  - { var:53, quality:6.0384906828403473e-02, in:[ 1 ] }
            -
               depth: 4
               value: -5.7564577324601141e+00
            -
               depth: 4
               value: 1.8701857961835926e+00
               splits:
                  - { var:3, quality:3.9892110973596573e-02,
                      le:8.0100262165069580e-01 }
            -
               depth: 5
               value: -3.8273392106978582e-01
            -
               depth: 5
               value: 2.2028173242297688e+00
      -
         nodes:
            -
               depth: 0
               value: -1.3099489578382052e-04
               splits:
                  - { var:20, quality:6.0873394832015038e-03,
                      le:2.5903849601745605e+00 }
            -
               depth: 1
               value: -3.3577499154420015e-02
               splits:
                  - { var:53, quality:4.8837051726877689e-03, in:[ 0 ] }
            -
               depth: 2
               value: -1.1033566676090358e-01
               splits:
                  - { var:37, quality:6.7479155957698822e-02,
                      le:2.2660154849290848e-02 }
            -
               depth: 3
               value: -3.4726745085986815e-01
               splits:
                  - { var:23, quality:7.6433598995208740e-02,
                      le:1.8094642162322998e+00 }
            -
               depth: 4
               value: -7.1453580885341661e-01
               splits:
                  - { var:25, quality:9.2291578650474548e-02,
                      le:5.0000000000000000e-01 }
            -
               depth: 5
               value: -8.8493325307577242e-01
            -
               depth: 5
               value: 5.5046363323988634e-01
            -
               depth: 4
               value: 2.1721973698113453e-01
               splits:
                  - { var:21, quality:4.2933806777000427e-02,
                      le:8.2754802703857422e-01 }
            -
               depth: 5
               value: -1.1764080982007534e+00
            -
               depth: 5
               value: 6.8211494549046936e-01
            -
               depth: 3
               value: 7.5630427567753356e-01
               splits:
                  - { var:19, quality:4.2580734938383102e-02,
                      le:1.9844011068344116e+00 }
            -
               depth: 4
               value: 1.1979613805038578e+00
               splits:
                  - { var:16, quality:4.4363595545291901e-02,
                      le:1.6364729404449463e-01 }
            -
               depth: 5
               value: -6.3291359850643780e-01
            -
               depth: 5
               value: 1.3235470932623516e+00
            -
               depth: 4
               value: 2.0616211208502375e-01
               splits:
                  - { var:39, quality:1.2375015765428543e-02,
                      le:7.0701994001865387e-02 }
            -
               depth: 5
               value: -5.1773234939492496e-01
            -
               depth: 5
               value: 1.1765196264532458e+00
            -
               depth: 2
               value: 2.7416674182526850e-02
               splits:
                  - { var:39, quality:5.3667351603507996e-02,
                      le:5.3277786821126938e-02 }
            -
               depth: 3
               value: 1.9782986768404995e-01
               splits:
                  - { var:5, quality:3.7044089287519455e-02,
                      le:5.1662564277648926e-02 }
            -
               depth: 4
               value: 7.1001637027264441e-01
               splits:
                  - { var:53, quality:5.4742012172937393e-02, in:[ 2 ] }
            -
               depth: 5
               value: -5.4144450543633182e-01
            -
               depth: 5
               value: 1.0493670622515325e+00
            -
               depth: 4
               value: 5.0122175796692758e-02
               splits:
                  - { var:13, quality:1.4715078286826611e-02,
                      le:1.1674040555953979e-01 }
            -
               depth: 5
               value: 2.2223139015023230e-01
            -
               depth: 5
               value: -2.5345976543915649e-01
            -
               depth: 3
               value: -7.7318651439126229e-01
               splits:
                  - { var:22, quality:4.9726076424121857e-02,
                      le:9.3579053878784180e-01 }
            -
               depth: 4
               value: -7.8285884509386155e-03
               splits:
                  - { var:53, quality:3.7722529377788305e-03, in:[ 1 ] }
            -
               depth: 5
               value: -5.2959642097297499e-01
            -
               depth: 5
               value: 4.1021406860438236e-01
            -
               depth: 4
               value: -1.1648487715412206e+00
               splits:
                  - { var:7, quality:5.6093942373991013e-02,
                      le:1.7315426841378212e-02 }
            -
               depth: 5
               value: -1.4378450552632451e+00
            -
               depth: 5
               value: 4.2868945578534706e-01
            -
               depth: 1
               value: 1.8398776996632507e-01
               splits:
                  - { var:53, quality:6.1834745109081268e-02, in:[ 1 ] }
            -
               depth: 2
               value: -1.3670801971602131e+00
               splits:
                  - { var:23, quality:3.1121229752898216e-02,
                      le:1.3075863122940063e+00 }
            -
               depth: 3
               value: 2.0885595232682111e-01
               splits:
                  - { var:42, quality:7.2534737410023808e-04,
                      le:1.7733655404299498e-03 }
            -
               depth: 4
               value: 6.7290374441597200e-01
               splits:
                  - { var:5, quality:8.4021367365494370e-04,
                      le:1.3890880346298218e-01 }
            -
               depth: 5
               value: -6.9687818119171008e-01
            -
               depth: 5
               value: 1.7424156404448197e+00
            -
               depth: 4
               value: -5.7564577324601141e+00
            -
               depth: 3
               value: -1.5941960670527557e+00
               splits:
                  - { var:29, quality:3.1946476548910141e-02,
                      le:9.7906047105789185e-01 }
            -
               depth: 4
               value: -1.7164339129975466e+00
               splits:
                  - { var:13, quality:3.2569952309131622e-02,
                      le:7.4683250859379768e-03 }
            -
               depth: 5
               value: 3.6303868101556219e-01
            -
               depth: 5
               value: -1.8673980839898348e+00
            -
               depth: 4
               value: 5.9477325181265339e-01
               splits:
                  - { var:4, quality:4.1451951256021857e-04,
                      le:3.7262357771396637e-02 }
            -
               depth: 5
               value: 5.7564577324623896e+00
            -
               depth: 5
               value: -5.7564577324601141e+00
            -
               depth: 2
               value: 5.8560808080098004e-01
               splits:
                  - { var:25, quality:3.9470259100198746e-02,
                      le:5.0000000000000000e-01 }
            -
               depth: 3
               value: 2.9315634625087544e-01
               splits:
                  - { var:27, quality:8.9535815641283989e-03,
                      le:1.5000000000000000e+00 }
            -
               depth: 4
               value: 8.8997815755577692e-01
               splits:
                  - { var:53, quality:1.0325697250664234e-02, not_in:[ 0 ] }
            -
               depth: 5
               value: 2.3629663706389383e-02
            -
               depth: 5
               value: 1.4104350834240227e+00
            -
               depth: 4
               value: 1.2133687965967477e-01
               splits:
                  - { var:53, quality:4.4479616917669773e-03, in:[ 0 ] }
            -
               depth: 5
               value: -1.6386952471103625e-01
            -
               depth: 5
               value: 4.6847279214173632e-01
            -
               depth: 3
               value: 1.0298368850905766e+00
               splits:
                  - { var:53, quality:5.2164562046527863e-02, in:[ 2 ] }
            -
               depth: 4
               value: -7.6182739756507900e-01
               splits:
                  - { var:36, quality:5.0890748389065266e-03,
                      le:4.5249333977699280e-01 }
            -
               depth: 5
               value: -1.0993138584904787e+00
            -
               depth: 5
               value: 2.8411462268883239e+00
            -
               depth: 4
               value: 2.5299896077660873e+00
               splits:
                  - { var:41, quality:4.9590591341257095e-02,
                      le:1.8713536262512207e+00 }
            -
               depth: 5
               value: -1.0625183038963484e+00
            -
               depth: 5
               value: 2.8704177560213702e+00
      -
         nodes:
            -
               depth: 0
               value: -5.6018073202103843e-07
               splits:
                  - { var:5, quality:1.2261122465133667e-02,
                      le:4.7201327979564667e-02 }
            -
               depth: 1
               value: -2.8270305582064853e-01
               splits:
                  - { var:53, quality:1.9435804337263107e-02, in:[ 0 ] }
            -
               depth: 2
               value: -6.5549234701730907e-01
               splits:
                  - { var:30, quality:3.9975713938474655e-02,
                      le:6.9709281921386719e+00 }
            -
               depth: 3
               value: 5.7564577324623896e+00
            -
               depth: 3
               value: -1.1116612274001962e+00
               splits:
                  - { var:3, quality:4.4885136187076569e-02,
                      le:1.7686150968074799e-01 }
            -
               depth: 4
               value: -2.4040093608010755e+00
               splits:
                  - { var:32, quality:4.3197009712457657e-02,
                      le:1.9131824374198914e-01 }
            -
               depth: 5
               value: -8.8967904910698792e-01
            -
               depth: 5
               value: -2.7633867386338036e+00
            -
               depth: 4
               value: 6.2036034671624218e-01
               splits:
                  - { var:42, quality:5.0490871071815491e-03,
                      le:1.4087278395891190e-04 }
            -
               depth: 5
               value: 1.6215219813956845e+00
            -
               depth: 5
               value: -1.6787924622255532e+00
            -
               depth: 2
               value: -6.2724697574187291e-02
               splits:
                  - { var:36, quality:2.5800468400120735e-02,
                      le:4.8487001657485962e-01 }
            -
               depth: 3
               value: 6.5719740499769785e-01
               splits:
                  - { var:53, quality:1.8423018977046013e-02, in:[ 2 ] }
            -
               depth: 4
               value: -1.9575809251877613e-01
               splits:
                  - { var:3, quality:6.3493079505860806e-03,
                      le:1.6563034057617188e-01 }
            -
               depth: 5
               value: -5.7564577324601141e+00
            -
               depth: 5
               value: 8.3075462904576036e-01
            -
               depth: 4
               value: 1.1641881807274796e+00
               splits:
                  - { var:3, quality:2.3028485476970673e-02,
                      le:1.6563034057617188e-01 }
            -
               depth: 5
               value: 1.8508598973932968e+00
            -
               depth: 5
               value: -6.9190853273952602e-01
            -
               depth: 3
               value: -6.2175409801738712e-01
               splits:
                  - { var:42, quality:3.2034683972597122e-02,
                      le:1.3833107368554920e-04 }
            -
               depth: 4
               value: -1.4858610320132148e+00
               splits:
                  - { var:4, quality:3.3453725278377533e-02,
                      le:1.4835133217275143e-02 }
            -
               depth: 5
               value: 1.4420874982168330e+00
            -
               depth: 5
               value: -2.3021000656983697e+00
            -
               depth: 4
               value: 6.3422510727539305e-01
               splits:
                  - { var:53, quality:5.3064720705151558e-03, in:[ 2 ] }
            -
               depth: 5
               value: -1.1802451163096900e-01
            -
               depth: 5
               value: 1.1162225474780105e+00
            -
               depth: 1
               value: 4.4549315923999813e-02
               splits:
                  - { var:53, quality:8.1310924142599106e-03, in:[ 1 ] }
            -
               depth: 2
               value: -7.7740644229260220e-02
               splits:
                  - { var:40, quality:3.2399214804172516e-02,
                      le:3.7079644203186035e-01 }
            -
               depth: 3
               value: 6.0113002900749238e-02
               splits:
                  - { var:34, quality:2.3167615756392479e-02,
                      le:7.3355093002319336e+00 }
            -
               depth: 4
               value: -1.9301859855711365e-01
               splits:
                  - { var:4, quality:2.3381849750876427e-02,
                      le:1.6692291945219040e-02 }
            -
               depth: 5
               value: 7.3025643539851748e-01
            -
               depth: 5
               value: -3.5951511828827831e-01
            -
               depth: 4
               value: 4.5320882973232002e-01
               splits:
                  - { var:25, quality:4.6025663614273071e-02,
                      le:5.0000000000000000e-01 }
            -
               depth: 5
               value: 7.6576316814705414e-01
            -
               depth: 5
               value: -1.2988057478930162e+00
            -
               depth: 3
               value: -1.2693522632838783e+00
               splits:
                  - { var:20, quality:3.3821567893028259e-02,
                      le:2.8523123264312744e+00 }
            -
               depth: 4
               value: -1.5349988676559452e+00
               splits:
                  - { var:40, quality:3.4802161157131195e-02,
                      le:4.1373687982559204e-01 }
            -
               depth: 5
               value: -6.9337996875511343e-01
            -
               depth: 5
               value: -2.6294961299856281e+00
            -
               depth: 4
               value: 6.9384985222436135e-02
               splits:
                  - { var:20, quality:2.5434012059122324e-03,
                      le:2.8523311614990234e+00 }
            -
               depth: 5
               value: 5.7564577324623896e+00
            -
               depth: 5
               value: -5.7564577324601141e+00
            -
               depth: 2
               value: 1.0603955025951971e-01
               splits:
                  - { var:36, quality:2.7483399957418442e-02,
                      le:3.2019057869911194e-01 }
            -
               depth: 3
               value: -4.8582191283436951e-02
               splits:
                  - { var:12, quality:2.4906780570745468e-02,
                      le:1.6648229956626892e-01 }
            -
               depth: 4
               value: -4.2340429617452180e-01
               splits:
                  - { var:25, quality:3.5581398755311966e-02,
                      le:5.0000000000000000e-01 }
            -
               depth: 5
               value: -6.2956132006287924e-01
            -
               depth: 5
               value: 4.1048426049495795e-01
            -
               depth: 4
               value: 1.4942246375440971e-01
               splits:
                  - { var:22, quality:1.0830801911652088e-02,
                      le:9.7133266925811768e-01 }
            -
               depth: 5
               value: 4.8854623968192012e-02
            -
               depth: 5
               value: 4.4147717396614528e-01
            -
               depth: 3
               value: 3.5859198145930410e-01
               splits:
                  - { var:41, quality:3.7985946983098984e-02,
                      le:1.4452612400054932e+00 }
            -
               depth: 4
               value: -1.1197690092276218e-01
               splits:
                  - { var:21, quality:1.3749033212661743e-02,
                      le:1.3520746231079102e+00 }
            -
               depth: 5
               value: -7.0341024209745573e-01
            -
               depth: 5
               value: 5.4333992892422134e-01
            -
               depth: 4
               value: 4.9009521311125609e-01
               splits:
                  - { var:52, quality:4.8250902444124222e-02,
                      le:1.1461532592773438e+01 }
            -
               depth: 5
               value: 8.5489880491642423e-01
            -
               depth: 5
               value: 2.0823658549358356e-01
      -
         nodes:
            -
               depth: 0
               value: 1.2680892553990643e-05
               splits:
                  - { var:23, quality:8.9599508792161942e-03,
                      le:1.8089339733123779e+00 }
            -
               depth: 1
               value: 6.6247955541689982e-02
               splits:
                  - { var:53, quality:1.0716704651713371e-02, not_in:[ 2 ] }
            -
               depth: 2
               value: -2.3887186839052069e-03
               splits:
                  - { var:30, quality:1.9674763083457947e-02,
                      le:3.8999073028564453e+01 }
            -
               depth: 3
               value: 1.0606815993806123e-01
               splits:
                  - { var:38, quality:1.0340155102312565e-02,
                      le:1.8473055213689804e-02 }
            -
               depth: 4
               value: 1.7807911141140334e-01
               splits:
                  - { var:4, quality:1.2202041223645210e-02,
                      le:1.6056928783655167e-02 }
            -
               depth: 5
               value: -1.9566983441989372e-01
            -
               depth: 5
               value: 2.1052036141249680e-01
            -
               depth: 4
               value: -1.3044973615570238e-01
               splits:
                  - { var:53, quality:1.2689311057329178e-02, in:[ 1 ] }
            -
               depth: 5
               value: -5.3272924029540636e-01
            -
               depth: 5
               value: 2.4094619979621490e-01
            -
               depth: 3
               value: -4.0390620334028393e-01
               splits:
                  - { var:26, quality:3.6665145307779312e-02,
                      le:5.0000000000000000e-01 }
            -
               depth: 4
               value: -6.7928360061140880e-01
               splits:
                  - { var:53, quality:4.1622493416070938e-02, in:[ 0 ] }
            -
               depth: 5
               value: -1.0410317702849905e+00
            -
               depth: 5
               value: 1.0184007355912875e-01
            -
               depth: 4
               value: 6.6301452576049924e-01
               splits:
                  - { var:44, quality:8.3909267559647560e-03,
                      le:8.0827698111534119e-03 }
            -
               depth: 5
               value: 1.0538311240249887e+00
            -
               depth: 5
               value: 3.3032047632827723e-02
            -
               depth: 2
               value: 2.3947215540405922e-01
               splits:
                  - { var:30, quality:3.9652097970247269e-02,
                      le:2.4736434936523438e+01 }
            -
               depth: 3
               value: -1.7481251940615665e+00
               splits:
                  - { var:41, quality:1.8184127286076546e-02,
                      le:5.6422080993652344e+00 }
            -
               depth: 4
               value: -5.7564577324601141e+00
            -
               depth: 4
               value: 3.8969271471624262e-01
               splits:
                  - { var:41, quality:8.1032578600570560e-04,
                      le:5.6436138153076172e+00 }
            -
               depth: 5
               value: 5.7564577324623896e+00
            -
               depth: 5
               value: -5.7564577324601141e+00
            -
               depth: 3
               value: 3.7897209264351223e-01
               splits:
                  - { var:30, quality:3.7322860211133957e-02,
                      le:4.5903938293457031e+01 }
            -
               depth: 4
               value: 1.1871823778480912e-01
               splits:
                  - { var:30, quality:2.1151429042220116e-02,
                      le:3.5887599945068359e+01 }
            -
               depth: 5
               value: 5.7182739337767718e-01
            -
               depth: 5
               value: -3.8691617767326991e-01
            -
               depth: 4
               value: 8.6576444679681686e-01
               splits:
                  - { var:7, quality:4.2997639626264572e-02,
                      le:3.2439997885376215e-03 }
            -
               depth: 5
               value: -7.9999956058911381e-01
            -
               depth: 5
               value: 1.0205326873268585e+00
            -
               depth: 1
               value: -1.3629757679827775e-01
               splits:
                  - { var:21, quality:2.2841554135084152e-02,
                      le:8.2552206516265869e-01 }
            -
               depth: 2
               value: 2.3685738023357969e-01
               splits:
                  - { var:32, quality:8.6359009146690369e-03,
                      le:1.2358157336711884e-01 }
            -
               depth: 3
               value: 3.6049086103902911e-01
               splits:
                  - { var:53, quality:1.0571106337010860e-02, not_in:[ 1 ] }
            -
               depth: 4
               value: 2.4726284408306914e-01
               splits:
                  - { var:40, quality:1.0182702913880348e-02,
                      le:2.0315398275852203e-01 }
            -
               depth: 5
               value: -1.0377253486144817e+00
            -
               depth: 5
               value: 3.9457510890241165e-01
            -
               depth: 4
               value: 8.1565287746338966e-01
               splits:
                  - { var:30, quality:1.5130518004298210e-02,
                      le:2.6175489425659180e+01 }
            -
               depth: 5
               value: 2.3329509904236208e+00
            -
               depth: 5
               value: -1.1625818393280967e+00
            -
               depth: 3
               value: -1.3761974234518573e-01
               splits:
                  - { var:11, quality:3.5736400168389082e-03,
                      le:2.4925807118415833e-01 }
            -
               depth: 4
               value: 8.2536022418362609e-02
               splits:
                  - { var:24, quality:1.4447052963078022e-03,
                      le:1.1530458927154541e-02 }
            -
               depth: 5
               value: -3.3585069907246745e-01
            -
               depth: 5
               value: 2.9610336023771061e-01
            -
               depth: 4
               value: -1.1670161794331406e+00
               splits:
                  - { var:53, quality:4.8548770137131214e-03, not_in:[ 0 ] }
            -
               depth: 5
               value: -2.5138099520209871e+00
            -
               depth: 5
               value: 1.2143182872419442e+00
            -
               depth: 2
               value: -2.8205962306421783e-01
               splits:
                  - { var:53, quality:2.2620685398578644e-02, not_in:[ 0 ] }
            -
               depth: 3
               value: -4.2711659904258692e-01
               splits:
                  - { var:22, quality:3.9603687822818756e-02,
                      le:9.5778751373291016e-01 }
            -
               depth: 4
               value: 2.7673082601655502e-01
               splits:
                  - { var:36, quality:9.5129366964101791e-03,
                      le:1.6754764318466187e-01 }
            -
               depth: 5
               value: -9.3353599233267825e-01
            -
               depth: 5
               value: 5.5135371339122752e-01
            -
               depth: 4
               value: -7.1965445902526182e-01
               splits:
                  - { var:40, quality:5.3020831197500229e-02,
                      le:1.8529783189296722e-01 }
            -
               depth: 5
               value: 1.2706070094872163e-01
            -
               depth: 5
               value: -1.1939051403910750e+00
            -
               depth: 3
               value: -1.2283478762355093e-01
               splits:
                  - { var:8, quality:2.0706497132778168e-02,
                      le:-9.7684971988201141e-02 }
            -
               depth: 4
               value: 4.7776375987696224e-01
               splits:
                  - { var:16, quality:2.6299756020307541e-02,
                      le:7.7632570266723633e-01 }
            -
               depth: 5
               value: 1.7257077874042315e+00
            -
               depth: 5
               value: -6.0634195690811699e-01
            -
               depth: 4
               value: -4.6279047427945713e-01
               splits:
                  - { var:33, quality:2.2145701572299004e-02,
                      le:1.3717182159423828e+01 }
            -
               depth: 5
               value: 1.4153271545890034e+00
            -
               depth: 5
               value: -5.8975733112090545e-01
      -
         nodes:
            -
               depth: 0
               value: -6.9673549641587976e-05
               splits:
                  - { var:22, quality:7.5619430281221867e-03,
                      le:9.3473720550537109e-01 }
            -
               depth: 1
               value: -1.5291924965617293e-01
               splits:
                  - { var:36, quality:8.0450447276234627e-03,
                      le:1.1762544512748718e-01 }
            -
               depth: 2
               value: -6.5996331228387661e-01
               splits:
                  - { var:4, quality:4.4241282157599926e-03,
                      le:7.2605311870574951e-02 }
            -
               depth: 3
               value: 1.0035028184238337e-01
               splits:
                  - { var:53, quality:5.1583134336397052e-04, not_in:[ 2 ] }
            -
               depth: 4
               value: -1.1166117753939471e+00
               splits:
                  - { var:4, quality:2.9726937646046281e-04,
                      le:7.1950644254684448e-02 }
            -
               depth: 5
               value: 7.5042964236573051e-01
            -
               depth: 5
               value: -5.7564577324601141e+00
            -
               depth: 4
               value: 1.8326882517333789e+00
            -
               depth: 3
               value: -7.2009776712513629e-01
               splits:
                  - { var:44, quality:4.6163946390151978e-03,
                      le:1.1250684037804604e-02 }
            -
               depth: 4
               value: -7.6356236300399516e-01
               splits:
                  - { var:17, quality:4.8199133016169071e-03,
                      le:3.1758539378643036e-02 }
            -
               depth: 5
               value: -2.2379011551714692e-01
            -
               depth: 5
               value: -8.4114609827359010e-01
            -
               depth: 4
               value: 3.7114928743459882e-02
               splits:
                  - { var:53, quality:4.4697333942167461e-04, not_in:[ 2 ] }
            -
               depth: 5
               value: -5.7564577324601141e+00
            -
               depth: 5
               value: 5.7564577324623896e+00
            -
               depth: 2
               value: -1.3021548509938646e-01
               splits:
                  - { var:22, quality:5.9051187708973885e-03,
                      le:8.8753366470336914e-01 }
            -
               depth: 3
               value: -3.6637047812130619e-01
               splits:
                  - { var:28, quality:4.9424171447753906e-03,
                      le:3.5499989986419678e-01 }
            -
               depth: 4
               value: -1.3457711226780292e-01
               splits:
                  - { var:24, quality:1.0098987258970737e-03,
                      le:1.3749837875366211e-02 }
            -
               depth: 5
               value: -3.8167624357816482e-01
            -
               depth: 5
               value: 2.0248470281528863e-01
            -
               depth: 4
               value: -4.8339293793089078e-01
               splits:
                  - { var:7, quality:5.0957533530890942e-03,
                      le:4.5780306681990623e-03 }
            -
               depth: 5
               value: -1.1393027470515351e+00
            -
               depth: 5
               value: -4.3439989023608672e-01
            -
               depth: 3
               value: -9.2028637881480232e-02
               splits:
                  - { var:23, quality:3.7166345864534378e-03,
                      le:1.4867992401123047e+00 }
            -
               depth: 4
               value: -2.0004097202545343e-01
               splits:
                  - { var:30, quality:7.0147551596164703e-03,
                      le:3.6094944000244141e+01 }
            -
               depth: 5
               value: -9.6098375418388074e-02
            -
               depth: 5
               value: -6.0139580230791267e-01
            -
               depth: 4
               value: 3.6254730660549399e-03
               splits:
                  - { var:23, quality:1.4938012463971972e-03,
                      le:1.8829278945922852e+00 }
            -
               depth: 5
               value: 8.2928801013362141e-02
            -
               depth: 5
               value: -1.7688052720474204e-01
            -
               depth: 1
               value: 4.9829808161423517e-02
               splits:
                  - { var:39, quality:1.1014423333108425e-02,
                      le:5.2932031452655792e-02 }
            -
               depth: 2
               value: 3.1865646216805415e-03
               splits:
                  - { var:23, quality:5.7534212246537209e-03,
                      le:1.3658626079559326e+00 }
            -
               depth: 3
               value: -2.3943687151508386e-01
               splits:
                  - { var:53, quality:1.3155000284314156e-02, not_in:[ 1 ] }
            -
               depth: 4
               value: -5.4256319003478282e-01
               splits:
                  - { var:36, quality:1.7720635980367661e-02,
                      le:1.4513817429542542e-01 }
            -
               depth: 5
               value: 4.8320636720375704e-01
            -
               depth: 5
               value: -6.9702725033856450e-01
            -
               depth: 4
               value: 1.3207854959147683e-01
               splits:
                  - { var:26, quality:1.7178734764456749e-02,
                      le:5.0000000000000000e-01 }
            -
               depth: 5
               value: 6.6376673419288079e-01
            -
               depth: 5
               value: -1.3890774012647200e+00
            -
               depth: 3
               value: 4.1002241943856536e-02
               splits:
                  - { var:37, quality:5.5467248894274235e-03,
                      le:1.2644518166780472e-02 }
            -
               depth: 4
               value: -3.6116296502457096e-02
               splits:
                  - { var:46, quality:3.8668168708682060e-03,
                      le:5.8513364791870117e+00 }
            -
               depth: 5
               value: -1.3418343602989763e-01
            -
               depth: 5
               value: 7.3866824500705072e-02
            -
               depth: 4
               value: 1.5091111370864177e-01
               splits:
                  - { var:1, quality:8.9681912213563919e-03,
                      le:1.7638185620307922e-01 }
            -
               depth: 5
               value: 7.8693344186373804e-02
            -
               depth: 5
               value: 4.0679552883118514e-01
            -
               depth: 2
               value: 3.2125589547326416e-01
               splits:
                  - { var:51, quality:1.6510494053363800e-02,
                      le:1.1732398986816406e+01 }
            -
               depth: 3
               value: 4.0510576255205732e-01
               splits:
                  - { var:53, quality:1.7011931166052818e-02, not_in:[ 0 ] }
            -
               depth: 4
               value: 2.4804782921911109e-01
               splits:
                  - { var:38, quality:1.4303486794233322e-02,
                      le:2.6911988854408264e-02 }
            -
               depth: 5
               value: 4.8132177570011991e-01
            -
               depth: 5
               value: -1.4646989507080996e+00
            -
               depth: 4
               value: 5.6718527508527006e-01
               splits:
                  - { var:4, quality:2.1254386752843857e-02,
                      le:7.9813748598098755e-02 }
            -
               depth: 5
               value: 1.8935310812053618e-01
            -
               depth: 5
               value: 1.5985086287569490e+00
            -
               depth: 3
               value: -3.5879588047174577e-01
               splits:
                  - { var:53, quality:3.3342519309371710e-03, in:[ 2 ] }
            -
               depth: 4
               value: -7.9155363505440224e-01
               splits:
                  - { var:12, quality:6.3426690176129341e-03,
                      le:2.3470118641853333e-01 }
            -
               depth: 5
               value: 1.4475109665534014e+00
            -
               depth: 5
               value: -1.7318671423398124e+00
            -
               depth: 4
               value: 1.9978990583052941e-01
               splits:
                  - { var:33, quality:3.1886417418718338e-03,
                      le:2.9717872619628906e+01 }
            -
               depth: 5
               value: 1.2360175837981160e+00
            -
               depth: 5
               value: -1.4913375322087865e+00
      -
         nodes:
            -
               depth: 0
               value: -9.0030993242260508e-07
               splits:
                  - { var:35, quality:2.7677114121615887e-03,
                      le:3.3997831344604492e+00 }
            -
               depth: 1
               value: 3.7554923865892936e-03
               splits:
                  - { var:34, quality:3.1858449801802635e-03,
                      le:7.3675489425659180e+00 }
            -
               depth: 2
               value: 5.8353830329430853e-02
               splits:
                  - { var:25, quality:5.1258723251521587e-03,
                      le:5.0000000000000000e-01 }
            -
               depth: 3
               value: 8.2417944174231442e-02
               splits:
                  - { var:6, quality:8.1132790073752403e-03,
                      le:4.8369792103767395e-01 }
            -
               depth: 4
               value: 3.4668376578532417e-02
               splits:
                  - { var:53, quality:8.0929314717650414e-03, in:[ 1 ] }
            -
               depth: 5
               value: -1.4327803723373109e-01
            -
               depth: 5
               value: 1.4659147986694132e-01
            -
               depth: 4
               value: 3.0988521873642588e-01
               splits:
                  - { var:53, quality:1.1466556228697300e-02, in:[ 0 ] }
            -
               depth: 5
               value: 4.7315103419749129e-02
            -
               depth: 5
               value: 5.2090914280652856e-01
            -
               depth: 3
               value: -2.1913996547327982e-01
               splits:
                  - { var:24, quality:6.9326404482126236e-03,
                      le:5.9514045715332031e-03 }
            -
               depth: 4
               value: -4.6810580913014704e-01
               splits:
                  - { var:53, quality:6.5343338064849377e-03, not_in:[ 0 ] }
            -
               depth: 5
               value: -6.9194734042916328e-01
            -
               depth: 5
               value: -2.5125545262858018e-01
            -
               depth: 4
               value: 3.4520121578857732e-01
               splits:
                  - { var:29, quality:2.4547423236072063e-03,
                      le:8.9678078889846802e-01 }
            -
               depth: 5
               value: 1.0372577307919590e+00
            -
               depth: 5
               value: 1.1644560503564219e-01
            -
               depth: 2
               value: -5.4759752203527967e-02
               splits:
                  - { var:53, quality:1.0596625506877899e-02, in:[ 0 ] }
            -
               depth: 3
               value: -2.2913733385896970e-01
               splits:
                  - { var:2, quality:2.7987634763121605e-02,
                      le:1.8631032109260559e-01 }
            -
               depth: 4
               value: -3.9542277454045510e-01
               splits:
                  - { var:36, quality:3.4241441637277603e-02,
                      le:1.8229404091835022e-01 }
            -
               depth: 5
               value: -1.3202289820294189e-01
            -
               depth: 5
               value: -8.8159751043240142e-01
            -
               depth: 4
               value: 4.4038486762613260e-01
               splits:
                  - { var:48, quality:1.2111250311136246e-02,
                      le:2.4652549624443054e-01 }
            -
               depth: 5
               value: 1.9213383939827593e+00
            -
               depth: 5
               value: 1.1653432874722970e-01
            -
               depth: 3
               value: 5.7236454729744049e-02
               splits:
                  - { var:2, quality:1.5188509598374367e-02,
                      le:2.5046625733375549e-01 }
            -
               depth: 4
               value: 1.0547126946807904e-01
               splits:
                  - { var:25, quality:1.2865424156188965e-02,
                      le:5.0000000000000000e-01 }
            -
               depth: 5
               value: 1.7940531985749381e-01
            -
               depth: 5
               value: -4.0450033118567624e-01
            -
               depth: 4
               value: -2.0609724944225425e+00
               splits:
                  - { var:41, quality:1.2734213843941689e-02,
                      le:3.1742782592773438e+00 }
            -
               depth: 5
               value: 3.8841753744467993e+00
            -
               depth: 5
               value: -2.7477144279912546e+00
            -
               depth: 1
               value: -9.4345297175455878e-01
               splits:
                  - { var:53, quality:5.0723426975309849e-03, not_in:[ 0 ] }
            -
               depth: 2
               value: -5.7564577324601141e+00
            -
               depth: 2
               value: 5.7564577324623896e+00
      -
         nodes:
            -
               depth: 0
               value: -1.2672668887801523e-05
               splits:
                  - { var:41, quality:5.4135685786604881e-03,
                      le:1.4557852745056152e+00 }
            -
               depth: 1
               value: 1.7839414952359339e-01
               splits:
                  - { var:53, quality:1.6965599730610847e-02, not_in:[ 1 ] }
            -
               depth: 2
               value: -1.0256663147757106e-01
               splits:
                  - { var:32, quality:8.1599848344922066e-03,
                      le:9.3155220150947571e-02 }
            -
               depth: 3
               value: -2.2737602264692902e-01
               splits:
                  - { var:30, quality:1.2884234078228474e-02,
                      le:1.8745891571044922e+01 }
            -
               depth: 4
               value: -1.3031066621110952e+00
               splits:
                  - { var:52, quality:1.5044247731566429e-02,
                      le:2.8690824508666992e+00 }
            -
               depth: 5
               value: 2.9406477152229433e+00
            -
               depth: 5
               value: -1.6560968059447525e+00
            -
               depth: 4
               value: 1.6483670247226865e-03
               splits:
                  - { var:52, quality:3.7399963475763798e-03,
                      le:2.9222254753112793e+00 }
            -
               depth: 5
               value: 5.0680501585830822e+00
            -
               depth: 5
               value: -7.4723194351306296e-02
            -
               depth: 3
               value: 8.4623122159100006e-01
               splits:
                  - { var:31, quality:7.1648741140961647e-03,
                      le:8.7200440466403961e-03 }
            -
               depth: 4
               value: -4.0620308882786222e+00
               splits:
                  - { var:0, quality:7.5533805647864938e-04,
                      le:3.5000000000000000e+00 }
            -
               depth: 5
               value: 2.6578695466531994e+00
            -
               depth: 5
               value: -5.7564577324601141e+00
            -
               depth: 4
               value: 1.1699972815198310e+00
               splits:
                  - { var:10, quality:8.2555646076798439e-03,
                      le:-1.2570383548736572e+00 }
            -
               depth: 5
               value: -1.8770924394155049e+00
            -
               depth: 5
               value: 1.6906459400232206e+00
            -
               depth: 2
               value: 5.1780433340691134e-01
               splits:
                  - { var:30, quality:3.0582912266254425e-02,
                      le:9.8726768493652344e+00 }
            -
               depth: 3
               value: -1.8682808935204582e+00
               splits:
                  - { var:7, quality:6.1243418604135513e-03,
                      le:6.5372325479984283e-05 }
            -
               depth: 4
               value: 5.7564577324623896e+00
            -
               depth: 4
               value: -2.2125324117802143e+00
               splits:
                  - { var:16, quality:6.1973081901669502e-03,
                      le:8.3473920822143555e-02 }
            -
               depth: 5
               value: 1.1330531378997923e+00
            -
               depth: 5
               value: -2.6135621519156360e+00
            -
               depth: 3
               value: 7.2076693192458707e-01
               splits:
                  - { var:46, quality:3.0897257849574089e-02,
                      le:7.2523775100708008e+00 }
            -
               depth: 4
               value: 9.6149954972681773e-01
               splits:
                  - { var:39, quality:3.5424612462520599e-02,
                      le:6.4128309488296509e-02 }
            -
               depth: 5
               value: 1.1123475190984693e+00
            -
               depth: 5
               value: -7.9850841606659495e-01
            -
               depth: 4
               value: -1.2607759432413451e-01
               splits:
                  - { var:36, quality:4.6632378362119198e-03,
                      le:4.5587584376335144e-01 }
            -
               depth: 5
               value: -9.2389477611099191e-01
            -
               depth: 5
               value: 7.9662556633963899e-01
            -
               depth: 1
               value: -3.0687445209214976e-02
               splits:
                  - { var:53, quality:5.3164148703217506e-03, in:[ 1 ] }
            -
               depth: 2
               value: -1.3820136035850303e-01
               splits:
                  - { var:28, quality:2.4465603753924370e-02,
                      le:2.3000007867813110e-01 }
            -
               depth: 3
               value: 2.7234335645741807e-03
               splits:
                  - { var:52, quality:2.3005940020084381e-02,
                      le:4.8827466964721680e+00 }
            -
               depth: 4
               value: -3.1592594278486602e-01
               splits:
                  - { var:36, quality:2.8700456023216248e-02,
                      le:2.4524205923080444e-01 }
            -
               depth: 5
               value: 6.2961215931046907e-02
            -
               depth: 5
               value: -9.5190997702315827e-01
            -
               depth: 4
               value: 3.6957659627387612e-01
               splits:
                  - { var:13, quality:3.1379461288452148e-02,
                      le:8.4302037954330444e-02 }
            -
               depth: 5
               value: 9.3481214112983613e-01
            -
               depth: 5
               value: -1.5009919604210192e-01
            -
               depth: 3
               value: -7.7154959324408801e-01
               splits:
                  - { var:14, quality:2.8847521170973778e-02,
                      le:1.9356234371662140e-01 }
            -
               depth: 4
               value: 1.8772628141403513e-01
               splits:
                  - { var:41, quality:2.5396062992513180e-03,
                      le:2.0981721878051758e+00 }
            -
               depth: 5
               value: 8.0728506495054020e-01
            -
               depth: 5
               value: -8.0579151335160903e-01
            -
               depth: 4
               value: -9.4621260837475696e-01
               splits:
                  - { var:17, quality:3.2423898577690125e-02,
                      le:4.3662410229444504e-02 }
            -
               depth: 5
               value: -1.6837590768837678e+00
            -
               depth: 5
               value: -3.8933098444895553e-01
            -
               depth: 2
               value: 1.9007963515390133e-02
               splits:
                  - { var:49, quality:1.0849230922758579e-02,
                      le:4.4904932379722595e-01 }
            -
               depth: 3
               value: -1.9182609515531874e-02
               splits:
                  - { var:12, quality:1.2778288684785366e-02,
                      le:7.6942428946495056e-02 }
            -
               depth: 4
               value: -6.7318822010591761e-01
               splits:
                  - { var:50, quality:2.5386905297636986e-02,
                      le:3.0699366331100464e-01 }
            -
               depth: 5
               value: -1.8525554262518293e+00
            -
               depth: 5
               value: 4.0138610683226505e-01
            -
               depth: 4
               value: 2.1972217716774534e-02
               splits:
                  - { var:23, quality:7.5050597079098225e-03,
                      le:1.6642506122589111e+00 }
            -
               depth: 5
               value: -1.0425704559809379e-01
            -
               depth: 5
               value: 1.3780014931604978e-01
            -
               depth: 3
               value: 5.4712329243171021e-01
               splits:
                  - { var:3, quality:1.8433915451169014e-02,
                      le:1.0984282195568085e-01 }
            -
               depth: 4
               value: -1.6348584340747767e+00
               splits:
                  - { var:48, quality:3.5148747265338898e-03,
                      le:3.7380790710449219e+00 }
            -
               depth: 5
               value: -4.2917670098560263e+00
            -
               depth: 5
               value: 3.6658714656609845e+00
            -
               depth: 4
               value: 7.3432413185824408e-01
               splits:
                  - { var:40, quality:2.1572871133685112e-02,
                      le:1.4205677807331085e-01 }
            -
               depth: 5
               value: 1.4941735830675322e+00
            -
               depth: 5
               value: 6.3694681593852845e-02
      -
         nodes:
            -
               depth: 0
               value: -2.5389697744369500e-06
               splits:
                  - { var:3, quality:6.3057197257876396e-03,
                      le:1.1013825237751007e-01 }
            -
               depth: 1
               value: 3.3004923277065074e-01
               splits:
                  - { var:53, quality:1.1336302384734154e-02, not_in:[ 1 ] }
            -
               depth: 2
               value: -6.7573243701310085e-02
               splits:
                  - { var:30, quality:6.0092196799814701e-03,
                      le:1.8465000152587891e+01 }
            -
               depth: 3
               value: -3.3924754277662472e-01
               splits:
                  - { var:32, quality:9.3560656532645226e-03,
                      le:2.1148249506950378e-01 }
            -
               depth: 4
               value: -1.1115563127403700e+00
               splits:
                  - { var:49, quality:8.7152523919939995e-03,
                      le:2.5051653385162354e-01 }
            -
               depth: 5
               value: 5.3757640966763394e-02
            -
               depth: 5
               value: -1.6647121786043653e+00
            -
               depth: 4
               value: 6.1516601095320178e-01
               splits:
                  - { var:52, quality:4.4250972568988800e-03,
                      le:3.9594926834106445e+00 }
            -
               depth: 5
               value: 1.1209863186940234e+00
            -
               depth: 5
               value: -3.6727293807835113e+00
            -
               depth: 3
               value: 1.8379189606220416e+00
               splits:
                  - { var:25, quality:4.5383488759398460e-03,
                      le:5.0000000000000000e-01 }
            -
               depth: 4
               value: -5.7564577324601141e+00
            -
               depth: 4
               value: 4.1845634970929595e+00
               splits:
                  - { var:53, quality:4.4312751851975918e-03, in:[ 2 ] }
            -
               depth: 5
               value: -5.7564577324601141e+00
            -
               depth: 5
               value: 5.7564577324623896e+00
            -
               depth: 2
               value: 6.2943724246623378e-01
               splits:
                  - { var:21, quality:1.9796486943960190e-02,
                      le:2.4873933792114258e+00 }
            -
               depth: 3
               value: 8.8875294058979304e-01
               splits:
                  - { var:30, quality:2.5745151564478874e-02,
                      le:1.8465000152587891e+01 }
            -
               depth: 4
               value: 1.4309840040138848e+00
               splits:
                  - { var:2, quality:2.6139339432120323e-02,
                      le:2.1641857922077179e-02 }
            -
               depth: 5
               value: -9.7051718082486660e-01
            -
               depth: 5
               value: 1.8203843808832150e+00
            -
               depth: 4
               value: -1.1695993703263103e+00
               splits:
                  - { var:25, quality:3.4691151231527328e-03,
                      le:5.0000000000000000e-01 }
            -
               depth: 5
               value: 5.7564577324623896e+00
            -
               depth: 5
               value: -5.7564577324601141e+00
            -
               depth: 3
               value: -2.6618843897846021e+00
               splits:
                  - { var:52, quality:3.2515688799321651e-03,
                      le:2.9518203735351562e+00 }
            -
               depth: 4
               value: 5.7564577324623896e+00
            -
               depth: 4
               value: -5.7564577324601141e+00
            -
               depth: 1
               value: -1.9799105442843343e-02
               splits:
                  - { var:24, quality:5.9604807756841183e-03,
                      le:1.3268807530403137e-01 }
            -
               depth: 2
               value: -8.8718391341175880e-03
               splits:
                  - { var:28, quality:3.4668142907321453e-03,
                      le:1.9000002741813660e-01 }
            -
               depth: 3
               value: -7.5331867011431020e-02
               splits:
                  - { var:15, quality:7.6564829796552658e-03,
                      le:4.9050158262252808e-01 }
            -
               depth: 4
               value: -3.2288032987502735e-01
               splits:
                  - { var:53, quality:1.3839680701494217e-02, in:[ 0 ] }
            -
               depth: 5
               value: -9.5099860720745222e-01
            -
               depth: 5
               value: -1.1966281647581359e-01
            -
               depth: 4
               value: -2.2165802781735112e-02
               splits:
                  - { var:35, quality:2.7746038977056742e-03,
                      le:3.4365415573120117e-01 }
            -
               depth: 5
               value: -9.0282024377050421e-02
            -
               depth: 5
               value: 8.9870434488391548e-02
            -
               depth: 3
               value: 4.6614847630057687e-02
               splits:
                  - { var:24, quality:6.4607742242515087e-03,
                      le:2.0778775215148926e-02 }
            -
               depth: 4
               value: 1.4682350769068334e-01
               splits:
                  - { var:7, quality:8.7860133498907089e-03,
                      le:6.9645628333091736e-02 }
            -
               depth: 5
               value: 1.7703805120474098e-01
            -
               depth: 5
               value: -2.8013962161512107e-01
            -
               depth: 4
               value: -6.1196257071054173e-02
               splits:
                  - { var:40, quality:3.3310931175947189e-03,
                      le:3.2887995243072510e-01 }
            -
               depth: 5
               value: -2.6075009011866196e-01
            -
               depth: 5
               value: -9.0945620523243120e-03
            -
               depth: 2
               value: -6.3781496477770816e-01
               splits:
                  - { var:30, quality:8.5246153175830841e-03,
                      le:8.8560264587402344e+01 }
            -
               depth: 3
               value: -8.8122985487200955e-01
               splits:
                  - { var:53, quality:9.6430396661162376e-03, not_in:[ 2 ] }
            -
               depth: 4
               value: -1.4176994381242312e+00
               splits:
                  - { var:4, quality:1.2016734108328819e-02,
                      le:5.0681818276643753e-02 }
            -
               depth: 5
               value: -5.7564577324601141e+00
            -
               depth: 5
               value: 3.1799138414100998e+00
            -
               depth: 4
               value: -1.8503818289695570e-01
               splits:
                  - { var:4, quality:4.1766185313463211e-03,
                      le:5.0681818276643753e-02 }
            -
               depth: 5
               value: 5.7564577324623896e+00
            -
               depth: 5
               value: -5.7564577324601141e+00
            -
               depth: 3
               value: 4.5544517777902049e-01
               splits:
                  - { var:53, quality:2.3501820396631956e-03, not_in:[ 0 ] }
            -
               depth: 4
               value: -5.7564577324601141e+00
            -
               depth: 4
               value: 5.7564577324623896e+00
      -
         nodes:
            -
               depth: 0
               value: -4.4006840255767456e-05
               splits:
                  - { var:10, quality:2.5338516570627689e-03,
                      le:-1.7079885005950928e+00 }
            -
               depth: 1
               value: 1.0044353811579197e-01
               splits:
                  - { var:53, quality:3.9205737411975861e-03, in:[ 1 ] }
            -
               depth: 2
               value: -6.0812598111061274e-02
               splits:
                  - { var:20, quality:6.6879806108772755e-03,
                      le:1.6243081092834473e+00 }
            -
               depth: 3
               value: 3.8479939746587316e-01
               splits:
                  - { var:36, quality:5.5917385034263134e-03,
                      le:1.2269956618547440e-01 }
            -
               depth: 4
               value: -1.0794257584836777e+00
               splits:
                  - { var:3, quality:1.4829318970441818e-03,
                      le:1.7772205173969269e-01 }
            -
               depth: 5
               value: -1.4394329993802462e+00
            -
               depth: 5
               value: 1.8831246492446712e+00
            -
               depth: 4
               value: 5.1810048377762585e-01
               splits:
                  - { var:9, quality:6.1603621579706669e-03,
                      le:7.5970008969306946e-02 }
            -
               depth: 5
               value: 6.0533289768663134e-01
            -
               depth: 5
               value: -1.4313722052011484e+00
            -
               depth: 3
               value: -3.5713220796716411e-01
               splits:
                  - { var:23, quality:7.7303089201450348e-03,
                      le:1.2783732414245605e+00 }
            -
               depth: 4
               value: 1.4264144785161550e+00
               splits:
                  - { var:30, quality:2.2263305727392435e-03,
                      le:3.9666381835937500e+01 }
            -
               depth: 5
               value: 2.8010017684788364e+00
            -
               depth: 5
               value: -5.1664140957538918e-01
            -
               depth: 4
               value: -4.7306521482161218e-01
               splits:
                  - { var:41, quality:9.1910371556878090e-03,
                      le:7.0457279682159424e-01 }
            -
               depth: 5
               value: 5.7564577324623896e+00
            -
               depth: 5
               value: -5.7384324791719266e-01
            -
               depth: 2
               value: 1.6001691562793000e-01
               splits:
                  - { var:29, quality:7.3442482389509678e-03,
                      le:9.9356055259704590e-01 }
            -
               depth: 3
               value: 1.9737587937019735e-01
               splits:
                  - { var:30, quality:9.9103040993213654e-03,
                      le:2.7596462249755859e+01 }
            -
               depth: 4
               value: 4.8699142109724669e-01
               splits:
                  - { var:53, quality:1.9665192812681198e-02, in:[ 2 ] }
            -
               depth: 5
               value: -4.9675204232846359e-01
            -
               depth: 5
               value: 8.5285943361722449e-01
            -
               depth: 4
               value: 6.7916335463343400e-02
               splits:
                  - { var:53, quality:5.8959363959729671e-03, in:[ 0 ] }
            -
               depth: 5
               value: -2.3022416810942867e-01
            -
               depth: 5
               value: 2.7219616910981459e-01
            -
               depth: 3
               value: -5.7410308803299515e-01
               splits:
                  - { var:33, quality:4.5485622249543667e-03,
                      le:3.3763527870178223e-01 }
            -
               depth: 4
               value: 9.8481079509764557e-01
               splits:
                  - { var:22, quality:1.2681394582614303e-03,
                      le:9.8123157024383545e-01 }
            -
               depth: 5
               value: 4.5933832345836079e+00
            -
               depth: 5
               value: -1.6157229880003943e+00
            -
               depth: 4
               value: -1.0543768426996294e+00
               splits:
                  - { var:32, quality:4.2517855763435364e-03,
                      le:1.0717018693685532e-01 }
            -
               depth: 5
               value: -3.8841257849830041e-01
            -
               depth: 5
               value: -1.8858646074999148e+00
            -
               depth: 1
               value: -2.5349699732282752e-02
               splits:
                  - { var:49, quality:3.1612033490091562e-03,
                      le:1.0287799686193466e-01 }
            -
               depth: 2
               value: -3.0169616412725986e-01
               splits:
                  - { var:53, quality:4.1976552456617355e-03, in:[ 1 ] }
            -
               depth: 3
               value: -2.1703511392925705e+00
               splits:
                  - { var:23, quality:2.3069020826369524e-03,
                      le:1.2783499956130981e+00 }
            -
               depth: 4
               value: 4.5571941233842012e-01
            -
               depth: 4
               value: -5.7564577324601141e+00
            -
               depth: 3
               value: -2.4961093313261190e-01
               splits:
                  - { var:26, quality:3.2499432563781738e-03,
                      le:5.0000000000000000e-01 }
            -
               depth: 4
               value: -1.3604365117537476e-01
               splits:
                  - { var:1, quality:1.9111309666186571e-03,
                      le:2.7297225594520569e-01 }
            -
               depth: 5
               value: -5.0230598100006185e-02
            -
               depth: 5
               value: -1.1317660481331324e+00
            -
               depth: 4
               value: -6.8938512249051165e-01
               splits:
                  - { var:53, quality:4.2727687396109104e-03, in:[ 2 ] }
            -
               depth: 5
               value: -4.6599661068857099e+00
            -
               depth: 5
               value: -1.2590142048426797e-01
            -
               depth: 2
               value: -1.2944201970467081e-02
               splits:
                  - { var:47, quality:2.0935356151312590e-03,
                      le:2.1244674921035767e-02 }
            -
               depth: 3
               value: 3.5143901231736852e-01
               splits:
                  - { var:14, quality:3.6586099304258823e-03,
                      le:1.0288402438163757e-01 }
            -
               depth: 4
               value: 7.4118392230458652e-01
               splits:
                  - { var:53, quality:4.3087294325232506e-03, in:[ 2 ] }
            -
               depth: 5
               value: -5.7564577324601141e+00
            -
               depth: 5
               value: 8.2125376011360673e-01
            -
               depth: 4
               value: -7.1633183675510484e-02
               splits:
                  - { var:53, quality:1.6379181761294603e-03, not_in:[ 0 ] }
            -
               depth: 5
               value: -4.6202752301021499e-01
            -
               depth: 5
               value: 7.1057301254267569e-01
            -
               depth: 3
               value: -2.0295019124782567e-02
               splits:
                  - { var:19, quality:2.1153348498046398e-03,
                      le:1.3734259605407715e+00 }
            -
               depth: 4
               value: 1.3963622700415751e-01
               splits:
                  - { var:53, quality:6.5626190043985844e-03, not_in:[ 0 ] }
            -
               depth: 5
               value: -1.5954477714592438e-01
            -
               depth: 5
               value: 4.3885694881274206e-01
            -
               depth: 4
               value: -3.5517566284153201e-02
               splits:
                  - { var:18, quality:4.7085667029023170e-03,
                      le:3.1920335292816162e+00 }
            -
               depth: 5
               value: -3.0063111028416728e-01
            -
               depth: 5
               value: -1.3493715636397998e-02
      -
         nodes:
            -
               depth: 0
               value: -3.3734372815629629e-06
               splits:
                  - { var:23, quality:2.9861012008041143e-03,
                      le:1.3035237789154053e+00 }
            -
               depth: 1
               value: -1.8322491344261382e-01
               splits:
                  - { var:40, quality:5.9084496460855007e-03,
                      le:3.3555683493614197e-01 }
            -
               depth: 2
               value: -2.8026120340888350e-01
               splits:
                  - { var:53, quality:1.2635493651032448e-02, not_in:[ 1 ] }
            -
               depth: 3
               value: -6.0091365219922366e-01
               splits:
                  - { var:26, quality:1.8645212054252625e-02,
                      le:5.0000000000000000e-01 }
            -
               depth: 4
               value: -7.7553869161739875e-01
               splits:
                  - { var:28, quality:2.3225974291563034e-02,
                      le:3.0500006675720215e-01 }
            -
               depth: 5
               value: -1.4671049558213625e+00
            -
               depth: 5
               value: 6.4981866274145497e-02
            -
               depth: 4
               value: 1.2933679604847492e+00
               splits:
                  - { var:53, quality:3.1107242684811354e-03, in:[ 2 ] }
            -
               depth: 5
               value: -5.7564577324601141e+00
            -
               depth: 5
               value: 5.7564577324623896e+00
            -
               depth: 3
               value: 1.4610189959713529e-01
               splits:
                  - { var:22, quality:6.8300841376185417e-03,
                      le:9.5594561100006104e-01 }
            -
               depth: 4
               value: 6.8610881197133811e-01
               splits:
                  - { var:41, quality:8.9791994541883469e-03,
                      le:2.0760750770568848e+00 }
            -
               depth: 5
               value: 1.2441559612132154e+00
            -
               depth: 5
               value: -5.5123871104189115e-01
            -
               depth: 4
               value: -4.0238773901972941e-01
               splits:
                  - { var:17, quality:5.0653247162699699e-03,
                      le:4.5655317604541779e-02 }
            -
               depth: 5
               value: 7.0679079107647524e-01
            -
               depth: 5
               value: -7.8324505913491249e-01
            -
               depth: 2
               value: 2.3684502535526092e-01
               splits:
                  - { var:53, quality:5.3355102427303791e-03, in:[ 1 ] }
            -
               depth: 3
               value: -8.7370627305656390e-01
               splits:
                  - { var:42, quality:3.1376366969197989e-03,
                      le:1.2770692119374871e-03 }
            -
               depth: 4
               value: 1.0984225974828814e+00
               splits:
                  - { var:5, quality:4.7842570347711444e-04,
                      le:1.7146044969558716e-01 }
            -
               depth: 5
               value: -5.7564577324601141e+00
            -
               depth: 5
               value: 5.7564577324623896e+00
            -
               depth: 4
               value: -1.5678037682029653e+00
               splits:
                  - { var:44, quality:3.1178784556686878e-03,
                      le:4.9721244722604752e-03 }
            -
               depth: 5
               value: 2.9004935930055455e+00
            -
               depth: 5
               value: -1.9608859496478102e+00
            -
               depth: 3
               value: 6.1964094068607711e-01
               splits:
                  - { var:42, quality:6.3062808476388454e-03,
                      le:1.5620857011526823e-03 }
            -
               depth: 4
               value: -6.7182744376771597e-01
               splits:
                  - { var:5, quality:1.6197351505979896e-03,
                      le:1.7504863440990448e-01 }
            -
               depth: 5
               value: 8.4875811502620568e-01
            -
               depth: 5
               value: -5.7564577324601141e+00
            -
               depth: 4
               value: 1.0310737303626258e+00
               splits:
                  - { var:16, quality:6.7087728530168533e-03,
                      le:1.2018215656280518e+00 }
            -
               depth: 5
               value: 1.2671031020716554e+00
            -
               depth: 5
               value: -7.3353703346737120e-01
            -
               depth: 1
               value: 1.6477855988376020e-02
               splits:
                  - { var:3, quality:2.5120882783085108e-03,
                      le:3.1946212053298950e-01 }
            -
               depth: 2
               value: -4.2731629117731332e-02
               splits:
                  - { var:35, quality:2.8631293680518866e-03,
                      le:4.3294960260391235e-01 }
            -
               depth: 3
               value: 2.9461438603193618e-03
               splits:
                  - { var:53, quality:1.8454798264428973e-03, in:[ 1 ] }
            -
               depth: 4
               value: -8.5555777257331767e-02
               splits:
                  - { var:34, quality:8.7763499468564987e-03,
                      le:6.4861741065979004e+00 }
            -
               depth: 5
               value: 6.4550896261250079e-01
            -
               depth: 5
               value: -1.8121546641639291e-01
            -
               depth: 4
               value: 7.8212230499690144e-02
               splits:
                  - { var:46, quality:9.0471897274255753e-03,
                      le:6.8485012054443359e+00 }
            -
               depth: 5
               value: -1.2040567132007376e-02
            -
               depth: 5
               value: 8.2745368162580046e-01
            -
               depth: 3
               value: -1.6984916284543600e-01
               splits:
                  - { var:46, quality:5.5838469415903091e-03,
                      le:4.5567922592163086e+00 }
            -
               depth: 4
               value: -1.8312727665211029e-02
               splits:
                  - { var:14, quality:2.1182210184633732e-03,
                      le:1.5939792990684509e-01 }
            -
               depth: 5
               value: 9.3869288902022507e-02
            -
               depth: 5
               value: -3.7554057990380996e-01
            -
               depth: 4
               value: -3.6309409318090724e-01
               splits:
                  - { var:53, quality:7.1434257552027702e-03, in:[ 2 ] }
            -
               depth: 5
               value: -1.9873884687887358e+00
            -
               depth: 5
               value: -3.0090265106117986e-01
            -
               depth: 2
               value: 5.8262459111130212e-02
               splits:
                  - { var:35, quality:4.9835294485092163e-03,
                      le:6.1396515369415283e-01 }
            -
               depth: 3
               value: 3.5557272650481413e-02
               splits:
                  - { var:33, quality:3.0867236200720072e-03,
                      le:4.4542732238769531e+01 }
            -
               depth: 4
               value: 6.2812081963405708e-02
               splits:
                  - { var:6, quality:4.0288357995450497e-03,
                      le:9.0659886598587036e-02 }
            -
               depth: 5
               value: -1.6317213284709625e-01
            -
               depth: 5
               value: 8.7103922236158787e-02
            -
               depth: 4
               value: -1.4867990882877061e-01
               splits:
                  - { var:53, quality:1.1551309376955032e-02, not_in:[ 0 ] }
            -
               depth: 5
               value: -5.2673042550560822e-01
            -
               depth: 5
               value: 3.3882363350831690e-01
            -
               depth: 3
               value: 3.2926838474189812e-01
               splits:
                  - { var:50, quality:5.6663597933948040e-03,
                      le:1.4695951342582703e-01 }
            -
               depth: 4
               value: 2.2449045710527146e-01
               splits:
                  - { var:31, quality:2.4344031699001789e-03,
                      le:1.0158584453165531e-02 }
            -
               depth: 5
               value: 2.5155655698306811e-01
            -
               depth: 5
               value: -1.0080018465008678e+00
            -
               depth: 4
               value: 7.4156014685528138e-01
               splits:
                  - { var:53, quality:6.1482852324843407e-03, in:[ 0 ] }
            -
               depth: 5
               value: -5.2095515216965504e-01
            -
               depth: 5
               value: 1.1388621259427076e+00
      -
         nodes:
            -
               depth: 0
               value: 5.5994263910053277e-06
               splits:
                  - { var:49, quality:2.4269602727144957e-03,
                      le:3.8674908876419067e-01 }
            -
               depth: 1
               value: -2.4786558542597661e-02
               splits:
                  - { var:53, quality:2.8334679082036018e-03, in:[ 0 ] }
            -
               depth: 2
               value: -9.5604089126812911e-02
               splits:
                  - { var:3, quality:1.8468776717782021e-02,
                      le:9.0834975242614746e-01 }
            -
               depth: 3
               value: -1.5315568794738729e-01
               splits:
                  - { var:50, quality:3.4357853233814240e-02,
                      le:1.2305468320846558e-01 }
            -
               depth: 4
               value: -1.1106622972496216e+00
               splits:
                  - { var:42, quality:4.9607153981924057e-02,
                      le:1.9004903151653707e-04 }
            -
               depth: 5
               value: 1.2550846032844845e+00
            -
               depth: 5
               value: -2.2468722998312218e+00
            -
               depth: 4
               value: 1.1579926061190484e-03
               splits:
                  - { var:43, quality:2.1939018741250038e-02,
                      le:-1.6038900613784790e+00 }
            -
               depth: 5
               value: 7.2305693869406662e-01
            -
               depth: 5
               value: -1.5711215940216663e-01
            -
               depth: 3
               value: 1.2379715802497471e+00
               splits:
                  - { var:22, quality:1.4546712860465050e-02,
                      le:8.1225311756134033e-01 }
            -
               depth: 4
               value: -5.5284322957708043e-01
               splits:
                  - { var:1, quality:1.2867465848103166e-03,
                      le:3.4469521045684814e-01 }
            -
               depth: 5
               value: -5.7564577324601141e+00
            -
               depth: 5
               value: 5.7564577324623896e+00
            -
               depth: 4
               value: 1.9018706852992451e+00
               splits:
                  - { var:20, quality:1.5009538270533085e-02,
                      le:3.3133878707885742e+00 }
            -
               depth: 5
               value: 2.3612431596534131e+00
            -
               depth: 5
               value: -2.9685154356851995e+00
            -
               depth: 2
               value: 1.6855668867769652e-02
               splits:
                  - { var:3, quality:1.5307290479540825e-02,
                      le:9.0834975242614746e-01 }
            -
               depth: 3
               value: 4.8680477122831821e-02
               splits:
                  - { var:50, quality:1.6210850328207016e-02,
                      le:1.2305468320846558e-01 }
            -
               depth: 4
               value: 4.1296943845687811e-01
               splits:
                  - { var:17, quality:2.4142224341630936e-02,
                      le:9.7044426947832108e-03 }
            -
               depth: 5
               value: -5.8477828998633397e-01
            -
               depth: 5
               value: 5.2734983788612999e-01
            -
               depth: 4
               value: -4.1993992116123049e-02
               splits:
                  - { var:43, quality:1.7147680744528770e-02,
                      le:-1.6038900613784790e+00 }
            -
               depth: 5
               value: -5.7552217140366424e-01
            -
               depth: 5
               value: 4.7927125590304480e-02
            -
               depth: 3
               value: -1.6878823993573744e+00
               splits:
                  - { var:28, quality:1.5388308092951775e-02,
                      le:5.0499999523162842e-01 }
            -
               depth: 4
               value: 2.6957704501158369e-01
               splits:
                  - { var:30, quality:8.1509677693247795e-04,
                      le:9.7897277832031250e+01 }
            -
               depth: 5
               value: 5.7564577324623896e+00
            -
               depth: 5
               value: -5.7564577324601141e+00
            -
               depth: 4
               value: -3.2776628779635142e+00
               splits:
                  - { var:40, quality:1.5376028604805470e-02,
                      le:5.0373256206512451e-01 }
            -
               depth: 5
               value: 4.3442476372957541e+00
            -
               depth: 5
               value: -3.6299177007767294e+00
            -
               depth: 1
               value: 9.8232655662400539e-02
               splits:
                  - { var:36, quality:4.0780659765005112e-03,
                      le:3.3310648798942566e-01 }
            -
               depth: 2
               value: 1.4481179632945265e-01
               splits:
                  - { var:21, quality:5.3848340176045895e-03,
                      le:8.6772638559341431e-01 }
            -
               depth: 3
               value: 5.6045689360792061e-01
               splits:
                  - { var:53, quality:4.4074160978198051e-03, in:[ 2 ] }
            -
               depth: 4
               value: -1.0425727364956856e+00
               splits:
                  - { var:3, quality:5.7835993357002735e-04,
                      le:2.5911092758178711e-01 }
            -
               depth: 5
               value: -5.7564577324601141e+00
            -
               depth: 5
               value: 5.7564577324623896e+00
            -
               depth: 4
               value: 6.4368172608275387e-01
               splits:
                  - { var:53, quality:4.5310296118259430e-03, not_in:[ 1 ] }
            -
               depth: 5
               value: 3.5861331626414927e-01
            -
               depth: 5
               value: 9.4161378501584969e-01
            -
               depth: 3
               value: 1.1336992381470838e-01
               splits:
                  - { var:10, quality:2.8731946367770433e-03,
                      le:-1.8544137477874756e+00 }
            -
               depth: 4
               value: 5.9958759824169039e-01
               splits:
                  - { var:35, quality:2.1170419640839100e-03,
                      le:2.8635334968566895e-01 }
            -
               depth: 5
               value: 1.0436865771190442e+00
            -
               depth: 5
               value: -8.6842313480164690e-02
            -
               depth: 4
               value: 9.9646430314360976e-02
               splits:
                  - { var:4, quality:2.7000599075108767e-03,
                      le:5.2492335438728333e-02 }
            -
               depth: 5
               value: 1.9866975584359603e-01
            -
               depth: 5
               value: 1.5905705854887493e-02
            -
               depth: 2
               value: -1.3384193795521143e-01
               splits:
                  - { var:53, quality:7.1545480750501156e-03, not_in:[ 0 ] }
            -
               depth: 3
               value: -5.1471146846443705e-01
               splits:
                  - { var:36, quality:1.5289708971977234e-02,
                      le:3.3673033118247986e-01 }
            -
               depth: 4
               value: -1.3322678013567195e+00
               splits:
                  - { var:40, quality:1.3632941059768200e-02,
                      le:1.3707140088081360e-01 }
            -
               depth: 5
               value: -1.6143852490894424e+00
            -
               depth: 5
               value: 1.3346843068903051e+00
            -
               depth: 4
               value: 1.0844964347719952e+00
               splits:
                  - { var:1, quality:4.4159344397485256e-03,
                      le:2.7509454637765884e-02 }
            -
               depth: 5
               value: -5.7564577324601141e+00
            -
               depth: 5
               value: 1.6910953121028007e+00
            -
               depth: 3
               value: 4.7517247061450563e-01
               splits:
                  - { var:4, quality:7.5567080639302731e-03,
                      le:2.5271032005548477e-02 }
            -
               depth: 4
               value: -1.1507430525865654e+00
               splits:
                  - { var:1, quality:2.1545540075749159e-03,
                      le:2.7509454637765884e-02 }
            -
               depth: 5
               value: 5.7564577324623896e+00
            -
               depth: 5
               value: -1.5440786986838786e+00
            -
               depth: 4
               value: 1.0171342842630406e+00
               splits:
                  - { var:48, quality:7.7679799869656563e-03,
                      le:1.6975991725921631e+00 }
            -
               depth: 5
               value: -5.7564577324601141e+00
            -
               depth: 5
               value: 1.3701517917853014e+00
      -
         nodes:
            -
               depth: 0
               value: -6.6804568985047240e-06
               splits:
                  - { var:24, quality:3.3760797232389450e-03,
                      le:8.1572532653808594e-02 }
            -
               depth: 1
               value: -6.7185150787856364e-03
               splits:
                  - { var:31, quality:3.3664351794868708e-03,
                      le:8.5311345756053925e-03 }
            -
               depth: 2
               value: -1.4385621668237170e-01
               splits:
                  - { var:53, quality:8.4864208474755287e-03, not_in:[ 2 ] }
            -
               depth: 3
               value: -3.4221670765927831e-01
               splits:
                  - { var:7, quality:1.7288219183683395e-02,
                      le:4.3498374521732330e-02 }
            -
               depth: 4
               value: -9.4589717196635822e-02
               splits:
                  - { var:11, quality:4.6598990447819233e-03,
                      le:5.3273618221282959e-02 }
            -
               depth: 5
               value: 3.1986820903245318e-02
            -
               depth: 5
               value: -9.3496595651114378e-01
            -
               depth: 4
               value: -1.1799959211590016e+00
               splits:
                  - { var:28, quality:1.8229693174362183e-02,
                      le:8.0500024557113647e-01 }
            -
               depth: 5
               value: -1.2884593430040210e+00
            -
               depth: 5
               value: 5.6104846487196376e+00
            -
               depth: 3
               value: 4.7672757130400145e-02
               splits:
                  - { var:11, quality:1.6855685040354729e-02,
                      le:5.1245085895061493e-02 }
            -
               depth: 4
               value: -2.3747718030541276e-01
               splits:
                  - { var:7, quality:1.2942069210112095e-02,
                      le:5.4956883192062378e-02 }
            -
               depth: 5
               value: -4.3107179915128790e-01
            -
               depth: 5
               value: 1.1055502274872793e+00
            -
               depth: 4
               value: 1.2199894575038901e+00
               splits:
                  - { var:49, quality:1.6711832955479622e-02,
                      le:2.1972700953483582e-01 }
            -
               depth: 5
               value: 1.6774313110275580e+00
            -
               depth: 5
               value: -9.3316542156359295e-01
            -
               depth: 2
               value: 1.8007202145200081e-02
               splits:
                  - { var:16, quality:2.8632052708417177e-03,
                      le:9.7924403846263885e-02 }
            -
               depth: 3
               value: -6.1422489489116239e-01
               splits:
                  - { var:23, quality:3.6448873579502106e-03,
                      le:1.4999874830245972e+00 }
            -
               depth: 4
               value: -8.7612831840481165e-01
               splits:
                  - { var:21, quality:3.6459711845964193e-03,
                      le:1.4512271881103516e+00 }
            -
               depth: 5
               value: 3.5400310944753360e-01
            -
               depth: 5
               value: -9.3584336381326438e-01
            -
               depth: 4
               value: 4.6187298558720485e-01
               splits:
                  - { var:53, quality:3.9654853753745556e-04, in:[ 2 ] }
            -
               depth: 5
               value: -5.7564577324601141e+00
            -
               depth: 5
               value: 6.1864489333692996e-01
            -
               depth: 3
               value: 2.3502556633189370e-02
               splits:
                  - { var:10, quality:2.9255209956318140e-03,
                      le:-2.7503657341003418e+00 }
            -
               depth: 4
               value: 5.7698751346135080e-01
               splits:
                  - { var:23, quality:3.5998052917420864e-03,
                      le:1.3411641120910645e+00 }
            -
               depth: 5
               value: -7.6684934427844720e-01
            -
               depth: 5
               value: 6.9435001799558838e-01
            -
               depth: 4
               value: 1.7494144425760055e-02
               splits:
                  - { var:25, quality:2.8709156904369593e-03,
                      le:5.0000000000000000e-01 }
            -
               depth: 5
               value: -5.6455661071322131e-03
            -
               depth: 5
               value: 1.5737747842775837e-01
            -
               depth: 1
               value: 5.5332074295466105e-01
               splits:
                  - { var:53, quality:7.4129048734903336e-03, not_in:[ 2 ] }
            -
               depth: 2
               value: -2.8659376858957825e-01
               splits:
                  - { var:1, quality:2.9047757852822542e-03,
