%YAML:1.0
---
opencv_ml_boost:
   format: 3
   is_classifier: 1
   var_all: 150
   var_count: 149
   ord_var_count: 148
   cat_var_count: 2
   training_params:
      boosting_type: RealAdaboost
      use_surrogates: 0
      max_categories: 10
      regression_accuracy: 1.0000000474974513e-03
      max_depth: 5
      min_sample_count: 5
      cross_validation_folds: 0
      priors: !!opencv-matrix
         rows: 1
         cols: 2
         dt: f
         data: [ 2.84572749e-21, 3.08958285e-41 ]
      weight_trimming_rate: 1.
   global_var_idx: 1
   var_idx: [ 0, 1, 2, 3, 4, 5, 6, 7, 8, 9, 10, 11, 12, 13, 14, 15, 16,
       17, 18, 19, 20, 21, 22, 23, 24, 25, 26, 27, 28, 29, 30, 31, 32,
       33, 34, 35, 36, 37, 38, 39, 40, 41, 42, 43, 44, 45, 46, 47, 48,
       49, 50, 51, 52, 53, 54, 55, 56, 57, 58, 59, 60, 61, 62, 63, 64,
       65, 66, 67, 68, 69, 70, 71, 72, 73, 74, 75, 76, 77, 78, 79, 80,
       81, 82, 83, 84, 85, 86, 87, 88, 89, 90, 91, 92, 93, 94, 95, 96,
       97, 98, 99, 100, 101, 102, 103, 104, 105, 106, 107, 108, 109, 110,
       111, 112, 113, 114, 115, 116, 117, 118, 119, 120, 121, 122, 123,
       124, 125, 126, 127, 128, 129, 130, 131, 132, 133, 134, 135, 136,
       137, 138, 139, 140, 141, 142, 143, 144, 145, 146, 147, 148 ]
   var_type: [ 0, 0, 0, 0, 0, 0, 0, 0, 0, 0, 0, 0, 0, 0, 0, 0, 0, 0, 0,
       0, 0, 0, 0, 0, 0, 0, 0, 0, 0, 0, 0, 0, 0, 0, 0, 0, 0, 0, 0, 0, 0,
       0, 0, 0, 0, 0, 0, 0, 0, 0, 0, 0, 0, 0, 0, 0, 0, 0, 0, 0, 0, 0, 0,
       0, 0, 0, 0, 0, 0, 0, 0, 0, 0, 0, 0, 0, 0, 0, 0, 0, 0, 0, 0, 0, 0,
       0, 0, 0, 0, 0, 0, 0, 0, 0, 0, 0, 0, 0, 0, 0, 0, 0, 0, 0, 0, 0, 0,
       0, 0, 0, 0, 0, 0, 0, 0, 0, 0, 0, 0, 0, 0, 0, 0, 0, 0, 0, 0, 0, 0,
       0, 0, 0, 0, 0, 0, 0, 0, 0, 0, 0, 0, 0, 0, 0, 0, 0, 0, 0, 1, 1 ]
   cat_ofs: [ 0, 0, 0, 0, 0, 0, 0, 0, 0, 0, 0, 0, 0, 0, 0, 0, 0, 0, 0, 0,
       0, 0, 0, 0, 0, 0, 0, 0, 0, 0, 0, 0, 0, 0, 0, 0, 0, 0, 0, 0, 0, 0,
       0, 0, 0, 0, 0, 0, 0, 0, 0, 0, 0, 0, 0, 0, 0, 0, 0, 0, 0, 0, 0, 0,
       0, 0, 0, 0, 0, 0, 0, 0, 0, 0, 0, 0, 0, 0, 0, 0, 0, 0, 0, 0, 0, 0,
       0, 0, 0, 0, 0, 0, 0, 0, 0, 0, 0, 0, 0, 0, 0, 0, 0, 0, 0, 0, 0, 0,
       0, 0, 0, 0, 0, 0, 0, 0, 0, 0, 0, 0, 0, 0, 0, 0, 0, 0, 0, 0, 0, 0,
       0, 0, 0, 0, 0, 0, 0, 0, 0, 0, 0, 0, 0, 0, 0, 0, 0, 0, 0, 0, 0, 0,
       0, 0, 0, 0, 0, 0, 0, 0, 0, 0, 0, 0, 0, 0, 0, 0, 0, 0, 0, 0, 0, 0,
       0, 0, 0, 0, 0, 0, 0, 0, 0, 0, 0, 0, 0, 0, 0, 0, 0, 0, 0, 0, 0, 0,
       0, 0, 0, 0, 0, 0, 0, 0, 0, 0, 0, 0, 0, 0, 0, 0, 0, 0, 0, 0, 0, 0,
       0, 0, 0, 0, 0, 0, 0, 0, 0, 0, 0, 0, 0, 0, 0, 0, 0, 0, 0, 0, 0, 0,
       0, 0, 0, 0, 0, 0, 0, 0, 0, 0, 0, 0, 0, 0, 0, 0, 0, 0, 0, 0, 0, 0,
       0, 0, 0, 0, 0, 0, 0, 0, 0, 0, 0, 0, 0, 0, 0, 0, 0, 0, 0, 0, 0, 0,
       0, 0, 0, 0, 0, 0, 0, 0, 0, 0, 0, 0, 0, 3 ]
   cat_map: [ 0, 1, 2 ]
   class_labels: [ 0, 1 ]
   missing_subst: [ 0., 0., 0., 0., 0., 0., 0., 0., 0., 0., 0., 0., 0.,
       0., 0., 0., 0., 0., 0., 0., 0., 0., 0., 0., 0., 0., 0., 0., 0.,
       0., 0., 0., 0., 0., 0., 0., 0., 0., 0., 0., 0., 0., 0., 0., 0.,
       0., 0., 0., 0., 0., 0., 0., 0., 0., 0., 0., 0., 0., 0., 0., 0.,
       0., 0., 0., 0., 0., 0., 0., 0., 0., 0., 0., 0., 0., 0., 0., 0.,
       0., 0., 0., 0., 0., 0., 0., 0., 0., 0., 0., 0., 0., 0., 0., 0.,
       0., 0., 0., 0., 0., 0., 0., 0., 0., 0., 0., 0., 0., 0., 0., 0.,
       0., 0., 0., 0., 0., 0., 0., 0., 0., 0., 0., 0., 0., 0., 0., 0.,
       0., 0., 0., 0., 0., 0., 0., 0., 0., 0., 0., 0., 0., 0., 0., 0.,
       0., 0., 0., 0., 0., 0., 0., -1., 0. ]
   ntrees: 20
   trees:
      -
         nodes:
            -
               depth: 0
               value: 0.
               splits:
                  - { var:148, quality:2.1729847416281700e-02, in:[ 2 ] }
            -
               depth: 1
               value: -2.2325444474595768e-01
               splits:
                  - { var:67, quality:1.5684877336025238e-01,
                      le:4.0775150060653687e-02 }
            -
               depth: 2
               value: -1.3993118540076768e+00
               splits:
                  - { var:60, quality:1.2975917756557465e-01,
                      le:3.3938392639160156e+01 }
            -
               depth: 3
               value: -2.4220935432293027e+00
               splits:
                  - { var:71, quality:1.2315873801708221e-01,
                      le:6.7561671137809753e-02 }
            -
               depth: 4
               value: -2.6652847051926201e+00
               splits:
                  - { var:80, quality:1.2330748885869980e-01,
                      le:1.4908783912658691e+01 }
            -
               depth: 5
               value: -2.7037652257606855e+00
            -
               depth: 5
               value: 5.7564577324623896e+00
            -
               depth: 4
               value: 2.1765903562892311e-01
               splits:
                  - { var:106, quality:3.0153774423524737e-04,
                      le:4.9969926476478577e-03 }
            -
               depth: 5
               value: 1.1167961107535476e+00
            -
               depth: 5
               value: -5.7633975496919276e-01
            -
               depth: 3
               value: -5.3355125521799029e-01
               splits:
                  - { var:96, quality:1.3749526813626289e-02,
                      le:3.6498729605227709e-04 }
            -
               depth: 4
               value: -1.2168066777002755e+00
               splits:
                  - { var:1, quality:1.4440406113862991e-02,
                      le:2.0394921302795410e-01 }
            -
               depth: 5
               value: -6.5938315056697683e-01
            -
               depth: 5
               value: -2.6033750865112504e+00
            -
               depth: 4
               value: 7.7219038721917904e-02
               splits:
                  - { var:86, quality:5.2846758626401424e-03,
                      le:3.5421347618103027e+00 }
            -
               depth: 5
               value: 5.3392031500067827e-01
            -
               depth: 5
               value: -2.1570746061353980e+00
            -
               depth: 2
               value: 5.0576300218813208e-01
               splits:
                  - { var:3, quality:7.9248890280723572e-02,
                      le:9.0834975242614746e-01 }
            -
               depth: 3
               value: 8.1712151567655211e-01
               splits:
                  - { var:86, quality:8.8286168873310089e-02,
                      le:2.5199980735778809e+00 }
            -
               depth: 4
               value: 1.1164274409644308e+00
               splits:
                  - { var:60, quality:9.8957896232604980e-02,
                      le:3.7337039947509766e+01 }
            -
               depth: 5
               value: -5.6288163886701814e-01
            -
               depth: 5
               value: 1.6030007130690560e+00
            -
               depth: 4
               value: -1.3625723172307256e+00
               splits:
                  - { var:22, quality:8.6240628734230995e-03,
                      le:9.7150081396102905e-01 }
            -
               depth: 5
               value: -1.7065159196545481e+00
            -
               depth: 5
               value: -7.7075339913628860e-02
            -
               depth: 3
               value: -2.4737885790646068e+00
               splits:
                  - { var:84, quality:1.8706886097788811e-02,
                      le:8.7015517055988312e-03 }
            -
               depth: 4
               value: 5.7564577324623896e+00
            -
               depth: 4
               value: -2.6765211331186913e+00
               splits:
                  - { var:20, quality:1.8750950694084167e-02,
                      le:2.0275197029113770e+00 }
            -
               depth: 5
               value: 5.7564577324623896e+00
            -
               depth: 5
               value: -2.8203621693445813e+00
            -
               depth: 1
               value: 9.9268741921265113e-02
               splits:
                  - { var:67, quality:6.5335735678672791e-02,
                      le:4.7196883708238602e-02 }
            -
               depth: 2
               value: 3.1030671893032369e-01
               splits:
                  - { var:148, quality:4.6509567648172379e-02, not_in:[
                      1 ] }
            -
               depth: 3
               value: 2.0323105858194010e-01
               splits:
                  - { var:26, quality:7.5868681073188782e-02,
                      le:5.0000000000000000e-01 }
            -
               depth: 4
               value: -2.0887712397811983e-01
               splits:
                  - { var:3, quality:4.1996452957391739e-02,
                      le:1.6991783678531647e-01 }
            -
               depth: 5
               value: -8.6266491115369803e-01
            -
               depth: 5
               value: 3.0839777290462328e-01
            -
               depth: 4
               value: 1.6766166612275404e+00
               splits:
                  - { var:88, quality:7.0713981986045837e-02,
                      le:1.8670278787612915e-01 }
            -
               depth: 5
               value: 7.5893535945430723e-01
            -
               depth: 5
               value: 2.1619855592072237e+00
            -
               depth: 3
               value: 4.1655442498775119e-01
               splits:
                  - { var:26, quality:1.0967932641506195e-01,
                      le:5.0000000000000000e-01 }
            -
               depth: 4
               value: 7.7963080989333011e-01
               splits:
                  - { var:122, quality:1.1966651678085327e-01,
                      le:3.4752833843231201e-01 }
            -
               depth: 5
               value: 1.0112716875381258e+00
            -
               depth: 5
               value: -1.7005986908310540e+00
            -
               depth: 4
               value: -1.0037180064220750e+00
               splits:
                  - { var:1, quality:3.0375413596630096e-02,
                      le:7.3838680982589722e-02 }
            -
               depth: 5
               value: -2.3829622606186709e-01
            -
               depth: 5
               value: -2.0124972420436809e+00
            -
               depth: 2
               value: -3.3413476506440998e-01
               splits:
                  - { var:148, quality:7.5567245483398438e-02, in:[ 1 ] }
            -
               depth: 3
               value: -1.3860452951122593e+00
               splits:
                  - { var:122, quality:8.6210891604423523e-02,
                      le:3.0061981081962585e-01 }
            -
               depth: 4
               value: 5.7742600349549467e-01
               splits:
                  - { var:141, quality:3.1846021302044392e-03,
                      le:2.3900781631469727e+01 }
            -
               depth: 5
               value: 1.2062257852862910e+00
            -
               depth: 5
               value: -4.3111175530193990e-01
            -
               depth: 4
               value: -2.1024095488026417e+00
               splits:
                  - { var:124, quality:8.5536524653434753e-02,
                      le:1.8370130062103271e+00 }
            -
               depth: 5
               value: -6.0031695153021247e-01
            -
               depth: 5
               value: -2.8023755470250213e+00
            -
               depth: 3
               value: 9.6918135116819210e-02
               splits:
                  - { var:1, quality:4.7130227088928223e-02,
                      le:2.6810348033905029e-01 }
            -
               depth: 4
               value: -3.3496217960531804e-01
               splits:
                  - { var:86, quality:3.8294762372970581e-02,
                      le:2.5199980735778809e+00 }
            -
               depth: 5
               value: -6.8116467821475912e-01
            -
               depth: 5
               value: 1.8089218404985938e+00
            -
               depth: 4
               value: 1.8699283032899807e+00
               splits:
                  - { var:14, quality:3.9349634200334549e-02,
                      le:4.3093359470367432e-01 }
            -
               depth: 5
               value: -1.3370743247132648e+00
            -
               depth: 5
               value: 2.0723877079245412e+00
      -
         nodes:
            -
               depth: 0
               value: 7.4380124902039587e-07
               splits:
                  - { var:146, quality:1.3429725542664528e-02,
                      le:5.6000208854675293e-01 }
            -
               depth: 1
               value: 1.6523059076015278e-01
               splits:
                  - { var:148, quality:2.8578775003552437e-02, in:[ 2 ] }
            -
               depth: 2
               value: -9.1232325505258294e-01
               splits:
                  - { var:42, quality:1.5434442088007927e-02,
                      le:5.6022271513938904e-02 }
            -
               depth: 3
               value: -1.3223974513454717e+00
               splits:
                  - { var:54, quality:1.6227638348937035e-02,
                      le:9.5680716913193464e-04 }
            -
               depth: 4
               value: -5.7564577324601141e+00
            -
               depth: 4
               value: -5.4857516227457381e-01
               splits:
                  - { var:54, quality:3.1877420842647552e-03,
                      le:9.5713202608749270e-04 }
            -
               depth: 5
               value: 5.7564577324623896e+00
            -
               depth: 5
               value: -9.2705883646163700e-01
            -
               depth: 3
               value: 2.6040662762136513e-01
               splits:
                  - { var:109, quality:1.9525372190400958e-03,
                      le:3.4197193384170532e-01 }
            -
               depth: 4
               value: 9.0791064221233719e-01
               splits:
                  - { var:108, quality:1.9568887073546648e-03,
                      le:3.5693132877349854e-01 }
            -
               depth: 5
               value: 1.7124457291712658e+00
            -
               depth: 5
               value: -5.7564577324601141e+00
            -
               depth: 4
               value: -5.7564577324601141e+00
            -
               depth: 2
               value: 2.3433228167825240e-01
               splits:
                  - { var:76, quality:2.8287012130022049e-02,
                      le:2.5156309604644775e+00 }
            -
               depth: 3
               value: 1.7035670468100056e-01
               splits:
                  - { var:148, quality:1.2773181311786175e-02, not_in:[
                      1 ] }
            -
               depth: 4
               value: 3.6666932645539010e-02
               splits:
                  - { var:147, quality:3.9572838693857193e-02,
                      le:4.8827466964721680e+00 }
            -
               depth: 5
               value: 3.4210802196462642e-01
            -
               depth: 5
               value: -1.7040394512713029e+00
            -
               depth: 4
               value: 3.0454917029332468e-01
               splits:
                  - { var:60, quality:4.9825809895992279e-02,
                      le:9.0502796173095703e+00 }
            -
               depth: 5
               value: -1.9340789642421545e+00
            -
               depth: 5
               value: 5.5110148275067516e-01
            -
               depth: 3
               value: 1.2611682959897348e+00
               splits:
                  - { var:148, quality:2.4828676134347916e-02, in:[ 1 ] }
            -
               depth: 4
               value: -7.7635391073696725e-01
               splits:
                  - { var:36, quality:1.8639928894117475e-03,
                      le:6.6139817237854004e-02 }
            -
               depth: 5
               value: 1.8720751094746326e+00
            -
               depth: 5
               value: -5.7564577324601141e+00
            -
               depth: 4
               value: 1.9548652133310465e+00
               splits:
                  - { var:4, quality:2.5984589010477066e-02,
                      le:7.9748153686523438e-02 }
            -
               depth: 5
               value: -5.7564577324601141e+00
            -
               depth: 5
               value: 3.8278595510329012e+00
            -
               depth: 1
               value: -8.2201286486502267e-02
               splits:
                  - { var:130, quality:1.5760032460093498e-02,
                      le:2.3935363769531250e+01 }
            -
               depth: 2
               value: -1.1038197879512315e-01
               splits:
                  - { var:148, quality:1.9307726994156837e-02, not_in:[
                      2 ] }
            -
               depth: 3
               value: -1.9376629625206332e-01
               splits:
                  - { var:125, quality:4.4505212455987930e-02,
                      le:9.9213927984237671e-01 }
            -
               depth: 4
               value: -9.4795111436564536e-02
               splits:
                  - { var:126, quality:3.0785586684942245e-02,
                      le:-1.6106599569320679e+00 }
            -
               depth: 5
               value: 6.8757934168162416e-01
            -
               depth: 5
               value: -1.9467253364164155e-01
            -
               depth: 4
               value: -1.0906344201796516e+00
               splits:
                  - { var:144, quality:4.8369426280260086e-02,
                      le:1.3500000000000000e+01 }
            -
               depth: 5
               value: -1.4558780417579367e+00
            -
               depth: 5
               value: 3.8227436722347757e-01
            -
               depth: 3
               value: 1.1437009106408555e-01
               splits:
                  - { var:111, quality:3.6716438829898834e-02,
                      le:5.9559341520071030e-02 }
            -
               depth: 4
               value: 1.1260331815093372e+00
               splits:
                  - { var:86, quality:3.7916991859674454e-02,
                      le:1.5909206867218018e+00 }
            -
               depth: 5
               value: 1.4202384472660761e+00
            -
               depth: 5
               value: -4.6424347491632950e-01
            -
               depth: 4
               value: -1.7993397485254337e-01
               splits:
                  - { var:108, quality:4.4586297124624252e-02,
                      le:1.7733512818813324e-01 }
            -
               depth: 5
               value: -2.3126904085444631e+00
            -
               depth: 5
               value: 2.5174002278218738e-01
            -
               depth: 2
               value: 5.8222727635313432e-01
               splits:
                  - { var:148, quality:2.8177861124277115e-02, not_in:[
                      0 ] }
            -
               depth: 3
               value: -1.8817943961519255e+00
               splits:
                  - { var:62, quality:6.8721822462975979e-03,
                      le:1.9041022658348083e-01 }
            -
               depth: 4
               value: 1.1312615924225771e+00
               splits:
                  - { var:148, quality:1.5405571321025491e-04, in:[ 1 ] }
            -
               depth: 5
               value: -5.7564577324601141e+00
            -
               depth: 5
               value: 5.7564577324623896e+00
            -
               depth: 4
               value: -2.9364038177636322e+00
               splits:
                  - { var:38, quality:6.8039898760616779e-03,
                      le:-1.8755912780761719e-01 }
            -
               depth: 5
               value: 9.4626098775998424e-01
            -
               depth: 5
               value: -3.2828713493512107e+00
            -
               depth: 3
               value: 2.5559091422671152e+00
               splits:
                  - { var:62, quality:2.2232178598642349e-02,
                      le:1.9041022658348083e-01 }
            -
               depth: 4
               value: -5.7564577324601141e+00
            -
               depth: 4
               value: 3.4114626739641838e+00
               splits:
                  - { var:38, quality:2.2170852869749069e-02,
                      le:-1.8755912780761719e-01 }
            -
               depth: 5
               value: -5.7564577324601141e+00
            -
               depth: 5
               value: 3.7580362642441374e+00
      -
         nodes:
            -
               depth: 0
               value: -7.2240604647964387e-05
               splits:
                  - { var:61, quality:2.3805905133485794e-02,
                      le:1.1687037348747253e-01 }
            -
               depth: 1
               value: 5.3485746636289022e-01
               splits:
                  - { var:148, quality:3.2109644263982773e-02, not_in:[
                      1 ] }
            -
               depth: 2
               value: 1.5009271075546049e-01
               splits:
                  - { var:60, quality:4.3152336031198502e-02,
                      le:6.9709281921386719e+00 }
            -
               depth: 3
               value: 1.9706040625449144e+00
               splits:
                  - { var:148, quality:2.6466235518455505e-02, in:[ 2 ] }
            -
               depth: 4
               value: -5.7564577324601141e+00
            -
               depth: 4
               value: 5.7564577324623896e+00
            -
               depth: 3
               value: -3.2757276297999658e+00
               splits:
                  - { var:0, quality:1.8758725374937057e-02,
                      le:3.5500000000000000e+01 }
            -
               depth: 4
               value: -5.7564577324601141e+00
            -
               depth: 4
               value: 9.8641651773587469e-01
            -
               depth: 2
               value: 1.1852477948426434e+00
               splits:
                  - { var:60, quality:4.5231677591800690e-02,
                      le:6.9709281921386719e+00 }
            -
               depth: 3
               value: -5.7564577324601141e+00
            -
               depth: 3
               value: 4.5331016991065418e+00
               splits:
                  - { var:0, quality:4.1388876736164093e-02,
                      le:3.5500000000000000e+01 }
            -
               depth: 4
               value: 5.7564577324623896e+00
            -
               depth: 4
               value: -5.7564577324601141e+00
            -
               depth: 1
               value: -4.8778022947138129e-02
               splits:
                  - { var:76, quality:1.5500642359256744e-02,
                      le:2.1450760364532471e+00 }
            -
               depth: 2
               value: -1.2336921175484332e-01
               splits:
                  - { var:33, quality:1.4445516280829906e-02,
                      le:3.3134892582893372e-02 }
            -
               depth: 3
               value: -2.7973628009329882e-01
               splits:
                  - { var:148, quality:1.5477631241083145e-02, in:[ 0 ] }
            -
               depth: 4
               value: -4.6074007259701250e-01
               splits:
                  - { var:85, quality:5.7718589901924133e-02,
                      le:5.1950111389160156e+00 }
            -
               depth: 5
               value: -1.1895940067169413e+00
            -
               depth: 5
               value: 1.6350053637403581e+00
            -
               depth: 4
               value: -1.0290890427283875e-01
               splits:
                  - { var:57, quality:2.9006883502006531e-02,
                      le:1.6271987557411194e-01 }
            -
               depth: 5
               value: -6.3693530960841049e-01
            -
               depth: 5
               value: 9.2977800010106049e-01
            -
               depth: 3
               value: -7.7899206804853655e-02
               splits:
                  - { var:123, quality:1.4366080984473228e-02,
                      le:3.2096320390701294e-01 }
            -
               depth: 4
               value: 5.7402082579884428e-01
               splits:
                  - { var:148, quality:1.4556978829205036e-02, not_in:[
                      1 ] }
            -
               depth: 5
               value: -2.3653087416197630e-01
            -
               depth: 5
               value: 1.1238727309936505e+00
            -
               depth: 4
               value: -1.1543455852196705e-01
               splits:
                  - { var:148, quality:1.2638005428016186e-02, not_in:[
                      0 ] }
            -
               depth: 5
               value: -2.1400002443796118e-01
            -
               depth: 5
               value: 2.2286818013914429e-02
            -
               depth: 2
               value: 1.5057443486113506e-01
               splits:
                  - { var:22, quality:1.0815015062689781e-02,
                      le:9.4223594665527344e-01 }
            -
               depth: 3
               value: -3.9491528852481986e-02
               splits:
                  - { var:148, quality:7.2177741676568985e-03, in:[ 0 ] }
            -
               depth: 4
               value: -3.7140451334945113e-01
               splits:
                  - { var:86, quality:2.0653637126088142e-02,
                      le:2.4054193496704102e+00 }
            -
               depth: 5
               value: -9.7153698936897770e-01
            -
               depth: 5
               value: 7.3891655508858056e-01
            -
               depth: 4
               value: 2.0502580763314734e-01
               splits:
                  - { var:56, quality:7.1036033332347870e-03,
                      le:1.1438257992267609e-01 }
            -
               depth: 5
               value: 3.7738652361622327e-01
            -
               depth: 5
               value: -4.1700268804215618e-01
            -
               depth: 3
               value: 2.6903041239227315e-01
               splits:
                  - { var:79, quality:1.4435743913054466e-02,
                      le:1.3779432296752930e+01 }
            -
               depth: 4
               value: 3.7032877399423308e-01
               splits:
                  - { var:148, quality:1.9142022356390953e-02, in:[ 2 ] }
            -
               depth: 5
               value: 1.1811055366316848e-02
            -
               depth: 5
               value: 5.1492989751394047e-01
            -
               depth: 4
               value: -3.2866177536852127e-03
               splits:
                  - { var:148, quality:4.0106978267431259e-03, in:[ 1 ] }
            -
               depth: 5
               value: -1.4149702769656478e+00
            -
               depth: 5
               value: 1.1161362740215602e-01
      -
         nodes:
            -
               depth: 0
               value: 1.7256264959138174e-04
               splits:
                  - { var:114, quality:8.7874559685587883e-03,
                      le:2.9166668653488159e-01 }
            -
               depth: 1
               value: 1.7528321026734833e-02
               splits:
                  - { var:30, quality:8.7169529870152473e-03,
                      le:4.7919058799743652e-01 }
            -
               depth: 2
               value: 5.4242949548749653e-01
               splits:
                  - { var:148, quality:1.1265867389738560e-02, in:[ 2 ] }
            -
               depth: 3
               value: -5.7564577324601141e+00
            -
               depth: 3
               value: 6.0802157035090643e-01
               splits:
                  - { var:147, quality:1.0516718961298466e-02,
                      le:3.9353566169738770e+00 }
            -
               depth: 4
               value: 6.2317172860775394e-01
               splits:
                  - { var:56, quality:1.0766502469778061e-02,
                      le:1.4007598161697388e-01 }
            -
               depth: 5
               value: 6.7972034218575250e-01
            -
               depth: 5
               value: 3.1760518269894117e-01
            -
               depth: 4
               value: -4.6224257052867346e-01
               splits:
                  - { var:10, quality:1.0703382577048615e-04,
                      le:-6.7991602420806885e-01 }
            -
               depth: 5
               value: -1.9353817182819807e-01
            -
               depth: 5
               value: -1.2747958013997911e+00
            -
               depth: 2
               value: -7.1891675391560573e-04
               splits:
                  - { var:111, quality:4.8012463375926018e-03,
                      le:5.9581134468317032e-02 }
            -
               depth: 3
               value: -1.7113977097102526e-01
               splits:
                  - { var:148, quality:2.2539511322975159e-02, in:[ 0 ] }
            -
               depth: 4
               value: -6.0764098423557400e-01
               splits:
                  - { var:3, quality:5.3161848336458206e-02,
                      le:8.5724282264709473e-01 }
            -
               depth: 5
               value: -1.3616189639733665e+00
            -
               depth: 5
               value: 1.4278356014545865e+00
            -
               depth: 4
               value: 1.7880826923000920e-01
               splits:
                  - { var:85, quality:9.4554377719759941e-03,
                      le:2.1192877292633057e+00 }
            -
               depth: 5
               value: 2.6730938065529253e-01
            -
               depth: 5
               value: -2.0767403313518793e+00
            -
               depth: 3
               value: 2.9835174732075559e-02
               splits:
                  - { var:108, quality:5.3243292495608330e-03,
                      le:1.7727753520011902e-01 }
            -
               depth: 4
               value: 4.1373936665495042e-01
               splits:
                  - { var:148, quality:1.4113790355622768e-02, not_in:[
                      0 ] }
            -
               depth: 5
               value: -1.3466677958515264e-01
            -
               depth: 5
               value: 1.4434541579968074e+00
            -
               depth: 4
               value: 1.3624315672649641e-02
               splits:
                  - { var:67, quality:2.8479602187871933e-03,
                      le:1.0445852577686310e-01 }
            -
               depth: 5
               value: 3.3935615200319229e-02
            -
               depth: 5
               value: -1.6459310699364363e-01
            -
               depth: 1
               value: -5.5759607960429647e-01
               splits:
                  - { var:148, quality:1.8249869346618652e-02, in:[ 1 ] }
            -
               depth: 2
               value: -1.5033351105992552e+00
               splits:
                  - { var:61, quality:1.8254933878779411e-02,
                      le:1.9458127021789551e-01 }
            -
               depth: 3
               value: 6.8028467118053626e-01
               splits:
                  - { var:1, quality:2.7570157544687390e-04,
                      le:3.2509807497262955e-02 }
            -
               depth: 4
               value: -5.7564577324601141e+00
            -
               depth: 4
               value: 5.7564577324623896e+00
            -
               depth: 3
               value: -1.6240637616763514e+00
               splits:
                  - { var:50, quality:1.8650811165571213e-02,
                      le:1.1179420351982117e-01 }
            -
               depth: 4
               value: 7.7600585590007556e-03
               splits:
                  - { var:87, quality:4.3325137812644243e-04,
                      le:6.3249998092651367e+00 }
            -
               depth: 5
               value: -5.7564577324601141e+00
            -
               depth: 5
               value: 1.0659756338909057e+00
            -
               depth: 4
               value: -1.8327246121744736e+00
               splits:
                  - { var:22, quality:1.8886107951402664e-02,
                      le:9.9888622760772705e-01 }
            -
               depth: 5
               value: -1.8964503160218920e+00
            -
               depth: 5
               value: 5.7564577324623896e+00
            -
               depth: 2
               value: 2.3517928588784393e-01
               splits:
                  - { var:4, quality:3.4338331315666437e-03,
                      le:5.4817162454128265e-02 }
            -
               depth: 3
               value: 8.6889792470991345e-01
               splits:
                  - { var:77, quality:4.2170695960521698e-03,
                      le:1.9024762511253357e-01 }
            -
               depth: 4
               value: -3.3005018771738154e-01
               splits:
                  - { var:26, quality:9.8933500703424215e-04,
                      le:5.0000000000000000e-01 }
            -
               depth: 5
               value: -5.7564577324601141e+00
            -
               depth: 5
               value: 3.7798930946082785e+00
            -
               depth: 4
               value: 1.4665357051805241e+00
               splits:
                  - { var:148, quality:4.6314150094985962e-03, in:[ 2 ] }
            -
               depth: 5
               value: -5.7564577324601141e+00
            -
               depth: 5
               value: 1.8541063396414845e+00
            -
               depth: 3
               value: -2.9091513854530010e-01
               splits:
                  - { var:3, quality:2.6066922582685947e-03,
                      le:1.5819290280342102e-01 }
            -
               depth: 4
               value: -1.0719353910627998e+00
               splits:
                  - { var:70, quality:2.6948128361254930e-03,
                      le:-3.2363767623901367e+00 }
            -
               depth: 5
               value: -1.4277090258938483e+00
            -
               depth: 5
               value: 4.3379285027991568e+00
            -
               depth: 4
               value: 5.2682620693235327e-01
               splits:
                  - { var:22, quality:8.1574753858149052e-04,
                      le:9.1424649953842163e-01 }
            -
               depth: 5
               value: 1.5237801714858051e-01
            -
               depth: 5
               value: 1.4188241922116809e+00
      -
         nodes:
            -
               depth: 0
               value: -6.5912735368081986e-06
               splits:
                  - { var:143, quality:7.4952128343284130e-03,
                      le:1.6500000000000000e+01 }
            -
               depth: 1
               value: -8.9466116894757960e-03
               splits:
                  - { var:125, quality:5.7806484401226044e-03,
                      le:1.0141968727111816e+00 }
            -
               depth: 2
               value: -2.9039556250332461e-02
               splits:
                  - { var:126, quality:8.1596961244940758e-03,
                      le:-1.6602256298065186e+00 }
            -
               depth: 3
               value: -4.4809518131030379e-01
               splits:
                  - { var:10, quality:8.7747536599636078e-03,
                      le:-6.2446618080139160e-01 }
            -
               depth: 4
               value: -4.6416520710051218e-01
               splits:
                  - { var:97, quality:9.1738011687994003e-03,
                      le:-6.4826821908354759e-03 }
            -
               depth: 5
               value: -3.8935241372813845e-01
            -
               depth: 5
               value: -8.0643213760575816e-01
            -
               depth: 4
               value: 8.8752917980606094e-01
               splits:
                  - { var:148, quality:5.2640662761405110e-04, not_in:[
                      0 ] }
            -
               depth: 5
               value: -5.7564577324601141e+00
            -
               depth: 5
               value: 5.7564577324623896e+00
            -
               depth: 3
               value: -8.6349612270090921e-03
               splits:
                  - { var:122, quality:2.9925946146249771e-03,
                      le:3.4597688913345337e-01 }
            -
               depth: 4
               value: -3.6314750131337205e-02
               splits:
                  - { var:60, quality:6.3760583288967609e-03,
                      le:3.3485000610351562e+01 }
            -
               depth: 5
               value: -4.0982001482768281e-03
            -
               depth: 5
               value: -2.7950305434780498e-01
            -
               depth: 4
               value: 1.1222044944931230e-01
               splits:
                  - { var:148, quality:1.1009492911398411e-02, in:[ 0 ] }
            -
               depth: 5
               value: -1.5858139660639173e-01
            -
               depth: 5
               value: 3.2556067912039416e-01
            -
               depth: 2
               value: 2.8545518074525328e-01
               splits:
                  - { var:148, quality:1.1027766391634941e-02, not_in:[
                      2 ] }
            -
               depth: 3
               value: 2.0548792618191860e-03
               splits:
                  - { var:51, quality:1.1370980180799961e-02,
                      le:4.7692567110061646e-01 }
            -
               depth: 4
               value: -6.5937164740197030e-01
               splits:
                  - { var:4, quality:1.2879676185548306e-02,
                      le:5.0704754889011383e-02 }
            -
               depth: 5
               value: -1.3332513164515030e+00
            -
               depth: 5
               value: 1.1600393590661997e+00
            -
               depth: 4
               value: 6.2197860883824263e-01
               splits:
                  - { var:120, quality:9.8197096958756447e-03,
                      le:5.0005636215209961e+00 }
            -
               depth: 5
               value: 8.7266257662364832e-01
            -
               depth: 5
               value: -2.8001374358537370e+00
            -
               depth: 3
               value: 7.1750772860893186e-01
               splits:
                  - { var:35, quality:1.6216501593589783e-02,
                      le:8.2758866250514984e-02 }
            -
               depth: 4
               value: 1.4397441571960221e+00
               splits:
                  - { var:88, quality:1.9554838538169861e-02,
                      le:2.5846862792968750e+00 }
            -
               depth: 5
               value: 2.5642770968467197e+00
            -
               depth: 5
               value: -1.2494767758532876e+00
            -
               depth: 4
               value: -2.4920328698608184e-02
               splits:
                  - { var:34, quality:3.0107414349913597e-03,
                      le:8.5298651829361916e-03 }
            -
               depth: 5
               value: 7.2183026918032400e-01
            -
               depth: 5
               value: -6.2515208864070959e-01
            -
               depth: 1
               value: 1.2157788209091336e+00
               splits:
                  - { var:148, quality:8.7420614436268806e-03, not_in:[
                      0 ] }
            -
               depth: 2
               value: -2.7457076998514580e-02
               splits:
                  - { var:72, quality:9.4350078143179417e-04,
                      le:8.3313977718353271e-01 }
            -
               depth: 3
               value: 7.1245092730176429e-01
               splits:
                  - { var:148, quality:7.7376828994601965e-04, in:[ 1 ] }
            -
               depth: 4
               value: -5.7564577324601141e+00
            -
               depth: 4
               value: 1.4989486091910706e+00
               splits:
                  - { var:5, quality:7.7335844980552793e-04,
                      le:5.0505347549915314e-02 }
            -
               depth: 5
               value: -5.7564577324601141e+00
            -
               depth: 5
               value: 5.7564577324623896e+00
            -
               depth: 3
               value: -5.7564577324601141e+00
            -
               depth: 2
               value: 2.3966224965493557e+00
               splits:
                  - { var:80, quality:8.9548248797655106e-03,
                      le:5.8632488250732422e+00 }
            -
               depth: 3
               value: -5.7564577324601141e+00
            -
               depth: 3
               value: 3.0473001969106188e+00
               splits:
                  - { var:132, quality:8.9728469029068947e-03,
                      le:5.9010572433471680e+00 }
            -
               depth: 4
               value: -5.7564577324601141e+00
            -
               depth: 4
               value: 4.1683225626714862e+00
               splits:
                  - { var:124, quality:8.9633716270327568e-03,
                      le:4.0189142227172852e+00 }
            -
               depth: 5
               value: -5.7564577324601141e+00
            -
               depth: 5
               value: 5.7564577324623896e+00
      -
         nodes:
            -
               depth: 0
               value: 3.0952282924863982e-05
               splits:
                  - { var:130, quality:2.3496020585298538e-03,
                      le:3.0404531955718994e-01 }
            -
               depth: 1
               value: -1.4131095074354100e-01
               splits:
                  - { var:148, quality:1.3854785822331905e-02, not_in:[
                      0 ] }
            -
               depth: 2
               value: -4.7141562139892951e-01
               splits:
                  - { var:111, quality:3.1389899551868439e-02,
                      le:2.4353288114070892e-01 }
            -
               depth: 3
               value: -1.3213341473090321e+00
               splits:
                  - { var:147, quality:3.2601848244667053e-02,
                      le:4.8827466964721680e+00 }
            -
               depth: 4
               value: -1.6034190848370633e+00
               splits:
                  - { var:60, quality:3.4065730869770050e-02,
                      le:1.4456665039062500e+01 }
            -
               depth: 5
               value: 1.6273311081870052e+00
            -
               depth: 5
               value: -1.9242085789192354e+00
            -
               depth: 4
               value: 1.8113892292383504e+00
               splits:
                  - { var:148, quality:1.1269194073975086e-03, in:[ 2 ] }
            -
               depth: 5
               value: -5.7564577324601141e+00
            -
               depth: 5
               value: 5.7564577324623896e+00
            -
               depth: 3
               value: 3.7275630888501415e-01
               splits:
                  - { var:62, quality:9.4548296183347702e-03,
                      le:3.9381784200668335e-01 }
            -
               depth: 4
               value: 7.6384721222983232e-01
               splits:
                  - { var:85, quality:9.7343083471059799e-03,
                      le:5.1950111389160156e+00 }
            -
               depth: 5
               value: 1.0775846524153661e+00
            -
               depth: 5
               value: -6.0527385269178369e-01
            -
               depth: 4
               value: -1.1055236596814468e+00
               splits:
                  - { var:69, quality:3.1663004774600267e-03,
                      le:1.7415225505828857e-01 }
            -
               depth: 5
               value: 2.5915925512620528e+00
            -
               depth: 5
               value: -1.3577646004930422e+00
            -
               depth: 2
               value: 2.3302183204756757e-01
               splits:
                  - { var:121, quality:2.4383261799812317e-02,
                      le:5.3624105453491211e-01 }
            -
               depth: 3
               value: -4.8578448578521316e-01
               splits:
                  - { var:52, quality:1.0067786090075970e-02,
                      le:1.4273099601268768e-01 }
            -
               depth: 4
               value: 6.2412063034019316e-01
               splits:
                  - { var:82, quality:2.9591852799057961e-03,
                      le:6.9970798492431641e+00 }
            -
               depth: 5
               value: 1.4356788627473114e+00
            -
               depth: 5
               value: -6.7922194123972834e-01
            -
               depth: 4
               value: -8.1144254441029506e-01
               splits:
                  - { var:56, quality:1.1863691732287407e-02,
                      le:2.4598491191864014e-01 }
            -
               depth: 5
               value: -1.4026599126074024e+00
            -
               depth: 5
               value: 6.8210359493576192e-02
            -
               depth: 3
               value: 1.4976743114762874e+00
               splits:
                  - { var:59, quality:2.1153463050723076e-02,
                      le:3.3192354440689087e-01 }
            -
               depth: 4
               value: -1.9368750208470255e-02
               splits:
                  - { var:105, quality:1.7196135595440865e-03,
                      le:8.1552222371101379e-02 }
            -
               depth: 5
               value: -2.6877448796360981e+00
            -
               depth: 5
               value: 5.7564577324623896e+00
            -
               depth: 4
               value: 2.2299004544372818e+00
               splits:
                  - { var:30, quality:2.1672092378139496e-02,
                      le:1.7311381101608276e+00 }
            -
               depth: 5
               value: 2.5983009198179312e+00
            -
               depth: 5
               value: -5.7564577324601141e+00
            -
               depth: 1
               value: 1.6766531229657999e-02
               splits:
                  - { var:138, quality:3.3380924724042416e-03,
                      le:2.9900211334228516e+01 }
            -
               depth: 2
               value: 4.6019241429212883e-02
               splits:
                  - { var:28, quality:3.3140662126243114e-03,
                      le:7.6999998092651367e-01 }
            -
               depth: 3
               value: 4.2579617059198993e-02
               splits:
                  - { var:62, quality:3.3532832749187946e-03,
                      le:8.4307622909545898e-01 }
            -
               depth: 4
               value: 5.8252164553236403e-02
               splits:
                  - { var:96, quality:5.0705410540103912e-03,
                      le:1.2633170699700713e-03 }
            -
               depth: 5
               value: 2.0506341744904587e-02
            -
               depth: 5
               value: 1.7474235649200112e-01
            -
               depth: 4
               value: -1.4339807158152665e-01
               splits:
                  - { var:148, quality:4.9231606535613537e-03, in:[ 1 ] }
            -
               depth: 5
               value: -1.0492102534198258e+00
            -
               depth: 5
               value: -3.5543364352746784e-02
            -
               depth: 3
               value: 1.0388669909468911e+00
               splits:
                  - { var:148, quality:3.3466860186308622e-03, not_in:[
                      0 ] }
            -
               depth: 4
               value: -5.7564577324601141e+00
            -
               depth: 4
               value: 5.7564577324623896e+00
            -
               depth: 2
               value: -1.0181432076547080e-01
               splits:
                  - { var:81, quality:4.6318857930600643e-03,
                      le:7.2696876525878906e-01 }
            -
               depth: 3
               value: 8.1259116173547985e-01
               splits:
                  - { var:148, quality:3.0685788951814175e-03, in:[ 2 ] }
            -
               depth: 4
               value: -2.9512092637631188e-01
               splits:
                  - { var:34, quality:7.5576460221782327e-04,
                      le:8.6682774126529694e-03 }
            -
               depth: 5
               value: 1.2411023267817280e+00
            -
               depth: 5
               value: -2.0840775319365368e+00
            -
               depth: 4
               value: 1.4701695159061527e+00
               splits:
                  - { var:24, quality:3.3017531968653202e-03,
                      le:2.7097757905721664e-02 }
            -
               depth: 5
               value: 1.7654193236706224e+00
            -
               depth: 5
               value: -5.7564577324601141e+00
            -
               depth: 3
               value: -1.2260936980563197e-01
               splits:
                  - { var:148, quality:5.5944612249732018e-03, in:[ 1 ] }
            -
               depth: 4
               value: -3.1495965046836577e-01
               splits:
                  - { var:83, quality:3.3632360398769379e-02,
                      le:3.4109892845153809e+00 }
            -
               depth: 5
               value: 6.0305853406082033e-01
            -
               depth: 5
               value: -1.3178316440796369e+00
            -
               depth: 4
               value: -2.6075009249506689e-02
               splits:
                  - { var:84, quality:1.3909796252846718e-02,
                      le:2.1790478378534317e-02 }
            -
               depth: 5
               value: -6.1308017681001736e-01
            -
               depth: 5
               value: 2.1204147495413792e-01
      -
         nodes:
            -
               depth: 0
               value: 1.5241865683692867e-05
               splits:
                  - { var:7, quality:2.9698603320866823e-03,
                      le:2.1117027848958969e-02 }
            -
               depth: 1
               value: 2.4905810600195269e-02
               splits:
                  - { var:20, quality:3.6195430438965559e-03,
                      le:2.4668307304382324e+00 }
            -
               depth: 2
               value: 3.1983519917821632e-03
               splits:
                  - { var:29, quality:2.6446811389178038e-03,
                      le:9.8783826828002930e-01 }
            -
               depth: 3
               value: -1.9005369469193140e-02
               splits:
                  - { var:120, quality:2.3453743197023869e-03,
                      le:2.2838260233402252e-01 }
            -
               depth: 4
               value: -2.0582398976848829e-01
               splits:
                  - { var:50, quality:5.0613856874406338e-03,
                      le:3.0183050036430359e-01 }
            -
               depth: 5
               value: 1.1018643300315710e-01
            -
               depth: 5
               value: -3.7187549863140773e-01
            -
               depth: 4
               value: -1.2425238677710533e-03
               splits:
                  - { var:122, quality:2.8753115329891443e-03,
                      le:1.6187690198421478e-01 }
            -
               depth: 5
               value: 1.8395969427857511e-01
            -
               depth: 5
               value: -2.7872818526001385e-02
            -
               depth: 3
               value: 1.6627580477119858e-01
               splits:
                  - { var:148, quality:1.0708039626479149e-02, in:[ 0 ] }
            -
               depth: 4
               value: -1.9633591938669293e-01
               splits:
                  - { var:62, quality:1.1251509189605713e-02,
                      le:2.2902911901473999e-01 }
            -
               depth: 5
               value: -1.2494079079055900e+00
            -
               depth: 5
               value: 2.1199813924293687e-01
            -
               depth: 4
               value: 4.5405112478218534e-01
               splits:
                  - { var:60, quality:1.8330540508031845e-02,
                      le:2.0609596252441406e+01 }
            -
               depth: 5
               value: 1.1014755241613874e+00
            -
               depth: 5
               value: -4.1625692548717112e-02
            -
               depth: 2
               value: 2.0053502194719272e-01
               splits:
                  - { var:148, quality:1.0157382115721703e-02, not_in:[
                      0 ] }
            -
               depth: 3
               value: -3.8847962036161879e-02
               splits:
                  - { var:120, quality:2.0605394616723061e-02,
                      le:9.5175898075103760e-01 }
            -
               depth: 4
               value: -1.4651640986047652e+00
               splits:
                  - { var:17, quality:1.6975481063127518e-02,
                      le:3.8904003798961639e-02 }
            -
               depth: 5
               value: -2.2076253026109098e+00
            -
               depth: 5
               value: 1.1584994046695236e+00
            -
               depth: 4
               value: 4.5304474858881488e-01
               splits:
                  - { var:39, quality:9.6274726092815399e-03,
                      le:2.5863368064165115e-02 }
            -
               depth: 5
               value: 6.0746131501931577e-01
            -
               depth: 5
               value: -5.3026613888887209e-01
            -
               depth: 3
               value: 5.4619863469820629e-01
               splits:
                  - { var:112, quality:2.4894116446375847e-02,
                      le:1.5589037537574768e-01 }
            -
               depth: 4
               value: -5.9016438421444151e-01
               splits:
                  - { var:144, quality:8.7945805862545967e-03,
                      le:1.3500000000000000e+01 }
            -
               depth: 5
               value: -1.4590334812384325e+00
            -
               depth: 5
               value: 4.7325640077556521e+00
            -
               depth: 4
               value: 1.2629378746218518e+00
               splits:
                  - { var:17, quality:2.6885898783802986e-02,
                      le:3.6638818681240082e-02 }
            -
               depth: 5
               value: 1.8043243037958756e+00
            -
               depth: 5
               value: -1.2678358637640486e+00
            -
               depth: 1
               value: -1.1989736824370660e-01
               splits:
                  - { var:148, quality:6.4607681706547737e-03, in:[ 0 ] }
            -
               depth: 2
               value: -3.2792620517082721e-01
               splits:
                  - { var:146, quality:2.4564843624830246e-02,
                      le:4.3199973106384277e+00 }
            -
               depth: 3
               value: -1.3082087221405008e+00
               splits:
                  - { var:21, quality:2.5835182517766953e-02,
                      le:2.3954582214355469e+00 }
            -
               depth: 4
               value: -1.5150535478114533e+00
               splits:
                  - { var:143, quality:2.7810050174593925e-02,
                      le:9.5000000000000000e+00 }
            -
               depth: 5
               value: -2.0251546769620168e+00
            -
               depth: 5
               value: 7.2246492911478799e-01
            -
               depth: 4
               value: 5.7564577324623896e+00
            -
               depth: 3
               value: 1.9949441194579967e-01
               splits:
                  - { var:19, quality:1.0994020849466324e-02,
                      le:2.8785519599914551e+00 }
            -
               depth: 4
               value: 5.1348190675077032e-01
               splits:
                  - { var:12, quality:1.2936177663505077e-02,
                      le:2.0125083625316620e-01 }
            -
               depth: 5
               value: -1.3955622491176134e+00
            -
               depth: 5
               value: 8.0990367310155731e-01
            -
               depth: 4
               value: -1.3013256384698131e+00
               splits:
                  - { var:86, quality:6.0265413485467434e-03,
                      le:2.5641860961914062e+00 }
            -
               depth: 5
               value: -1.6910632795146379e+00
            -
               depth: 5
               value: 5.7564577324623896e+00
            -
               depth: 2
               value: -1.7286029797486391e-03
               splits:
                  - { var:146, quality:9.8145650699734688e-03,
                      le:4.2500009536743164e+00 }
            -
               depth: 3
               value: 3.8757165329521553e-01
               splits:
                  - { var:122, quality:9.2564243823289871e-03,
                      le:3.0426070094108582e-01 }
            -
               depth: 4
               value: -8.9368880822611949e-02
               splits:
                  - { var:20, quality:1.2541967444121838e-03,
                      le:2.4869146347045898e+00 }
            -
               depth: 5
               value: 4.4441296334844289e-02
            -
               depth: 5
               value: -1.1851156517766492e+00
            -
               depth: 4
               value: 6.0665229168829993e-01
               splits:
                  - { var:143, quality:1.1409825645387173e-02,
                      le:9.5000000000000000e+00 }
            -
               depth: 5
               value: 6.8581508130349900e-01
            -
               depth: 5
               value: -1.1067071903019090e+00
            -
               depth: 3
               value: -2.5159191766650563e-01
               splits:
                  - { var:104, quality:8.1966426223516464e-03,
                      le:3.8188807666301727e-02 }
            -
               depth: 4
               value: -1.1041409632304902e-01
               splits:
                  - { var:85, quality:4.1776648722589016e-03,
                      le:3.4435091018676758e+00 }
            -
               depth: 5
               value: -3.0836352468393263e-02
            -
               depth: 5
               value: -3.9069522437126452e+00
            -
               depth: 4
               value: -9.1496680027637933e-01
               splits:
                  - { var:23, quality:1.0902686044573784e-02,
                      le:1.9377813339233398e+00 }
            -
               depth: 5
               value: -1.4221695375784134e+00
            -
               depth: 5
               value: 7.7853925614929587e-01
      -
         nodes:
            -
               depth: 0
               value: 3.5168423835412156e-06
               splits:
                  - { var:40, quality:3.2454251777380705e-03,
                      le:-8.9017152786254883e-02 }
            -
               depth: 1
               value: 1.0777044354404573e-02
               splits:
                  - { var:143, quality:2.2194504272192717e-03,
                      le:1.1500000000000000e+01 }
            -
               depth: 2
               value: 6.1562641064613274e-03
               splits:
                  - { var:100, quality:1.8997499719262123e-03,
                      le:2.6097663212567568e-03 }
            -
               depth: 3
               value: 1.8595312057100764e-02
               splits:
                  - { var:63, quality:2.2711311466991901e-03,
                      le:4.4206876754760742e+00 }
            -
               depth: 4
               value: 1.4868418482405107e-02
               splits:
                  - { var:85, quality:1.5436303801834583e-03,
                      le:6.1300001144409180e+00 }
            -
               depth: 5
               value: 8.6653132845029412e-03
            -
               depth: 5
               value: 2.6820140760721489e-01
            -
               depth: 4
               value: 7.1521731882767248e-01
               splits:
                  - { var:148, quality:2.6456532068550587e-03, not_in:[
                      0 ] }
            -
               depth: 5
               value: 1.4890922746407934e-01
            -
               depth: 5
               value: 1.2062595553272262e+00
            -
               depth: 3
               value: -1.5170988803506191e-01
               splits:
                  - { var:148, quality:5.7621384039521217e-03, in:[ 0 ] }
            -
               depth: 4
               value: -6.1424657143785200e-01
               splits:
                  - { var:28, quality:1.0975096374750137e-02,
                      le:6.0499989986419678e-01 }
            -
               depth: 5
               value: -9.8868619750527020e-01
            -
               depth: 5
               value: 9.6012835048964085e-01
            -
               depth: 4
               value: -1.0244593435182222e-03
               splits:
                  - { var:50, quality:3.2258795108646154e-03,
                      le:1.1976888179779053e+00 }
            -
               depth: 5
               value: 1.1683016823566529e-01
            -
               depth: 5
               value: -6.0359529466377748e-01
            -
               depth: 2
               value: 5.2711684797325209e-01
               splits:
                  - { var:148, quality:5.7587134651839733e-03, not_in:[
                      0 ] }
            -
               depth: 3
               value: -5.4201979855856430e-01
               splits:
                  - { var:37, quality:1.7705817008391023e-03,
                      le:1.0199407115578651e-02 }
            -
               depth: 4
               value: -1.1526987666107991e+00
               splits:
                  - { var:80, quality:1.8729079747572541e-03,
                      le:7.9090728759765625e+00 }
            -
               depth: 5
               value: 9.9153478094389791e-01
            -
               depth: 5
               value: -1.8306483194504934e+00
            -
               depth: 4
               value: 1.0862591157531760e+00
               splits:
                  - { var:103, quality:5.1801244262605906e-04,
                      le:2.5247674435377121e-02 }
            -
               depth: 5
               value: 2.4919197583064925e+00
            -
               depth: 5
               value: -1.8041455932067827e+00
            -
               depth: 3
               value: 1.3507787455001288e+00
               splits:
                  - { var:37, quality:6.1341742984950542e-03,
                      le:1.0199407115578651e-02 }
            -
               depth: 4
               value: 2.0419642002175591e+00
               splits:
                  - { var:123, quality:6.1097382567822933e-03,
                      le:1.1152085065841675e+00 }
            -
               depth: 5
               value: -5.8515796705088985e-01
            -
               depth: 5
               value: 2.5336934143770229e+00
            -
               depth: 4
               value: -1.0671580620051335e+00
               splits:
                  - { var:1, quality:3.5254494287073612e-04,
                      le:2.4725064635276794e-01 }
            -
               depth: 5
               value: -5.7564577324601141e+00
            -
               depth: 5
               value: 5.7564577324623896e+00
            -
               depth: 1
               value: -3.1089255217988931e-01
               splits:
                  - { var:81, quality:5.0586285069584846e-03,
                      le:1.2556060791015625e+01 }
            -
               depth: 2
               value: -4.3070518178242978e-01
               splits:
                  - { var:44, quality:5.8213048614561558e-03,
                      le:2.7619365602731705e-02 }
            -
               depth: 3
               value: -6.4844530425483604e-01
               splits:
                  - { var:49, quality:6.0291509144008160e-03,
                      le:1.8363824486732483e-01 }
            -
               depth: 4
               value: -2.2043759369988711e-01
               splits:
                  - { var:1, quality:3.7531109410338104e-04,
                      le:7.0797890424728394e-02 }
            -
               depth: 5
               value: -9.9979544247775748e-02
            -
               depth: 5
               value: -7.9968951894631313e-01
            -
               depth: 4
               value: -8.1860104216526941e-01
               splits:
                  - { var:30, quality:6.2850588001310825e-03,
                      le:4.0622901916503906e-01 }
            -
               depth: 5
               value: 8.1530766440977742e-01
            -
               depth: 5
               value: -8.6596002536851580e-01
            -
               depth: 3
               value: -1.8354499890819087e-01
               splits:
                  - { var:111, quality:7.9215364530682564e-04,
                      le:3.3167389035224915e-01 }
            -
               depth: 4
               value: -1.2265069413642732e-01
               splits:
                  - { var:40, quality:6.2948465347290039e-04,
                      le:-6.4964912831783295e-02 }
            -
               depth: 5
               value: -4.4794871210524938e-02
            -
               depth: 5
               value: -8.1092448073378198e-01
            -
               depth: 4
               value: -9.0335244760033995e-01
               splits:
                  - { var:50, quality:7.2999624535441399e-04,
                      le:1.7032790184020996e-01 }
            -
               depth: 5
               value: -1.0435273241791529e+00
            -
               depth: 5
               value: 7.5931362414365489e-01
            -
               depth: 2
               value: 2.3583094459002676e-01
               splits:
                  - { var:148, quality:1.5005678869783878e-03, not_in:[
                      1 ] }
            -
               depth: 3
               value: -1.4968158169330520e-01
               splits:
                  - { var:139, quality:5.6048628175631166e-04,
                      le:9.8206291198730469e+00 }
            -
               depth: 4
               value: -4.6355166564172928e-01
               splits:
                  - { var:148, quality:8.3780742716044188e-04, in:[ 0 ] }
            -
               depth: 5
               value: -1.0184575395232889e+00
            -
               depth: 5
               value: 1.6589988730176292e-01
            -
               depth: 4
               value: 3.7624733523941489e-01
               splits:
                  - { var:148, quality:2.0786290406249464e-04, not_in:[
                      0 ] }
            -
               depth: 5
               value: 1.3524275789305593e-01
            -
               depth: 5
               value: 6.1854612091020189e-01
            -
               depth: 3
               value: 1.0631835277768675e+00
               splits:
                  - { var:26, quality:2.0711275283247232e-03,
                      le:5.0000000000000000e-01 }
            -
               depth: 4
               value: 1.7693953870517625e+00
               splits:
                  - { var:126, quality:2.0170963834971189e-03,
                      le:-1.3752028346061707e-01 }
            -
               depth: 5
               value: -5.7564577324601141e+00
            -
               depth: 5
               value: 2.1955092353619152e+00
            -
               depth: 4
               value: -5.7564577324601141e+00
      -
         nodes:
            -
               depth: 0
               value: -1.6155785523399513e-06
               splits:
                  - { var:139, quality:1.6027587698772550e-03,
                      le:1.8597198486328125e+01 }
            -
               depth: 1
               value: -1.0935662268667807e-02
               splits:
                  - { var:36, quality:3.2426866237074137e-03,
                      le:4.5186422765254974e-02 }
            -
               depth: 2
               value: -2.2173764705827281e-01
               splits:
                  - { var:148, quality:1.9402325153350830e-02, not_in:[
                      1 ] }
            -
               depth: 3
               value: -7.2525963178686181e-01
               splits:
                  - { var:49, quality:2.3899028077721596e-02,
                      le:3.3771163225173950e-01 }
            -
               depth: 4
               value: 1.0137978081048507e+00
               splits:
                  - { var:148, quality:3.1496491283178329e-03, in:[ 2 ] }
            -
               depth: 5
               value: -5.7308308875196745e-01
            -
               depth: 5
               value: 1.6830957590447482e+00
            -
               depth: 4
               value: -1.0195917917305157e+00
               splits:
                  - { var:69, quality:2.4648446589708328e-02,
                      le:3.6355209350585938e-01 }
            -
               depth: 5
               value: -1.4641402905664651e+00
            -
               depth: 5
               value: -1.1761480691241963e-01
            -
               depth: 3
               value: 3.9686550834750961e-01
               splits:
                  - { var:61, quality:1.8251081928610802e-02,
                      le:7.3108243942260742e-01 }
            -
               depth: 4
               value: 1.0764017520751721e+00
               splits:
                  - { var:127, quality:1.4881337061524391e-02,
                      le:2.1651086807250977e+00 }
            -
               depth: 5
               value: 1.2952752137922241e+00
            -
               depth: 5
               value: -7.2787027098319423e-01
            -
               depth: 4
               value: -1.4459755028191994e+00
               splits:
                  - { var:84, quality:6.4437612891197205e-03,
                      le:3.1013824045658112e-02 }
            -
               depth: 5
               value: 7.5632938346936129e-01
            -
               depth: 5
               value: -5.7564577324601141e+00
            -
               depth: 2
               value: 5.3020046187525222e-03
               splits:
                  - { var:1, quality:1.2841178104281425e-03,
                      le:5.1034182310104370e-02 }
            -
               depth: 3
               value: 2.1898983942318148e-01
               splits:
                  - { var:117, quality:3.7832860834896564e-03,
                      le:1.2500025331974030e-02 }
            -
               depth: 4
               value: 4.2366829611229179e-01
               splits:
                  - { var:148, quality:5.2796001546084881e-03, not_in:[
                      1 ] }
            -
               depth: 5
               value: 8.1431602238857467e-02
            -
               depth: 5
               value: 9.1533828371165837e-01
            -
               depth: 4
               value: -2.8332598364274064e-01
               splits:
                  - { var:56, quality:1.5893561067059636e-03,
                      le:2.1152058243751526e-01 }
            -
               depth: 5
               value: 1.5846709273458387e-01
            -
               depth: 5
               value: -6.7393624290035814e-01
            -
               depth: 3
               value: -1.6415822803658553e-03
               splits:
                  - { var:127, quality:1.8396739615127444e-03,
                      le:7.6996773481369019e-02 }
            -
               depth: 4
               value: -9.9701203947391098e-02
               splits:
                  - { var:148, quality:4.3569859117269516e-02, not_in:[
                      0 ] }
            -
               depth: 5
               value: -6.7546664441152005e-01
            -
               depth: 5
               value: 4.8474157066190249e-01
            -
               depth: 4
               value: 2.0867040077003202e-02
               splits:
                  - { var:148, quality:6.1132023110985756e-03, not_in:[
                      1 ] }
            -
               depth: 5
               value: -5.5452563570917920e-02
            -
               depth: 5
               value: 1.3400867806981892e-01
            -
               depth: 1
               value: 1.4765217996769528e-01
               splits:
                  - { var:148, quality:5.6822919286787510e-03, in:[ 1 ] }
            -
               depth: 2
               value: -1.8827321902344774e-01
               splits:
                  - { var:3, quality:8.5287559777498245e-03,
                      le:4.1422480344772339e-01 }
            -
               depth: 3
               value: 3.6570873966101014e-01
               splits:
                  - { var:120, quality:4.6779713593423367e-03,
                      le:2.1086840629577637e+00 }
            -
               depth: 4
               value: -2.7356138927284512e-01
               splits:
                  - { var:83, quality:3.7567855324596167e-03,
                      le:2.7413332462310791e+00 }
            -
               depth: 5
               value: 5.7564577324623896e+00
            -
               depth: 5
               value: -1.1150968891490165e+00
            -
               depth: 4
               value: 9.6096445144276244e-01
               splits:
                  - { var:125, quality:6.0226893983781338e-03,
                      le:1.4270231723785400e+00 }
            -
               depth: 5
               value: 1.3319161987580612e+00
            -
               depth: 5
               value: -4.2591253037729722e+00
            -
               depth: 3
               value: -1.0217428099363792e+00
               splits:
                  - { var:71, quality:8.7549360468983650e-03,
                      le:2.3634212091565132e-02 }
            -
               depth: 4
               value: 1.1011379655476381e+00
               splits:
                  - { var:100, quality:6.8386638304218650e-04,
                      le:5.6029693223536015e-04 }
            -
               depth: 5
               value: -5.7564577324601141e+00
            -
               depth: 5
               value: 5.7564577324623896e+00
            -
               depth: 4
               value: -1.3245866443913799e+00
               splits:
                  - { var:34, quality:8.9415768161416054e-03,
                      le:7.2861863300204277e-03 }
            -
               depth: 5
               value: 1.6732705144502653e+00
            -
               depth: 5
               value: -1.4690108068283523e+00
            -
               depth: 2
               value: 3.4068111541340851e-01
               splits:
                  - { var:76, quality:8.7567884474992752e-03,
                      le:1.0515499114990234e+00 }
            -
               depth: 3
               value: -3.7343476294276118e-01
               splits:
                  - { var:100, quality:4.8369430005550385e-03,
                      le:1.4685576315969229e-03 }
            -
               depth: 4
               value: -1.0613011575804452e+00
               splits:
                  - { var:129, quality:4.4887820258736610e-03,
                      le:9.2799061536788940e-01 }
            -
               depth: 5
               value: -1.7624087177198720e+00
            -
               depth: 5
               value: 8.2000084927532535e-01
            -
               depth: 4
               value: 1.7868039310549806e+00
               splits:
                  - { var:128, quality:1.6181832179427147e-03,
                      le:-1.4976238250732422e+01 }
            -
               depth: 5
               value: 2.1401957274814394e+00
            -
               depth: 5
               value: -2.5822175092819410e-01
            -
               depth: 3
               value: 4.9173587984025557e-01
               splits:
                  - { var:72, quality:1.0285221971571445e-02,
                      le:5.8739030361175537e-01 }
            -
               depth: 4
               value: 7.3525723678658805e-01
               splits:
                  - { var:23, quality:1.1397514492273331e-02,
                      le:1.2618842124938965e+00 }
            -
               depth: 5
               value: 1.3036297704296376e-01
            -
               depth: 5
               value: 9.0388295198383273e-01
            -
               depth: 4
               value: 8.0267807135498706e-02
               splits:
                  - { var:28, quality:1.3926493702456355e-03,
                      le:4.6999990940093994e-01 }
            -
               depth: 5
               value: 3.7433108825990047e-01
            -
               depth: 5
               value: -3.3242066559088673e-01
      -
         nodes:
            -
               depth: 0
               value: -1.4751127765187558e-05
               splits:
                  - { var:30, quality:2.7576433494687080e-03,
                      le:1.3459978103637695e+00 }
            -
               depth: 1
               value: 7.1324176231273712e-02
               splits:
                  - { var:148, quality:4.7568175941705704e-03, in:[ 1 ] }
            -
               depth: 2
               value: -4.8213246938736430e-02
               splits:
                  - { var:88, quality:2.6488423347473145e-02,
                      le:8.3698475360870361e-01 }
            -
               depth: 3
               value: 3.3184841131585391e-01
               splits:
                  - { var:144, quality:2.0458012819290161e-02,
                      le:3.5000000000000000e+00 }
            -
               depth: 4
               value: 6.0902996736794779e-01
               splits:
                  - { var:55, quality:2.4920580908656120e-02,
                      le:1.5938594937324524e-01 }
            -
               depth: 5
               value: 8.0681577882605049e-01
            -
               depth: 5
               value: -4.8691562134570820e-01
            -
               depth: 4
               value: -4.1790903651572125e-01
               splits:
                  - { var:128, quality:9.3503221869468689e-03,
                      le:-3.3331785202026367e+00 }
            -
               depth: 5
               value: -8.1567486053753302e-01
            -
               depth: 5
               value: 1.2842835844074802e+00
            -
               depth: 3
               value: -6.7915033122282553e-01
               splits:
                  - { var:103, quality:3.0999055132269859e-02,
                      le:3.2258782535791397e-02 }
            -
               depth: 4
               value: 4.0733111280579304e-01
               splits:
                  - { var:21, quality:4.8628598451614380e-03,
                      le:1.9238510131835938e+00 }
            -
               depth: 5
               value: 7.5412983977651804e-01
            -
               depth: 5
               value: -1.3027562339646239e+00
            -
               depth: 4
               value: -1.1970188878558741e+00
               splits:
                  - { var:23, quality:3.3179953694343567e-02,
                      le:1.3825747966766357e+00 }
            -
               depth: 5
               value: 2.3976394985799640e-01
            -
               depth: 5
               value: -1.5599276627272407e+00
            -
               depth: 2
               value: 1.4283178219052456e-01
               splits:
                  - { var:33, quality:2.2688541561365128e-02,
                      le:2.7961350977420807e-02 }
            -
               depth: 3
               value: -5.4649360925286139e-01
               splits:
                  - { var:122, quality:1.3642162084579468e-02,
                      le:2.2073686122894287e-01 }
            -
               depth: 4
               value: -7.8056744398697142e-01
               splits:
                  - { var:55, quality:1.7995437607169151e-02,
                      le:1.5938594937324524e-01 }
            -
               depth: 5
               value: -1.1301208274592469e+00
            -
               depth: 5
               value: 3.4850825403625557e-01
            -
               depth: 4
               value: 2.8260961541895607e-01
               splits:
                  - { var:5, quality:1.9837096333503723e-03,
                      le:8.0763280391693115e-02 }
            -
               depth: 5
               value: -5.7564577324601141e+00
            -
               depth: 5
               value: 5.0603887242468326e-01
            -
               depth: 3
               value: 2.7762419381716730e-01
               splits:
                  - { var:103, quality:2.6727851480245590e-02,
                      le:3.1779523938894272e-02 }
            -
               depth: 4
               value: -1.4877020294383142e-01
               splits:
                  - { var:86, quality:1.4124135486781597e-02,
                      le:3.8524813652038574e+00 }
            -
               depth: 5
               value: -5.8213547253837694e-01
            -
               depth: 5
               value: 5.4173124341623347e-01
            -
               depth: 4
               value: 4.7527184435242198e-01
               splits:
                  - { var:148, quality:3.4388855099678040e-02, not_in:[
                      0 ] }
            -
               depth: 5
               value: 5.0105404929487167e-02
            -
               depth: 5
               value: 7.1660995256608451e-01
            -
               depth: 1
               value: -3.8755172512261807e-02
               splits:
                  - { var:148, quality:6.3959551043808460e-03, in:[ 0 ] }
            -
               depth: 2
               value: -1.6338376914502226e-01
               splits:
                  - { var:128, quality:5.8743748813867569e-02,
                      le:-1.0824194908142090e+01 }
            -
               depth: 3
               value: 2.7160625188157789e-01
               splits:
                  - { var:53, quality:4.6474136412143707e-02,
                      le:5.9543037414550781e-01 }
            -
               depth: 4
               value: -8.7210679868768937e-01
               splits:
                  - { var:86, quality:2.6512298732995987e-02,
                      le:2.4959306716918945e+00 }
            -
               depth: 5
               value: -1.7683710718889023e+00
            -
               depth: 5
               value: 1.2836441909209337e+00
            -
               depth: 4
               value: 6.4348841622685604e-01
               splits:
                  - { var:60, quality:5.5212732404470444e-02,
                      le:2.1419975280761719e+01 }
            -
               depth: 5
               value: -4.3761619392282798e+00
            -
               depth: 5
               value: 9.1329693615923058e-01
            -
               depth: 3
               value: -8.6310888598015123e-01
               splits:
                  - { var:12, quality:6.6556721925735474e-02,
                      le:6.4643412828445435e-02 }
            -
               depth: 4
               value: 2.9250687136459125e-01
               splits:
                  - { var:125, quality:7.1813156828284264e-03,
                      le:1.4043227769434452e-02 }
            -
               depth: 5
               value: 9.5333825962984864e-01
            -
               depth: 5
               value: -6.8397421572480854e-01
            -
               depth: 4
               value: -1.3149783870919978e+00
               splits:
                  - { var:143, quality:7.5308926403522491e-02,
                      le:6.5000000000000000e+00 }
            -
               depth: 5
               value: -1.7738598224970130e+00
            -
               depth: 5
               value: 6.7527714672720618e-01
            -
               depth: 2
               value: 2.9229504604348661e-02
               splits:
                  - { var:128, quality:3.5636838525533676e-02,
                      le:-1.0616404533386230e+01 }
            -
               depth: 3
               value: -2.1686854622902760e-01
               splits:
                  - { var:67, quality:4.1134614497423172e-02,
                      le:5.2735777571797371e-03 }
            -
               depth: 4
               value: -1.6163771929625510e+00
               splits:
                  - { var:22, quality:4.3927945196628571e-02,
                      le:9.8263645172119141e-01 }
            -
               depth: 5
               value: 8.4464843036991380e-02
            -
               depth: 5
               value: -2.6216907764584461e+00
            -
               depth: 4
               value: -4.2377117541953599e-02
               splits:
                  - { var:60, quality:1.8522322177886963e-02,
                      le:2.7596462249755859e+01 }
            -
               depth: 5
               value: -5.3841173020945077e-01
            -
               depth: 5
               value: 1.6299592822777645e-01
            -
               depth: 3
               value: 3.9692672351757824e-01
               splits:
                  - { var:148, quality:3.6504302173852921e-02, not_in:[
                      1 ] }
            -
               depth: 4
               value: 6.8864129914829996e-03
               splits:
                  - { var:124, quality:2.0091732963919640e-02,
                      le:2.5647892951965332e+00 }
            -
               depth: 5
               value: -6.1667869022364730e-01
            -
               depth: 5
               value: 7.3839853709312087e-01
            -
               depth: 4
               value: 6.4378425420059204e-01
               splits:
                  - { var:35, quality:5.3634621202945709e-02,
                      le:3.0067358165979385e-02 }
            -
               depth: 5
               value: 3.0563206118108664e-02
            -
               depth: 5
               value: 1.2525143995418591e+00
      -
         nodes:
            -
               depth: 0
               value: -3.6332234556522605e-06
               splits:
                  - { var:67, quality:1.4029987156391144e-02,
                      le:2.8124717995524406e-02 }
            -
               depth: 1
               value: 9.7001179919676467e-02
               splits:
                  - { var:148, quality:1.2559980154037476e-02, in:[ 0 ] }
            -
               depth: 2
               value: -3.7612491116260319e-02
               splits:
                  - { var:7, quality:2.7162978425621986e-02,
                      le:1.9816551357507706e-03 }
            -
               depth: 3
               value: 2.4243209748344774e-01
               splits:
                  - { var:21, quality:3.2945390790700912e-02,
                      le:1.1665124893188477e+00 }
            -
               depth: 4
               value: 1.2816922275068636e+00
               splits:
                  - { var:58, quality:3.7619363516569138e-02,
                      le:2.4046700447797775e-02 }
            -
               depth: 5
               value: -4.6172441698076488e-01
            -
               depth: 5
               value: 1.7575313280352141e+00
            -
               depth: 4
               value: -4.8089196322287892e-02
               splits:
                  - { var:83, quality:1.2714343145489693e-02,
                      le:9.6924743652343750e+00 }
            -
               depth: 5
               value: -3.4935702434312693e-01
            -
               depth: 5
               value: 4.2568334799949864e-01
            -
               depth: 3
               value: -4.8824452857929390e-01
               splits:
                  - { var:41, quality:3.0013194307684898e-02,
                      le:3.1676271464675665e-04 }
            -
               depth: 4
               value: -8.3222896195096915e-02
               splits:
                  - { var:146, quality:1.4666676521301270e-02,
                      le:1.5799992084503174e+00 }
            -
               depth: 5
               value: -4.2829750922294962e-01
            -
               depth: 5
               value: 1.9626447247124155e+00
            -
               depth: 4
               value: -1.0099857611781817e+00
               splits:
                  - { var:16, quality:3.4623488783836365e-02,
                      le:5.5116772651672363e-01 }
            -
               depth: 5
               value: -1.4375246254648320e+00
            -
               depth: 5
               value: -6.1651488107747378e-03
            -
               depth: 2
               value: 1.8501683766129051e-01
               splits:
                  - { var:78, quality:3.5992763936519623e-02,
                      le:9.1924123764038086e+00 }
            -
               depth: 3
               value: -8.5576513734958748e-01
               splits:
                  - { var:31, quality:1.8080860376358032e-02,
                      le:1.1858064681291580e-02 }
            -
               depth: 4
               value: -4.2949287688360545e-02
               splits:
                  - { var:70, quality:3.2677340786904097e-03,
                      le:-1.3726162910461426e+01 }
            -
               depth: 5
               value: -1.3947387226764187e+00
            -
               depth: 5
               value: 5.0906677740446704e-01
            -
               depth: 4
               value: -1.6506085731406162e+00
               splits:
                  - { var:101, quality:1.9180938601493835e-02,
                      le:3.6357309669256210e-02 }
            -
               depth: 5
               value: 9.5309759016787809e-01
            -
               depth: 5
               value: -1.9562102055003068e+00
            -
               depth: 3
               value: 2.6299058958725607e-01
               splits:
                  - { var:124, quality:3.9419282227754593e-02,
                      le:1.4438041448593140e+00 }
            -
               depth: 4
               value: 9.3488099795028712e-01
               splits:
                  - { var:132, quality:4.0410295128822327e-02,
                      le:3.3644554018974304e-01 }
            -
               depth: 5
               value: -2.7043199598371692e-01
            -
               depth: 5
               value: 1.2540997518333630e+00
            -
               depth: 4
               value: 1.5124111740365803e-01
               splits:
                  - { var:23, quality:2.0734541118144989e-02,
                      le:1.8057293891906738e+00 }
            -
               depth: 5
               value: 2.6025342913858263e-01
            -
               depth: 5
               value: -3.7227324467691802e-01
            -
               depth: 1
               value: -1.4611995984542664e-01
               splits:
                  - { var:148, quality:1.3173867948353291e-02, in:[ 1 ] }
            -
               depth: 2
               value: -3.0839934601217045e-01
               splits:
                  - { var:122, quality:2.8460515663027763e-02,
                      le:2.1449863910675049e-01 }
            -
               depth: 3
               value: 2.7927586315140975e+00
               splits:
                  - { var:133, quality:9.1692404821515083e-03,
                      le:9.8097677230834961e+00 }
            -
               depth: 4
               value: 5.7564577324623896e+00
            -
               depth: 4
               value: -3.2023601282625763e-01
            -
               depth: 3
               value: -4.1727039595126025e-01
               splits:
                  - { var:53, quality:3.3092882484197617e-02,
                      le:5.4720783233642578e-01 }
            -
               depth: 4
               value: -9.1509853486605883e-02
               splits:
                  - { var:69, quality:1.9681133329868317e-02,
                      le:2.7763837575912476e-01 }
            -
               depth: 5
               value: 4.1806964142199454e-01
            -
               depth: 5
               value: -8.1195264674181744e-01
            -
               depth: 4
               value: -9.9104397651668752e-01
               splits:
                  - { var:35, quality:3.5216927528381348e-02,
                      le:7.6224997639656067e-02 }
            -
               depth: 5
               value: -1.4950077182109800e+00
            -
               depth: 5
               value: -4.6437977633404004e-01
            -
               depth: 2
               value: -6.7941655330577333e-02
               splits:
                  - { var:23, quality:1.5794342383742332e-02,
                      le:2.6379446983337402e+00 }
            -
               depth: 3
               value: -1.3154468420175164e-01
               splits:
                  - { var:28, quality:1.4204942621290684e-02,
                      le:2.6000016927719116e-01 }
            -
               depth: 4
               value: -3.3853794625714489e-01
               splits:
                  - { var:141, quality:1.9435351714491844e-02,
                      le:2.1163600921630859e+01 }
            -
               depth: 5
               value: -4.6272025558767699e-01
            -
               depth: 5
               value: 1.1145933085684616e-01
            -
               depth: 4
               value: 7.4608861547624750e-02
               splits:
                  - { var:44, quality:8.8414186611771584e-03,
                      le:1.0350695252418518e-01 }
            -
               depth: 5
               value: 2.8021487043919524e-01
            -
               depth: 5
               value: -2.7170911628110012e-01
            -
               depth: 3
               value: 1.1021372613404008e+00
               splits:
                  - { var:124, quality:1.2936491519212723e-02,
                      le:1.9889609813690186e+00 }
            -
               depth: 4
               value: 1.4288364624116265e+00
               splits:
                  - { var:60, quality:1.4111343771219254e-02,
                      le:2.2547479629516602e+01 }
            -
               depth: 5
               value: -5.7564577324601141e+00
            -
               depth: 5
               value: 1.6566939618477470e+00
            -
               depth: 4
               value: -5.5682198527632620e-02
               splits:
                  - { var:148, quality:1.7122490098699927e-03, in:[ 0 ] }
            -
               depth: 5
               value: -5.7564577324601141e+00
            -
               depth: 5
               value: 5.7564577324623896e+00
      -
         nodes:
            -
               depth: 0
               value: 3.4305107652510147e-05
               splits:
                  - { var:124, quality:8.2242200151085854e-03,
                      le:1.1891601085662842e+00 }
            -
               depth: 1
               value: -3.0452176683881232e-01
               splits:
                  - { var:148, quality:1.8006792291998863e-02, not_in:[
                      1 ] }
            -
               depth: 2
               value: -6.0349022512917716e-01
               splits:
                  - { var:122, quality:2.9431302100419998e-02,
                      le:2.1421825885772705e-01 }
            -
               depth: 3
               value: -1.3940805751632264e+00
               splits:
                  - { var:106, quality:3.3321496099233627e-02,
                      le:2.8885796666145325e-02 }
            -
               depth: 4
               value: -2.1716892255286013e+00
               splits:
                  - { var:60, quality:3.3739570528268814e-02,
                      le:9.0352802276611328e+00 }
            -
               depth: 5
               value: 1.7437724846045346e+00
            -
               depth: 5
               value: -2.4297141771471846e+00
            -
               depth: 4
               value: 3.3071680488382216e-01
               splits:
                  - { var:148, quality:1.8514175899326801e-03, in:[ 2 ] }
            -
               depth: 5
               value: -5.7564577324601141e+00
            -
               depth: 5
               value: 1.0431889621761641e+00
            -
               depth: 3
               value: 9.3173708277488790e-02
               splits:
                  - { var:97, quality:5.0576957874000072e-03,
                      le:-5.5815316736698151e-03 }
            -
               depth: 4
               value: -3.6064517985214373e-01
               splits:
                  - { var:148, quality:2.7980329468846321e-03, in:[ 2 ] }
            -
               depth: 5
               value: -6.4808806821895448e-01
            -
               depth: 5
               value: 2.2776849811278249e-01
            -
               depth: 4
               value: 7.5582387078674707e-01
               splits:
                  - { var:107, quality:4.9683577381074429e-03,
                      le:1.1852018833160400e+00 }
            -
               depth: 5
               value: 9.2954325175340813e-01
            -
               depth: 5
               value: -1.3539338543643473e+00
            -
               depth: 2
               value: 2.0678482420253397e-01
               splits:
                  - { var:133, quality:1.1163462884724140e-02,
                      le:3.1591067314147949e+00 }
            -
               depth: 3
               value: -4.9466786956407155e-01
               splits:
                  - { var:5, quality:7.4824378825724125e-03,
                      le:1.8680986762046814e-01 }
            -
               depth: 4
               value: 9.6814099957730548e-01
               splits:
                  - { var:122, quality:2.4328809231519699e-03,
                      le:1.1767794191837311e-01 }
            -
               depth: 5
               value: -2.8043011830779743e+00
            -
               depth: 5
