%YAML:1.0
---
opencv_ml_boost:
   format: 3
   is_classifier: 1
   var_all: 33
   var_count: 32
   ord_var_count: 31
   cat_var_count: 2
   training_params:
      boosting_type: RealAdaboost
      use_surrogates: 0
      max_categories: 10
      regression_accuracy: 1.0000000474974513e-03
      max_depth: 5
      min_sample_count: 5
      cross_validation_folds: 0
      priors: !!opencv-matrix
         rows: 1
         cols: 2
         dt: f
         data: [ 3.65234624e+29, 3.06127663e-41 ]
      weight_trimming_rate: 1.
   global_var_idx: 1
   var_idx: [ 0, 1, 2, 3, 4, 5, 6, 7, 8, 9, 10, 11, 12, 13, 14, 15, 16,
       17, 18, 19, 20, 21, 22, 23, 24, 25, 26, 27, 28, 29, 30, 31 ]
   var_type: [ 0, 0, 0, 0, 0, 0, 0, 0, 0, 0, 0, 0, 0, 0, 0, 0, 0, 0, 0,
       0, 0, 0, 0, 0, 0, 0, 0, 0, 0, 0, 0, 1, 1 ]
   cat_ofs: [ 0, 0, 0, 0, 0, 0, 0, 0, 0, 0, 0, 0, 0, 0, 0, 0, 0, 0, 0, 0,
       0, 0, 0, 0, 0, 0, 0, 0, 0, 0, 0, 0, 0, 0, 0, 0, 0, 0, 0, 0, 0, 0,
       0, 0, 0, 0, 0, 0, 0, 0, 0, 0, 0, 0, 0, 0, 0, 0, 0, 0, 0, 0, 0, 3 ]
   cat_map: [ 0, 1, 2 ]
   class_labels: [ 0, 1 ]
   missing_subst: [ 0., 0., 0., 0., 0., 0., 0., 0., 0., 0., 0., 0., 0.,
       0., 0., 0., 0., 0., 0., 0., 0., 0., 0., 0., 0., 0., 0., 0., 0.,
       0., 0., -1., 0. ]
   ntrees: 20
   trees:
      -
         nodes:
            -
               depth: 0
               value: 0.
               splits:
                  - { var:31, quality:2.1729847416281700e-02, in:[ 2 ] }
            -
               depth: 1
               value: -2.2325444474595768e-01
               splits:
                  - { var:7, quality:1.4580278098583221e-01,
                      le:1.6434988006949425e-02 }
            -
               depth: 2
               value: -1.1274700530959911e+00
               splits:
                  - { var:3, quality:1.2317273020744324e-01,
                      le:3.4107154607772827e-01 }
            -
               depth: 3
               value: -1.9973433548382358e+00
               splits:
                  - { var:3, quality:1.1826743930578232e-01,
                      le:2.8447285294532776e-01 }
            -
               depth: 4
               value: -2.8412393606168846e+00
               splits:
                  - { var:15, quality:1.1072400957345963e-01,
                      le:3.8588339090347290e-01 }
            -
               depth: 5
               value: -1.5081757803783646e+00
            -
               depth: 5
               value: -3.0464769716391351e+00
            -
               depth: 4
               value: -9.3089877296580814e-01
               splits:
                  - { var:21, quality:8.4589738398790359e-03,
                      le:1.4148402214050293e+00 }
            -
               depth: 5
               value: -4.5263566831227242e-01
            -
               depth: 5
               value: -1.7095459357693132e+00
            -
               depth: 3
               value: -3.8152828413572998e-01
               splits:
                  - { var:26, quality:1.4951224438846111e-02,
                      le:5.0000000000000000e-01 }
            -
               depth: 4
               value: -1.6978187367140355e-02
               splits:
                  - { var:6, quality:8.5443491116166115e-03,
                      le:2.1456721425056458e-01 }
            -
               depth: 5
               value: -9.8260167599496651e-01
            -
               depth: 5
               value: 4.2470489679515455e-01
            -
               depth: 4
               value: -2.1217413501129241e+00
               splits:
                  - { var:14, quality:1.5167215839028358e-02,
                      le:2.1687966585159302e-01 }
            -
               depth: 5
               value: 8.9587973461402781e-01
            -
               depth: 5
               value: -2.2997197556395679e+00
            -
               depth: 2
               value: 5.4084928311304126e-01
               splits:
                  - { var:3, quality:8.2185126841068268e-02,
                      le:9.0834975242614746e-01 }
            -
               depth: 3
               value: 9.1558403682206357e-01
               splits:
                  - { var:26, quality:8.4281288087368011e-02,
                      le:5.0000000000000000e-01 }
            -
               depth: 4
               value: 1.2024568015888766e+00
               splits:
                  - { var:3, quality:8.5244141519069672e-02,
                      le:3.5860568284988403e-01 }
            -
               depth: 5
               value: -1.6084761252135263e-01
            -
               depth: 5
               value: 1.4199252682815258e+00
            -
               depth: 4
               value: -1.0956002313664115e+00
               splits:
                  - { var:28, quality:6.4357272349298000e-03,
                      le:3.5000002384185791e-01 }
            -
               depth: 5
               value: 1.1157177565710470e-01
            -
               depth: 5
               value: -1.8904687992659419e+00
            -
               depth: 3
               value: -2.4705235036448174e+00
               splits:
                  - { var:24, quality:1.8523953855037689e-02,
                      le:3.6591291427612305e-03 }
            -
               depth: 4
               value: 3.4657359027997259e-01
            -
               depth: 4
               value: -2.6726601100717327e+00
               splits:
                  - { var:20, quality:1.8605349585413933e-02,
                      le:2.0275197029113770e+00 }
            -
               depth: 5
               value: 5.7564577324623896e+00
            -
               depth: 5
               value: -2.8165011462976270e+00
            -
               depth: 1
               value: 9.9268741921265113e-02
               splits:
                  - { var:7, quality:6.2827371060848236e-02,
                      le:1.7697717994451523e-02 }
            -
               depth: 2
               value: 2.9338140300920357e-01
               splits:
                  - { var:3, quality:4.1989956051111221e-02,
                      le:3.4107154607772827e-01 }
            -
               depth: 3
               value: 3.3705372974874404e-01
               splits:
                  - { var:31, quality:5.8786429464817047e-02, not_in:[ 1 ] }
            -
               depth: 4
               value: 8.0312508153043333e-02
               splits:
                  - { var:26, quality:5.2573379129171371e-02,
                      le:5.0000000000000000e-01 }
            -
               depth: 5
               value: -2.9189586671844014e-01
            -
               depth: 5
               value: 1.4716639956921023e+00
            -
               depth: 4
               value: 5.9251866366187755e-01
               splits:
                  - { var:26, quality:1.0818943381309509e-01,
                      le:5.0000000000000000e-01 }
            -
               depth: 5
               value: 9.5086465788680852e-01
            -
               depth: 5
               value: -7.8555284667100267e-01
            -
               depth: 3
               value: 1.4659687638265265e-01
               splits:
                  - { var:31, quality:3.7833962589502335e-02, in:[ 1 ] }
            -
               depth: 4
               value: -6.3313834383107870e-01
               splits:
                  - { var:23, quality:3.2058686017990112e-02,
                      le:1.4484127759933472e+00 }
            -
               depth: 5
               value: 8.7892895877617216e-01
            -
               depth: 5
               value: -1.4943818021189763e+00
            -
               depth: 4
               value: 7.2143350204070666e-01
               splits:
                  - { var:14, quality:3.7708066403865814e-02,
                      le:2.9221642017364502e-01 }
            -
               depth: 5
               value: -2.4629659581966870e-01
            -
               depth: 5
               value: 1.2929654270730644e+00
            -
               depth: 2
               value: -3.5147078907612339e-01
               splits:
                  - { var:1, quality:6.0554429888725281e-02,
                      le:2.6810348033905029e-01 }
            -
               depth: 3
               value: -7.2959934015182648e-01
               splits:
                  - { var:26, quality:6.8582668900489807e-02,
                      le:5.0000000000000000e-01 }
            -
               depth: 4
               value: -9.2939825344601035e-01
               splits:
                  - { var:7, quality:7.6093181967735291e-02,
                      le:5.9377864003181458e-02 }
            -
               depth: 5
               value: -4.9382760904106116e-01
            -
               depth: 5
               value: -2.2583402220140187e+00
            -
               depth: 4
               value: 2.6966323964353511e-01
               splits:
                  - { var:31, quality:1.3164650648832321e-02, in:[ 1 ] }
            -
               depth: 5
               value: -1.9186497296161056e+00
            -
               depth: 5
               value: 1.5193491547187183e+00
            -
               depth: 3
               value: 3.0120503350975769e-01
               splits:
                  - { var:31, quality:6.0384906828403473e-02, in:[ 1 ] }
            -
               depth: 4
               value: -5.7564577324601141e+00
            -
               depth: 4
               value: 1.8701857961835926e+00
               splits:
                  - { var:3, quality:3.9892110973596573e-02,
                      le:8.0100262165069580e-01 }
            -
               depth: 5
               value: -3.8273392106978582e-01
            -
               depth: 5
               value: 2.2028173242297688e+00
      -
         nodes:
            -
               depth: 0
               value: -1.3045449024965636e-04
               splits:
                  - { var:7, quality:1.0119351558387280e-02,
                      le:5.9572055935859680e-02 }
            -
               depth: 1
               value: -3.0837327937576337e-02
               splits:
                  - { var:3, quality:8.7738325819373131e-03,
                      le:4.4678509235382080e-01 }
            -
               depth: 2
               value: 1.8943421960600108e-02
               splits:
                  - { var:31, quality:2.6525789871811867e-03, not_in:[ 1 ] }
            -
               depth: 3
               value: -3.3897194968995459e-02
               splits:
                  - { var:3, quality:5.7747866958379745e-02,
                      le:1.6304117441177368e-01 }
            -
               depth: 4
               value: -5.7439367496449767e-01
               splits:
                  - { var:3, quality:6.7491210997104645e-02,
                      le:6.4357578754425049e-02 }
            -
               depth: 5
               value: 1.1683157003192277e+00
            -
               depth: 5
               value: -7.8158708310937475e-01
            -
               depth: 4
               value: 2.7685599422408647e-01
               splits:
                  - { var:15, quality:5.6970521807670593e-02,
                      le:5.0887620449066162e-01 }
            -
               depth: 5
               value: -3.5346235732659292e-01
            -
               depth: 5
               value: 6.0600544492829866e-01
            -
               depth: 3
               value: 8.2964457435725614e-02
               splits:
                  - { var:25, quality:6.6602408885955811e-02,
                      le:5.0000000000000000e-01 }
            -
               depth: 4
               value: 3.0921510126154306e-01
               splits:
                  - { var:28, quality:6.0208629816770554e-02,
                      le:5.4999828338623047e-02 }
            -
               depth: 5
               value: 1.4914005717775505e+00
            -
               depth: 5
               value: 6.6017876557838071e-02
            -
               depth: 4
               value: -1.2184283755966470e+00
               splits:
                  - { var:1, quality:4.8275444656610489e-02,
                      le:5.3779169917106628e-02 }
            -
               depth: 5
               value: 1.6085158085889517e-01
            -
               depth: 5
               value: -1.6037498107284007e+00
            -
               depth: 2
               value: -2.0736283088525978e-01
               splits:
                  - { var:31, quality:2.3999989032745361e-02, in:[ 1 ] }
            -
               depth: 3
               value: -1.1330795137715710e+00
               splits:
                  - { var:6, quality:2.4976002052426338e-02,
                      le:1.2197614461183548e-01 }
            -
               depth: 4
               value: -2.7473389648143515e-01
               splits:
                  - { var:20, quality:3.7006367929279804e-03,
                      le:2.1858181953430176e+00 }
            -
               depth: 5
               value: 8.5207778075165364e-01
            -
               depth: 5
               value: -1.3030260619135008e+00
            -
               depth: 4
               value: -1.5892622828016980e+00
               splits:
                  - { var:16, quality:2.5122527033090591e-02,
                      le:5.8997929096221924e-01 }
            -
               depth: 5
               value: -6.2174555985220736e-01
            -
               depth: 5
               value: -2.1371806591666540e+00
            -
               depth: 3
               value: -7.9603910894824936e-02
               splits:
                  - { var:26, quality:1.0457365773618221e-02,
                      le:5.0000000000000000e-01 }
            -
               depth: 4
               value: -1.7269131573958948e-01
               splits:
                  - { var:31, quality:5.8710537850856781e-03, in:[ 2 ] }
            -
               depth: 5
               value: -2.8403501515805113e-01
            -
               depth: 5
               value: -6.9504165179195540e-02
            -
               depth: 4
               value: 5.8641067024420090e-01
               splits:
                  - { var:31, quality:1.2301482260227203e-02, in:[ 2 ] }
            -
               depth: 5
               value: -4.2247288942863076e-01
            -
               depth: 5
               value: 1.1763796270205626e+00
            -
               depth: 1
               value: 3.4229046315745426e-01
               splits:
                  - { var:31, quality:2.3811560124158859e-02, not_in:[ 2 ] }
            -
               depth: 2
               value: -6.2451699801196844e-02
               splits:
                  - { var:0, quality:9.7146797925233841e-03,
                      le:1.6500000000000000e+01 }
            -
               depth: 3
               value: 6.2428130530595571e-01
               splits:
                  - { var:30, quality:1.1326453648507595e-02,
                      le:3.2895202636718750e+00 }
            -
               depth: 4
               value: 1.6998351219319150e+00
               splits:
                  - { var:21, quality:1.0924038477241993e-02,
                      le:7.8810524940490723e-01 }
            -
               depth: 5
               value: -5.7564577324601141e+00
            -
               depth: 5
               value: 1.9785322263477829e+00
            -
               depth: 4
               value: -5.3084486188846003e-01
               splits:
                  - { var:24, quality:3.9755217730998993e-03,
                      le:1.3707566261291504e-01 }
            -
               depth: 5
               value: -2.0202353740436796e+00
            -
               depth: 5
               value: 1.7527527788336998e+00
            -
               depth: 3
               value: -4.3230902466521759e-01
               splits:
                  - { var:3, quality:1.7339931800961494e-02,
                      le:9.0707230567932129e-01 }
            -
               depth: 4
               value: -1.0187298013198152e+00
               splits:
                  - { var:21, quality:1.7511224374175072e-02,
                      le:1.2717146873474121e+00 }
            -
               depth: 5
               value: -1.8949750611285947e+00
            -
               depth: 5
               value: 3.0938592380689817e-01
            -
               depth: 4
               value: 1.0957119322937023e+00
               splits:
                  - { var:16, quality:4.8827859573066235e-03,
                      le:1.3075873851776123e+00 }
            -
               depth: 5
               value: -5.7564577324601141e+00
            -
               depth: 5
               value: 1.2658535845876175e+00
            -
               depth: 2
               value: 1.0098576165042599e+00
               splits:
                  - { var:2, quality:2.8483401983976364e-02,
                      le:2.5607991218566895e-01 }
            -
               depth: 3
               value: 1.2185395173682774e+00
               splits:
                  - { var:17, quality:2.8772793710231781e-02,
                      le:8.3454579114913940e-02 }
            -
               depth: 4
               value: 1.3670823472827616e+00
               splits:
                  - { var:28, quality:2.9693154618144035e-02,
                      le:8.1499999761581421e-01 }
            -
               depth: 5
               value: 1.4352994189200201e+00
            -
               depth: 5
               value: -1.6698112603300506e+00
            -
               depth: 4
               value: -2.3412747106993864e-01
               splits:
                  - { var:8, quality:8.5759628564119339e-04,
                      le:-1.8653047084808350e-01 }
            -
               depth: 5
               value: 1.5451795900302092e+00
            -
               depth: 5
               value: -9.4831500971811311e-01
            -
               depth: 3
               value: -1.3305931616564415e+00
               splits:
                  - { var:3, quality:1.6691188793629408e-03,
                      le:8.2269936800003052e-01 }
            -
               depth: 4
               value: 1.3865643579823128e+00
               splits:
                  - { var:4, quality:1.0928720439551398e-04,
                      le:4.9518603831529617e-02 }
            -
               depth: 5
               value: 5.7564577324623896e+00
            -
               depth: 5
               value: -5.7564577324601141e+00
            -
               depth: 4
               value: -2.5216512638126933e+00
               splits:
                  - { var:17, quality:1.6254378715530038e-03,
                      le:6.3357695937156677e-02 }
            -
               depth: 5
               value: -5.7564577324601141e+00
            -
               depth: 5
               value: 5.7564577324623896e+00
      -
         nodes:
            -
               depth: 0
               value: -7.6628851500633416e-06
               splits:
                  - { var:3, quality:1.6799205914139748e-02,
                      le:6.4801648259162903e-02 }
            -
               depth: 1
               value: -8.5033734566456465e-01
               splits:
                  - { var:31, quality:2.6570361107587814e-02, not_in:[ 0 ] }
            -
               depth: 2
               value: -2.4597112190268597e+00
               splits:
                  - { var:30, quality:2.6233980432152748e-02,
                      le:2.0499999523162842e+00 }
            -
               depth: 3
               value: -5.7564577324601141e+00
            -
               depth: 3
               value: 4.8610276132210589e-01
               splits:
                  - { var:31, quality:1.6160983068402857e-04, in:[ 2 ] }
            -
               depth: 4
               value: -5.7564577324601141e+00
            -
               depth: 4
               value: 9.3371566425625807e-01
               splits:
                  - { var:4, quality:2.2135933977551758e-04,
                      le:3.1771644949913025e-02 }
            -
               depth: 5
               value: 5.7564577324623896e+00
            -
               depth: 5
               value: -5.7564577324601141e+00
            -
               depth: 2
               value: 3.5804568186471908e-01
               splits:
                  - { var:30, quality:7.4886577203869820e-03,
                      le:2.0499999523162842e+00 }
            -
               depth: 3
               value: 5.7564577324623896e+00
            -
               depth: 3
               value: -2.8724170322585874e+00
               splits:
                  - { var:4, quality:2.4764176923781633e-03,
                      le:3.1771644949913025e-02 }
            -
               depth: 4
               value: -5.7564577324601141e+00
            -
               depth: 4
               value: 5.7564577324623896e+00
            -
               depth: 1
               value: 2.4300188184811351e-02
               splits:
                  - { var:25, quality:1.6535831615328789e-02,
                      le:5.0000000000000000e-01 }
            -
               depth: 2
               value: -3.4666115289320093e-02
               splits:
                  - { var:31, quality:1.6255166381597519e-02, in:[ 0 ] }
            -
               depth: 3
               value: -2.0161637031892285e-01
               splits:
                  - { var:30, quality:3.9014082401990891e-02,
                      le:3.2401854991912842e+00 }
            -
               depth: 4
               value: 5.4630377457774736e-02
               splits:
                  - { var:30, quality:3.0324434861540794e-02,
                      le:2.8108582496643066e+00 }
            -
               depth: 5
               value: -3.2379934706450164e-01
            -
               depth: 5
               value: 5.4952534110908524e-01
            -
               depth: 4
               value: -5.5887513563996816e-01
               splits:
                  - { var:4, quality:5.7975601404905319e-02,
                      le:5.4212048649787903e-02 }
            -
               depth: 5
               value: -1.0058546085538087e+00
            -
               depth: 5
               value: 3.7810846058936606e-04
            -
               depth: 3
               value: 8.2188106144382003e-02
               splits:
                  - { var:18, quality:3.1739801168441772e-02,
                      le:3.9449648857116699e+00 }
            -
               depth: 4
               value: -5.4366770820179211e-01
               splits:
                  - { var:20, quality:2.6757843792438507e-02,
                      le:6.3798362016677856e-01 }
            -
               depth: 5
               value: -2.3589799201504702e+00
            -
               depth: 5
               value: -2.4605671690890618e-01
            -
               depth: 4
               value: 1.9032654532805976e-01
               splits:
                  - { var:10, quality:3.0865211039781570e-02,
                      le:-1.1321005821228027e+00 }
            -
               depth: 5
               value: 9.7661877633818690e-03
            -
               depth: 5
               value: 4.5826082795337775e-01
            -
               depth: 2
               value: 3.1465049617328289e-01
               splits:
                  - { var:31, quality:9.1658055782318115e-02, not_in:[ 0 ] }
            -
               depth: 3
               value: -4.9156413762515438e-01
               splits:
                  - { var:14, quality:3.1491082161664963e-02,
                      le:2.5285199284553528e-01 }
            -
               depth: 4
               value: 1.5442679142513925e-02
               splits:
                  - { var:21, quality:1.2644363567233086e-02,
                      le:1.5254416465759277e+00 }
            -
               depth: 5
               value: 9.1585161045813468e-01
            -
               depth: 5
               value: -5.1086016017790747e-01
            -
               depth: 4
               value: -1.5974073250704934e+00
               splits:
                  - { var:3, quality:3.3508896827697754e-02,
                      le:1.9506061077117920e-01 }
            -
               depth: 5
               value: -2.4866264496027777e-02
            -
               depth: 5
               value: -2.3571236247806873e+00
            -
               depth: 3
               value: 1.4778206911147780e+00
               splits:
                  - { var:1, quality:8.1076323986053467e-02,
                      le:5.3440161049365997e-02 }
            -
               depth: 4
               value: -8.5730594210004796e-01
               splits:
                  - { var:26, quality:1.8189878901466727e-03,
                      le:5.0000000000000000e-01 }
            -
               depth: 5
               value: -5.7564577324601141e+00
            -
               depth: 5
               value: 5.7564577324623896e+00
            -
               depth: 4
               value: 1.6775060795358467e+00
               splits:
                  - { var:23, quality:8.2618586719036102e-02,
                      le:2.3293552398681641e+00 }
            -
               depth: 5
               value: 1.7967237044730660e+00
            -
               depth: 5
               value: -1.8514404147378929e+00
      -
         nodes:
            -
               depth: 0
               value: -1.0064873440587028e-04
               splits:
                  - { var:20, quality:6.3607441261410713e-03,
                      le:1.5963463783264160e+00 }
            -
               depth: 1
               value: 1.0848645252051034e-01
               splits:
                  - { var:31, quality:1.5976227819919586e-02, not_in:[ 1 ] }
            -
               depth: 2
               value: -6.0731509846813435e-02
               splits:
                  - { var:30, quality:3.5366009920835495e-02,
                      le:2.8989312648773193e+00 }
            -
               depth: 3
               value: -1.2953402894808168e+00
               splits:
                  - { var:7, quality:3.3072460442781448e-02,
                      le:2.7900397777557373e-02 }
            -
               depth: 4
               value: -1.7543142466444062e+00
               splits:
                  - { var:3, quality:3.3153396099805832e-02,
                      le:4.6256250143051147e-01 }
            -
               depth: 5
               value: -1.8871347932085456e+00
            -
               depth: 5
               value: 5.2517790810898546e-01
            -
               depth: 4
               value: -3.4252009324357241e-01
               splits:
                  - { var:17, quality:2.0240389276295900e-03,
                      le:4.4707611203193665e-02 }
            -
               depth: 5
               value: 7.0648509711102159e-01
            -
               depth: 5
               value: -6.9085689511423720e-01
            -
               depth: 3
               value: 1.6793956068940755e-01
               splits:
                  - { var:5, quality:2.5941357016563416e-02,
                      le:5.2632212638854980e-02 }
            -
               depth: 4
               value: -1.5001110008542304e+00
               splits:
                  - { var:22, quality:1.4748271554708481e-02,
                      le:9.6867775917053223e-01 }
            -
               depth: 5
               value: -9.5979240204724467e-02
            -
               depth: 5
               value: -2.1655963820183461e+00
            -
               depth: 4
               value: 3.1322931622495159e-01
               splits:
                  - { var:6, quality:3.8103014230728149e-02,
                      le:2.7444836497306824e-01 }
            -
               depth: 5
               value: -1.1226528588727931e+00
            -
               depth: 5
               value: 5.2370607252079704e-01
            -
               depth: 2
               value: 3.1801002107457654e-01
               splits:
                  - { var:30, quality:4.6023450791835785e-02,
                      le:2.8168013095855713e+00 }
            -
               depth: 3
               value: 1.9256940741330086e+00
               splits:
                  - { var:24, quality:4.6871986240148544e-02,
                      le:4.3670132756233215e-02 }
            -
               depth: 4
               value: 2.2490766074089614e+00
               splits:
                  - { var:9, quality:4.7157786786556244e-02,
                      le:1.7820271849632263e-01 }
            -
               depth: 5
               value: 2.3231489081094678e+00
            -
               depth: 5
               value: -5.7564577324601141e+00
            -
               depth: 4
               value: 6.9462394304629860e-02
               splits:
                  - { var:23, quality:4.4833763968199492e-04,
                      le:2.1193981170654297e+00 }
            -
               depth: 5
               value: 4.8836266133029699e-01
            -
               depth: 5
               value: -5.7564577324601141e+00
            -
               depth: 3
               value: 1.4756163353472239e-02
               splits:
                  - { var:30, quality:1.4435041695833206e-02,
                      le:2.9114933013916016e+00 }
            -
               depth: 4
               value: -9.3412311398689252e-01
               splits:
                  - { var:30, quality:1.6858106479048729e-02,
                      le:2.8989312648773193e+00 }
            -
               depth: 5
               value: 4.1983413566467870e-01
            -
               depth: 5
               value: -2.0926064243848379e+00
            -
               depth: 4
               value: 1.9039198492291906e-01
               splits:
                  - { var:4, quality:2.1777929738163948e-02,
                      le:5.3724311292171478e-02 }
            -
               depth: 5
               value: 6.3150690144572941e-01
            -
               depth: 5
               value: -3.8458806368722898e-01
            -
               depth: 1
               value: -5.8975592290760860e-02
               splits:
                  - { var:11, quality:1.1649058200418949e-02,
                      le:1.3175567612051964e-02 }
            -
               depth: 2
               value: -1.6529256686317959e-01
               splits:
                  - { var:15, quality:1.5425743535161018e-02,
                      le:5.0825399160385132e-01 }
            -
               depth: 3
               value: 1.2149837790777790e-01
               splits:
                  - { var:31, quality:6.3714780844748020e-03, not_in:[ 1 ] }
            -
               depth: 4
               value: -1.5401869072784857e-01
               splits:
                  - { var:4, quality:9.3816528096795082e-03,
                      le:4.3656885623931885e-02 }
            -
               depth: 5
               value: -6.4709462222688485e-01
            -
               depth: 5
               value: 5.3142706696884556e-01
            -
               depth: 4
               value: 5.1171487108273461e-01
               splits:
                  - { var:6, quality:1.0469598695635796e-02,
                      le:2.9972022771835327e-01 }
            -
               depth: 5
               value: 1.1764344503463535e+00
            -
               depth: 5
               value: -6.9541001373544811e-02
            -
               depth: 3
               value: -2.2009992237818624e-01
               splits:
                  - { var:31, quality:2.1579079329967499e-02, not_in:[ 0 ] }
            -
               depth: 4
               value: -3.5405538072637072e-01
               splits:
                  - { var:23, quality:4.2097594588994980e-02,
                      le:1.8148846626281738e+00 }
            -
               depth: 5
               value: -2.5761483613688345e-02
            -
               depth: 5
               value: -8.5681302609297538e-01
            -
               depth: 4
               value: -3.4143817805992557e-02
               splits:
                  - { var:23, quality:3.1715758144855499e-02,
                      le:1.8283619880676270e+00 }
            -
               depth: 5
               value: -4.8870857323795108e-01
            -
               depth: 5
               value: 6.4285474340877113e-01
            -
               depth: 2
               value: 7.9610422609615442e-02
               splits:
                  - { var:3, quality:6.4140860922634602e-03,
                      le:1.0021207332611084e+00 }
            -
               depth: 3
               value: 5.3973861989375350e-02
               splits:
                  - { var:10, quality:4.5167682692408562e-03,
                      le:-1.1376264095306396e+00 }
            -
               depth: 4
               value: 1.5090834750662269e-01
               splits:
                  - { var:5, quality:6.7240106873214245e-03,
                      le:2.2137486934661865e-01 }
            -
               depth: 5
               value: 2.1653873453101571e-01
            -
               depth: 5
               value: -1.5275883755082820e-01
            -
               depth: 4
               value: -9.1280124448094246e-02
               splits:
                  - { var:31, quality:4.1589825414121151e-03, not_in:[ 2 ] }
            -
               depth: 5
               value: -2.4962893510790840e-01
            -
               depth: 5
               value: 1.0855193149301907e-01
            -
               depth: 3
               value: 9.3262078200348264e-01
               splits:
                  - { var:31, quality:7.2424458339810371e-03, not_in:[ 0 ] }
            -
               depth: 4
               value: 9.2785430959309037e-02
               splits:
                  - { var:3, quality:2.8647845610976219e-03,
                      le:1.0116939544677734e+00 }
            -
               depth: 5
               value: 4.3141752499747179e+00
            -
               depth: 5
               value: -5.7564577324601141e+00
            -
               depth: 4
               value: 2.1143134449231158e+00
               splits:
                  - { var:3, quality:7.6479837298393250e-03,
                      le:1.0116939544677734e+00 }
            -
               depth: 5
               value: -2.4585425761017099e+00
            -
               depth: 5
               value: 5.7564577324623896e+00
      -
         nodes:
            -
               depth: 0
               value: 2.3085482864746637e-05
               splits:
                  - { var:30, quality:4.4538266956806183e-03,
                      le:6.2694187164306641e+00 }
            -
               depth: 1
               value: 3.0008082685750507e-02
               splits:
                  - { var:23, quality:5.7734344154596329e-03,
                      le:1.4536743164062500e+00 }
            -
               depth: 2
               value: -9.0611070409669967e-02
               splits:
                  - { var:31, quality:2.6774853467941284e-02, in:[ 2 ] }
            -
               depth: 3
               value: -6.6693682605162730e-01
               splits:
                  - { var:6, quality:3.0254319310188293e-02,
                      le:1.3533332943916321e-01 }
            -
               depth: 4
               value: -1.1538819544065462e+00
               splits:
                  - { var:23, quality:3.0134141445159912e-02,
                      le:1.3740369081497192e+00 }
            -
               depth: 5
               value: -1.4214498982330404e+00
            -
               depth: 5
               value: -2.8197569223384172e-01
            -
               depth: 4
               value: -2.4887668389312359e-01
               splits:
                  - { var:8, quality:9.4627467915415764e-03,
                      le:-4.7672584652900696e-02 }
            -
               depth: 5
               value: 2.5305341926410202e-01
            -
               depth: 5
               value: -1.0295619475414890e+00
            -
               depth: 3
               value: 1.1561120852617367e-01
               splits:
                  - { var:5, quality:7.2840582579374313e-03,
                      le:1.9539442658424377e-01 }
            -
               depth: 4
               value: 3.2920664127028043e-02
               splits:
                  - { var:20, quality:2.7930049691349268e-03,
                      le:2.7020874023437500e+00 }
            -
               depth: 5
               value: 5.4047744741741871e-02
            -
               depth: 5
               value: -1.2995705472512296e+00
            -
               depth: 4
               value: 5.0616657955949707e-01
               splits:
                  - { var:16, quality:7.8873382881283760e-03,
                      le:1.2530708312988281e+00 }
            -
               depth: 5
               value: 5.2647991961337326e-01
            -
               depth: 5
               value: -5.7564577324601141e+00
            -
               depth: 2
               value: 8.0338741170510819e-02
               splits:
                  - { var:31, quality:1.0119575075805187e-02, not_in:[ 2 ] }
            -
               depth: 3
               value: 1.7899902684971252e-02
               splits:
                  - { var:19, quality:1.1166578158736229e-02,
                      le:2.7968888282775879e+00 }
            -
               depth: 4
               value: 1.0383851451840227e-01
               splits:
                  - { var:28, quality:1.2218419462442398e-02,
                      le:2.5999987125396729e-01 }
            -
               depth: 5
               value: 2.0860842761201502e-02
            -
               depth: 5
               value: 4.4078087285233952e-01
            -
               depth: 4
               value: -2.8800165298647712e-01
               splits:
                  - { var:16, quality:2.6402512565255165e-02,
                      le:9.0208762884140015e-01 }
            -
               depth: 5
               value: -7.4846839115440944e-01
            -
               depth: 5
               value: 2.7879356726612781e-01
            -
               depth: 3
               value: 2.5932375782648254e-01
               splits:
                  - { var:14, quality:1.9311793148517609e-02,
                      le:1.3997808098793030e-01 }
            -
               depth: 4
               value: -5.7564577324601141e+00
            -
               depth: 4
               value: 3.1132674237504249e-01
               splits:
                  - { var:29, quality:2.4090338498353958e-02,
                      le:9.3196737766265869e-01 }
            -
               depth: 5
               value: 6.3553086934707653e-02
            -
               depth: 5
               value: 6.8788757322721883e-01
            -
               depth: 1
               value: -1.4966422493285897e-01
               splits:
                  - { var:31, quality:8.6101125925779343e-03, not_in:[ 2 ] }
            -
               depth: 2
               value: -2.4999821581905265e-01
               splits:
                  - { var:19, quality:2.2346150130033493e-02,
                      le:2.0929727554321289e+00 }
            -
               depth: 3
               value: 3.6017497724828124e-02
               splits:
                  - { var:30, quality:3.2707231584936380e-03,
                      le:9.1274566650390625e+00 }
            -
               depth: 4
               value: -4.6345261378184149e-02
               splits:
                  - { var:0, quality:2.9799658805131912e-03,
                      le:6.5000000000000000e+00 }
            -
               depth: 5
               value: -1.2037776533318663e-01
            -
               depth: 5
               value: 6.1414027499350388e-01
            -
               depth: 4
               value: 6.1181605156603913e-01
               splits:
                  - { var:31, quality:7.9465294256806374e-03, in:[ 1 ] }
            -
               depth: 5
               value: -9.8165996341060835e-01
            -
               depth: 5
               value: 1.4594729218198561e+00
            -
               depth: 3
               value: -7.8540295573171481e-01
               splits:
                  - { var:29, quality:3.1434081494808197e-02,
                      le:9.5215332508087158e-01 }
            -
               depth: 4
               value: 3.5035080915043293e-01
               splits:
                  - { var:18, quality:4.6986318193376064e-03,
                      le:4.1092195510864258e+00 }
            -
               depth: 5
               value: 8.6106328391295617e-01
            -
               depth: 5
               value: -4.7204495944522957e+00
            -
               depth: 4
               value: -1.2034801842319536e+00
               splits:
                  - { var:28, quality:3.2424181699752808e-02,
                      le:7.5000047683715820e-02 }
            -
               depth: 5
               value: -4.9718559600924422e-01
            -
               depth: 5
               value: -1.8267082000895372e+00
            -
               depth: 2
               value: 1.5591195807673117e-01
               splits:
                  - { var:7, quality:1.1903747916221619e-02,
                      le:3.0895152594894171e-03 }
            -
               depth: 3
               value: -7.1726611200020696e-01
               splits:
                  - { var:22, quality:8.3695854991674423e-03,
                      le:9.2080616950988770e-01 }
            -
               depth: 4
               value: 4.1866971797967184e-01
               splits:
                  - { var:23, quality:1.7993708606809378e-03,
                      le:1.4988594055175781e+00 }
            -
               depth: 5
               value: -6.9341636278966701e-01
            -
               depth: 5
               value: 1.4615601833863816e+00
            -
               depth: 4
               value: -1.4416228535800850e+00
               splits:
                  - { var:7, quality:8.3118984475731850e-03,
                      le:2.8459280729293823e-03 }
            -
               depth: 5
               value: -2.0050961982941460e+00
            -
               depth: 5
               value: -3.7979632375786809e-01
            -
               depth: 3
               value: 5.5667553275462456e-01
               splits:
                  - { var:26, quality:1.5798725187778473e-02,
                      le:5.0000000000000000e-01 }
            -
               depth: 4
               value: 1.3150005819699984e+00
               splits:
                  - { var:17, quality:1.6258247196674347e-02,
                      le:6.6433474421501160e-02 }
            -
               depth: 5
               value: 1.7484899696865468e+00
            -
               depth: 5
               value: -1.6542432911013497e-01
            -
               depth: 4
               value: -3.7984823374498899e-01
               splits:
                  - { var:23, quality:6.0974499210715294e-03,
                      le:1.6705789566040039e+00 }
            -
               depth: 5
               value: 7.9571108661293388e-01
            -
               depth: 5
               value: -2.0056050170986257e+00
      -
         nodes:
            -
               depth: 0
               value: -2.2085120195589368e-05
               splits:
                  - { var:30, quality:9.1775786131620407e-03,
                      le:2.9133167266845703e+00 }
            -
               depth: 1
               value: 1.1256876834780431e-01
               splits:
                  - { var:14, quality:1.5912268310785294e-02,
                      le:1.0069777071475983e-01 }
            -
               depth: 2
               value: 5.1067242197112050e-01
               splits:
                  - { var:28, quality:1.8819667398929596e-02,
                      le:5.5000066757202148e-02 }
            -
               depth: 3
               value: -1.1505620832238340e-03
               splits:
                  - { var:31, quality:1.1249557137489319e-02, not_in:[ 1 ] }
            -
               depth: 4
               value: -2.6694764786927756e+00
               splits:
                  - { var:3, quality:6.0754148289561272e-03,
                      le:6.2444791197776794e-02 }
            -
               depth: 5
               value: 1.8141750022944190e+00
            -
               depth: 5
               value: -5.7564577324601141e+00
            -
               depth: 4
               value: 1.3771849134286451e+00
               splits:
                  - { var:3, quality:6.8218479864299297e-03,
                      le:6.2444791197776794e-02 }
            -
               depth: 5
               value: -4.8489862165736639e+00
            -
               depth: 5
               value: 5.7564577324623896e+00
            -
               depth: 3
               value: 6.6058820461716261e-01
               splits:
                  - { var:26, quality:1.9639169797301292e-02,
                      le:5.0000000000000000e-01 }
            -
               depth: 4
               value: 7.1080914031204911e-01
               splits:
                  - { var:19, quality:2.0022969692945480e-02,
                      le:2.7972738742828369e+00 }
            -
               depth: 5
               value: 6.5401286084066368e-01
            -
               depth: 5
               value: 1.2302938812125135e+00
            -
               depth: 4
               value: 1.2969728139845091e-01
               splits:
                  - { var:31, quality:1.2647222029045224e-03, not_in:[ 1 ] }
            -
               depth: 5
               value: -5.2392987899396126e-01
            -
               depth: 5
               value: 7.7645608014240008e-01
            -
               depth: 2
               value: 4.1965439218673559e-02
               splits:
                  - { var:30, quality:5.1106382161378860e-03,
                      le:2.6610994338989258e+00 }
            -
               depth: 3
               value: 9.6065561495986510e-02
               splits:
                  - { var:1, quality:4.9310373142361641e-03,
                      le:2.7272409200668335e-01 }
            -
               depth: 4
               value: 1.0717295146946804e-01
               splits:
                  - { var:31, quality:5.3468947298824787e-03, not_in:[ 0 ] }
            -
               depth: 5
               value: 4.5539076086516424e-02
            -
               depth: 5
               value: 2.3307938036288089e-01
            -
               depth: 4
               value: -7.4203681327360738e-01
               splits:
                  - { var:31, quality:4.0079271420836449e-03, not_in:[ 2 ] }
            -
               depth: 5
               value: -2.3542425836771375e+00
            -
               depth: 5
               value: 1.4613765322425525e+00
            -
               depth: 3
               value: -1.9690662425194211e-01
               splits:
                  - { var:31, quality:5.8312648907303810e-03, in:[ 1 ] }
            -
               depth: 4
               value: -5.0567731668601923e-01
               splits:
                  - { var:24, quality:1.6250850632786751e-02,
                      le:9.4997882843017578e-03 }
            -
               depth: 5
               value: 1.5757314142867587e+00
            -
               depth: 5
               value: -9.6754697526332467e-01
            -
               depth: 4
               value: -5.9992822854894583e-03
               splits:
                  - { var:24, quality:6.0054436326026917e-03,
                      le:9.4997882843017578e-03 }
            -
               depth: 5
               value: -1.1301892999798704e+00
            -
               depth: 5
               value: 1.8898130381640052e-01
            -
               depth: 1
               value: -8.2062388043270290e-02
               splits:
                  - { var:30, quality:1.0494625195860863e-02,
                      le:3.2175483703613281e+00 }
            -
               depth: 2
               value: -3.3661015802232469e-01
               splits:
                  - { var:31, quality:1.5412440523505211e-02, not_in:[ 1 ] }
            -
               depth: 3
               value: -5.1848071643909321e-01
               splits:
                  - { var:13, quality:1.9984858110547066e-02,
                      le:1.6095364093780518e-01 }
            -
               depth: 4
               value: -1.0187751360472175e+00
               splits:
                  - { var:31, quality:1.9834119826555252e-02, in:[ 0 ] }
            -
               depth: 5
               value: -1.4997393056706338e+00
            -
               depth: 5
               value: -2.8670100281143279e-01
            -
               depth: 4
               value: -2.4505448229714208e-01
               splits:
                  - { var:31, quality:7.4977492913603783e-03, in:[ 2 ] }
            -
               depth: 5
               value: -6.8114952565892528e-01
            -
               depth: 5
               value: 1.6782154324400031e-01
            -
               depth: 3
               value: 5.9600899885783952e-02
               splits:
                  - { var:13, quality:8.4637459367513657e-03,
                      le:1.6095364093780518e-01 }
            -
               depth: 4
               value: 4.3703438662479255e-01
               splits:
                  - { var:18, quality:9.2978877946734428e-03,
                      le:1.3650461196899414e+01 }
            -
               depth: 5
               value: 8.1968674065606872e-01
            -
               depth: 5
               value: -1.0669907957862137e+00
            -
               depth: 4
               value: -1.1922268863396335e+00
               splits:
                  - { var:22, quality:6.5614143386483192e-03,
                      le:9.5199775695800781e-01 }
            -
               depth: 5
               value: 5.4155217799009014e-01
            -
               depth: 5
               value: -2.0080683598868583e+00
            -
               depth: 2
               value: -3.4678888813319292e-02
               splits:
                  - { var:5, quality:4.8804143443703651e-03,
                      le:5.1729120314121246e-02 }
            -
               depth: 3
               value: 3.8193380742368305e-01
               splits:
                  - { var:22, quality:5.4843616671860218e-03,
                      le:9.6867775917053223e-01 }
            -
               depth: 4
               value: -1.1724886549471740e-01
               splits:
                  - { var:30, quality:4.6971021220088005e-04,
                      le:4.8824529647827148e+00 }
            -
               depth: 5
               value: -3.5889125547517040e-02
            -
               depth: 5
               value: -1.1541796144745573e+00
            -
               depth: 4
               value: 5.9603030520915956e-01
               splits:
                  - { var:20, quality:6.3862446695566177e-03,
                      le:1.6033548116683960e+00 }
            -
               depth: 5
               value: 8.7977645522978165e-01
            -
               depth: 5
               value: 2.3309572441324555e-01
            -
               depth: 3
               value: -5.6992906906944411e-02
               splits:
                  - { var:28, quality:5.1522110588848591e-03,
                      le:5.4999828338623047e-02 }
            -
               depth: 4
               value: -2.6129557167985412e-01
               splits:
                  - { var:25, quality:8.6009334772825241e-03,
                      le:5.0000000000000000e-01 }
            -
               depth: 5
               value: -4.1545135436123382e-01
            -
               depth: 5
               value: 7.8816599927737430e-02
            -
               depth: 4
               value: -1.6636778019750293e-02
               splits:
                  - { var:3, quality:4.6930704265832901e-03,
                      le:1.8778088688850403e-01 }
            -
               depth: 5
               value: 2.3047993531657471e-01
            -
               depth: 5
               value: -6.6265430711451315e-02
      -
         nodes:
            -
               depth: 0
               value: 1.2615765021930901e-06
               splits:
                  - { var:31, quality:2.2928563412278891e-03, in:[ 1 ] }
            -
               depth: 1
               value: -6.2611722259774683e-02
               splits:
                  - { var:30, quality:2.7520712465047836e-02,
                      le:1.9499907493591309e+00 }
            -
               depth: 2
               value: 7.9030571160141305e-01
               splits:
                  - { var:11, quality:3.3330429345369339e-02,
                      le:4.3822471052408218e-02 }
            -
               depth: 3
               value: 1.2641198746833586e+00
               splits:
                  - { var:12, quality:3.1457856297492981e-02,
                      le:2.2895553708076477e-01 }
            -
               depth: 4
               value: 1.4352670722152383e+00
               splits:
                  - { var:3, quality:3.2782167196273804e-02,
                      le:7.3273286223411560e-02 }
            -
               depth: 5
               value: -5.7564577324601141e+00
            -
               depth: 5
               value: 1.5896183691449626e+00
            -
               depth: 4
               value: -1.2889635993654471e+00
               splits:
                  - { var:20, quality:9.1523124137893319e-04,
                      le:9.9751472473144531e-01 }
            -
               depth: 5
               value: 5.7564577324623896e+00
            -
               depth: 5
               value: -5.7564577324601141e+00
            -
               depth: 3
               value: -5.7564577324601141e+00
            -
               depth: 2
               value: -1.6175226535869008e-01
               splits:
                  - { var:30, quality:2.6229057461023331e-02,
                      le:2.1164171695709229e+00 }
            -
               depth: 3
               value: -8.6920982745928643e-01
               splits:
                  - { var:5, quality:3.7973415106534958e-02,
                      le:1.5290412306785583e-01 }
            -
               depth: 4
               value: -1.4814088568248711e+00
               splits:
                  - { var:21, quality:3.8568526506423950e-02,
                      le:1.1579457521438599e+00 }
            -
               depth: 5
               value: -1.7370147907476636e+00
            -
               depth: 5
               value: 7.6637379712207443e-01
            -
               depth: 4
               value: 5.8736672425131986e-01
               splits:
                  - { var:8, quality:4.1951234452426434e-03,
                      le:-8.0905124545097351e-02 }
            -
               depth: 5
               value: -2.3397747478911496e-01
            -
               depth: 5
               value: 1.6324846787342560e+00
            -
               depth: 3
               value: -5.8926299115823852e-02
               splits:
                  - { var:26, quality:1.9669167697429657e-02,
                      le:5.0000000000000000e-01 }
            -
               depth: 4
               value: 8.1707835979473495e-02
               splits:
                  - { var:23, quality:1.6275687143206596e-02,
                      le:1.6569139957427979e+00 }
            -
               depth: 5
               value: 2.8979115294640506e-01
            -
               depth: 5
               value: -2.7379775618150110e-01
            -
               depth: 4
               value: -6.1190596906360983e-01
               splits:
                  - { var:23, quality:2.7684951201081276e-02,
                      le:1.8811316490173340e+00 }
            -
               depth: 5
               value: -8.0643580396734416e-01
            -
               depth: 5
               value: 8.9255659872840254e-01
            -
               depth: 1
               value: 3.6685051600469414e-02
               splits:
                  - { var:26, quality:1.6492433845996857e-02,
                      le:5.0000000000000000e-01 }
            -
               depth: 2
               value: -3.7000829312711869e-02
               splits:
                  - { var:13, quality:1.1341736651957035e-02,
                      le:2.8001505881547928e-02 }
            -
               depth: 3
               value: 5.1791641358944984e-01
               splits:
                  - { var:8, quality:1.3897050172090530e-02,
                      le:-6.9357872009277344e-02 }
            -
               depth: 4
               value: 8.6176791637698236e-01
               splits:
                  - { var:7, quality:1.5662973746657372e-02,
                      le:1.7962079495191574e-02 }
            -
               depth: 5
               value: 1.2112888899777634e+00
            -
               depth: 5
               value: 1.7255916166833235e-01
            -
               depth: 4
               value: -1.7811853286040896e-01
               splits:
                  - { var:31, quality:2.3015199694782495e-03, in:[ 0 ] }
            -
               depth: 5
               value: -9.3399862939693001e-01
            -
               depth: 5
               value: 2.0709336635074496e-01
            -
               depth: 3
               value: -7.7203633788003781e-02
               splits:
                  - { var:23, quality:1.6605366021394730e-02,
                      le:1.6569795608520508e+00 }
            -
               depth: 4
               value: -2.6627212503998748e-01
               splits:
                  - { var:28, quality:2.6197513565421104e-02,
                      le:2.2999995946884155e-01 }
            -
               depth: 5
               value: -5.0143565229617559e-01
            -
               depth: 5
               value: -1.0198049536314988e-02
            -
               depth: 4
               value: 7.9698075959104817e-02
               splits:
                  - { var:7, quality:1.2058289721608162e-02,
                      le:2.8596275951713324e-03 }
            -
               depth: 5
               value: 4.5599510134739796e-01
            -
               depth: 5
               value: -3.6517882745005940e-02
            -
               depth: 2
               value: 3.9264610507868192e-01
               splits:
                  - { var:4, quality:2.8166996315121651e-02,
                      le:3.2725028693675995e-02 }
            -
               depth: 3
               value: -1.6356621478408367e-01
               splits:
                  - { var:1, quality:5.5395374074578285e-03,
                      le:9.1911740601062775e-02 }
            -
               depth: 4
               value: -1.4490602561201440e+00
               splits:
                  - { var:21, quality:5.9779454022645950e-03,
                      le:8.3413743972778320e-01 }
            -
               depth: 5
               value: 1.0245023398063149e-01
            -
               depth: 5
               value: -2.0371489451984162e+00
            -
               depth: 4
               value: 4.3972600971391343e-02
               splits:
                  - { var:18, quality:1.0759701253846288e-03,
                      le:8.3693943023681641e+00 }
            -
               depth: 5
               value: 4.0303308155808415e-01
            -
               depth: 5
               value: -8.0894780506206299e-02
            -
               depth: 3
               value: 6.5951735648024756e-01
               splits:
                  - { var:31, quality:3.7596177309751511e-02, in:[ 2 ] }
            -
               depth: 4
               value: -3.1062608480177462e-01
               splits:
                  - { var:8, quality:4.9485536292195320e-03,
                      le:-5.1150038838386536e-02 }
            -
               depth: 5
               value: 3.7301706256507738e-01
            -
               depth: 5
               value: -1.1643700021050010e+00
            -
               depth: 4
               value: 9.0871113877916521e-01
               splits:
                  - { var:19, quality:4.3564658612012863e-02,
                      le:1.4094288349151611e+00 }
            -
               depth: 5
               value: 1.7269374330877784e-02
            -
               depth: 5
               value: 1.3006914166550345e+00
      -
         nodes:
            -
               depth: 0
               value: -2.2251575546467782e-05
               splits:
                  - { var:3, quality:8.9990776032209396e-03,
                      le:2.7577060461044312e-01 }
            -
               depth: 1
               value: 1.2831729879311560e-01
               splits:
                  - { var:4, quality:1.3634389266371727e-02,
                      le:1.6892928630113602e-02 }
            -
               depth: 2
               value: -7.6121531043401713e-01
               splits:
                  - { var:31, quality:1.1951647698879242e-02, not_in:[ 1 ] }
            -
               depth: 3
               value: -1.9640991589303620e+00
               splits:
                  - { var:0, quality:1.0609800927340984e-02,
                      le:4.5000000000000000e+00 }
            -
               depth: 4
               value: 2.7188113174378348e+00
               splits:
                  - { var:31, quality:1.8898342386819422e-04, in:[ 2 ] }
            -
               depth: 5
               value: -5.7564577324601141e+00
            -
               depth: 5
               value: 5.7564577324623896e+00
            -
               depth: 4
               value: -3.1819265601475686e+00
               splits:
                  - { var:1, quality:1.0461614467203617e-02,
                      le:1.7867267131805420e-01 }
            -
               depth: 5
               value: -5.7564577324601141e+00
            -
               depth: 5
               value: 4.3240851701653100e-02
            -
               depth: 3
               value: 3.5645027481358360e+00
               splits:
                  - { var:21, quality:2.0820950157940388e-03,
                      le:1.6834347248077393e+00 }
            -
               depth: 4
               value: 5.7564577324623896e+00
               splits:
                  - { var:0, quality:2.0804547239094973e-03,
                      le:4.5000000000000000e+00 }
            -
               depth: 5
               value: -5.7564577324601141e+00
            -
               depth: 5
               value: 5.7564577324623896e+00
            -
               depth: 4
               value: -5.7564577324601141e+00
            -
               depth: 2
               value: 1.5754295850047509e-01
               splits:
                  - { var:18, quality:1.1561917141079903e-02,
                      le:1.6166629791259766e+01 }
            -
               depth: 3
               value: 1.2777559947884262e-01
               splits:
                  - { var:21, quality:9.1863777488470078e-03,
                      le:1.5216464996337891e+00 }
            -
               depth: 4
               value: 3.7270046917833692e-02
               splits:
                  - { var:8, quality:3.0636191368103027e-03,
                      le:-2.5589974597096443e-02 }
            -
               depth: 5
               value: 1.6352101870315386e-01
            -
               depth: 5
               value: -7.8063689011728984e-02
            -
               depth: 4
               value: 2.7977342098320146e-01
               splits:
                  - { var:31, quality:1.3044658116996288e-02, not_in:[ 1 ] }
            -
               depth: 5
               value: 7.4747413153741157e-02
            -
               depth: 5
               value: 4.8030887013628698e-01
            -
               depth: 3
               value: 5.1610938017149377e-01
               splits:
                  - { var:31, quality:1.0161668993532658e-02, in:[ 1 ] }
            -
               depth: 4
               value: -5.7280483108354723e-03
               splits:
                  - { var:30, quality:4.0360684506595135e-03,
                      le:1.9715859889984131e+00 }
            -
               depth: 5
               value: -1.1006427329927047e+00
            -
               depth: 5
               value: 5.3528144103607522e-01
            -
               depth: 4
               value: 9.5149616411248938e-01
               splits:
                  - { var:0, quality:1.1136902496218681e-02,
                      le:1.0500000000000000e+01 }
            -
               depth: 5
               value: 4.4403709845488165e-01
            -
               depth: 5
               value: 1.4892721355570600e+00
            -
               depth: 1
               value: -7.0643172857512440e-02
               splits:
                  - { var:31, quality:2.0624266937375069e-02, not_in:[ 2 ] }
            -
               depth: 2
               value: -2.1321646627038146e-01
               splits:
                  - { var:30, quality:2.8259759768843651e-02,
                      le:9.8826783895492554e-01 }
            -
               depth: 3
               value: 1.2885206270794116e+00
               splits:
                  - { var:7, quality:9.1752260923385620e-03,
                      le:1.7647253349423409e-02 }
            -
               depth: 4
               value: 2.7954601482032886e+00
               splits:
                  - { var:1, quality:8.9804884046316147e-03,
                      le:1.4068484306335449e-01 }
            -
               depth: 5
               value: -2.0412639321045309e-01
            -
               depth: 5
               value: 2.9419012114434646e+00
            -
               depth: 4
               value: -5.3335154862699330e-01
               splits:
                  - { var:0, quality:5.5172882275655866e-04,
                      le:3.2500000000000000e+01 }
            -
               depth: 5
               value: 4.9115949848423313e-01
            -
               depth: 5
               value: -1.3882707317382388e+00
            -
               depth: 3
               value: -2.4409015977338930e-01
               splits:
                  - { var:5, quality:3.3839769661426544e-02,
                      le:9.3543976545333862e-02 }
            -
               depth: 4
               value: -8.8528304430868354e-01
               splits:
                  - { var:21, quality:2.8948478400707245e-02,
                      le:1.4251403808593750e+00 }
            -
               depth: 5
               value: -1.1700019231341279e+00
            -
               depth: 5
               value: -1.0456469454819137e-01
            -
               depth: 4
               value: -1.6519696209521692e-01
               splits:
                  - { var:9, quality:1.6356941312551498e-02,
                      le:9.4781279563903809e-02 }
            -
               depth: 5
               value: -9.0644483597678141e-02
            -
               depth: 5
               value: -5.6095304267336810e-01
            -
               depth: 2
               value: 1.2393356757825197e-01
               splits:
                  - { var:3, quality:2.1248212084174156e-02,
                      le:4.4515824317932129e-01 }
            -
               depth: 3
               value: -1.4763204985661080e-01
               splits:
                  - { var:5, quality:1.2177755124866962e-02,
                      le:1.0929526388645172e-01 }
            -
               depth: 4
               value: 4.1802842930364575e-01
               splits:
                  - { var:12, quality:8.7153520435094833e-03,
                      le:1.0644869506359100e-01 }
            -
               depth: 5
               value: -5.7564577324601141e+00
            -
               depth: 5
               value: 5.8526459788915275e-01
            -
               depth: 4
               value: -2.9391116158274305e-01
               splits:
                  - { var:20, quality:1.7597788944840431e-02,
                      le:2.1960000991821289e+00 }
            -
               depth: 5
               value: -5.3745416990308392e-01
            -
               depth: 5
               value: 1.7542646956060920e-01
            -
               depth: 3
               value: 3.7573231011603980e-01
               splits:
                  - { var:3, quality:3.6382265388965607e-02,
                      le:7.8687143325805664e-01 }
            -
               depth: 4
               value: 5.0874184695898417e-01
               splits:
                  - { var:28, quality:3.9139200001955032e-02,
                      le:2.5999993085861206e-01 }
            -
               depth: 5
               value: 1.3310130498176813e+00
            -
               depth: 5
               value: 2.7990310781687244e-01
            -
               depth: 4
               value: -1.0150690457226554e+00
               splits:
                  - { var:7, quality:1.0708484798669815e-02,
                      le:2.4213936179876328e-02 }
            -
               depth: 5
               value: -3.7869292445208345e+00
            -
               depth: 5
               value: 3.1162446582641651e-01
      -
         nodes:
            -
               depth: 0
               value: -3.7266932706744763e-05
               splits:
                  - { var:30, quality:4.0966155938804150e-03,
                      le:1.4323060512542725e+00 }
            -
               depth: 1
               value: -4.3329102307183048e-01
               splits:
                  - { var:7, quality:6.6049713641405106e-03,
                      le:5.8591544628143311e-02 }
            -
               depth: 2
               value: -5.5639896450447546e-01
               splits:
                  - { var:31, quality:8.5798837244510651e-03, not_in:[ 1 ] }
            -
               depth: 3
               value: -9.9042027774414820e-01
               splits:
                  - { var:24, quality:1.0439437814056873e-02,
                      le:1.9878923892974854e-02 }
            -
               depth: 4
               value: -1.4159083903153624e+00
               splits:
                  - { var:0, quality:1.1511143296957016e-02, le:39. }
            -
               depth: 5
               value: -1.8889227100660657e+00
            -
               depth: 5
               value: 4.4146158158764115e-01
            -
               depth: 4
               value: 1.9508140757426404e-01
               splits:
                  - { var:31, quality:7.4773182859644294e-04, in:[ 0 ] }
            -
               depth: 5
               value: -8.2804912576300371e-01
            -
               depth: 5
               value: 7.2983742102507032e-01
            -
               depth: 3
               value: 2.2253282070765400e-02
               splits:
                  - { var:24, quality:5.8248117566108704e-03,
                      le:1.9878923892974854e-02 }
            -
               depth: 4
               value: 1.3136413714371600e+00
               splits:
                  - { var:20, quality:3.7916859146207571e-03,
                      le:2.6622459888458252e+00 }
            -
               depth: 5
               value: 3.2100713001850396e+00
            -
               depth: 5
               value: -3.1464946034551224e+00
            -
               depth: 4
               value: -1.7753988936262202e+00
               splits:
                  - { var:17, quality:3.3286025281995535e-03,
                      le:3.3852554857730865e-02 }
            -
               depth: 5
               value: -5.7564577324601141e+00
            -
               depth: 5
               value: 3.4895588095921575e+00
            -
               depth: 2
               value: 8.8311058211539839e-01
               splits:
                  - { var:31, quality:1.8117795698344707e-03, not_in:[ 2 ] }
            -
               depth: 3
               value: -1.0974734290540136e+00
               splits:
                  - { var:1, quality:3.1225715065374970e-04,
                      le:2.8448882699012756e-01 }
            -
               depth: 4
               value: -5.7564577324601141e+00
            -
               depth: 4
               value: 5.7564577324623896e+00
               splits:
                  - { var:1, quality:3.1289371690945700e-05,
                      le:3.1469428539276123e-01 }
            -
               depth: 5
               value: 5.7564577324623896e+00
            -
               depth: 5
               value: 5.7564577324623896e+00
            -
               depth: 3
               value: 5.2387483021685677e+00
               splits:
                  - { var:1, quality:1.6123212408274412e-03,
                      le:2.8448882699012756e-01 }
            -
               depth: 4
               value: 5.7564577324623896e+00
            -
               depth: 4
               value: -5.7564577324601141e+00
            -
               depth: 1
               value: 1.0003031326584057e-02
               splits:
                  - { var:10, quality:3.5008070990443230e-03,
                      le:-3.8331300020217896e-01 }
            -
               depth: 2
               value: 2.5191232789923668e-03
               splits:
                  - { var:0, quality:2.9188073240220547e-03,
                      le:3.5500000000000000e+01 }
            -
               depth: 3
               value: -1.8086415155093617e-03
               splits:
                  - { var:14, quality:2.0969533361494541e-03,
                      le:2.9166704416275024e-01 }
            -
               depth: 4
               value: 2.4601998946242043e-02
               splits:
                  - { var:28, quality:3.3923555165529251e-03,
                      le:3.1999999284744263e-01 }
            -
               depth: 5
               value: 1.4117855832377153e-03
            -
               depth: 5
               value: 2.0324337262232300e-01
            -
               depth: 4
               value: -8.5073917678825620e-02
               splits:
                  - { var:28, quality:3.6672540009021759e-03,
                      le:5.8999997377395630e-01 }
            -
               depth: 5
               value: -1.0828528919280389e-01
            -
               depth: 5
               value: 3.0341722539733301e-01
            -
               depth: 3
               value: 8.7357428468016596e-01
               splits:
                  - { var:20, quality:3.5969305317848921e-03,
                      le:2.6047575473785400e+00 }
            -
               depth: 4
               value: 1.7576979594310416e-01
               splits:
                  - { var:31, quality:1.6489381669089198e-03, not_in:[ 2 ] }
            -
               depth: 5
               value: -1.8430922474794496e+00
            -
               depth: 5
               value: 3.4908763193950105e+00
            -
               depth: 4
               value: 1.5988750058182608e+00
               splits:
                  - { var:31, quality:3.6279482301324606e-03, in:[ 1 ] }
            -
               depth: 5
               value: -5.7564577324601141e+00
            -
               depth: 5
               value: 1.6723722211695851e+00
            -
               depth: 2
               value: 5.1772464089136572e-01
               splits:
                  - { var:31, quality:6.0148891061544418e-03, not_in:[ 2 ] }
            -
               depth: 3
               value: -3.4833805928399832e-02
               splits:
                  - { var:21, quality:1.1025946587324142e-03,
                      le:9.4729459285736084e-01 }
            -
               depth: 4
               value: 3.5106695616874928e-01
               splits:
                  - { var:6, quality:1.1168519267812371e-03,
                      le:1.2179130315780640e-01 }
            -
               depth: 5
               value: 8.1533389216062879e-01
            -
               depth: 5
               value: -3.1539693025163534e-01
            -
               depth: 4
               value: -5.9057287885409815e-01
               splits:
                  - { var:22, quality:1.1120466515421867e-03,
                      le:9.2846822738647461e-01 }
            -
               depth: 5
               value: -1.9020006720759146e+00
            -
               depth: 5
               value: -1.6760364555101950e-01
            -
               depth: 3
               value: 1.0869571493950512e+00
               splits:
                  - { var:3, quality:6.6117383539676666e-03,
                      le:2.6131796836853027e-01 }
            -
               depth: 4
               value: -5.7564577324601141e+00
            -
               depth: 4
               value: 1.1920727453184046e+00
               splits:
                  - { var:18, quality:6.9726118817925453e-03,
                      le:1.8433629989624023e+01 }
            -
               depth: 5
               value: 1.3683847417259862e+00
            -
               depth: 5
               value: -4.3734696036340492e-01
      -
         nodes:
            -
               depth: 0
               value: -6.8470436708935309e-06
               splits:
                  - { var:7, quality:2.5416857097297907e-03,
                      le:1.6105651855468750e-02 }
            -
               depth: 1
               value: 3.4456026838135728e-02
               splits:
                  - { var:19, quality:3.5465871915221214e-03,
                      le:2.7494459152221680e+00 }
            -
               depth: 2
               value: 1.0415397845852766e-02
               splits:
                  - { var:19, quality:2.4283693637698889e-03,
                      le:1.5565834045410156e+00 }
            -
               depth: 3
               value: 1.1963197564947234e-01
               splits:
                  - { var:25, quality:4.1698189452290535e-03,
                      le:5.0000000000000000e-01 }
            -
               depth: 4
               value: 2.2037204019795534e-01
               splits:
                  - { var:31, quality:7.4660596437752247e-03, not_in:[ 1 ] }
            -
               depth: 5
               value: 1.5711176287574260e-02
            -
               depth: 5
               value: 4.2878468360443406e-01
            -
               depth: 4
               value: -2.0438854865934861e-02
               splits:
                  - { var:31, quality:1.0968214832246304e-02, not_in:[ 0 ] }
            -
               depth: 5
               value: -4.3327674624082640e-01
            -
               depth: 5
               value: 4.6795094562678985e-01
            -
               depth: 3
               value: -2.6091628122225437e-02
               splits:
                  - { var:15, quality:3.2146463636308908e-03,
                      le:5.0825399160385132e-01 }
            -
               depth: 4
               value: 1.2020268395067986e-01
               splits:
                  - { var:23, quality:3.9816000498831272e-03,
                      le:1.3210806846618652e+00 }
            -
               depth: 5
               value: -2.1515166445709422e-01
            -
               depth: 5
               value: 1.9335184474703837e-01
            -
               depth: 4
               value: -7.0983997283196085e-02
               splits:
                  - { var:24, quality:2.9383066575974226e-03,
                      le:1.8381118774414062e-02 }
            -
               depth: 5
               value: -9.0402790820437451e-02
            -
               depth: 5
               value: 1.1563330802229732e-01
            -
               depth: 2
               value: 2.0439559821743383e-01
               splits:
                  - { var:23, quality:6.0743573121726513e-03,
                      le:1.4360138177871704e+00 }
            -
               depth: 3
               value: -8.6288106015068339e-04
               splits:
                  - { var:31, quality:4.8058256506919861e-03, not_in:[ 0 ] }
            -
               depth: 4
               value: -3.4827662540815646e-01
               splits:
                  - { var:15, quality:1.0854787193238735e-02,
                      le:1.8358945846557617e-01 }
            -
               depth: 5
               value: -2.0891954927566267e+00
            -
               depth: 5
               value: 3.7136234269266505e-01
            -
               depth: 4
               value: 4.1724006962055132e-01
               splits:
                  - { var:20, quality:1.6326291486620903e-02,
                      le:1.8360695838928223e+00 }
            -
               depth: 5
               value: 2.4652737783605274e+00
            -
               depth: 5
               value: -5.7564577324601141e+00
            -
               depth: 3
               value: 3.6664263851767198e-01
               splits:
                  - { var:31, quality:2.0039081573486328e-02, in:[ 0 ] }
            -
               depth: 4
               value: -4.7529383039804318e-01
               splits:
                  - { var:20, quality:8.9771933853626251e-03,
                      le:2.6796064376831055e+00 }
            -
               depth: 5
               value: -1.1354150743352049e+00
            -
               depth: 5
               value: 7.1455222230939297e-01
            -
               depth: 4
               value: 8.8335063164980043e-01
               splits:
                  - { var:7, quality:1.9925938919186592e-02,
                      le:3.2363464124500751e-03 }
            -
               depth: 5
               value: -3.6260569528954045e-01
            -
               depth: 5
               value: 1.0671644362914638e+00
            -
               depth: 1
               value: -7.3921794022798887e-02
               splits:
                  - { var:3, quality:4.8612318933010101e-03,
                      le:3.5832580924034119e-01 }
            -
               depth: 2
               value: 1.0503416205590285e-01
               splits:
                  - { var:7, quality:2.9148762114346027e-03,
                      le:1.7784334719181061e-02 }
            -
               depth: 3
               value: -3.8876107496905116e-01
               splits:
                  - { var:16, quality:1.9109812565147877e-03,
                      le:4.7087860107421875e-01 }
            -
               depth: 4
               value: -9.3144147526264731e-01
               splits:
                  - { var:31, quality:2.0571961067616940e-03, not_in:[ 2 ] }
            -
               depth: 5
               value: -1.3222550974058880e+00
            -
               depth: 5
               value: -3.1035931046230059e-01
            -
               depth: 4
               value: -1.0942783219106252e-01
               splits:
                  - { var:31, quality:6.2501785578206182e-04, in:[ 2 ] }
            -
               depth: 5
               value: -8.1767955620702126e-01
            -
               depth: 5
               value: 1.0135142785330706e-01
            -
               depth: 3
               value: 1.6481603085127822e-01
               splits:
                  - { var:5, quality:3.1813061796128750e-03,
                      le:1.9953891634941101e-01 }
            -
               depth: 4
               value: 3.0580206968314072e-01
               splits:
                  - { var:31, quality:4.7885840758681297e-03, not_in:[ 2 ] }
            -
               depth: 5
               value: 1.3075185266044553e-01
            -
               depth: 5
               value: 6.3826542645363515e-01
            -
               depth: 4
               value: 6.2851047098752668e-03
               splits:
                  - { var:31, quality:7.7373435487970710e-04, in:[ 2 ] }
            -
               depth: 5
               value: -2.4981516677591412e-01
            -
               depth: 5
               value: 1.0702243321241998e-01
            -
               depth: 2
               value: -1.2958642061202438e-01
               splits:
                  - { var:3, quality:8.6569217965006828e-03,
                      le:4.8951441049575806e-01 }
            -
               depth: 3
               value: -3.0296038682060233e-01
               splits:
                  - { var:31, quality:1.5499997884035110e-02, in:[ 0 ] }
            -
               depth: 4
               value: -1.1132556020705098e+00
               splits:
                  - { var:7, quality:1.5390748158097267e-02,
                      le:1.7357505857944489e-02 }
            -
               depth: 5
               value: 5.8231902806294276e-02
            -
               depth: 5
               value: -1.5322751055520210e+00
            -
               depth: 4
               value: -1.6073978503817407e-01
               splits:
                  - { var:9, quality:4.3789059855043888e-03,
                      le:6.1181038618087769e-02 }
            -
               depth: 5
               value: 1.0428077954029993e-01
            -
               depth: 5
               value: -2.8054726973990779e-01
            -
               depth: 3
               value: -1.3905107921556957e-02
               splits:
                  - { var:31, quality:2.1443825680762529e-03, not_in:[ 0 ] }
            -
               depth: 4
               value: -1.1364378883219922e-01
               splits:
                  - { var:19, quality:1.4314665459096432e-02,
                      le:2.8785519599914551e+00 }
            -
               depth: 5
               value: -3.7077126065883564e-01
            -
               depth: 5
               value: 5.8047165701085190e-01
            -
               depth: 4
               value: 1.3563647676624876e-01
               splits:
                  - { var:8, quality:2.0924454554915428e-02,
                      le:-1.0564566403627396e-01 }
            -
               depth: 5
               value: 5.4861532666984181e-01
            -
               depth: 5
               value: -1.1417790446696996e+00
      -
         nodes:
            -
               depth: 0
               value: -1.7266031586629600e-05
               splits:
                  - { var:30, quality:2.1490892395377159e-03,
                      le:1.9437988996505737e+00 }
            -
               depth: 1
               value: -2.2714798402620515e-01
               splits:
                  - { var:11, quality:3.7306095473468304e-03,
                      le:2.5875741615891457e-02 }
            -
               depth: 2
               value: -4.1124444023144863e-01
               splits:
                  - { var:31, quality:8.0975266173481941e-03, not_in:[ 1 ] }
            -
               depth: 3
               value: -7.9595961530668846e-01
               splits:
                  - { var:24, quality:9.0355677530169487e-03,
                      le:3.1854480504989624e-02 }
            -
               depth: 4
               value: -9.4377416470781339e-01
               splits:
                  - { var:3, quality:1.0127850808203220e-02,
                      le:7.3273286223411560e-02 }
            -
               depth: 5
               value: 3.4373227481837669e+00
            -
               depth: 5
               value: -1.0544660099512748e+00
            -
               depth: 4
               value: 4.8050069245266985e-01
               splits:
                  - { var:31, quality:1.1009995359927416e-03, in:[ 0 ] }
            -
               depth: 5
               value: -5.7564577324601141e+00
            -
               depth: 5
               value: 5.7564577324623896e+00
            -
               depth: 3
               value: 2.7150553850409020e-01
               splits:
                  - { var:16, quality:3.2709548249840736e-03,
                      le:6.4620006084442139e-01 }
            -
               depth: 4
               value: 9.0584792821595506e-01
               splits:
                  - { var:21, quality:3.6045322194695473e-03,
                      le:7.2875523567199707e-01 }
            -
               depth: 5
               value: -1.3562767276223702e+00
            -
               depth: 5
               value: 1.3624733126902933e+00
            -
               depth: 4
               value: -6.6157563230222005e-01
               splits:
                  - { var:5, quality:2.0518691744655371e-03,
                      le:1.8677437305450439e-01 }
            -
               depth: 5
               value: -3.1139711973383304e+00
            -
               depth: 5
               value: 6.4479720707513555e-01
            -
               depth: 2
               value: 1.9859619198311789e-02
               splits:
                  - { var:31, quality:1.1458699591457844e-03, not_in:[ 2 ] }
            -
               depth: 3
               value: -3.0406498958538969e-01
               splits:
                  - { var:7, quality:2.3902656976133585e-03,
                      le:2.7318991720676422e-02 }
            -
               depth: 4
               value: 1.7909265537631325e-01
               splits:
                  - { var:20, quality:9.3300815206021070e-04,
                      le:2.6614031791687012e+00 }
            -
               depth: 5
               value: -1.6171853965407668e-01
            -
               depth: 5
               value: 1.1966397715864321e+00
            -
               depth: 4
               value: -1.2669819364368213e+00
               splits:
                  - { var:10, quality:2.6388138066977262e-03,
                      le:-2.9323091506958008e+00 }
            -
               depth: 5
               value: 2.5565685193260179e-01
            -
               depth: 5
               value: -1.9293622782474327e+00
            -
               depth: 3
               value: 2.4004309170348703e-01
               splits:
                  - { var:7, quality:5.1255263388156891e-03,
                      le:9.7352024167776108e-03 }
            -
               depth: 4
               value: -1.2082263111087572e+00
               splits:
                  - { var:30, quality:2.4393044877797365e-03,
                      le:1.7844755649566650e+00 }
            -
               depth: 5
               value: -5.7564577324601141e+00
            -
               depth: 5
               value: 1.3178502523159724e-01
            -
               depth: 4
               value: 8.0022812689914335e-01
               splits:
                  - { var:3, quality:4.1441414505243301e-03,
                      le:4.0700578689575195e-01 }
            -
               depth: 5
               value: -4.6418699450986527e-02
            -
               depth: 5
               value: 1.3068804597430292e+00
            -
               depth: 1
               value: 9.6071212137618604e-03
               splits:
                  - { var:19, quality:1.4894794439896941e-03,
                      le:2.8963117599487305e+00 }
            -
               depth: 2
               value: 1.7702250137498318e-02
               splits:
                  - { var:6, quality:2.1086393389850855e-03,
                      le:2.3109921813011169e-01 }
            -
               depth: 3
               value: 8.4795482308556810e-02
               splits:
                  - { var:31, quality:1.3764332048594952e-02, not_in:[ 1 ] }
            -
               depth: 4
               value: -7.5709979870564076e-02
               splits:
                  - { var:3, quality:1.1001391336321831e-02,
                      le:2.4447989463806152e-01 }
            -
               depth: 5
               value: -1.2922038873382311e+00
            -
               depth: 5
               value: -2.4493546697821789e-03
            -
               depth: 4
               value: 3.5945704954266994e-01
               splits:
                  - { var:29, quality:1.9169585779309273e-02,
                      le:9.4683426618576050e-01 }
            -
               depth: 5
               value: 2.2741549273567083e-01
            -
               depth: 5
               value: 1.2095106232146242e+00
            -
               depth: 3
               value: -1.1971802954094203e-02
               splits:
                  - { var:31, quality:4.1066473349928856e-03, in:[ 1 ] }
            -
               depth: 4
               value: -1.1145502033580332e-01
               splits:
                  - { var:5, quality:2.7706753462553024e-02,
                      le:6.0037210583686829e-02 }
            -
               depth: 5
               value: 5.8126698568068214e-01
            -
               depth: 5
               value: -2.7351568338529675e-01
            -
               depth: 4
               value: 5.1873719959835002e-02
               splits:
                  - { var:5, quality:1.2522426433861256e-02,
                      le:6.0037210583686829e-02 }
            -
               depth: 5
               value: -4.3535366087704924e-01
            -
               depth: 5
               value: 1.1671179517879908e-01
            -
               depth: 2
               value: -1.7264926900355812e-01
               splits:
                  - { var:31, quality:9.0740118175745010e-03, not_in:[ 2 ] }
            -
               depth: 3
               value: -6.1564827781847187e-01
               splits:
                  - { var:14, quality:1.1235630139708519e-02,
                      le:7.8857147693634033e-01 }
            -
               depth: 4
               value: -7.9619351527828008e-01
               splits:
                  - { var:0, quality:1.2770144268870354e-02,
                      le:1.6500000000000000e+01 }
            -
               depth: 5
               value: 2.1240265811075429e-01
            -
               depth: 5
               value: -1.1755319040651178e+00
            -
               depth: 4
               value: 3.1601688520156319e+00
               splits:
                  - { var:31, quality:1.6193622723221779e-03, in:[ 1 ] }
            -
               depth: 5
               value: -5.7564577324601141e+00
            -
               depth: 5
               value: 5.7564577324623896e+00
            -
               depth: 3
               value: 3.5019544081628973e-01
               splits:
                  - { var:0, quality:6.5053305588662624e-03,
                      le:1.6500000000000000e+01 }
            -
               depth: 4
               value: -9.0117832247529173e-01
               splits:
                  - { var:17, quality:3.0381430406123400e-03,
                      le:5.3077571094036102e-02 }
            -
               depth: 5
               value: 1.2678963011151285e+00
            -
               depth: 5
               value: -2.1856968199566995e+00
            -
               depth: 4
               value: 6.6431208817877274e-01
               splits:
                  - { var:26, quality:1.0016070678830147e-02,
                      le:5.0000000000000000e-01 }
            -
               depth: 5
               value: 1.2785586766505312e+00
            -
               depth: 5
               value: -9.7441343235975453e-01
      -
         nodes:
            -
               depth: 0
               value: -1.1241156370536572e-06
               splits:
                  - { var:16, quality:2.5519600603729486e-03,
                      le:4.2121282219886780e-01 }
            -
               depth: 1
               value: 5.0132605696330448e-02
               splits:
                  - { var:30, quality:3.4559264313429594e-03,
                      le:3.1864824295043945e+00 }
            -
               depth: 2
               value: 1.7069853473068108e-01
               splits:
                  - { var:31, quality:1.0003088042140007e-02, not_in:[ 0 ] }
            -
               depth: 3
               value: -5.0611159414660489e-02
               splits:
                  - { var:17, quality:7.5348895043134689e-03,
                      le:2.3191969841718674e-02 }
            -
               depth: 4
               value: 3.8612469907830371e-01
               splits:
                  - { var:4, quality:8.9355586096644402e-03,
                      le:1.7104443162679672e-02 }
            -
               depth: 5
               value: -7.1461360721385470e-01
            -
               depth: 5
               value: 6.7705404563343086e-01
            -
               depth: 4
               value: -3.4019749046928233e-01
               splits:
                  - { var:11, quality:1.2950268574059010e-02,
                      le:8.3944865036755800e-04 }
            -
               depth: 5
               value: -7.5222518338868571e-01
            -
               depth: 5
               value: 4.4908353831218789e-01
            -
               depth: 3
               value: 4.5195143409441862e-01
               splits:
                  - { var:28, quality:1.7666744068264961e-02,
                      le:6.5000057220458984e-02 }
            -
               depth: 4
               value: -1.2822002298172561e+00
               splits:
                  - { var:4, quality:4.1578509844839573e-03,
                      le:1.7042377963662148e-02 }
            -
               depth: 5
               value: 8.5894612624242228e-01
            -
               depth: 5
               value: -2.8927093003184119e+00
            -
               depth: 4
               value: 5.9696957409390239e-01
               splits:
                  - { var:2, quality:2.0048433914780617e-02,
                      le:7.3250934481620789e-02 }
            -
               depth: 5
               value: 7.5472579588820987e-01
            -
               depth: 5
               value: -6.0814126777211808e-01
            -
               depth: 2
               value: 1.3570605106891028e-02
               splits:
                  - { var:31, quality:4.1690808720886707e-03, not_in:[ 1 ] }
            -
               depth: 3
               value: -8.4718259567820503e-02
               splits:
                  - { var:18, quality:1.3297758065164089e-02,
                      le:7.1034622192382812e+00 }
