%YAML:1.0
---
opencv_ml_boost:
   format: 3
   is_classifier: 1
   var_all: 145
   var_count: 144
   ord_var_count: 143
   cat_var_count: 2
   training_params:
      boosting_type: RealAdaboost
      use_surrogates: 0
      max_categories: 10
      regression_accuracy: 1.0000000474974513e-03
      max_depth: 5
      min_sample_count: 5
      cross_validation_folds: 0
      priors: !!opencv-matrix
         rows: 1
         cols: 2
         dt: f
         data: [ 2.21405157e-43, 0. ]
      weight_trimming_rate: 1.
   global_var_idx: 1
   var_idx: [ 0, 1, 2, 3, 4, 5, 6, 7, 8, 9, 10, 11, 12, 13, 14, 15, 16,
       17, 18, 19, 20, 21, 22, 23, 24, 25, 26, 27, 28, 29, 30, 31, 32,
       33, 34, 35, 36, 37, 38, 39, 40, 41, 42, 43, 44, 45, 46, 47, 48,
       49, 50, 51, 52, 53, 54, 55, 56, 57, 58, 59, 60, 61, 62, 63, 64,
       65, 66, 67, 68, 69, 70, 71, 72, 73, 74, 75, 76, 77, 78, 79, 80,
       81, 82, 83, 84, 85, 86, 87, 88, 89, 90, 91, 92, 93, 94, 95, 96,
       97, 98, 99, 100, 101, 102, 103, 104, 105, 106, 107, 108, 109, 110,
       111, 112, 113, 114, 115, 116, 117, 118, 119, 120, 121, 122, 123,
       124, 125, 126, 127, 128, 129, 130, 131, 132, 133, 134, 135, 136,
       137, 138, 139, 140, 141, 142, 143 ]
   var_type: [ 0, 0, 0, 0, 0, 0, 0, 0, 0, 0, 0, 0, 0, 0, 0, 0, 0, 0, 0,
       0, 0, 0, 0, 0, 0, 0, 0, 0, 0, 0, 0, 0, 0, 0, 0, 0, 0, 0, 0, 0, 0,
       0, 0, 0, 0, 0, 0, 0, 0, 0, 0, 0, 0, 0, 0, 0, 0, 0, 0, 0, 0, 0, 0,
       0, 0, 0, 0, 0, 0, 0, 0, 0, 0, 0, 0, 0, 0, 0, 0, 0, 0, 0, 0, 0, 0,
       0, 0, 0, 0, 0, 0, 0, 0, 0, 0, 0, 0, 0, 0, 0, 0, 0, 0, 0, 0, 0, 0,
       0, 0, 0, 0, 0, 0, 0, 0, 0, 0, 0, 0, 0, 0, 0, 0, 0, 0, 0, 0, 0, 0,
       0, 0, 0, 0, 0, 0, 0, 0, 0, 0, 0, 0, 0, 0, 1, 1 ]
   cat_ofs: [ 0, 0, 0, 0, 0, 0, 0, 0, 0, 0, 0, 0, 0, 0, 0, 0, 0, 0, 0, 0,
       0, 0, 0, 0, 0, 0, 0, 0, 0, 0, 0, 0, 0, 0, 0, 0, 0, 0, 0, 0, 0, 0,
       0, 0, 0, 0, 0, 0, 0, 0, 0, 0, 0, 0, 0, 0, 0, 0, 0, 0, 0, 0, 0, 0,
       0, 0, 0, 0, 0, 0, 0, 0, 0, 0, 0, 0, 0, 0, 0, 0, 0, 0, 0, 0, 0, 0,
       0, 0, 0, 0, 0, 0, 0, 0, 0, 0, 0, 0, 0, 0, 0, 0, 0, 0, 0, 0, 0, 0,
       0, 0, 0, 0, 0, 0, 0, 0, 0, 0, 0, 0, 0, 0, 0, 0, 0, 0, 0, 0, 0, 0,
       0, 0, 0, 0, 0, 0, 0, 0, 0, 0, 0, 0, 0, 0, 0, 0, 0, 0, 0, 0, 0, 0,
       0, 0, 0, 0, 0, 0, 0, 0, 0, 0, 0, 0, 0, 0, 0, 0, 0, 0, 0, 0, 0, 0,
       0, 0, 0, 0, 0, 0, 0, 0, 0, 0, 0, 0, 0, 0, 0, 0, 0, 0, 0, 0, 0, 0,
       0, 0, 0, 0, 0, 0, 0, 0, 0, 0, 0, 0, 0, 0, 0, 0, 0, 0, 0, 0, 0, 0,
       0, 0, 0, 0, 0, 0, 0, 0, 0, 0, 0, 0, 0, 0, 0, 0, 0, 0, 0, 0, 0, 0,
       0, 0, 0, 0, 0, 0, 0, 0, 0, 0, 0, 0, 0, 0, 0, 0, 0, 0, 0, 0, 0, 0,
       0, 0, 0, 0, 0, 0, 0, 0, 0, 0, 0, 0, 0, 0, 0, 0, 0, 0, 0, 0, 0, 0,
       0, 0, 0, 3 ]
   cat_map: [ 0, 1, 2 ]
   class_labels: [ 0, 1 ]
   missing_subst: [ 0., 0., 0., 0., 0., 0., 0., 0., 0., 0., 0., 0., 0.,
       0., 0., 0., 0., 0., 0., 0., 0., 0., 0., 0., 0., 0., 0., 0., 0.,
       0., 0., 0., 0., 0., 0., 0., 0., 0., 0., 0., 0., 0., 0., 0., 0.,
       0., 0., 0., 0., 0., 0., 0., 0., 0., 0., 0., 0., 0., 0., 0., 0.,
       0., 0., 0., 0., 0., 0., 0., 0., 0., 0., 0., 0., 0., 0., 0., 0.,
       0., 0., 0., 0., 0., 0., 0., 0., 0., 0., 0., 0., 0., 0., 0., 0.,
       0., 0., 0., 0., 0., 0., 0., 0., 0., 0., 0., 0., 0., 0., 0., 0.,
       0., 0., 0., 0., 0., 0., 0., 0., 0., 0., 0., 0., 0., 0., 0., 0.,
       0., 0., 0., 0., 0., 0., 0., 0., 0., 0., 0., 0., 0., 0., 0., 0.,
       0., 0., -1., 0. ]
   ntrees: 20
   trees:
      -
         nodes:
            -
               depth: 0
               value: 0.
               splits:
                  - { var:143, quality:7.5493846088647842e-03, not_in:[
                      0 ] }
            -
               depth: 1
               value: -6.3439822915006133e-02
               splits:
                  - { var:48, quality:9.4168193638324738e-02,
                      le:3.0775451660156250e-01 }
            -
               depth: 2
               value: -8.0756796677437093e-01
               splits:
                  - { var:62, quality:9.1205589473247528e-02,
                      le:5.2625670433044434e+00 }
            -
               depth: 3
               value: -5.1736680789469713e-01
               splits:
                  - { var:20, quality:3.4130759537220001e-02,
                      le:9.4885981082916260e-01 }
            -
               depth: 4
               value: -1.2581913909450166e+00
               splits:
                  - { var:93, quality:3.2205950468778610e-02,
                      le:3.4440201707184315e-03 }
            -
               depth: 5
               value: -1.5954340999406573e+00
            -
               depth: 5
               value: 0.
            -
               depth: 4
               value: -2.5776185586099115e-01
               splits:
                  - { var:111, quality:9.7078876569867134e-03,
                      le:1.7470946907997131e-01 }
            -
               depth: 5
               value: -7.7522967517387714e-02
            -
               depth: 5
               value: -8.5453387669147929e-01
            -
               depth: 3
               value: -2.0549243743790373e+00
               splits:
                  - { var:94, quality:6.6615171730518341e-02,
                      le:-5.0352483987808228e-02 }
            -
               depth: 4
               value: -8.8179429613068150e-01
               splits:
                  - { var:49, quality:3.0136958230286837e-03,
                      le:1.4431916177272797e-01 }
            -
               depth: 5
               value: -1.4016801904532679e+00
            -
               depth: 5
               value: 3.4657359027997259e-01
            -
               depth: 4
               value: -2.4405886134296906e+00
               splits:
                  - { var:124, quality:6.4571030437946320e-02,
                      le:1.3873979568481445e+01 }
            -
               depth: 5
               value: -1.1077868580022110e+00
            -
               depth: 5
               value: -3.3828077559105081e+00
            -
               depth: 2
               value: 1.7007888818180503e-01
               splits:
                  - { var:58, quality:4.3214861303567886e-02,
                      le:4.3303363037109375e+02 }
            -
               depth: 3
               value: 2.3155289915090682e-01
               splits:
                  - { var:47, quality:2.8824733570218086e-02,
                      le:6.5063571929931641e-01 }
            -
               depth: 4
               value: 8.2095197137730697e-02
               splits:
                  - { var:103, quality:1.3536182232201099e-02,
                      le:4.7305092215538025e-02 }
            -
               depth: 5
               value: -6.4690675416287335e-01
            -
               depth: 5
               value: 1.9824728354688445e-01
            -
               depth: 4
               value: 3.2565799335741447e-01
               splits:
                  - { var:69, quality:3.0371842905879021e-02,
                      le:9.2494845390319824e-01 }
            -
               depth: 5
               value: 3.4265660980900309e-01
            -
               depth: 5
               value: -3.2256898068679413e-01
            -
               depth: 3
               value: -1.4806617469342374e+00
               splits:
                  - { var:60, quality:2.1951066330075264e-02,
                      le:4.8230028152465820e-01 }
            -
               depth: 4
               value: 3.4657359027997287e-01
               splits:
                  - { var:143, quality:1.1787398252636194e-03, in:[ 1 ] }
            -
               depth: 5
               value: -5.7564577324601141e+00
            -
               depth: 5
               value: 5.7564577324623896e+00
            -
               depth: 4
               value: -1.9929464269973145e+00
               splits:
                  - { var:59, quality:2.2183857858181000e-02,
                      le:5.2905838012695312e+01 }
            -
               depth: 5
               value: 3.4657359027997287e-01
            -
               depth: 5
               value: -2.1941285922122731e+00
            -
               depth: 1
               value: 1.1972916830829185e-01
               splits:
                  - { var:56, quality:1.3402368128299713e-01,
                      le:-1.1858006477355957e+01 }
            -
               depth: 2
               value: -5.0844327557214264e-01
               splits:
                  - { var:59, quality:7.8775167465209961e-02,
                      le:6.9263595581054688e+01 }
            -
               depth: 3
               value: -7.3285169194733180e-01
               splits:
                  - { var:30, quality:8.4490813314914703e-02,
                      le:3.3447256088256836e+00 }
            -
               depth: 4
               value: -1.8734672472070002e-01
               splits:
                  - { var:103, quality:1.2904286384582520e-02,
                      le:4.1549555957317352e-02 }
            -
               depth: 5
               value: 1.1735184277824444e+00
            -
               depth: 5
               value: -3.6084668123315006e-01
            -
               depth: 4
               value: -1.6177989861272004e+00
               splits:
                  - { var:69, quality:9.0522944927215576e-02,
                      le:9.3294489383697510e-01 }
            -
               depth: 5
               value: -2.7702394618490072e+00
            -
               depth: 5
               value: 3.5756304363936048e-01
            -
               depth: 3
               value: 1.6499718239784829e+00
               splits:
                  - { var:58, quality:1.7507147043943405e-02,
                      le:2.9721951293945312e+02 }
            -
               depth: 4
               value: -5.7564577324601141e+00
            -
               depth: 4
               value: 2.4020105223666186e+00
               splits:
                  - { var:2, quality:1.7289349809288979e-02,
                      le:2.2810384631156921e-01 }
            -
               depth: 5
               value: -5.7564577324601141e+00
            -
               depth: 5
               value: 2.7485841126465949e+00
            -
               depth: 2
               value: 9.7699574792025046e-01
               splits:
                  - { var:62, quality:1.0122042894363403e-01,
                      le:5.2714591026306152e+00 }
            -
               depth: 3
               value: 6.5922032908160710e-01
               splits:
                  - { var:46, quality:3.7966683506965637e-02,
                      le:2.9259920120239258e-01 }
            -
               depth: 4
               value: 9.8653056906064629e-01
               splits:
                  - { var:20, quality:3.8922116160392761e-02,
                      le:9.5239925384521484e-01 }
            -
               depth: 5
               value: 1.8829202476250342e+00
            -
               depth: 5
               value: 6.3425566273175171e-01
            -
               depth: 4
               value: 2.2256518225029470e-01
               splits:
                  - { var:126, quality:1.4568195678293705e-02,
                      le:1.7856586456298828e+01 }
            -
               depth: 5
               value: -5.9107270064071160e-01
            -
               depth: 5
               value: 1.0180723679632524e+00
            -
               depth: 3
               value: 2.3818405470441752e+00
               splits:
                  - { var:10, quality:6.9492429494857788e-02,
                      le:2.2896064817905426e-01 }
            -
               depth: 4
               value: -5.7564577324601141e+00
            -
               depth: 4
               value: 2.4121528579523885e+00
               splits:
                  - { var:70, quality:6.9597385823726654e-02,
                      le:2.7326302528381348e+00 }
            -
               depth: 5
               value: -5.7564577324601141e+00
            -
               depth: 5
               value: 2.4444221185211705e+00
      -
         nodes:
            -
               depth: 0
               value: -1.1870928177492347e-06
               splits:
                  - { var:58, quality:6.5509919077157974e-03,
                      le:4.4354525756835938e+02 }
            -
               depth: 1
               value: -1.3520046333293061e-02
               splits:
                  - { var:85, quality:2.4687401019036770e-03,
                      le:-3.6054107666015625e+02 }
            -
               depth: 2
               value: -1.4769333364579074e-01
               splits:
                  - { var:143, quality:4.9384841695427895e-03, not_in:[
                      1 ] }
            -
               depth: 3
               value: -2.5530728875061887e-01
               splits:
                  - { var:37, quality:6.8910159170627594e-03,
                      le:-1.3997310400009155e-01 }
            -
               depth: 4
               value: -4.0531305963312747e-01
               splits:
                  - { var:104, quality:8.4034493193030357e-03,
                      le:8.3173319697380066e-02 }
            -
               depth: 5
               value: -1.8605022732649362e-01
            -
               depth: 5
               value: -6.2494523442197514e-01
            -
               depth: 4
               value: -4.5550023106082513e-02
               splits:
                  - { var:143, quality:3.0029590707272291e-03, in:[ 2 ] }
            -
               depth: 5
               value: -4.2708123111554097e-01
            -
               depth: 5
               value: 2.2888381072796352e-01
            -
               depth: 3
               value: 6.4267987528381337e-02
               splits:
                  - { var:26, quality:5.4147876799106598e-03,
                      le:-6.4429992675781250e+01 }
            -
               depth: 4
               value: 1.9846300145095563e-01
               splits:
                  - { var:20, quality:6.4080008305609226e-03,
                      le:9.4041258096694946e-01 }
            -
               depth: 5
               value: -1.2389499730974389e+00
            -
               depth: 5
               value: 3.5789751213088550e-01
            -
               depth: 4
               value: -5.7564577324601141e+00
            -
               depth: 2
               value: 4.1717634254178635e-03
               splits:
                  - { var:48, quality:4.1808970272541046e-03,
                      le:3.0445113778114319e-01 }
            -
               depth: 3
               value: 1.9194448690314819e-01
               splits:
                  - { var:20, quality:6.6707036457955837e-03,
                      le:9.4681107997894287e-01 }
            -
               depth: 4
               value: 4.9480138065302470e-01
               splits:
                  - { var:43, quality:7.2982390411198139e-03,
                      le:3.4413790702819824e-01 }
            -
               depth: 5
               value: 5.6766514825169256e-01
            -
               depth: 5
               value: -3.3018863407507915e-01
            -
               depth: 4
               value: 8.9707231972736556e-02
               splits:
                  - { var:82, quality:2.8373291715979576e-03,
                      le:-3.3015048217773438e+02 }
            -
               depth: 5
               value: -3.3913478798563289e-02
            -
               depth: 5
               value: 3.3396181091647159e-01
            -
               depth: 3
               value: -2.1991357539984858e-02
               splits:
                  - { var:143, quality:2.5936514139175415e-03, not_in:[
                      2 ] }
            -
               depth: 4
               value: -6.8866883357403916e-02
               splits:
                  - { var:5, quality:3.5957712680101395e-02,
                      le:4.7989296913146973e-01 }
            -
               depth: 5
               value: 6.6328242150420158e-02
            -
               depth: 5
               value: -7.7357467269802527e-01
            -
               depth: 4
               value: 4.1385885212859588e-02
               splits:
                  - { var:14, quality:4.1444286704063416e-02,
                      le:1.5749475955963135e+00 }
            -
               depth: 5
               value: -1.7212123817593331e-01
            -
               depth: 5
               value: 7.6748467721840730e-01
            -
               depth: 1
               value: 5.2899182614685702e-01
               splits:
                  - { var:143, quality:1.6787048429250717e-02, not_in:[
                      0 ] }
            -
               depth: 2
               value: -2.7647198833150505e-01
               splits:
                  - { var:48, quality:8.4096090868115425e-03,
                      le:5.8146917819976807e-01 }
            -
               depth: 3
               value: -5.7564577324601141e+00
            -
               depth: 3
               value: 8.3680401625261247e-01
               splits:
                  - { var:24, quality:4.1366592049598694e-03,
                      le:-6.0645282745361328e+01 }
            -
               depth: 4
               value: 2.5372120952552386e+00
               splits:
                  - { var:143, quality:3.8617956452071667e-03, in:[ 1 ] }
            -
               depth: 5
               value: -5.7564577324601141e+00
            -
               depth: 5
               value: 5.7564577324623896e+00
            -
               depth: 4
               value: -7.7361504636289258e-01
               splits:
                  - { var:26, quality:5.7205033954232931e-04,
                      le:-6.3999389648437500e+01 }
            -
               depth: 5
               value: 4.9564082705445362e-03
            -
               depth: 5
               value: -5.7564577324601141e+00
            -
               depth: 2
               value: 2.8542380067321957e+00
               splits:
                  - { var:60, quality:1.6125634312629700e-02,
                      le:4.8230028152465820e-01 }
            -
               depth: 3
               value: -5.7564577324601141e+00
            -
               depth: 3
               value: 3.3446526332380437e+00
               splits:
                  - { var:59, quality:1.6118880361318588e-02,
                      le:5.2905838012695312e+01 }
            -
               depth: 4
               value: -5.7564577324601141e+00
            -
               depth: 4
               value: 3.5473851872921536e+00
               splits:
                  - { var:66, quality:1.6125559806823730e-02,
                      le:-1.5606548786163330e+00 }
            -
               depth: 5
               value: 3.6912262235179809e+00
            -
               depth: 5
               value: -5.7564577324601141e+00
      -
         nodes:
            -
               depth: 0
               value: -2.4728332024950232e-05
               splits:
                  - { var:14, quality:4.9306624568998814e-03,
                      le:1.5766862630844116e+00 }
            -
               depth: 1
               value: 3.3406661017388338e-02
               splits:
                  - { var:5, quality:9.9227065220475197e-03,
                      le:4.8011291027069092e-01 }
            -
               depth: 2
               value: 4.9194212508312614e-03
               splits:
                  - { var:143, quality:3.8746001664549112e-03, not_in:[
                      1 ] }
            -
               depth: 3
               value: -5.2046491211530745e-02
               splits:
                  - { var:111, quality:1.4668338932096958e-02,
                      le:4.6249099075794220e-02 }
            -
               depth: 4
               value: 5.6099710935671299e-01
               splits:
                  - { var:123, quality:1.1142441071569920e-02,
                      le:2.7175548553466797e+01 }
            -
               depth: 5
               value: 4.4998263983272468e-01
            -
               depth: 5
               value: 1.1346652311325076e+00
            -
               depth: 4
               value: -1.0396694453441767e-01
               splits:
                  - { var:78, quality:1.7488609999418259e-02,
                      le:2.4090499877929688e+00 }
            -
               depth: 5
               value: -5.9547343920329965e-01
            -
               depth: 5
               value: -3.2818117833730773e-02
            -
               depth: 3
               value: 9.4388110578917245e-02
               splits:
                  - { var:111, quality:1.8629752099514008e-02,
                      le:4.5768003910779953e-02 }
            -
               depth: 4
               value: -1.0080075510123829e+00
               splits:
                  - { var:65, quality:1.3025230728089809e-02,
                      le:8.7445467710494995e-02 }
            -
               depth: 5
               value: 1.4647783411612609e+00
            -
               depth: 5
               value: -1.1002495380827024e+00
            -
               depth: 4
               value: 1.5839612525819663e-01
               splits:
                  - { var:73, quality:2.1060708910226822e-02,
                      le:1.3330940902233124e-01 }
            -
               depth: 5
               value: 5.1684525974537188e-01
            -
               depth: 5
               value: -5.4424675779494456e-03
            -
               depth: 2
               value: 4.4967841348493370e-01
               splits:
                  - { var:143, quality:1.0202982462942600e-02, not_in:[
                      1 ] }
            -
               depth: 3
               value: 3.6989030034241915e-01
               splits:
                  - { var:111, quality:6.9078546948730946e-03,
                      le:5.1066711544990540e-02 }
            -
               depth: 4
               value: 7.1918069309839527e-01
               splits:
                  - { var:25, quality:8.2000857219099998e-03,
                      le:7.3770189285278320e+00 }
            -
               depth: 5
               value: 8.4805295112656565e-01
            -
               depth: 5
               value: -3.8925705384872178e-01
            -
               depth: 4
               value: -4.5671601823709773e-02
               splits:
                  - { var:79, quality:3.0556118581444025e-03,
                      le:4.0340495109558105e+00 }
            -
               depth: 5
               value: -8.0352041679611486e-01
            -
               depth: 5
               value: 3.8244302469581509e-01
            -
               depth: 3
               value: 5.5033679908492139e-01
               splits:
                  - { var:111, quality:1.1275407858192921e-02,
                      le:3.8756255060434341e-02 }
            -
               depth: 4
               value: -9.5340657226045400e-01
               splits:
                  - { var:25, quality:2.7916659601032734e-03,
                      le:8.2663021087646484e+00 }
            -
               depth: 5
               value: -5.7564577324601141e+00
            -
               depth: 5
               value: 5.7564577324623896e+00
            -
               depth: 4
               value: 7.7907392427105948e-01
               splits:
                  - { var:54, quality:1.2771641835570335e-02,
                      le:1.1575078964233398e+00 }
            -
               depth: 5
               value: -7.4641378974896955e-01
            -
               depth: 5
               value: 9.8478789802927480e-01
            -
               depth: 1
               value: -1.4865087788434458e-01
               splits:
                  - { var:143, quality:1.1075779795646667e-02, not_in:[
                      2 ] }
            -
               depth: 2
               value: -3.2999314448171141e-01
               splits:
                  - { var:24, quality:2.2115889936685562e-02,
                      le:-6.0322860717773438e+01 }
            -
               depth: 3
               value: -7.1718815098489286e-01
               splits:
                  - { var:44, quality:2.4841463193297386e-02,
                      le:2.0447606220841408e-02 }
            -
               depth: 4
               value: -4.5785177088626272e-01
               splits:
                  - { var:21, quality:8.7991645559668541e-03,
                      le:1.9708576202392578e+00 }
            -
               depth: 5
               value: -2.1774026072735661e-01
            -
               depth: 5
               value: -1.0504769840989965e+00
            -
               depth: 4
               value: -1.3661653489133254e+00
               splits:
                  - { var:59, quality:1.9520055502653122e-02,
                      le:3.0335302352905273e+01 }
            -
               depth: 5
               value: 1.0144401574897002e+00
            -
               depth: 5
               value: -1.4757559944546024e+00
            -
               depth: 3
               value: 5.2075036641433717e-02
               splits:
                  - { var:5, quality:3.6087518092244864e-03,
                      le:1.2153023481369019e+00 }
            -
               depth: 4
               value: 1.4833646336206455e-01
               splits:
                  - { var:94, quality:4.2653153650462627e-03,
                      le:-2.4702446535229683e-02 }
            -
               depth: 5
               value: -4.9850039276616248e-01
            -
               depth: 5
               value: 2.8835003448968416e-01
            -
               depth: 4
               value: -9.3762736260744550e-01
               splits:
                  - { var:93, quality:3.7488904781639576e-03,
                      le:5.8024178724735975e-04 }
            -
               depth: 5
               value: 7.7685729213685184e-01
            -
               depth: 5
               value: -1.3915508229932922e+00
            -
               depth: 2
               value: 7.6029958846625431e-02
               splits:
                  - { var:91, quality:1.2330502271652222e-02,
                      le:8.1789772957563400e-03 }
            -
               depth: 3
               value: -1.9334478088053267e-01
               splits:
                  - { var:72, quality:8.9227976277470589e-03,
                      le:9.0529117584228516e+00 }
            -
               depth: 4
               value: -3.7750284585499394e-01
               splits:
                  - { var:111, quality:9.9231777712702751e-03,
                      le:4.8033289611339569e-02 }
            -
               depth: 5
               value: 1.4903168465309857e-01
            -
               depth: 5
               value: -6.1339525145401108e-01
            -
               depth: 4
               value: 6.4314742048732243e-01
               splits:
                  - { var:48, quality:6.2075229361653328e-03,
                      le:2.5973063707351685e-01 }
            -
               depth: 5
               value: -6.2800666217957068e-01
            -
               depth: 5
               value: 1.2201976133466794e+00
            -
               depth: 3
               value: 7.4399730173631695e-01
               splits:
                  - { var:52, quality:1.3394662179052830e-02,
                      le:-2.0075174331665039e+01 }
            -
               depth: 4
               value: 1.5211762084094047e+00
               splits:
                  - { var:24, quality:1.3836950063705444e-02,
                      le:-5.7192962646484375e+01 }
            -
               depth: 5
               value: 1.8616243151407403e+00
            -
               depth: 5
               value: -4.1699409675328719e-01
            -
               depth: 4
               value: 2.1316868795819416e-01
               splits:
                  - { var:24, quality:3.1770959030836821e-03,
                      le:-6.0224815368652344e+01 }
            -
               depth: 5
               value: 5.9073952689015996e-01
            -
               depth: 5
               value: -7.1609004108503038e-01
      -
         nodes:
            -
               depth: 0
               value: -7.2521617089917072e-06
               splits:
                  - { var:111, quality:1.7406922997906804e-03,
                      le:1.7477154731750488e-01 }
            -
               depth: 1
               value: -9.9864105567346595e-03
               splits:
                  - { var:143, quality:3.1465864740312099e-03, in:[ 0 ] }
            -
               depth: 2
               value: -1.2040225212316101e-01
               splits:
                  - { var:2, quality:1.6718022525310516e-02,
                      le:9.6546523272991180e-02 }
            -
               depth: 3
               value: 5.1249590121235122e-01
               splits:
                  - { var:92, quality:1.3804795220494270e-02,
                      le:-1.3218489475548267e-03 }
            -
               depth: 4
               value: 7.5043532602126406e-01
               splits:
                  - { var:84, quality:1.3869328424334526e-02,
                      le:-3.7439526367187500e+02 }
            -
               depth: 5
               value: -8.1606162041660901e-01
            -
               depth: 5
               value: 8.5139265027183975e-01
            -
               depth: 4
               value: -9.1414730433328306e-01
               splits:
                  - { var:122, quality:3.5948250442743301e-03,
                      le:-6.6996517181396484e+00 }
            -
               depth: 5
               value: -5.7564577324601141e+00
            -
               depth: 5
               value: 7.8415343829165107e-01
            -
               depth: 3
               value: -2.4170341975847309e-01
               splits:
                  - { var:20, quality:3.0684260651469231e-02,
                      le:9.2887282371520996e-01 }
            -
               depth: 4
               value: 3.3569979292294155e-01
               splits:
                  - { var:92, quality:1.6496278345584869e-02,
                      le:-1.9412331748753786e-03 }
            -
               depth: 5
               value: -7.1688788105311951e-01
            -
               depth: 5
               value: 6.5758814339500749e-01
            -
               depth: 4
               value: -5.0408649261479332e-01
               splits:
                  - { var:104, quality:3.4860014915466309e-02,
                      le:5.9811837971210480e-02 }
            -
               depth: 5
               value: -1.5085650732653719e-01
            -
               depth: 5
               value: -8.9151988634574697e-01
            -
               depth: 2
               value: 1.9394844555913848e-02
               splits:
                  - { var:4, quality:9.6780871972441673e-03,
                      le:2.5544142723083496e-01 }
            -
               depth: 3
               value: -3.4514548178192478e-01
               splits:
                  - { var:92, quality:1.1306088417768478e-02,
                      le:-1.3218489475548267e-03 }
            -
               depth: 4
               value: -5.0480029220663691e-01
               splits:
                  - { var:6, quality:1.3239840976893902e-02,
                      le:-1.2014642357826233e-02 }
            -
               depth: 5
               value: -2.4940943523166684e-01
            -
               depth: 5
               value: -7.6083931209290723e-01
            -
               depth: 4
               value: 6.7773507345248951e-02
               splits:
                  - { var:143, quality:2.7422688435763121e-03, in:[ 2 ] }
            -
               depth: 5
               value: -3.5076250867805142e-01
            -
               depth: 5
               value: 4.8175385505030455e-01
            -
               depth: 3
               value: 5.5277792916305996e-02
               splits:
                  - { var:94, quality:6.3693774864077568e-03,
                      le:-4.7639518976211548e-02 }
            -
               depth: 4
               value: 1.8704109849573147e-01
               splits:
                  - { var:20, quality:8.8289799168705940e-03,
                      le:9.2513322830200195e-01 }
            -
               depth: 5
               value: -1.1551032155942145e-01
            -
               depth: 5
               value: 2.3353461741001202e-01
            -
               depth: 4
               value: 6.2082750465625378e-03
               splits:
                  - { var:120, quality:5.3892503492534161e-03,
                      le:-5.3664106130599976e-01 }
            -
               depth: 5
               value: 2.8577023609074728e-02
            -
               depth: 5
               value: -5.2618056238204969e-01
            -
               depth: 1
               value: 1.7623343940441275e-01
               splits:
                  - { var:143, quality:4.8237941227853298e-03, in:[ 2 ] }
            -
               depth: 2
               value: -2.4777689451686905e-01
               splits:
                  - { var:37, quality:5.6429514661431313e-03,
                      le:-1.3530482351779938e-01 }
            -
               depth: 3
               value: -7.4989057142856408e-01
               splits:
                  - { var:131, quality:6.8386481143534184e-03,
                      le:3.8687567710876465e+00 }
            -
               depth: 4
               value: 8.7399596344059849e-01
               splits:
                  - { var:54, quality:1.2255508918315172e-03,
                      le:2.2809007763862610e-01 }
            -
               depth: 5
               value: -5.7564577324601141e+00
            -
               depth: 5
               value: 1.5771917107363331e+00
            -
               depth: 4
               value: -1.3356119151497989e+00
               splits:
                  - { var:105, quality:7.0806727744638920e-03,
                      le:2.0862382650375366e-01 }
            -
               depth: 5
               value: -1.6821855054297705e+00
            -
               depth: 5
               value: 5.7564577324623896e+00
            -
               depth: 3
               value: 7.9454920699392462e-01
               splits:
                  - { var:103, quality:2.9813218861818314e-03,
                      le:1.0640110075473785e-01 }
            -
               depth: 4
               value: -5.7564577324601141e+00
            -
               depth: 4
               value: 1.1962721220836123e+00
               splits:
                  - { var:34, quality:3.5728754010051489e-03,
                      le:5.8184203226119280e-05 }
            -
               depth: 5
               value: -5.7564577324601141e+00
            -
               depth: 5
               value: 2.1867006145555843e+00
            -
               depth: 2
               value: 3.2626766998899470e-01
               splits:
                  - { var:8, quality:5.7997656986117363e-03,
                      le:-7.5223720073699951e-01 }
            -
               depth: 3
               value: 3.7810698342505678e-01
               splits:
                  - { var:143, quality:5.8042057789862156e-03, not_in:[
                      0 ] }
            -
               depth: 4
               value: 2.0659037273978650e-01
               splits:
                  - { var:83, quality:3.9233602583408356e-03,
                      le:2.6021972656250000e+01 }
            -
               depth: 5
               value: 3.7508312146736733e-01
            -
               depth: 5
               value: -5.7564577324601141e+00
            -
               depth: 4
               value: 5.3319174156034344e-01
               splits:
                  - { var:84, quality:8.1429788842797279e-03,
                      le:-4.9862332153320312e+02 }
            -
               depth: 5
               value: -1.4025550216668052e+00
            -
               depth: 5
               value: 6.8035849539418169e-01
            -
               depth: 3
               value: -7.6434551859699462e-01
               splits:
                  - { var:37, quality:1.2972339754924178e-03,
                      le:-7.5372681021690369e-02 }
            -
               depth: 4
               value: -5.7564577324601141e+00
            -
               depth: 4
               value: 1.6459289336177185e-01
               splits:
                  - { var:143, quality:5.6637637317180634e-04, in:[ 1 ] }
            -
               depth: 5
               value: -5.7564577324601141e+00
            -
               depth: 5
               value: 5.7564577324623896e+00
      -
         nodes:
            -
               depth: 0
               value: -2.4015735415823853e-05
               splits:
                  - { var:77, quality:6.1592333950102329e-03,
                      le:9.9575738906860352e+00 }
            -
               depth: 1
               value: -2.6215426840048083e-02
               splits:
                  - { var:143, quality:2.7578140143305063e-03, not_in:[
                      2 ] }
            -
               depth: 2
               value: -6.7439478874307957e-02
               splits:
                  - { var:99, quality:7.6125198975205421e-03,
                      le:8.5912982467561960e-04 }
            -
               depth: 3
               value: -4.2885786613620691e-01
               splits:
                  - { var:25, quality:1.1549204587936401e-02,
                      le:7.6995754241943359e+00 }
            -
               depth: 4
               value: -5.6832323887176894e-01
               splits:
                  - { var:68, quality:1.2914413586258888e-02,
                      le:1.0674917697906494e+00 }
            -
               depth: 5
               value: -6.7201917643025555e-01
            -
               depth: 5
               value: 5.7209396548272529e-01
            -
               depth: 4
               value: 6.8077440120572874e-01
               splits:
                  - { var:35, quality:2.4021540302783251e-03,
                      le:-4.7896511852741241e-02 }
            -
               depth: 5
               value: 9.3119041730612340e-01
            -
               depth: 5
               value: -5.7564577324601141e+00
            -
               depth: 3
               value: -3.7851631705443263e-02
               splits:
                  - { var:79, quality:6.1929994262754917e-03,
                      le:3.5496149063110352e+00 }
            -
               depth: 4
               value: 2.9910453755190325e-01
               splits:
                  - { var:104, quality:6.0069272294640541e-03,
                      le:3.2815869897603989e-02 }
            -
               depth: 5
               value: 6.5391794977655501e-02
            -
               depth: 5
               value: 5.4088576309864578e-01
            -
               depth: 4
               value: -7.2615301411677699e-02
               splits:
                  - { var:94, quality:7.5230696238577366e-03,
                      le:-1.0675182566046715e-02 }
            -
               depth: 5
               value: -5.2562525355107782e-02
            -
               depth: 5
               value: -8.1198833117320612e-01
            -
               depth: 2
               value: 3.1618007276301562e-02
               splits:
                  - { var:28, quality:1.0881716385483742e-02,
                      le:-6.4269439697265625e+01 }
            -
               depth: 3
               value: 3.7109638404336642e-01
               splits:
                  - { var:65, quality:1.3064826838672161e-02,
                      le:1.6483703255653381e-01 }
            -
               depth: 4
               value: 1.3905350746649309e-01
               splits:
                  - { var:8, quality:3.1510537955909967e-03,
                      le:-8.5841923952102661e-01 }
            -
               depth: 5
               value: 2.2070568246895908e-01
            -
               depth: 5
               value: -9.3136471667361020e-01
            -
               depth: 4
               value: 5.9646236520920493e-01
               splits:
                  - { var:67, quality:1.5052823349833488e-02,
                      le:3.3446288108825684e+00 }
            -
               depth: 5
               value: 6.6328327052723368e-01
            -
               depth: 5
               value: -1.1160310508588958e+00
            -
               depth: 3
               value: -5.5336120145511272e-02
               splits:
                  - { var:72, quality:6.2528681010007858e-03,
                      le:2.2237486839294434e+00 }
            -
               depth: 4
               value: -3.2239413685156815e-01
               splits:
                  - { var:67, quality:8.8793924078345299e-03,
                      le:4.1818857192993164e-01 }
            -
               depth: 5
               value: -4.3501620108084826e-01
            -
               depth: 5
               value: 1.1861454200191333e-01
            -
               depth: 4
               value: 1.5528152138535162e-02
               splits:
                  - { var:89, quality:4.2537399567663670e-03,
                      le:1.9453661516308784e-03 }
            -
               depth: 5
               value: 3.2425766205194928e-01
            -
               depth: 5
               value: -4.5522115942271464e-02
            -
               depth: 1
               value: 2.3967866266403756e-01
               splits:
                  - { var:143, quality:8.7599968537688255e-03, not_in:[
                      0 ] }
            -
               depth: 2
               value: 9.6212916698699080e-02
               splits:
                  - { var:53, quality:6.7337090149521828e-03,
                      le:-8.9504852294921875e+00 }
            -
               depth: 3
               value: 3.0965345109049414e-01
               splits:
                  - { var:26, quality:5.6445645168423653e-03,
                      le:-6.3994113922119141e+01 }
            -
               depth: 4
               value: 3.5470296252799499e-01
               splits:
                  - { var:89, quality:5.7301130145788193e-03,
                      le:1.6073986887931824e-02 }
            -
               depth: 5
               value: 3.0377901659306150e-01
            -
               depth: 5
               value: 1.0444434465626775e+00
            -
               depth: 4
               value: -7.7979130686957443e-01
               splits:
                  - { var:16, quality:1.1577323311939836e-03,
                      le:3.6346445083618164e+00 }
            -
               depth: 5
               value: -5.7564577324601141e+00
            -
               depth: 5
               value: -1.3181521112614752e-02
            -
               depth: 3
               value: -4.0818146486012546e-01
               splits:
                  - { var:20, quality:5.0565171986818314e-03,
                      le:9.6838599443435669e-01 }
            -
               depth: 4
               value: -1.1053973952508649e+00
               splits:
                  - { var:108, quality:5.4348176345229149e-03,
                      le:7.9338438808917999e-03 }
            -
               depth: 5
               value: -1.2789393036737065e+00
            -
               depth: 5
               value: 3.4321608531982328e-01
            -
               depth: 4
               value: -9.2020694991083785e-02
               splits:
                  - { var:20, quality:2.1631587296724319e-03,
                      le:9.8519426584243774e-01 }
            -
               depth: 5
               value: 2.2747600363263648e-01
            -
               depth: 5
               value: -8.6127063047354091e-01
            -
               depth: 2
               value: 5.0483350528330162e-01
               splits:
                  - { var:56, quality:1.4004951342940331e-02,
                      le:-8.8637237548828125e+00 }
            -
               depth: 3
               value: -1.6465822895149382e-01
               splits:
                  - { var:86, quality:5.2002044394612312e-03,
                      le:-3.7268261718750000e+02 }
            -
               depth: 4
               value: -8.1137064614567256e-01
               splits:
                  - { var:92, quality:4.6290787868201733e-03,
                      le:-1.4753383584320545e-03 }
            -
               depth: 5
               value: -2.4716527127996364e+00
            -
               depth: 5
               value: 5.9608235505159701e-02
            -
               depth: 4
               value: 9.8104640167196799e-01
               splits:
                  - { var:108, quality:3.3309962600469589e-03,
                      le:2.6877732016146183e-03 }
            -
               depth: 5
               value: 1.6875497850521555e+00
            -
               depth: 5
               value: -5.7564577324601141e+00
            -
               depth: 3
               value: 8.8968586603199962e-01
               splits:
                  - { var:78, quality:1.5429394319653511e-02,
                      le:7.4997215270996094e+00 }
            -
               depth: 4
               value: 1.0166549333948176e+00
               splits:
                  - { var:51, quality:1.6329567879438400e-02,
                      le:1.5581572428345680e-02 }
            -
               depth: 5
               value: 1.1394888093715354e+00
            -
               depth: 5
               value: -1.6705986734964212e-01
            -
               depth: 4
               value: -4.0836269211459358e-01
               splits:
                  - { var:48, quality:8.9558126637712121e-04,
                      le:2.0508146286010742e-01 }
            -
               depth: 5
               value: 1.0134161191158919e+00
            -
               depth: 5
               value: -1.2026278780802637e+00
      -
         nodes:
            -
               depth: 0
               value: -6.2097573550968665e-06
               splits:
                  - { var:28, quality:2.7564938645809889e-03,
                      le:-6.4280441284179688e+01 }
            -
               depth: 1
               value: -9.7709476412652110e-02
               splits:
                  - { var:143, quality:6.0164448805153370e-03, in:[ 1 ] }
            -
               depth: 2
               value: -2.6807518891841581e-01
               splits:
                  - { var:33, quality:9.0938936918973923e-03,
                      le:3.1538609415292740e-02 }
            -
               depth: 3
               value: 4.9108171740179896e-01
               splits:
                  - { var:25, quality:2.5854515843093395e-03,
                      le:4.3751072883605957e-01 }
            -
               depth: 4
               value: -5.7564577324601141e+00
            -
               depth: 4
               value: 7.3983307113190178e-01
               splits:
                  - { var:93, quality:2.5560404174029827e-03,
                      le:1.3331996742635965e-03 }
            -
               depth: 5
               value: -5.7564577324601141e+00
            -
               depth: 5
               value: 8.6502849276706817e-01
            -
               depth: 3
               value: -3.2157302816489219e-01
               splits:
                  - { var:83, quality:1.0920697823166847e-02,
                      le:9.0113754272460938e+00 }
            -
               depth: 4
               value: -4.9888889152720939e-01
               splits:
                  - { var:26, quality:1.2673314660787582e-02,
                      le:-6.5567977905273438e+01 }
            -
               depth: 5
               value: -5.8230087087836524e-01
            -
               depth: 5
               value: 1.3408037529958103e-01
            -
               depth: 4
               value: -6.8531427758347918e-02
               splits:
                  - { var:65, quality:2.4325638078153133e-03,
                      le:1.6871246695518494e-01 }
            -
               depth: 5
               value: 2.7791979158549956e-01
            -
               depth: 5
               value: -2.9089523342613710e-01
            -
               depth: 2
               value: 7.4040821567716531e-03
               splits:
                  - { var:24, quality:3.3420159015804529e-03,
                      le:-6.3758846282958984e+01 }
            -
               depth: 3
               value: 1.3358835838956240e-01
               splits:
                  - { var:47, quality:4.1763558983802795e-03,
                      le:1.5395903587341309e-01 }
            -
               depth: 4
               value: -8.4313076909453250e-02
               splits:
                  - { var:42, quality:2.5899941101670265e-03,
                      le:1.0848592221736908e-01 }
            -
               depth: 5
               value: -7.8784336100488372e-01
            -
               depth: 5
               value: 3.6341051864233642e-02
            -
               depth: 4
               value: 2.9017501957964481e-01
               splits:
                  - { var:42, quality:5.4181898012757301e-03,
                      le:1.8446874618530273e-01 }
            -
               depth: 5
               value: 3.3692644150577794e-01
            -
               depth: 5
               value: -4.5401299853287647e-01
            -
               depth: 3
               value: -1.8815410562544541e-01
               splits:
                  - { var:99, quality:4.9843057058751583e-03,
                      le:1.9871669355779886e-03 }
            -
               depth: 4
               value: 2.2979411855693246e-01
               splits:
                  - { var:23, quality:2.1442393772304058e-03,
                      le:-5.7347999572753906e+01 }
            -
               depth: 5
               value: 3.4690052619935302e-01
            -
               depth: 5
               value: -9.7801547191435168e-01
            -
               depth: 4
               value: -3.3804059562162370e-01
               splits:
                  - { var:65, quality:5.5922139436006546e-03,
                      le:5.9158587455749512e-01 }
            -
               depth: 5
               value: -3.9283471168162520e-01
            -
               depth: 5
               value: 3.6249484542966420e-01
            -
               depth: 1
               value: 2.8303992094796795e-02
               splits:
                  - { var:143, quality:3.5889467690140009e-03, not_in:[
                      1 ] }
            -
               depth: 2
               value: -2.4310180211784514e-02
               splits:
                  - { var:26, quality:6.2372656539082527e-03,
                      le:-6.3995418548583984e+01 }
            -
               depth: 3
               value: -1.0844496901753098e-01
               splits:
                  - { var:32, quality:8.9194662868976593e-03,
                      le:8.4109596908092499e-02 }
            -
               depth: 4
               value: -6.6582517380916431e-02
               splits:
                  - { var:50, quality:6.0616834089159966e-03,
                      le:9.7241216897964478e-01 }
            -
               depth: 5
               value: -1.1126310010037981e-01
            -
               depth: 5
               value: 3.5558342029142659e-01
            -
               depth: 4
               value: -6.2761488612168859e-01
               splits:
                  - { var:24, quality:1.3551739044487476e-02,
                      le:-6.0212455749511719e+01 }
            -
               depth: 5
               value: 3.4730488455760422e-01
            -
               depth: 5
               value: -1.1519614012800252e+00
            -
               depth: 3
               value: 1.3505400750360697e-01
               splits:
                  - { var:7, quality:5.9418496675789356e-03,
                      le:1.6759026050567627e-01 }
            -
               depth: 4
               value: 9.2588802695180175e-02
               splits:
                  - { var:59, quality:3.4608189016580582e-03,
                      le:1.8849225997924805e+01 }
            -
               depth: 5
               value: -6.2498087786222456e-01
            -
               depth: 5
               value: 1.1708374419640701e-01
            -
               depth: 4
               value: 7.1876255823905866e-01
               splits:
                  - { var:24, quality:5.6658466346561909e-03,
                      le:-5.6243415832519531e+01 }
            -
               depth: 5
               value: 8.1336606794408517e-01
            -
               depth: 5
               value: -9.8415925516396785e-01
            -
               depth: 2
               value: 1.0147749146662617e-01
               splits:
                  - { var:26, quality:8.3109503611922264e-03,
                      le:-6.4043106079101562e+01 }
            -
               depth: 3
               value: 1.8894925113762240e-01
               splits:
                  - { var:87, quality:1.2775584124028683e-02,
                      le:1.6203346848487854e-01 }
            -
               depth: 4
               value: -6.1541954466251225e-01
               splits:
                  - { var:48, quality:5.1278150640428066e-03,
                      le:1.0497174263000488e+00 }
            -
               depth: 5
               value: -9.9911638930292068e-01
            -
               depth: 5
               value: 8.5716054622969295e-01
            -
               depth: 4
               value: 2.2190824035119688e-01
               splits:
                  - { var:24, quality:1.4522021636366844e-02,
                      le:-6.0965705871582031e+01 }
            -
               depth: 5
               value: 7.4526843823577590e-02
            -
               depth: 5
               value: 3.8332844915076575e-01
            -
               depth: 3
               value: -7.8353490709790322e-02
               splits:
                  - { var:14, quality:7.4010607786476612e-03,
                      le:1.0153303146362305e+00 }
            -
               depth: 4
               value: 2.1431540018242098e-01
               splits:
                  - { var:54, quality:4.9343020655214787e-03,
                      le:5.3534698486328125e-01 }
            -
               depth: 5
               value: -5.0338850460940304e-02
            -
               depth: 5
               value: 4.8990846660260795e-01
            -
               depth: 4
               value: -3.1033114065698786e-01
               splits:
                  - { var:85, quality:1.0005673393607140e-02,
                      le:-2.2267669677734375e+02 }
            -
               depth: 5
               value: 1.9091995604139964e-01
            -
               depth: 5
               value: -4.9791981807536562e-01
      -
         nodes:
            -
               depth: 0
               value: -2.6917889877185255e-06
               splits:
                  - { var:76, quality:2.1766652353107929e-03,
                      le:1.3655052185058594e+01 }
            -
               depth: 1
               value: -4.7413492255424300e-03
               splits:
                  - { var:55, quality:1.6519854543730617e-03,
                      le:-8.5509719848632812e+00 }
            -
               depth: 2
               value: -9.6677658119281012e-03
               splits:
                  - { var:133, quality:1.5938375145196915e-03,
                      le:1.8382943725585938e+02 }
            -
               depth: 3
               value: -1.7235127284823803e-02
               splits:
                  - { var:24, quality:2.0400262437760830e-03,
                      le:-6.0854942321777344e+01 }
            -
               depth: 4
               value: 1.8753491793286104e-02
               splits:
                  - { var:143, quality:2.1906658075749874e-03, not_in:[
                      2 ] }
            -
               depth: 5
               value: -2.9302307165951766e-02
            -
               depth: 5
               value: 9.3721609352972579e-02
            -
               depth: 4
               value: -6.9371312039220562e-02
               splits:
                  - { var:143, quality:3.2120284158736467e-03, not_in:[
                      1 ] }
            -
               depth: 5
               value: -1.2178815004770481e-01
            -
               depth: 5
               value: -7.7681820669018914e-04
            -
               depth: 3
               value: 1.9643712342328101e-01
               splits:
                  - { var:143, quality:2.6108899619430304e-03, not_in:[
                      2 ] }
            -
               depth: 4
               value: -4.0518079479103641e-03
               splits:
                  - { var:23, quality:3.8241867441684008e-03,
                      le:-5.8281074523925781e+01 }
            -
               depth: 5
               value: -1.0429774459763947e+00
            -
               depth: 5
               value: 2.9458768757202214e-01
            -
               depth: 4
               value: 4.0158416357160376e-01
               splits:
                  - { var:25, quality:6.1438106931746006e-03,
                      le:7.0513253211975098e+00 }
            -
               depth: 5
               value: 9.1009986507929874e-01
            -
               depth: 5
               value: -2.0028984149923418e-01
            -
               depth: 2
               value: 3.4227276749635999e-01
               splits:
                  - { var:143, quality:2.6822602376341820e-03, in:[ 2 ] }
            -
               depth: 3
               value: -9.8856316996527138e-02
               splits:
                  - { var:55, quality:3.0264691449701786e-03,
                      le:-8.4761524200439453e+00 }
            -
               depth: 4
               value: 1.0144628703068790e+00
               splits:
                  - { var:124, quality:1.8009337363764644e-03,
                      le:4.6816787719726562e+00 }
            -
               depth: 5
               value: 1.6414355054218508e+00
            -
               depth: 5
               value: -5.7564577324601141e+00
            -
               depth: 4
               value: -1.4789365867644759e+00
               splits:
                  - { var:15, quality:2.1408896427601576e-03,
                      le:9.4500705599784851e-02 }
            -
               depth: 5
               value: 6.9925379957054679e-01
            -
               depth: 5
               value: -5.7564577324601141e+00
            -
               depth: 3
               value: 5.6510019205403017e-01
               splits:
                  - { var:46, quality:3.5596019588410854e-03,
                      le:2.5241404771804810e-01 }
            -
               depth: 4
               value: 6.5075663832475117e-01
               splits:
                  - { var:23, quality:3.7380189169198275e-03,
                      le:-6.3288368225097656e+01 }
            -
               depth: 5
               value: 4.1372328255849838e-01
            -
               depth: 5
               value: 1.4440238005038946e+00
            -
               depth: 4
               value: -3.1926760984668996e+00
               splits:
                  - { var:0, quality:3.8836471503600478e-04,
                      le:3.6500000000000000e+01 }
            -
               depth: 5
               value: -5.7564577324601141e+00
            -
               depth: 5
               value: 3.4054515342949476e+00
            -
               depth: 1
               value: 4.9647820990698532e-01
               splits:
                  - { var:26, quality:2.7478607371449471e-03,
                      le:-6.5823684692382812e+01 }
            -
               depth: 2
               value: 7.0465236797864084e-01
               splits:
                  - { var:37, quality:3.0654312577098608e-03,
                      le:-1.9705438613891602e-01 }
            -
               depth: 3
               value: 2.6006786615404626e-01
               splits:
                  - { var:143, quality:2.6594431255944073e-04, not_in:[
                      0 ] }
            -
               depth: 4
               value: 9.5357483707872226e-02
               splits:
                  - { var:55, quality:4.1163788409903646e-04,
                      le:-1.0881585121154785e+01 }
            -
               depth: 5
               value: 4.8364971040581184e-01
            -
               depth: 5
               value: -8.4083121881484557e-01
            -
               depth: 4
               value: 8.7452334105363483e-01
               splits:
                  - { var:12, quality:5.1080418052151799e-04,
                      le:5.0726151466369629e-01 }
            -
               depth: 5
               value: -5.7564577324601141e+00
            -
               depth: 5
               value: 5.7564577324623896e+00
            -
               depth: 3
               value: 9.3594918365049951e-01
               splits:
                  - { var:67, quality:3.1741061247885227e-03,
                      le:1.1578483581542969e+00 }
            -
               depth: 4
               value: 1.2377089838542404e-01
               splits:
                  - { var:143, quality:5.6564860278740525e-04, not_in:[
                      0 ] }
            -
               depth: 5
               value: -5.7564577324601141e+00
            -
               depth: 5
               value: 5.7564577324623896e+00
            -
               depth: 4
               value: 1.1092754563481420e+00
               splits:
                  - { var:28, quality:3.2216568943113089e-03,
                      le:-6.3533439636230469e+01 }
            -
               depth: 5
               value: 1.3117825242442707e+00
            -
               depth: 5
               value: 7.1813420615779366e-01
            -
               depth: 2
               value: 6.6657714229379522e-02
               splits:
                  - { var:72, quality:3.8238312117755413e-04,
                      le:1.1819476127624512e+01 }
            -
               depth: 3
               value: -4.8720674432519889e-01
               splits:
                  - { var:143, quality:2.1532500977627933e-04, not_in:[
                      1 ] }
            -
               depth: 4
               value: -6.9165263821932810e-01
               splits:
                  - { var:6, quality:3.0235562007874250e-04,
                      le:-1.0685570538043976e-01 }
            -
               depth: 5
               value: -5.7564577324601141e+00
            -
               depth: 5
               value: -7.1647311937738767e-02
            -
               depth: 4
               value: -2.5868306412146369e-01
               splits:
                  - { var:6, quality:3.9184244815260172e-04,
                      le:-1.0685570538043976e-01 }
            -
               depth: 5
               value: 5.7564577324623896e+00
            -
               depth: 5
               value: -5.7564577324601141e+00
            -
               depth: 3
               value: 3.3380712247516470e-01
               splits:
                  - { var:143, quality:6.7816005321219563e-04, in:[ 1 ] }
            -
               depth: 4
               value: -5.7564577324601141e+00
            -
               depth: 4
               value: 5.7301031077838060e-01
               splits:
                  - { var:12, quality:6.2501779757440090e-04,
                      le:5.7287532091140747e-01 }
            -
               depth: 5
               value: 1.6210079973549182e-01
            -
               depth: 5
               value: 1.2243389275680068e+00
      -
         nodes:
            -
               depth: 0
               value: -9.2324720633354438e-06
               splits:
                  - { var:111, quality:1.4169617788866162e-03,
                      le:4.6414554119110107e-02 }
            -
               depth: 1
               value: -1.1277689997795926e-01
               splits:
                  - { var:143, quality:6.4665400423109531e-03, not_in:[
                      0 ] }
            -
               depth: 2
               value: -2.3502408654527263e-01
               splits:
                  - { var:55, quality:1.4981006272137165e-02,
                      le:-1.4905965805053711e+01 }
            -
               depth: 3
               value: -1.6685576918203875e-02
               splits:
                  - { var:3, quality:4.3513998389244080e-03,
                      le:8.8218785822391510e-02 }
            -
               depth: 4
               value: -2.1722809781278234e+00
               splits:
                  - { var:8, quality:4.2263488285243511e-03,
                      le:-9.9785023927688599e-01 }
            -
               depth: 5
               value: -3.6189588142131107e-01
            -
               depth: 5
               value: -5.7564577324601141e+00
            -
               depth: 4
               value: 5.9725699189435009e-02
               splits:
                  - { var:43, quality:3.4567425027489662e-03,
                      le:5.2566444873809814e-01 }
            -
               depth: 5
               value: 4.8018093376726045e-01
            -
               depth: 5
               value: -9.4183967440791591e-02
            -
               depth: 3
               value: -1.3082522978589262e+00
               splits:
                  - { var:96, quality:1.6328718513250351e-02,
                      le:5.1045785658061504e-03 }
            -
               depth: 4
               value: -2.2007195623504177e+00
               splits:
                  - { var:108, quality:1.6745820641517639e-02,
                      le:3.0589196830987930e-03 }
            -
               depth: 5
               value: -5.7564577324601141e+00
            -
               depth: 5
               value: 6.0425651257564750e-01
            -
               depth: 4
               value: -2.6198595307823491e-01
               splits:
                  - { var:143, quality:1.6062458744272590e-03, in:[ 2 ] }
            -
               depth: 5
               value: -1.2781498735030463e+00
            -
               depth: 5
               value: 5.3979701933155744e-01
            -
               depth: 2
               value: 3.3331667666845538e-01
               splits:
                  - { var:55, quality:1.2881792150437832e-02,
                      le:-1.4905965805053711e+01 }
            -
               depth: 3
               value: -4.9499178559261281e-01
               splits:
                  - { var:5, quality:7.5010857544839382e-03,
                      le:2.4322262033820152e-02 }
            -
               depth: 4
               value: 1.3108363395926605e+00
               splits:
                  - { var:0, quality:2.3630186915397644e-03, le:14. }
            -
               depth: 5
               value: -5.7564577324601141e+00
            -
               depth: 5
               value: 5.7564577324623896e+00
            -
               depth: 4
               value: -1.3987729152034780e+00
               splits:
                  - { var:58, quality:7.2760228067636490e-03,
                      le:5.1230950927734375e+02 }
            -
               depth: 5
               value: -3.2088755336924266e+00
            -
               depth: 5
               value: 5.7564577324623896e+00
            -
               depth: 3
               value: 1.8448525945308245e+00
               splits:
                  - { var:111, quality:1.1371713131666183e-02,
                      le:4.5935120433568954e-02 }
            -
               depth: 4
               value: 2.1572352295967887e+00
               splits:
                  - { var:20, quality:1.1436509899795055e-02,
                      le:9.8552870750427246e-01 }
            -
               depth: 5
               value: 2.3687058349233907e+00
            -
               depth: 5
               value: -1.4792045172150941e+00
            -
               depth: 4
               value: -5.7564577324601141e+00
            -
               depth: 1
               value: 1.2609984988255114e-02
               splits:
                  - { var:143, quality:1.8660415662452579e-03, in:[ 0 ] }
            -
               depth: 2
               value: -8.1971849888077319e-02
               splits:
                  - { var:35, quality:7.6036169193685055e-03,
                      le:-2.8600539080798626e-03 }
            -
               depth: 3
               value: -2.2251933784721473e-01
               splits:
                  - { var:65, quality:1.5813827514648438e-02,
                      le:1.2213185429573059e-01 }
            -
               depth: 4
               value: -9.5735764020606728e-01
               splits:
                  - { var:16, quality:1.7408225685358047e-02,
                      le:1.8781962394714355e+00 }
            -
               depth: 5
               value: 4.4791326343955679e-01
            -
               depth: 5
               value: -1.0823232735244730e+00
            -
               depth: 4
               value: -3.4027756361420317e-02
               splits:
                  - { var:64, quality:9.3870470300316811e-03,
                      le:-1.1680667102336884e-01 }
            -
               depth: 5
               value: -1.6322321311330279e-01
            -
               depth: 5
               value: 1.3217270608082354e+00
            -
               depth: 3
               value: 2.2140749416357750e-01
               splits:
                  - { var:20, quality:6.6347704268991947e-03,
                      le:9.6259951591491699e-01 }
            -
               depth: 4
               value: 8.0955029979272786e-01
               splits:
                  - { var:42, quality:8.3127617835998535e-03,
                      le:8.2744002342224121e-02 }
            -
               depth: 5
               value: -4.9531866425207149e-01
            -
               depth: 5
               value: 1.0253150206001307e+00
            -
               depth: 4
               value: 2.8863251506017262e-02
               splits:
                  - { var:78, quality:3.6451024934649467e-03,
                      le:5.4213657379150391e+00 }
            -
               depth: 5
               value: -6.4962597202920269e-01
            -
               depth: 5
               value: 2.0261467442319581e-01
            -
               depth: 2
               value: 3.2926064465773501e-02
               splits:
                  - { var:87, quality:3.3701050560921431e-03,
                      le:1.4048793911933899e-01 }
            -
               depth: 3
               value: -8.1503715331234994e-01
               splits:
                  - { var:118, quality:3.7658538203686476e-03,
                      le:6.7331085205078125e+01 }
            -
               depth: 4
               value: -1.9099830813037564e+00
               splits:
                  - { var:1, quality:3.7374373059719801e-03, le:11. }
            -
               depth: 5
               value: -5.7564577324601141e+00
            -
               depth: 5
               value: -4.7477893340615740e-01
            -
               depth: 4
               value: 3.3060141379778818e-01
               splits:
                  - { var:143, quality:3.9032255881465971e-04, in:[ 2 ] }
            -
               depth: 5
               value: -3.0719963803324007e-01
            -
               depth: 5
               value: 8.8117974146037914e-01
            -
               depth: 3
               value: 3.7854916834737809e-02
               splits:
                  - { var:36, quality:3.6023589782416821e-03,
                      le:1.7087272135540843e-03 }
            -
               depth: 4
               value: -2.2384988732758246e-01
               splits:
                  - { var:28, quality:5.0639603286981583e-03,
                      le:-6.3560192108154297e+01 }
            -
               depth: 5
               value: -6.6990003338349938e-02
            -
               depth: 5
               value: -1.1304079215768292e+00
            -
               depth: 4
               value: 5.1336052253214901e-02
               splits:
                  - { var:20, quality:4.0811109356582165e-03,
                      le:8.8065743446350098e-01 }
            -
               depth: 5
               value: -3.2641473037688146e-01
            -
               depth: 5
               value: 6.0129584599564696e-02
      -
         nodes:
            -
               depth: 0
               value: -7.6487591130061392e-05
               splits:
                  - { var:87, quality:3.3154026605188847e-03,
                      le:1.5063431859016418e-01 }
            -
               depth: 1
               value: 4.7756109301291061e-01
               splits:
                  - { var:143, quality:5.4618255235254765e-03, not_in:[
                      0 ] }
            -
               depth: 2
               value: 1.7682239669183836e-01
               splits:
                  - { var:8, quality:1.7011441523209214e-03,
                      le:-1.4212670326232910e+00 }
            -
               depth: 3
               value: -9.2989255408795646e-01
               splits:
                  - { var:80, quality:8.7760662427172065e-04,
                      le:2.0490249991416931e-01 }
            -
               depth: 4
               value: -1.2630003648729291e+00
               splits:
                  - { var:0, quality:9.0425607049837708e-04, le:240. }
            -
               depth: 5
               value: -2.0496032533435273e+00
            -
               depth: 5
               value: -7.3812487148641659e-01
            -
               depth: 4
               value: -1.3567136362441193e-01
               splits:
                  - { var:143, quality:1.5972253459040076e-04, in:[ 1 ] }
            -
               depth: 5
               value: -5.7564577324601141e+00
            -
               depth: 5
               value: 6.8911291505263050e-01
            -
               depth: 3
               value: 3.2808856971885630e-01
               splits:
                  - { var:21, quality:1.3698206748813391e-03,
                      le:1.3129613399505615e+00 }
            -
               depth: 4
               value: -6.6850873795897980e-01
               splits:
                  - { var:28, quality:2.4049328931141645e-04,
                      le:-6.0896781921386719e+01 }
            -
               depth: 5
               value: -2.3795276460471840e-01
            -
               depth: 5
               value: -1.7923085953117297e+00
            -
               depth: 4
               value: 3.8820027847800698e-01
               splits:
                  - { var:143, quality:1.4845702098682523e-03, not_in:[
                      2 ] }
            -
               depth: 5
               value: 1.5793646872330713e-01
            -
               depth: 5
               value: 5.8401569342768811e-01
            -
               depth: 2
               value: 1.7342230267891181e+00
               splits:
                  - { var:69, quality:5.6558926589787006e-03,
                      le:3.7101171910762787e-02 }
            -
               depth: 3
               value: -1.9393810089996972e+00
               splits:
                  - { var:56, quality:1.4114216901361942e-04,
                      le:-1.2793860435485840e+01 }
            -
               depth: 4
               value: -5.7564577324601141e+00
            -
               depth: 4
               value: 5.7564577324623896e+00
            -
               depth: 3
               value: 2.5064229515839824e+00
               splits:
                  - { var:66, quality:5.5900085717439651e-03,
                      le:-1.9959349632263184e+00 }
            -
               depth: 4
               value: 2.7999898680502602e+00
               splits:
                  - { var:25, quality:5.6005422957241535e-03,
                      le:7.6286921501159668e+00 }
            -
               depth: 5
               value: 3.1003420512212601e+00
            -
               depth: 5
               value: -4.0013038297168957e-01
            -
               depth: 4
               value: -1.7687930001751104e+00
               splits:
                  - { var:62, quality:1.7046837456291541e-05,
                      le:2.1612586975097656e+00 }
            -
               depth: 5
               value: -3.2893717186070286e+00
            -
               depth: 5
               value: 5.7564577324623896e+00
            -
               depth: 1
               value: -7.5376114656491213e-03
               splits:
                  - { var:140, quality:1.9877336453646421e-03,
                      le:-3.2107046508789062e+02 }
            -
               depth: 2
               value: -1.0663976724075087e-02
               splits:
                  - { var:24, quality:1.4108852483332157e-03,
                      le:-6.3806339263916016e+01 }
            -
               depth: 3
               value: -9.7461773303571780e-02
               splits:
                  - { var:28, quality:2.4380448739975691e-03,
                      le:-6.5245849609375000e+01 }
            -
               depth: 4
               value: 1.1691529166665196e-01
               splits:
                  - { var:143, quality:1.0767069179564714e-03, in:[ 2 ] }
            -
               depth: 5
               value: -1.6276814811188325e-01
            -
               depth: 5
               value: 2.6931178569478376e-01
            -
               depth: 4
               value: -1.3108340593863194e-01
               splits:
                  - { var:28, quality:2.7695256285369396e-03,
                      le:-6.4166259765625000e+01 }
            -
               depth: 5
               value: -1.5777431930930683e-01
            -
               depth: 5
               value: 4.9533486788750504e-02
            -
               depth: 3
               value: 4.6906959292696837e-03
               splits:
                  - { var:118, quality:2.2964640520513058e-03,
                      le:2.6655793190002441e+00 }
            -
               depth: 4
               value: 2.2196032601778351e-01
               splits:
                  - { var:111, quality:3.7176297046244144e-03,
                      le:2.8993946313858032e-01 }
            -
               depth: 5
               value: 2.6989940710565963e-01
            -
               depth: 5
               value: -5.1641326626946671e-01
            -
               depth: 4
               value: -8.1372510301992839e-03
               splits:
                  - { var:60, quality:2.0021025557070971e-03,
                      le:5.6575608253479004e-01 }
            -
               depth: 5
               value: -5.6724319372779310e-02
            -
               depth: 5
               value: 4.3148954122974460e-02
            -
               depth: 2
               value: 7.2632996228477531e-01
               splits:
                  - { var:21, quality:2.0414292812347412e-03,
                      le:1.1596441268920898e+00 }
            -
               depth: 3
               value: 2.1458214955025753e-01
               splits:
                  - { var:143, quality:9.9700126156676561e-05, not_in:[
                      1 ] }
            -
               depth: 4
               value: -1.3799455362734961e-02
               splits:
                  - { var:7, quality:1.8884422024711967e-04,
                      le:7.9719470813870430e-03 }
            -
               depth: 5
               value: -1.4643574887936612e+00
            -
               depth: 5
               value: 4.4543504629797281e-01
            -
               depth: 4
               value: 6.2404890132410196e-01
               splits:
                  - { var:29, quality:3.2460791408084333e-04,
                      le:1.3675554990768433e+00 }
            -
               depth: 5
               value: -5.7564577324601141e+00
            -
               depth: 5
               value: 5.7564577324623896e+00
            -
               depth: 3
               value: 8.7433292072716606e-01
               splits:
                  - { var:20, quality:2.0707799121737480e-03,
                      le:9.5271116495132446e-01 }
            -
               depth: 4
               value: 1.5398453378308924e-01
               splits:
                  - { var:143, quality:2.0620845316443592e-04, not_in:[
                      0 ] }
            -
               depth: 5
               value: -5.7564577324601141e+00
            -
               depth: 5
               value: 5.7564577324623896e+00
            -
               depth: 4
               value: 9.3543099973858901e-01
               splits:
                  - { var:50, quality:2.1058958955109119e-03,
                      le:2.7324500679969788e-01 }
            -
               depth: 5
               value: 1.2326275495269972e+00
            -
               depth: 5
               value: 7.5627087863869147e-01
      -
         nodes:
            -
               depth: 0
               value: -1.1443398716953801e-07
               splits:
                  - { var:71, quality:1.3692824868485332e-03,
                      le:1.1654932796955109e-01 }
            -
               depth: 1
               value: 1.5995453841947632e-01
               splits:
                  - { var:25, quality:2.1226678509265184e-03,
                      le:7.7238674163818359e+00 }
            -
               depth: 2
               value: 1.9832144083661454e-01
               splits:
                  - { var:14, quality:2.1795528009533882e-03,
                      le:1.4597615003585815e+00 }
            -
               depth: 3
               value: 2.4872131350862933e-01
               splits:
                  - { var:20, quality:2.5728177279233932e-03,
                      le:9.0361064672470093e-01 }
            -
               depth: 4
               value: -6.5903180439292730e-01
               splits:
                  - { var:143, quality:4.1419835179112852e-04, not_in:[
                      0 ] }
            -
               depth: 5
               value: -1.1317218421701658e+00
            -
               depth: 5
               value: 1.9652798789892836e+00
            -
               depth: 4
               value: 2.6332890577480450e-01
               splits:
                  - { var:123, quality:2.6890865992754698e-03,
                      le:1.2319860076904297e+02 }
            -
               depth: 5
               value: 2.4781419017339240e-01
            -
               depth: 5
               value: 1.3051501468484243e+00
            -
               depth: 3
               value: 3.8349295065520352e-02
               splits:
                  - { var:101, quality:3.5520707024261355e-04,
                      le:2.0273838890716434e-04 }
            -
               depth: 4
               value: 8.7467909548025424e-01
               splits:
                  - { var:143, quality:4.3972843559458852e-04, in:[ 1 ] }
            -
               depth: 5
               value: 1.4919022614350802e-01
            -
               depth: 5
               value: 1.5741605771736515e+00
            -
               depth: 4
               value: -7.5800815661588436e-03
               splits:
                  - { var:24, quality:1.9757270638365299e-04,
                      le:-5.9723571777343750e+01 }
            -
               depth: 5
               value: 1.1743089773774887e-01
            -
               depth: 5
               value: -1.6145537612711397e-01
            -
               depth: 2
               value: -2.7795111820057256e-01
               splits:
                  - { var:8, quality:5.6600675452500582e-04,
                      le:-6.7265820503234863e-01 }
            -
               depth: 3
               value: -3.3386496013344508e-01
               splits:
                  - { var:143, quality:6.7550269886851311e-04, not_in:[
                      1 ] }
            -
               depth: 4
               value: -6.0117536731938603e-01
               splits:
                  - { var:130, quality:1.7533408245071769e-03,
                      le:1.7524097900390625e+03 }
            -
               depth: 5
               value: -4.4783480665346653e+00
            -
               depth: 5
               value: 4.9990727313281630e-01
            -
               depth: 4
               value: -1.0056672830708954e-02
               splits:
                  - { var:130, quality:1.3125172117725015e-03,
                      le:1.6987478027343750e+03 }
            -
               depth: 5
               value: 2.8262228921109314e+00
            -
               depth: 5
               value: -1.1564872648906290e+00
            -
               depth: 3
               value: 2.6450771496332197e+00
               splits:
                  - { var:143, quality:1.5968656225595623e-04, not_in:[
                      2 ] }
            -
               depth: 4
               value: -5.7564577324601141e+00
            -
               depth: 4
               value: 5.7564577324623896e+00
            -
               depth: 1
               value: -8.6336540472696406e-03
               splits:
                  - { var:42, quality:1.2995883589610457e-03,
                      le:1.8579319119453430e-01 }
            -
               depth: 2
               value: -2.2464238491643185e-02
               splits:
                  - { var:143, quality:2.2354861721396446e-03, not_in:[
                      2 ] }
            -
               depth: 3
               value: -6.2592474410863283e-02
               splits:
                  - { var:49, quality:5.3951833397150040e-03,
                      le:3.2525426149368286e-01 }
            -
               depth: 4
               value: -1.4893411628165475e-02
               splits:
                  - { var:96, quality:4.9858535639941692e-03,
                      le:5.3555173799395561e-03 }
            -
               depth: 5
               value: 1.9023119637996022e-01
            -
               depth: 5
               value: -8.1193902840141510e-02
            -
               depth: 4
               value: -2.2100774966158038e-01
               splits:
                  - { var:21, quality:9.1739483177661896e-03,
                      le:1.5889103412628174e+00 }
            -
               depth: 5
               value: 1.6638576369792216e-01
            -
               depth: 5
               value: -3.1759252939807270e-01
            -
               depth: 3
               value: 3.2493863926300555e-02
               splits:
                  - { var:31, quality:3.6953880917280912e-03,
                      le:3.6876879632472992e-02 }
            -
               depth: 4
               value: -1.0427981888452506e-01
               splits:
                  - { var:80, quality:4.2203022167086601e-03,
                      le:4.2988248169422150e-02 }
            -
               depth: 5
               value: 9.0022159451852116e-02
            -
               depth: 5
               value: -2.3682722931066302e-01
            -
               depth: 4
               value: 1.0286914045053897e-01
               splits:
                  - { var:24, quality:5.8876960538327694e-03,
                      le:-6.1560111999511719e+01 }
            -
               depth: 5
               value: 2.9490184034999961e-01
            -
               depth: 5
               value: 2.0693145208008336e-02
            -
               depth: 2
               value: 8.5287275195075424e-02
               splits:
                  - { var:131, quality:1.8249845597893000e-03,
                      le:3.8325216770172119e+00 }
            -
               depth: 3
               value: -7.9538308088661780e-01
               splits:
                  - { var:9, quality:9.2845089966431260e-04,
                      le:1.6412541299359873e-06 }
            -
               depth: 4
               value: -1.1194679819759310e+00
               splits:
                  - { var:143, quality:9.4695447478443384e-04, not_in:[
                      1 ] }
            -
               depth: 5
               value: -1.5342471382332989e+00
            -
               depth: 5
               value: -7.5778929054844335e-01
            -
               depth: 4
               value: 1.5667497726483257e-01
               splits:
                  - { var:143, quality:2.4846612359397113e-04, not_in:[
                      1 ] }
            -
               depth: 5
               value: -2.3034268470760049e+00
            -
               depth: 5
               value: 4.3337522554003129e+00
            -
               depth: 3
               value: 9.5724174575931659e-02
               splits:
                  - { var:78, quality:1.6780174337327480e-03,
                      le:2.7951555252075195e+00 }
            -
               depth: 4
               value: 2.6251467573117960e-02
               splits:
                  - { var:143, quality:1.7727839294821024e-03, in:[ 2 ] }
            -
               depth: 5
               value: -1.7003290393275741e-01
            -
               depth: 5
               value: 1.7501373314316915e-01
            -
               depth: 4
               value: 1.6699243177276560e-01
               splits:
                  - { var:43, quality:3.4263939596712589e-03,
                      le:4.7389894723892212e-01 }
            -
               depth: 5
               value: 1.1337159905397370e-01
            -
               depth: 5
               value: 9.3981794694478138e-01
      -
         nodes:
            -
               depth: 0
               value: 5.0990871592496277e-07
               splits:
                  - { var:78, quality:1.7503435956314206e-03,
                      le:2.3898322582244873e+00 }
            -
               depth: 1
               value: 8.5328570462820399e-02
               splits:
                  - { var:143, quality:3.7820274010300636e-03, in:[ 0 ] }
            -
               depth: 2
               value: -1.9247368135374294e+00
               splits:
                  - { var:67, quality:2.1547419019043446e-03,
                      le:6.4263257980346680e+00 }
            -
               depth: 3
               value: -5.7564577324601141e+00
            -
               depth: 3
               value: 5.7564577324623896e+00
            -
               depth: 2
               value: 9.7111008114861133e-02
               splits:
                  - { var:79, quality:3.1409212388098240e-03,
                      le:3.4990236759185791e+00 }
            -
               depth: 3
               value: 1.0176483615730543e-02
               splits:
                  - { var:143, quality:4.4715497642755508e-04, in:[ 2 ] }
            -
               depth: 4
               value: -6.0416656395567432e-02
               splits:
                  - { var:48, quality:2.6619019918143749e-03,
                      le:1.0341889858245850e+00 }
            -
               depth: 5
               value: 7.1191812290737996e-02
            -
               depth: 5
               value: -5.2526159633815539e-01
            -
               depth: 4
               value: 7.7390375782542667e-02
               splits:
                  - { var:48, quality:2.9953364282846451e-03,
                      le:1.0341889858245850e+00 }
            -
               depth: 5
               value: -5.2314919306150398e-02
            -
               depth: 5
               value: 5.7476246717260704e-01
            -
               depth: 3
               value: 1.7894377563331609e-01
               splits:
                  - { var:91, quality:3.6515714600682259e-03,
                      le:8.0919153988361359e-03 }
            -
               depth: 4
               value: 1.9270711770012719e-01
               splits:
                  - { var:89, quality:4.0081590414047241e-03,
                      le:2.0561481360346079e-03 }
            -
               depth: 5
               value: 1.2972548395627284e-01
            -
               depth: 5
               value: 2.8335097344193322e-01
            -
               depth: 4
               value: -2.1797353077652176e-01
               splits:
                  - { var:143, quality:4.2717147152870893e-04, in:[ 1 ] }
            -
               depth: 5
               value: -5.2612755496166819e-01
            -
               depth: 5
               value: 1.0003778832399933e-01
            -
               depth: 1
               value: -2.0565256292657871e-02
               splits:
                  - { var:31, quality:3.4814777318388224e-03,
                      le:3.6741260439157486e-02 }
            -
               depth: 2
               value: 4.8318229015552883e-02
               splits:
                  - { var:80, quality:1.7503575654700398e-03,
                      le:4.3671511113643646e-02 }
            -
               depth: 3
               value: -5.3334311468346005e-03
               splits:
                  - { var:20, quality:1.1637867428362370e-03,
                      le:8.9720284938812256e-01 }
            -
               depth: 4
               value: -7.8890472407634737e-01
               splits:
                  - { var:143, quality:2.6792895514518023e-03, not_in:[
                      0 ] }
            -
               depth: 5
               value: -5.7564577324601141e+00
            -
               depth: 5
               value: 5.7564577324623896e+00
            -
               depth: 4
               value: 5.2079503737083310e-03
               splits:
                  - { var:93, quality:7.4167957063764334e-04,
                      le:3.3951816149055958e-03 }
            -
               depth: 5
               value: 1.6611686852425391e-02
            -
               depth: 5
               value: -4.0550671946839750e-01
            -
               depth: 3
               value: 9.4882253949440498e-02
               splits:
                  - { var:51, quality:2.7442350983619690e-03,
                      le:3.7694321945309639e-03 }
            -
               depth: 4
               value: 1.7032184704623790e-01
               splits:
                  - { var:20, quality:3.8626349996775389e-03,
                      le:9.4890177249908447e-01 }
            -
               depth: 5
               value: 3.5526164529943988e-01
            -
               depth: 5
               value: 9.5996625347846518e-02
            -
               depth: 4
               value: 2.5506083401262206e-02
               splits:
                  - { var:143, quality:8.7818288011476398e-04, not_in:[
                      0 ] }
            -
               depth: 5
               value: -2.3933443165535650e-02
            -
               depth: 5
               value: 1.9064248535568490e-01
            -
               depth: 2
               value: -7.7362443631963707e-02
               splits:
                  - { var:143, quality:4.8496802337467670e-03, in:[ 0 ] }
            -
               depth: 3
               value: -2.7995505538979343e-01
               splits:
                  - { var:122, quality:9.3137044459581375e-03,
                      le:-5.9567077636718750e+01 }
            -
               depth: 4
               value: 1.8971398787548113e-01
               splits:
                  - { var:134, quality:4.4389716349542141e-03,
                      le:4.4950653076171875e+01 }
            -
               depth: 5
               value: -2.4283338428652348e+00
            -
               depth: 5
               value: 3.9693536663072093e-01
            -
               depth: 4
               value: -5.5797287021493058e-01
               splits:
                  - { var:20, quality:1.4113924466073513e-02,
                      le:8.9861476421356201e-01 }
            -
               depth: 5
               value: 3.1544634711306113e-01
            -
               depth: 5
               value: -8.7242944137249367e-01
            -
               depth: 3
               value: -5.1624922562993711e-02
               splits:
                  - { var:23, quality:2.8133061714470387e-03,
                      le:-5.6352546691894531e+01 }
            -
               depth: 4
               value: -6.3740371740053731e-02
               splits:
                  - { var:50, quality:3.0061348807066679e-03,
                      le:9.9987882375717163e-01 }
            -
               depth: 5
               value: -5.6085571376900747e-02
            -
               depth: 5
               value: -6.5292885058519201e-01
            -
               depth: 4
               value: 3.3661644455018214e-01
               splits:
                  - { var:86, quality:2.4282974191009998e-03,
                      le:-2.1336921691894531e+02 }
            -
               depth: 5
               value: 7.6425483864340138e-01
            -
               depth: 5
               value: 2.8320797769965201e-02
      -
         nodes:
            -
               depth: 0
               value: -1.2441972373543311e-05
               splits:
                  - { var:62, quality:1.2707202695310116e-03,
                      le:5.7145919799804688e+00 }
            -
               depth: 1
               value: -3.3626736359830584e-03
               splits:
                  - { var:56, quality:7.6574063859879971e-04,
                      le:-6.9876375198364258e+00 }
            -
               depth: 2
               value: -4.4044512382964644e-03
               splits:
                  - { var:72, quality:7.1164168184623122e-04,
                      le:9.5337867736816406e+00 }
            -
               depth: 3
               value: -9.7560091902182855e-04
               splits:
                  - { var:8, quality:6.6186446929350495e-04,
                      le:-3.8956737518310547e-01 }
            -
               depth: 4
               value: -3.6691207393296879e-03
               splits:
                  - { var:75, quality:5.4234405979514122e-04,
                      le:1.4450986862182617e+01 }
            -
               depth: 5
